-0.042752774551715694 -0.02009360000439314 0.02982277224036467 -0.04739169196672209 -0.057181759347683526 0.051004221984284594 -0.0033890666951514313 -0.079509434783738 -0.014916793916966141 -0.07473281612755203 0.04515899976058603 -0.043819963933860964 -0.047638218034618755 -0.012041596401746287 -0.13065639308305368 -0.022537718341589377 0.02523206944909925 -0.00644603026597124 -0.052145980370634074 -0.12225510759164666 -0.044947312581711 0.04109027282804484 0.03235838833155164 0.08473016456442674 -0.04006314889747191 -0.04430775932888366 0.06209484032547432 -0.003994814055505525 -0.08870357909468132 -0.008038689124848898 0.0008421735662522347 -0.0022072436336055394 0.03568683960258504 -0.012571487913575645 0.048797772129031525 -0.037287213785303475 0.068676607815867 -0.0710003712041594 -0.018123314405089033 0.09127530512067723 0.023250507412326784 0.025874869304788054 0.043843670241150275 0.0031375388509579712 0.04470721099383908 0.08843724427003465 -0.028012659444345615 0.039059949222333246 0.04456326942743983 0.046693818182216656 -0.13105615651206873 -0.07668412329992282 0.08189941099927577 0.09308991138262103 0.03150436936851005 -0.07465587420628662 0.07054774602042123 -0.06904501310311237 0.11286757764281544 -0.010792324977280892 0.016630949008481225 0.03131595269668619 -0.0454555288039795 -0.09138698179106933 -0.029857068121654597 0.01819302582831472 0.08559761169213445 -0.09361344646957463 -0.014273199210335161 0.0831650616057661 -0.10882943600645295 -0.05616628702216714 0.088452831913636 0.012325219396013252 -0.012840704979884375 -0.11417716372914707 0.09602987344962605 -0.040213060220877936 -0.08083947558144398 0.11087433387859087 -0.18184335661508672 0.12073014224947812 0.08543841264156418 -0.10688481073487006 -0.031996503643436154 0.02506215576417058 -0.1405630794245169 0.007922831239549072 -0.1352963615952705 -0.040088763232927385 0.011109028704391653 -0.01639294827972176 0.016879202994513797 -0.012936930205305784 -0.07841424901229106 -0.04823154751893485 -0.029869433318804754 0.007132608657681663 0.05120776080980937 -0.0016953599017260506 -0.04973358951164148 -0.03613625622098035 0.061350910499971954 -0.026390662565470447 -0.004414197573896302 0.09748189809689692 -0.05098930846981767 0.05103304612425896 -0.05348866563320022 0.04232412155050696 -0.06535869863382247 -0.03936698924142155 -0.007556959114505697 -0.046151125477363296 0.0876599085064017 -0.18002727899841478 0.14253542422983168 -0.009994976217320041 -0.10573592563047339 0.04162510363155814 0.10406639559530748 -0.010186306383836904 -0.0037602545370174953 -0.04672082429902051 -0.04106671971865503 -0.10510945565248359 -0.020802169338727618 -0.1218625744945287 0.0665300018459417 -0.03885808846168862 -0.0033426087349218317 0.030325736760596255 -0.1115855099990657 -0.019870277430906393 0.013046187653878856 0.06167201685006215 0.09941457779823869 0.05333723730321258 -0.047835953430365966 0.1615063815768427 0.0562467002108117 -0.19230623355547136 0.03180656785784974 -0.08241163733805767 -0.01292831812665524 -0.16037912930344408 0.012300090103210894 -0.01573637572706998 -0.12767071592539192 0.02795027847330591 -0.009464315950153993 0.014411131396509872 -0.021043119464606866 -0.04974741937618383 0.021758909380697168 0.06742075752772325 -0.004175244418480004 0.12804711197635218 0.07643515575230618 0.01163467680761499 -0.08562972886328446 -0.0906721098322557 -0.08977217642191654 0.010049490736655262 0.02893442860463563 0.1186490105486562 0.005205566249241079 0.1227832111082798 -0.011926517807755777 0.00471464719380256 -0.129542147289206 0.0658626456357948 0.04052054007183973 0.06681247356248124 -0.09629618345483161 0.05890249167352345 -0.09588872925810298 0.011901496176263933 0.030195364463231136 0.043730051479033895 0.13531902197420123 -0.0789178849353863 -0.09487731982075573 -0.017688425645626206 -0.008777263625174758 0.011709115269424678 -0.07746747084472523 -0.06806183895744074 0.010806463710944663 -0.12218336468969974 0.1276967341501943 -0.03015021312893922 -0.029475951471018665 0.12477773313938403 -0.005110999029679072 0.046691708947055655 -0.02957861841941117 0.03388589252405497 0.11147342955225846 -0.03097138618256659 0.061191100627183914 -0.003648183774203062 -0.02970711700618267 0.01580340601503849 0.011755154468119144 -0.03212108463048935 -0.07100395113229752 0.09277642518281937 -0.12383124232292175 0.10042911767959595 -0.05024272948503494 0.09000737965106964 0.01894506812095642 0.05466238781809807 -0.02198539860546589 0.0707802101969719 0.03335121273994446 -0.02296477183699608 0.05518713593482971 -0.03515222296118736 0.0538596510887146 -0.042422376573085785 -0.023537002503871918 0.053328048437833786 0.10455198585987091 0.002642425475642085 -0.029664907604455948 -0.019909799098968506 0.02753169648349285 0.10924963653087616 0.013852044008672237 0.02788567915558815 0.006502674426883459 0.018686605617403984 -0.022298693656921387 -0.01227949745953083 0.01551162451505661 -0.045320309698581696 0.04753071069717407 -0.0038629043847322464 0.14993157982826233 -0.014355691149830818 0.11447219550609589 -0.01263644453138113 0.13339336216449738 -0.14997784793376923 0.09369682520627975 0.004310462158173323 -0.012700378894805908 0.05037108063697815 0.01712493970990181 -0.03106105700135231 -0.00048676852020435035 -0.0011518941028043628 -0.0712960883975029 0.03213367983698845 -0.05815959721803665 0.08064475655555725 -0.05400492623448372 -0.02407454140484333 -0.15232683718204498 0.04159826040267944 -0.07494325935840607 0.008541942574083805 -0.06483287364244461 0.027693623676896095 0.06696297228336334 -0.011416979134082794 -0.08132163435220718 0.033959291875362396 -0.01762867160141468 -0.05050906166434288 0.02319074608385563 0.056283023208379745 -0.08741405606269836 -0.10491091758012772 -0.08628132939338684 0.040283724665641785 -0.031280502676963806 0.00814578402787447 -0.03781842812895775 0.07269254326820374 0.002778516849502921 -0.029105687513947487 -0.09544713795185089 0.00942334346473217 -0.09419254213571548 0.02699500322341919 0.024217596277594566 -0.07132631540298462 -0.056835100054740906 -0.0714256763458252 0.07882562279701233 0.01596079207956791 -0.08119874447584152 -0.21165485680103302 0.062253814190626144 0.012764732353389263 -0.04891222342848778 -0.046256422996520996 -0.03536552935838699 -0.043998751789331436 0.014584757387638092 -0.05035535618662834 -0.10701176524162292 -0.11350412666797638 -0.060814812779426575 -0.023967165499925613 0.12948182225227356 -0.1249236986041069 -0.05128849670290947 -0.0633498802781105 0.06481954455375671 0.0554775632917881 0.06456697732210159 0.05772847309708595 0.013311369344592094 0.005620210897177458 0.08809899538755417 -0.04824231564998627 0.10194414854049683 0.06638393551111221 -0.04773129150271416 -0.03574342280626297 0.0654299259185791 0.045659422874450684 -0.06534263491630554 -0.06251926720142365 -0.006236267741769552 0.09186425805091858 0.04308208078145981 -0.034876033663749695 -0.010015173815190792 -0.0669902041554451 0.0255722776055336 -0.09669271856546402 0.01217346079647541 0.04471495747566223 0.09289850294589996 0.03413945809006691 -0.09504439681768417 -0.003445869777351618 0.04291568323969841 -0.05172846466302872 -0.034721389412879944 0.060759805142879486 0.13080543279647827 -0.057921361178159714 -0.10787097364664078 -0.019017431885004044 -0.007162884343415499 -0.015351777896285057 -0.009952622465789318 -0.047898970544338226 -0.04735223948955536 -0.029191644862294197 0.012780215591192245 -0.03115067072212696 -0.05593318119645119 -0.003229220863431692 -0.04172996059060097 0.08553137630224228 0.04617801308631897 0.061608657240867615 -0.05602977052330971 -0.015016344375908375 0.15390637516975403 0.020724212750792503 -0.0818076953291893 0.09384229779243469 0.06590508669614792 0.1437048316001892 -0.06532657146453857 0.0691254734992981 0.1022922694683075 0.04899299144744873 -0.03833244368433952 -0.008529864251613617 -0.005722139962017536 0.09935340285301208 0.02827056311070919 0.043023135513067245 -0.025336522608995438 0.06783159077167511 -0.08853782713413239 0.031217269599437714 -0.03470982238650322 -0.0550062395632267 -0.08600550144910812 -0.007287923712283373 0.06978447735309601 0.01660582795739174 0.11655162274837494 0.005281824618577957 -0.035454995930194855 0.02802116796374321 0.028589800000190735 0.1287292242050171 0.009820853359997272 -0.02555331587791443 0.10300236195325851 -0.03173249214887619 -0.051272038370370865 0.046445582062006 -0.15804335474967957 0.05884553864598274 0.03941028565168381 0.0589836910367012 0.04836316779255867 -0.03807029500603676 0.01950724609196186 -0.03840853273868561 0.07544437795877457 0.09470213204622269 0.09900117665529251 0.07268558442592621 -0.0635312870144844 -0.04133560508489609 -0.010807345621287823 -0.03794146701693535 -0.09492015838623047 0.029930852353572845 0.0263419970870018 0.02769051119685173 0.1836310774087906 0.009407537057995796 -0.0005278423777781427 0.15472516417503357 -0.06217215955257416 -0.07728476822376251 0.02994159609079361 0.1409609317779541 -0.10480669885873795 -0.048152048140764236 0.05693724751472473 -0.10306905210018158 -0.01973980851471424 0.012903813272714615 -0.06943120062351227 0.042184554040431976 0.09466755390167236 -0.10665588825941086 0.023455141112208366 0.12024915963411331 0.004072561860084534 0.054884519428014755 -0.05707628279924393 0.14895780384540558 0.02209591679275036 0.10921085625886917 -0.04068123921751976 -0.006234631408005953 0.1048773005604744 -0.021865956485271454 -0.04273848235607147 0.08257923275232315 -0.03288928046822548 -0.06259605288505554 0.18148259818553925 -0.08334452658891678 -0.007600951474159956 -0.09848634898662567 0.14949534833431244 0.07336306571960449 -0.12902267277240753 -0.02229919843375683 0.08747349679470062 0.040013574063777924 0.05375196784734726 0.06642088294029236 0.04530782997608185 -0.02644304744899273 0.01617312990128994 0.03820541873574257 0.036567773669958115 0.03888041153550148 0.08886053413152695 -0.008201543241739273 0.054593902081251144 -0.025815168395638466 0.042700689285993576 0.03954261913895607 0.08921921253204346 0.02919396385550499 -0.06362639367580414 0.044807616621255875 -0.01022381242364645 0.031527262181043625 0.020985359326004982 -0.09238401800394058 -0.06306485831737518 -0.031193330883979797 0.0679999440908432 -0.030602136626839638 -0.08661533147096634 0.1069081649184227 -0.06739434599876404 -0.01088961772620678 -0.14813019335269928 0.04606058448553085 -0.07231773436069489 0.05260193720459938 -0.05575290322303772 0.04687964543700218 0.031430114060640335 -0.09253474324941635 0.0033808008302003145 -0.06462563574314117 0.02544066682457924 0.019504819065332413 -0.08297543227672577 -0.008205259218811989 -0.03178820013999939 -0.05034859478473663 0.07342131435871124 -0.09092609584331512 0.005428249016404152 0.0687599778175354 0.03802282363176346 -0.07888919860124588 0.027956731617450714 0.012668547220528126 -0.09511713683605194 -0.00971674919128418 -0.027248460799455643 0.002153999637812376 0.013746894896030426 0.027349820360541344 0.01698996126651764 -0.03896230086684227 0.04613393917679787 -0.07290453463792801 0.0070115658454597 0.028200184926390648 -0.014859695918858051 0.03806334361433983 0.05720629170536995 -0.030975205823779106 0.05053040385246277 0.01713218353688717 0.07249294221401215 0.03161335363984108 0.044630106538534164 0.01761866733431816 0.017513874918222427 -0.026691043749451637 0.030121689662337303 0.025324158370494843 -0.05505098029971123 0.04912734031677246 0.0022628474980592728 0.01762991026043892 0.07768925279378891 0.0794324204325676 0.055348336696624756 0.018596366047859192 0.06446830183267593 0.030575575307011604 0.002486911602318287 0.19546404480934143 -0.016639776527881622 0.051185242831707 0.012384270317852497 -0.05993400141596794 -0.007773036137223244 0.06736747175455093 -0.07718351483345032 -0.02230502851307392 -0.07743196189403534 -0.011917032301425934 -0.012524427846074104 -0.05912549048662186 0.05902869626879692 0.11277703940868378 -0.04390471428632736 0.06641918420791626 -0.07139196991920471 -0.04144778102636337 0.001779118087142706 -0.017018746584653854 0.02182694710791111 -0.04289727285504341 -0.06783238798379898 -0.01993527263402939 0.02831599861383438 0.047020427882671356 0.06630393117666245 0.07682140171527863 -0.00179543427657336 -0.04947151616215706 -0.12143060564994812 -0.050972744822502136 0.010594728402793407 0.015268269926309586 0.044698040932416916 -0.0035272277891635895 0.13464005291461945 -0.017547935247421265 -0.061908822506666183 0.0006246745469979942 0.10880540916217138 -0.07180139736996106 0.10282511260416624 -0.09550083017123345 -0.031087963805680602 0.04523450353100123 -0.0370093119049334 -0.1364528831849438 -0.03117589401592821 -0.0641205786754868 0.014338861306596515 -0.02502544974676054 0.03372174002306172 0.07114473185745718 -0.1092977374613857 -0.06079827988489194 -0.034207689104302136 -0.05206543992242832 0.01615206715585823 0.07113107246125695 0.023399351267183323 0.008200742308016217 -0.0312372567432318 0.005616545973693894 -0.07850768872324569 0.03711853775866573 0.01775229436058306 0.06331232722853342 -0.042137701779133764 -0.024810609556547084 0.07350764862664161 0.008726303244780057 -0.08595988263045554 -0.07100746977877698 0.09171091161229526 0.0013232759337587963 -0.045498695767912406 -0.06400931148809921 -0.10751678590444907 -0.0015603408647556168 -0.029483841558644624 -0.004506102644599564 0.004529295418963465 -0.1468780932750591 -0.019169289943221292 0.08490795765219074 -0.0034556579192555788 0.009554624353350409 0.02169867628866507 -0.09575429316404499 -0.033283953630532305 -0.013172703444664176 0.0064744612791248985 0.010844177465940633 0.011380991187323924 -0.009522110369725084 -0.09605192724448344 -0.06684814088629844 -0.011646637841223861 0.013665150013189296 -0.10881067575251556 0.03627563299909342 0.0776521616023037 0.009494317512101723 0.0633724553340315 0.09649308141140528 0.04748506543625209 -0.011774396019594714 0.0011962825166355834 0.013333277200680105 0.009505388687799127 0.04055929984354729 -0.029690331788270984 0.0860824308567322 0.1012295722707429 0.13499788569529392 -0.023487664911832528 0.05264920980683101 -0.044452100231960896 0.08631298220834166 -0.021725463644657363 -0.12013029259069177 0.06286064381792515 -0.05728671040252756 0.06581595109379859 0.07537135724297798 -0.05803681915591057 -0.08437688717625866 0.023878140465100624 -0.11801746912682388 0.07961211313814354 0.02749778421706072 0.08887871869315625 0.008122997213069416 -0.08594032772483712 0.02164618642087882 -0.05135612930392875 0.053806842536543706 -0.10407267263737598 -0.07533354940928354 -0.05907434571533234 -0.07064199717129564 0.04372423474276616 -0.03821255355481402 -0.050304844525394715 0.08100170782164112 0.07239971663648165 -0.08297542977587795 -0.05755581444167535 -0.03644837729385532 -0.059111966680702545 -0.07020075424832946 0.050695917917043636 -0.001393134134807378 -0.04715248626109528 -0.049123944420685975 0.040563404872038064 0.02931021123185438 0.11940106572493651 -0.05201983708750057 -0.05801433373020206 -0.05273812288327349 0.02925248056526141 0.10420400686614562 0.04468110482067597 -0.0010395905564531131 0.055778832814590416 -0.11444479065359109 -0.015014682695315546 -0.07781250922843082 0.03877540983920484 0.043714705560012494 -0.06948965928370361 0.09535973360090251 -0.002899930545745272 -0.013091105651386952 0.04560209808723534 0.020073077603991428 -0.10371600559031635 0.014954647092843604 0.040519370541671526 -0.032838274688154895 0.0037578556586285415 0.00805026928057111 -0.05060474253872286 -0.013356698574302713 -0.005824772604159317 0.024109048218718985 0.07611220037955346 0.10386243689089171 0.03495188086443918 0.04586868179981403 -0.0052455912501581095 0.05980651666758802 0.026316335408408623 0.0302691113760198 -0.0572865724449559 0.1245998360516012 -0.015105229125295053 -0.016976970819643906 0.12175052497362568 -0.007686751485799831 -0.08774277692776884 0.08060972844254465 0.04851545308782572 -0.017399003004390567 -0.16329845120652658 0.10589585725641235 0.05980741099187739 -0.07519570363553758 0.002848762225622726 -0.012651830995093007 0.02331618524479974 0.033052439223467546 -0.04078047436690129 -0.0545119431824382 -0.19790430200935555 -0.0035379028493102817 0.03598943955054635 -0.034996859334880295 -0.03314261896949045 0.0340104717931515 0.007726128994743847 -0.0223114736134773 -0.010877603413665187 -0.01856228860664071 -0.05568595325085671 -0.017544777846645238 0.0864857865529053 -0.09648613190388801 0.11178647637621299 -0.009329276893111452 -0.048076992604695515 -0.0382218408255104 -0.029808356190559417 -0.06073648457340331 -0.04200294572573063 0.011827106469040283 0.014892199480396846 -0.07520669850549346 -0.036375585943460464 -0.01545286551117897 -0.009368724189698696 -0.06884006410837173 -0.05123472213745117 -0.0024456640239804983 -0.07752665132284164 0.08873438090085983 0.07470127940177917 0.048572637140750885 0.0793260782957077 -0.059942811727523804 0.04003866761922836 0.03300849348306656 0.14701810479164124 -0.019101647660136223 0.05067839473485947 -0.009547379799187183 -0.053673893213272095 -0.030784746631979942 -0.04485323652625084 -0.11603973060846329 0.06450250744819641 0.00359286367893219 -0.031019985675811768 0.08572149276733398 0.03176311030983925 -0.00452231802046299 -0.012933279387652874 0.035208553075790405 -0.007858609780669212 0.05096026882529259 -0.11790212988853455 -0.030413426458835602 0.0824546292424202 0.06163061782717705 -0.021075934171676636 0.08258654177188873 -0.01788324862718582 -0.07060221582651138 -0.019029317423701286 0.044096119701862335 -0.003159494372084737 0.006550997029989958 0.023064736276865005 0.05320112779736519 0.0288197323679924 0.08716145157814026 -0.023724893108010292 -0.02627103589475155 -0.12390480190515518 0.009804870001971722 0.00021448139159474522 -0.11655303090810776 -0.10551506280899048 0.08814963698387146 0.034278642386198044 -0.016053909435868263 -0.006246582604944706 -0.08366136997938156 -0.06958478689193726 -0.00045001888065598905 0.10219864547252655 0.03324814885854721 0.020140299573540688 -0.03433135524392128 -0.0733771100640297 0.10108048468828201 0.03315084055066109 -0.0034744825679808855 0.010431453585624695 -0.06558486074209213 -0.13955214619636536 0.04984051734209061 -0.08716855198144913 0.04646294191479683 0.05672943592071533 0.016245877370238304 0.027877388522028923 -0.1299925148487091 -0.08335946500301361 0.010844150558114052 -0.007013536989688873 -0.07192401587963104 0.042291510850191116 -0.04061155766248703 -0.05736164003610611 0.06550224870443344 0.035201724618673325 -0.07936358451843262 -0.06703672558069229 0.015458702109754086 -0.06614965200424194 0.10601296275854111 0.013056540861725807 -0.04639342799782753 0.028289731591939926 0.06023897975683212 0.07254686206579208 0.020473666489124298 -0.025038892403244972 -0.0856524407863617 -0.03547447919845581 0.029254622757434845 -0.062116511166095734 -0.001560523291118443 0.10355668514966965 -0.013551468960940838 -0.07345203310251236 0.012300037778913975 0.015276167541742325 0.06319104880094528 0.032061271369457245 0.05370654910802841 0.007024748250842094 -0.008208305574953556 0.007122414652258158 -0.033323194831609726 0.13929039239883423 -0.00039331920561380684 -0.11943888664245605 0.08575975894927979 -0.04518948867917061 -0.01795479655265808 -0.02924228645861149 -0.007852368988096714 -0.028270112350583076 -0.17866839468479156 -0.06737641245126724 0.05597759038209915 -0.06447968631982803 0.0066628060303628445 0.2185942530632019 0.10145838558673859 -0.09617426246404648 -0.04921259358525276 -0.05822238698601723 0.030562864616513252 0.05990390479564667 0.0424247607588768 -0.01256524957716465 0.07498585432767868 0.162131205201149 -0.07201526314020157 -0.07782427966594696 0.09192968904972076 0.055986206978559494 0.07096484303474426 -0.05777318775653839 0.061882469803094864 -0.06483718752861023 -0.035883624106645584 -0.023796340450644493 0.013158698566257954 0.00498198950663209 0.10778968781232834 0.14658963680267334 -0.01739726960659027 0.035502150654792786 -0.023127255961298943 0.04660135880112648 -0.01500636711716652 -0.03162108361721039 0.08303086459636688 -0.07984413206577301 -0.10718388110399246 -0.01032082736492157 -0.045338377356529236 -0.05709114670753479 -0.0010253435466438532 -0.11715229600667953 0.03629383444786072 0.030244791880249977 0.01542834471911192 0.0460795983672142 2.0732104530907236e-05 -0.014331121928989887 0.015790941193699837 0.04029523953795433 0.09312989562749863 0.031144507229328156 0.04448340833187103 0.025719722732901573 -0.019555017352104187 0.06039966270327568 -0.08112896233797073 0.024374453350901604 0.027219420298933983 0.011387509293854237 0.020312882959842682 -0.1374383568763733 -0.009073596447706223 -0.07450416684150696 0.021622195839881897 0.006761083845049143 -0.016131490468978882 -0.03731468692421913 0.05490575358271599 -0.01713496632874012 0.07004306465387344 0.019572803485134967 0.07054037524766928 0.09248459162837272 0.03002476210308326 0.030198831539544828 -0.03496440416402444 0.036420613559183836 0.11009844736498524 -0.02317415410674302 -0.04335990420019952 0.007849064771869476 0.031248480853843446 0.0503965859943612 -0.0065207615023778805 0.02928529493168904 0.07375130446832308 -0.0530580312474032 -0.018124588383191146 -0.0069138686376111844 0.06374570668221961 0.043652496589664275 0.026715517271103578 0.06344662773978335 0.0023697690767103233 0.013404432728950063 0.06472428465895903 -0.02572528612645238 0.0223821943624847 -0.039198949560356515 -0.0025909707945809555 -0.07566839153798298 -0.08242980482268862 0.08699331240561979 0.22416521552796098 0.05983019140141645 -0.015538243586346269 0.0051917827219821995 0.010602768855003226 0.16712319993556862 -0.13683689363966775 -0.06956438789001035 -0.030970199009938172 0.0811444030088799 -0.02389356880059372 0.008430453622248906 0.05430350859326967 -0.08888856289651093 0.05782236045805947 0.031331718483352415 0.003436738861817456 0.08053924569698648 0.06699225040489079 -0.05508638195442077 0.01852544607282581 0.01829789820129345 0.04442871657659431 0.00921124849924238 0.048883365162641315 0.054169186183494505 0.006726906393603936 -0.08346175303625562 0.013745938066376088 -0.08054455738787288 0.007558252377022915 0.010260065668223031 -0.1090225002753517 0.031373510512553375 -0.05861409951638904 0.021868181793584757 -0.11849930319228907 -0.12415740592143315 -0.025095642856839264 -0.03355034700756171 -0.07237726505422878 0.04119995398848768 -0.02660511884979491 0.06485188137791302 0.05079887999881001 0.05018361806067114 -0.001197086836574051 -0.012478682552251987 0.00605691037051133 0.039072925764343173 0.04770139639965569 -0.1536486626137043 0.047442313722761434 0.07315245995105767 0.026580783803273805 -0.03487389890035063 -0.07420047476947429 0.04032580804441004 0.05872615879977246 -0.02805991715086429 0.003295996647095204 0.08998419035262085 -0.07095797184882247 -0.06502033551302779 0.15136497938125557 -0.02929775502244174 0.05977420323694891 -0.029786969016780063 -0.03492055535462786 0.09114955667070844 0.03594396303513118 -0.021482008690707453 0.029937110578150322 -0.0030342629846335893 -0.05637945014649647 -0.08587440594803461 -0.0493374795072267 0.10218035149076818 -0.033204086456350354 -0.09788177600739587 -0.09190883282866756 -0.03667740149644929 0.010628475207113247 -0.04547896635405114 0.13805799657228718 -0.12864327202963874 0.07429435003634198 -0.07447704755037586 -0.07657120875293032 -0.0018560334742681829 -0.012776359665603872 -0.18443759938172657 -0.03168293101824056 -0.09095242340518737 -0.15849767501253648 0.008734064157245276 -0.009655284546542481 -0.032540682201692005 -0.04488282061942855 -0.06690647233545916 -0.07325726486390781 -0.011745806775126195 0.05601823692232382 -0.04656684124693831 -0.014108193026536892 -0.0933526661410484 -0.06434000943624786 -0.04895296483325754 0.008828617216627564 -0.06655887134404913 0.08808842294604946 -0.048832646714211767 -0.021199871626493654 -0.09184706903317015 0.006554261190147927 0.03457443233896508 -0.016917368483703486 0.1200442805497058 0.03090742529760051 -0.0687327893655833 0.032887879342062915 -0.03195086048424305 -0.08260068105066529 0.010465433522374928 0.01832946487393965 -0.020869971419481822 -0.06046004629706666 0.06520424890668339 0.045371958819424414 0.010213375849162267 -0.07213004507926896 0.07313823764298255 0.005782596618654599 0.09319271661026639 0.12873849932043488 0.03678539914510716 -0.10567104147518598 -0.13736014413501624 -0.08215387941889739 -0.1479245323169489 -0.12522264336524064 0.06943674970475176 0.02538165221589722 0.011629065170456794 -0.0005868369917016161 0.0008672792795995732 -0.019628815182722872 0.03757500342248368 0.10169926545016415 -0.05500608760416678 0.04527113973554223 0.001125589407242929 -0.027504822359316564 -0.004073631514083696 0.039598362078631336 -0.0280907697080404 -0.037523537974592264 0.03774177900988668 -0.06479866336363338 0.01850813796978244 -0.003597983257026283 0.050772171492077946 0.045436902042151124 -0.03226925501840612 -0.0347755764798153 -0.10250134632210683 0.009346608346981799 -0.00422076927497983 -0.01692669652402401 0.04465872049331665 0.06888137012720108 -0.07008504867553711 0.06085492670536041 0.06876533478498459 -0.007340047974139452 0.05379481241106987 0.002237778389826417 0.05877862498164177 0.08300317823886871 0.0443534180521965 -0.04542609304189682 -0.12988197803497314 -0.058379244059324265 -0.05534486845135689 0.0014853286556899548 0.06265749782323837 0.010273230262100697 -0.09711065143346786 0.07956519722938538 -0.01741868257522583 0.020789440721273422 0.02895253896713257 -0.12377700954675674 -0.03176961839199066 0.07165928930044174 -0.051340457051992416 -0.021691611036658287 -0.043649911880493164 -0.01720561273396015 -0.14227738976478577 0.04870530217885971 -0.03537566214799881 0.019154176115989685 0.0887322798371315 -0.03917999193072319 -0.047760386019945145 -0.10447195917367935 0.0035818349570035934 -0.07044141739606857 -0.15899521112442017 -0.06969135999679565 0.08580872416496277 0.032072294503450394 -0.04444023221731186 -0.06270983815193176 -0.008335701189935207 0.027717646211385727 0.01005614921450615 0.083110511302948 -0.011606869287788868 0.04521477594971657 0.054223526269197464 0.11857536435127258 -0.09119134396314621 -0.044624652713537216 -0.1025923416018486 -0.10405688732862473 -0.041899699717760086 -0.0773797407746315 -0.06451402604579926 0.012595165520906448 -0.12239818274974823 -0.039739277213811874 0.04277785122394562 -0.06592348217964172 -0.035605598241090775 -0.009673133492469788 0.11558407545089722 -0.09253893047571182 -0.03839654102921486 -0.08677911013364792 0.010920812375843525 0.04304001107811928 -0.016786567866802216 0.09530655294656754 -0.05867958068847656 0.04468635469675064 -0.009577273391187191 -0.07343152165412903 -0.015467353165149689 0.09387391060590744 0.06472772359848022 0.07222960889339447 -0.11272000521421432 -0.030485937371850014 -0.03137434646487236 -0.04002875089645386 -0.02570817805826664 0.10496976971626282 -0.03605680167675018 -0.1201728880405426 0.06025414168834686 0.005464016459882259 0.026327768340706825 0.01701727695763111 0.050148528069257736 -0.0005171538796275854 0.08969075232744217 -0.003737812163308263 -0.05038332939147949 -0.02770794928073883 0.08441019803285599 -0.12859460711479187 0.015227128751575947 -0.06533053517341614 -0.060615651309490204 0.14440874755382538 0.01597517728805542 0.09137251228094101 -0.0018865769961848855 0.054438915103673935 0.10665611922740936 -0.06536681205034256 -0.02664322964847088 0.06149408593773842 0.009092937223613262 0.02996860258281231 0.0571734756231308 0.021027015522122383 0.1377793848514557 0.008499096147716045 -0.04437209293246269 0.015096313320100307 0.02560693956911564 -0.020930329337716103 0.0030480418354272842 0.05196337029337883 -0.02889460138976574 -0.11473505944013596 -0.08289685100317001 0.0037202215753495693 0.08019023388624191 0.10656353086233139 0.10338185727596283 0.03744617477059364 0.04937927797436714 -0.041590239852666855 0.013592492789030075 0.002012302167713642 0.0044429488480091095 -0.11637602746486664 0.008965297602117062 0.05203474685549736 0.041750844568014145 0.026273759081959724 0.06900518387556076 -0.021476540714502335 0.018497977405786514 -0.05191069841384888 0.08376298099756241 0.026492564007639885 0.03328888118267059 -0.018465902656316757 -0.006134107243269682 -0.027022141963243484 -0.07041851431131363 -0.061690229922533035 0.07347550243139267 -0.005396406166255474 0.03352387994527817 -0.06081182137131691 -0.04957092925906181 0.08636721968650818 -0.0196152962744236 -0.042352329939603806 -0.15689720213413239 0.019408443942666054 0.1124899610877037 0.03248756378889084 0.1295715868473053 0.04686514288187027 -0.05906747281551361 -0.009085959754884243 0.14403529465198517 0.003590990789234638 0.008295495994389057 0.006539660971611738 0.0037604114040732384 0.11024860292673111 0.135830819606781 -0.12860824167728424 0.031176524236798286 0.0818091556429863 -0.015618857927620411 0.13693322241306305 0.028300736099481583 -0.04764078930020332 0.004531295504420996 0.053423650562763214 0.020260518416762352 -0.15579868853092194 0.042834069579839706 0.06601308286190033 0.07864432781934738 -0.09378637373447418 0.005701509304344654 -0.035480864346027374 -0.006221916526556015 -0.020557131618261337 -0.06251944601535797 0.11534946411848068 -0.05338267609477043 0.11530252546072006 -0.06603711098432541 0.02032400108873844 -0.08826381713151932 -0.06866849213838577 0.04357394576072693 0.04894467070698738 0.06687120348215103 0.03884640708565712 -0.020762259140610695 -0.031788259744644165 -0.04897195100784302 0.11786971241235733 -4.4339689338812605e-05 0.07635002583265305 -0.032215408980846405 0.005416746251285076 0.06004618480801582 0.07888150960206985 -0.0015833930810913444 0.090763159096241 -0.016505761072039604 -0.06865742802619934 -0.04268709197640419 0.07781940698623657 -0.08213037252426147 -0.0338098406791687 -0.06589417159557343 0.06915781646966934 0.0033915031235665083 -0.07779449224472046 0.06094256043434143 0.01887483522295952 -0.06571760773658752 -0.013005164451897144 0.05162927135825157 0.013519691303372383 0.053371768444776535 0.025318190455436707 -0.0933246985077858 0.10623545944690704 0.043460339307785034 -0.018435921519994736 0.044974878430366516 -0.13609595596790314 -0.1329650729894638 0.03113406151533127 -0.07908293604850769 -0.08906830847263336 -0.0820271372795105 0.014076360501348972 -0.06758741289377213 0.0012982853222638369 -0.05885526165366173 -0.049439843744039536 -0.035682693123817444 0.09205597639083862 0.021579880267381668 -0.12562716007232666 0.13428466022014618 -0.09865175187587738 -0.029090670868754387 0.07144583016633987 0.09754188358783722 -0.026206044480204582 -0.015279514715075493 0.06844299286603928 -0.07046785205602646 0.0051415120251476765 0.08612123131752014 -0.16307824850082397 -0.05151844397187233 -0.06537516415119171 -0.119622141122818 0.032038599252700806 0.010722149163484573 0.029786886647343636 -0.03617697209119797 0.12283781915903091 0.016117123886942863 0.06658818572759628 -0.03577936068177223 0.06486723572015762 -0.027053283527493477 0.1118558719754219 0.02866552770137787 -0.020197289064526558 0.04428333789110184 0.06136848032474518 0.003957066219300032 -0.02339920774102211 -0.03313421458005905 -0.03860550373792648 0.026165993884205818 0.007809939328581095 0.02698330022394657 0.12441546469926834 -0.01051139272749424 0.025962285697460175 0.08994405716657639 -0.15006785094738007 -0.08615818619728088 -0.005555701442062855 -0.07896576076745987 0.004616004414856434 0.0699896439909935 -0.019664820283651352 0.04416332393884659 0.04049023240804672 -0.03602266684174538 0.03733978047966957 -0.05074549466371536 -0.029306096956133842 -0.0032543668057769537 -0.06949450075626373 -0.0159364715218544 0.10275793820619583 -0.004323950968682766 0.042085591703653336 0.05256572365760803 0.015697333961725235 0.03522409498691559 -0.02026275172829628 0.026648087427020073 0.047905050218105316 0.024745166301727295 -0.026022374629974365 -0.023168081417679787 0.0996038094162941 -0.08905120193958282 -0.06755884736776352 0.02210633084177971 0.027707887813448906 0.06511781364679337 0.06597205251455307 0.011666418053209782 -0.08681432902812958 0.035791847854852676 -0.018715472891926765 -0.05027312412858009 0.019759248942136765 -0.0557691752910614 -0.0931994691491127 -0.07399041950702667 -0.04445900395512581 -0.048533204942941666 0.10966449230909348 -0.042629171162843704 -0.07542452216148376 -0.0617494061589241 -0.07846038043498993 -0.011247794143855572 0.027250876650214195 -0.030433615669608116 0.08723586052656174 0.03788388520479202 0.05135118588805199 0.02732553705573082 0.04925515502691269 -0.10527285933494568 0.04606203734874725 0.027746714651584625 -0.07191060483455658 0.030725447461009026 -0.10115689784288406 -0.0415969118475914 0.1676129698753357 0.0860343798995018 -0.018646832555532455 0.028158819302916527 -0.04628203809261322 -0.007261313032358885 -0.06597736477851868 0.006826023571193218 -0.04661167040467262 0.005717714317142963 -0.058929264545440674 -0.0594935342669487 0.10267269611358643 -0.12129825353622437 -0.05439787358045578 -0.17344088852405548 -0.018163196742534637 -0.03630691394209862 -0.01643281988799572 -0.14049667119979858 0.08630573749542236 0.0573747381567955 -0.010022836737334728 0.08982542902231216 -0.08889257907867432 -0.12641207873821259 -0.0022774164099246264 -0.018625222146511078 0.06923086941242218 0.07454016818404566 -0.028845931942155307 -0.10526497243675026 0.07868538956971613 0.03234929945081164 -0.025597816333339417 -0.02447316253717333 0.08178584481643705 -0.05322076107487586 0.039082796760447465 0.0154829652980088 0.0006556311688532224 -0.03835635320575667 -0.0013624495030094763 0.10984428956282966 -0.022102144116034325 -0.058611985348355225 0.11870183516698474 0.034206335602864506 0.06165980433515598 -0.05714491791048645 0.06681605713027731 -0.05716022715570694 -0.12757158399501214 -0.1712475573351772 -0.07930698538854947 -0.04394770289278427 0.03854660877962756 0.015396367180800645 0.029092910707055067 0.017359212799583162 0.02660809005405009 0.01845054890104279 0.04096296787660953 -0.016260897765806283 -0.03492600930417958 -0.023840295897937895 -0.05889846000850218 -0.0806886237293879 0.08700902468429847 -0.09340031705982305 -0.057601974671266744 -0.059689185933602125 0.07788739647901531 -0.03747397186761548 0.05866571126680741 0.0547024442685528 0.07035327700846611 0.049683426367610875 0.12937582112269966 0.011777768392803204 -0.08175899113122997 -0.028730011009455343 -0.025634706141192315 -0.03881649788219564 0.11318051166834964 -0.002145200139588401 0.0487683301607137 -0.05139093245770132 -0.018867986417116848 -0.02547242275718676 -0.07557823206087778 -0.14278688207048157 0.02817624605109931 0.002613556925011754 -0.04708078030649447 -0.029190139538010168 -0.020853176631617037 0.005960912901399364 -0.0796775633523554 -0.016866112444284948 0.007903749402017433 -0.018495234957477347 -0.14785944701774595 0.09975261979917066 -0.013095558344066362 0.010183125826075981 -0.02478049351099651 0.036573374649035026 0.04600533345845421 -0.045226715892954995 0.006147649837135093 0.02210996492655601 -0.08401564879978808 -0.051524964658143164 0.01682337395217755 0.023838506907123705 -0.01036004291605576 0.015519718802048207 0.03271029906061635 -0.03335005089551563 -0.07167820724600033 0.03127332263647802 -0.03356189823907916 0.026833318889915646 -0.004329637886139566 -0.01871546416875571 -0.049819494344730014 0.14082348611868228 0.0620374734253134 0.037880824261845025 0.09908501661247143 0.01942250292357479 -0.05745029031443392 0.03384394833215245 0.10679623762855206 -0.008106091942913514 -0.0015650455058974903 -0.02440379240040655 0.005533524825117563 -0.05105010610713191 -0.0041569397912148125 -0.03525369977475182 0.07221401968022974 -0.0230824801549615 0.030205937021589795 -0.013903084545106135 0.08615460279211935 0.012852566462824911 0.024938371570387065 -0.06546325053524014 0.044903591798619955 -0.018012470855894098 0.156739277279126 0.01902509564772957 -0.10188726573198639 0.0015148919747545802 -0.010991974825685976 0.00993579275529998 0.0028070219177642286 -0.04117845698222083 -0.048185005096821616 -0.10281295201200942 0.07292540025568446 0.09959289420032791 -0.011069125086796996 0.08863341066578448 -0.018694365125438595 0.11048355606884588 -0.028398471599581608 -0.07537916281838375 -0.07889611863876134 0.009760376049538637 -0.02643548269057404 0.06607898102843546 0.09437375921697476 0.05726863483706997 0.0867345486224357 0.005239545899905152 0.012259948921507724 -0.02718051881886878 -0.0549795322091762 -0.01716914236583146 -0.05614702909839872 0.015239782695587747 -0.009181209667818626 -0.010704365308385816 0.10745700833522882 0.03369161269311571 0.11918679437807335 -0.03836962458953965 0.0731312203521588 -0.05447636085782109 -0.089560901201293 0.027754278693609604 0.09852545828987078 -0.0019466720708039324 0.007195764714805194 -0.03729440307690462 -0.0899257562755227 0.07536763994486607 -0.03684346186695867 -0.019222474598070173 -0.06505607580527109 0.007802998003325213 -0.0934816639065191 0.14470750076935987 -0.001633320541906802 -0.13379169842633967 0.03282301293192798 -0.09853592654866802 -0.05971080155376655 -0.1784179895797181 -0.019133449726973638 0.00034474057388953275 -0.04009953583559622 -0.11401427132757477 0.0011486997712548879 -0.007853159626807266 0.05123338759405467 0.04576238087171246 0.08033996337555746 -0.05324969138535875 0.05774368444198767 -0.05450854332239555 -0.03163277425482352 0.10120201413585553 0.01920231862937415 -0.07270055944742897 0.07323954256349147 0.043507982045412064 0.056842461228370667 0.08559947460889816 0.11226213723421097 -0.05606592819094658 0.008854632265865803 -0.008624330163002014 -0.05905016511678696 -0.002067405031993985 0.027587726712226868 -0.0029185886960476637 0.0656043142080307 0.008312332443892956 0.0007154485210776329 -0.029701432213187218 -0.00691771786659956 0.020661329850554466 0.04238447546958923 0.0285801962018013 0.029048509895801544 0.108195461332798 -0.027651112526655197 -0.04160254821181297 -0.08812529593706131 0.008584845811128616 0.051970142871141434 0.0626361221075058 -0.06489226222038269 -0.11435740441083908 0.03774932026863098 -0.02376842126250267 0.03894018009305 0.048752401024103165 -0.09193374961614609 -0.018294669687747955 0.08041806519031525 -0.0020104763098061085 0.06135799363255501 0.10879047960042953 0.029615603387355804 -0.010729460045695305 -0.15718194842338562 -0.02166053093969822 -0.09142940491437912 -0.12350722402334213 0.006500883959233761 -0.0010556160705164075 0.06246739625930786 -0.008403860963881016 -0.013768707402050495 -0.022365666925907135 -0.08047185093164444 -0.03539688512682915 0.012466075830161572 0.05253930762410164 -0.054017383605241776 0.06141416355967522 0.22147946059703827 0.05668045952916145 0.10480405390262604 -0.1814107894897461 0.07038366049528122 -0.0038127745501697063 -0.07996635884046555 -0.04458044841885567 -0.015210125595331192 -0.04780169576406479 -0.027294211089611053 -0.040514908730983734 -0.07382390648126602 -0.14359672367572784 -0.027257483452558517 0.06280199438333511 0.0863640084862709 -0.029530543833971024 0.0025237305089831352 -0.1290513426065445 -0.0779166966676712 -0.05202087387442589 0.1007385328412056 -0.016669275239109993 0.09547848254442215 0.041914742439985275 -0.025698408484458923 0.11227957159280777 0.03190550208091736 -0.01747516356408596 0.09843820333480835 0.03749437630176544 0.06556586921215057 -0.0737520083785057 0.002769519342109561 -0.08048565685749054 -0.026397913694381714 -0.03446006402373314 -0.1110897809267044 0.09560607373714447 -0.02859654277563095 -0.03944510221481323 0.06995716691017151 -0.07529883831739426 -0.021581262350082397 -0.09877276420593262 -0.046742696315050125 -0.01992943324148655 0.003931494429707527 -0.02571295015513897 -0.007353704422712326 -0.011975077912211418 0.036105237901210785 0.14563052356243134 0.1963549256324768 0.015704305842518806 -0.10731358081102371 0.016489744186401367 -0.06995543092489243 -0.025654233992099762 -0.03423944115638733 0.08301007002592087 -0.008210556581616402 0.07550082355737686 -0.002875097095966339 0.03270087018609047 0.04421969875693321 0.011974033899605274 -0.027751293033361435 -0.08416624367237091 0.07196670025587082 0.08666463941335678 -0.11278825253248215 0.030007382854819298 0.07452371716499329 0.010736355558037758 -0.02367832139134407 -0.12942032516002655 -0.026445476338267326 -0.013605320826172829 -0.00019714501104317605 0.07763788104057312 -0.005356862209737301 -0.04492908716201782 -0.11579615622758865 0.1100950688123703 0.04793258756399155 0.11608774960041046 -0.1248219907283783 0.15338508784770966 -0.014052970334887505 -0.00010652463970473036 -0.05396966263651848 0.034227896481752396 -0.04358244687318802 -0.001928210142068565 0.0369621217250824 -0.011512204073369503 0.0043715862557291985 -0.12164736539125443 -0.11901017278432846 -0.038695964962244034 -0.09899633377790451 -0.047385167330503464 -0.014508355408906937 -0.10990474373102188 -0.11143683642148972 -0.06744962185621262 -0.024655131623148918 0.06857512891292572 -0.10185417532920837 0.04252839460968971 0.045348744839429855 0.019168367609381676 0.05763754993677139 -0.10368060320615768 -0.07433025538921356 -0.10251332819461823 0.04617152735590935 0.009314898401498795 0.11497239768505096 -0.0686488151550293 0.12044898420572281 0.015363826416432858 0.08711916208267212 -0.03404849395155907 -0.048424091190099716 -0.062082014977931976 0.04561692476272583 0.02000276744365692 0.08310394734144211 -0.0026701593305915594 -0.019222768023610115 -0.02938663400709629 -0.05183083191514015 -0.10085298866033554 -0.01626221276819706 -0.08776538819074631 0.009240426123142242 0.1339581459760666 -0.011945605278015137 -0.02362040802836418 0.030538057908415794 0.002753444453390827 -0.015442832040027926 -0.017512041644700264 -0.01944417747349054 0.03555278843335283 -0.0860485293977207 0.026526027218402016 0.04192017570635952 0.036122788977080565 0.05982519282182221 -0.015460791868871641 0.12150728232353288 0.036415752769044483 -0.07067156725789644 -0.0017250844564436643 -0.03402898806450297 -0.024204234334215965 -0.07691154892897313 -0.021434602907103206 -0.0011612793178583788 -0.030462899024480888 0.005731017479660411 0.14748285910301157 0.08097574926932934 0.09946170401576827 -0.06995042906785502 -0.04037561821324438 -0.19299386315857892 0.051641045238786265 0.017066027254488025 -0.11879465739537708 -0.04943552694741181 0.08405969737537558 -0.07210872836299884 0.05780648307834387 -0.01585863360522014 -0.0511379977408555 0.003741012969336261 -0.0018538526173994868 0.09533617758961464 0.004705298966435817 -0.04794182328725404 -0.05063553748237908 0.025867168583817282 -0.035284740771779025 0.06700611406085331 -0.053091982921519745 0.0143244244865074 0.041851897280907116 -0.06337568423022912 -0.04122664387653406 -0.010475398069053544 -0.14535891804418846 0.08397031444467558 0.022429136289531384 -0.0242957490254656 0.07192715203354952 -0.07299021490157846 0.0882179484559675 0.033473464008952736 -0.12131459311935683 -0.023232438853917764 0.02502245927747197 0.003540689628525367 0.06191537079594424 -0.0282963113014466 0.15086989119947164 -0.01805472509295786 0.038087128630883184 0.0876848884302911 -0.023083216763166572 -0.1025713730810335 -0.08917868527936565 0.07617310314084458 -0.09529862988750952 0.05607159712983742 -0.02084284530326493 -0.016836848119880392 -0.02254640484334419 -0.02117629912968618 -0.022318745216153815 -0.01881500492362982 0.006424433845122215 -0.015586291535302815 0.07166718196538259 -0.06591341285777369 -0.11133993689678108 -0.0564253410931452 -0.08122564815181056 0.04985151287146612 0.03851932119763882 -0.10722008016066925 -0.01979367787689729 0.015724519493944128 -0.060269592415854605 0.04717196149884163 0.07833199794050003 0.03980913300924446 0.08031311990580084 -0.052921698227046995 0.020422713610617593 -0.026759369631031166 0.04638333651803082 -0.020155834132268603 -0.009916760309251597 0.0525129007636099 -0.043943322969505635 0.004116463472603865 0.11239315087999069 -0.038085367283867744 0.05092479895422461 0.05840149043059432 0.024087253924626004 -0.041127445751130844 -0.012898307596205102 -0.03581700196537594 -0.07120591570880393 -0.09720340286767067 -0.023697646111922255 -0.02179825717162821 0.0355854712369174 0.00034539807848859216 -0.005461136929987882 0.09977152059165675 0.06155300612087309 -0.04192013122796449 -0.09174195375520558 -0.0812149003923519 -0.03389181236300192 0.020124255075853963 0.014938593550582142 0.027373339544208283 0.0033112205410747446 -0.018887626128382528 0.02971028526506856 -0.018727526622680873 -0.07105142497749517 -0.02410985299721598 -0.013686497407962362 0.017479928525326337 0.016779059638484133 -0.061862439134395396 0.0511896567006377 0.03492411817020912 0.040015830986375275 -0.04031824578123364 0.03552999441909645 -0.07063615303111864 -0.04224454007226248 -0.08838242801137537 0.10257445015385323 0.15126964114911573 -0.00805670876354581 0.01746093566227622 -0.06932346480563582 4.366294002754689e-05 -0.09720727993116732 0.03478408024077283 -0.0038095876448640416 0.027689915276768035 -0.16588014051320774 0.0007728054809788312 -0.004495021239036282 -0.16025452527288078 0.08334483498992025 0.021711389274072526 -0.03337404371101533 -0.013111684492972628 -0.08547397546265781 -0.06574408382204745 0.030581777646059547 0.018487895876709997 -0.04507388587125854 -0.1423739705715169 -0.05636846990062612 -0.06228060676092532 0.12750595100595546 0.09573924093993877 -0.025878503645259555 0.04582553161379921 0.04569992579390695 -0.060805960654198764 -0.024263499301806647 0.035365236357103674 0.03738343739429282 0.15776889132007416 0.02926242315264665 -0.05538691761829707 -0.1373420860034496 -0.04630995137929079 -0.0483142618179228 -0.012083872548799036 0.017432419474374256 0.024319410337795663 -0.06031274725134321 0.12044941230319034 -0.02839737908993408 -0.1262476447365986 0.09300977051033806 -0.032290560321720146 -0.046579767018556595 0.02442406490445137 0.0004899654304608703 -0.03390256315469742 0.0030335423070937395 -0.0075806137174367905 -0.02083243988454342 0.008493776433169842 -0.04290735721588135 0.012503213249146938 -0.077865831553936 0.02030070871114731 -0.03674757480621338 -0.01976265385746956 -0.11638633906841278 -0.010607906617224216 0.04351375997066498 -0.1434953808784485 0.015981847420334816 -0.11531757563352585 -0.03444433957338333 0.08556580543518066 -0.14401254057884216 0.10970237851142883 0.009267965331673622 0.024681949988007545 -0.007748158182948828 0.0751497745513916 0.031335338950157166 -0.09328960627317429 0.02580411545932293 -0.059507496654987335 0.07236950099468231 -0.01090238057076931 -0.06823074817657471 -0.03328778222203255 -0.020473089069128036 -0.05306065082550049 -0.07165922224521637 -0.04881203547120094 0.13453835248947144 -0.10489708930253983 0.0424809493124485 0.0669712945818901 0.04020543023943901 0.04855057969689369 -0.04404271021485329 -0.001075275824405253 0.002685003913938999 -0.08089668303728104 -0.0010659281397238374 -0.09756991267204285 0.050762925297021866 0.03827368840575218 -0.024606794118881226 -0.038532208651304245 0.010204220190644264 0.019859978929162025 -0.10014601796865463 0.10949919372797012 0.0805465579032898 -0.04604092612862587 -0.05728968605399132 -0.003731061704456806 0.03911896422505379 -0.07416828721761703 -0.029759200289845467 -0.047002870589494705 0.012469062581658363 0.02214585244655609 -0.01084921695291996 0.08815275132656097 0.006873455364257097 -0.04048097878694534 0.0068072727881371975 0.04905048385262489 -0.030622322112321854 -0.06422850489616394 0.07737292349338531 -0.020951686426997185 -0.013208568096160889 0.023424552753567696 0.11908025294542313 0.05619915574789047 0.012183484621345997 -0.12601014971733093 0.16404691338539124 -0.03993068262934685 -0.0732332393527031 0.0499543696641922 -0.007822882384061813 0.0730484202504158 -0.03239725902676582 0.09045480191707611 -0.006734774447977543 0.043217986822128296 0.08024436980485916 -0.04095333814620972 -0.021941091865301132 -0.027568992227315903 0.06307270377874374 -0.006742148194462061 0.05441209301352501 0.08980503678321838 0.03362945839762688 -0.10217994451522827 -0.06503105908632278 0.0014351251302286983 0.07630247622728348 -0.13808712363243103 0.05971270427107811 0.05534105747938156 0.0937374159693718 0.0373326912522316 -0.01475347951054573 -0.11058865487575531 0.0065001812763512135 0.13598036766052246 0.007481693755835295 0.006944308988749981 0.12966518104076385 0.12187568098306656 0.12294939905405045 -0.010248653590679169 -0.014414185658097267 0.013404549099504948 -0.008418811485171318 0.03252159431576729 0.015367773361504078 -0.008837820962071419 -0.07585031539201736 0.009691623970866203 -0.01292415615171194 -0.013185976073145866 0.09036005288362503 -0.1169380471110344 0.07174055278301239 0.012318022549152374 -0.005875395145267248 0.029738739132881165 -0.1111186072230339 -0.05202101916074753 0.1610291451215744 0.025840433314442635 -0.011452351696789265 -0.0692211240530014 0.08778446167707443 0.0634806901216507 0.07221882790327072 -0.030612317845225334 -0.03761192411184311 -0.029076246544718742 -0.04135492816567421 0.013834616169333458 0.039170727133750916 -0.08230806887149811 0.02981431595981121 -0.016547944396734238 0.009693681262433529 -0.00815976969897747 0.08614329248666763 0.0009951023384928703 0.04733186960220337 0.011795653030276299 0.009692725725471973 0.07183356583118439 0.00895208865404129 -0.008403155021369457 -0.05344821512699127 0.021035099402070045 -0.04803856089711189 -0.1217813715338707 0.06755983829498291 0.031998779624700546 -0.161569282412529 0.05807438865303993 -0.07910401374101639 -0.16259534657001495 0.01233663596212864 -0.02776808850467205 0.07304678857326508 -0.014060555957257748 0.08048515766859055 -0.04817090556025505 -0.0669097900390625 -0.050907112658023834 0.10269004106521606 0.04550904780626297 0.016793934628367424 0.009269301779568195 0.018508445471525192 0.0754733458161354 -0.030122697353363037 -0.08991668373346329 -0.06286332756280899 0.031257688999176025 0.022049378603696823 -0.020265810191631317 -0.006660711020231247 0.10015862435102463 -0.06929586827754974 -0.028384491801261902 0.05795067176222801 0.03158478066325188 0.04610757529735565 -0.12886177003383636 0.019076120108366013 0.09795873612165451 0.019232839345932007 0.011559296399354935 -0.081987664103508 -0.029635442420840263 -0.012393570505082607 0.07644082605838776 0.04909110814332962 -0.056413084268569946 -0.07509617507457733 0.0009783260757103562 0.05399617925286293 0.06428483873605728 0.04786474630236626 -0.012795509770512581 -0.010474392212927341 0.036910638213157654 -0.014073084108531475 0.04090717434883118 0.024438198655843735 0.09696806967258453 -0.04584718495607376 -0.03053056262433529 0.0009903040481731296 -0.14568690955638885 0.0015039322897791862 0.0052145482040941715 0.055531252175569534 -0.05226871743798256 0.02935817651450634 0.13285163044929504 -0.14759135246276855 0.0060277413576841354 0.052365243434906006 -0.01029862929135561 0.06087712198495865 -0.028458246961236 0.01995396986603737 0.0757661759853363 0.10565584897994995 -0.005277001764625311 0.06506556272506714 -0.021340785548090935 -0.10981565713882446 -0.0124867158010602 0.07127159088850021 0.0010055790189653635 -0.04270504415035248 -0.044136498123407364 0.027693703770637512 -0.11161022633314133 0.031580850481987 -0.04331864044070244 0.05560491234064102 -0.045989103615283966 -0.005286584608256817 0.03227393701672554 0.02935296669602394 0.0180364940315485 -0.050438668578863144 -0.06631659716367722 -0.045213669538497925 -0.052599310874938965 -0.019310079514980316 -0.07981695234775543 -0.012556581757962704 -0.05594353750348091 0.00929118413478136 0.018135836347937584 -0.07449226081371307 0.14882494509220123 -0.053339485079050064 -0.01684895157814026 -0.0011113806394860148 0.03660714626312256 -0.0031050872057676315 -0.1524287611246109 -0.02197258174419403 -0.006209732498973608 -0.14590439200401306 -0.016343319788575172 0.004252684768289328 0.0463290698826313 -0.014519352465867996 0.020288091152906418 0.05016431584954262 -0.03149126470088959 0.04184060916304588 0.01514534093439579 -0.001654750551097095 0.012499311938881874 -0.039201509207487106 -0.01594771258533001 0.035587623715400696 -0.10319413989782333 -0.013191793113946915 -0.004604078363627195 0.022704221308231354 -0.14936095476150513 0.06262105703353882 -0.026264775544404984 0.006138946861028671 0.0005451649194583297 -0.0403415784239769 0.08341673761606216 -0.05353601276874542 -0.038512591272592545 -0.030770910903811455 0.07795068621635437 0.1088356003165245 -0.11534412950277328 0.004291923716664314 0.05560832470655441 -0.07968854159116745 -0.11769705265760422 -0.02535814605653286 0.02909529022872448 0.13235607743263245 -0.020640891045331955 -0.017471037805080414 -0.07013491541147232 0.13060206174850464 -0.1228642463684082 -0.07105159759521484 -0.12763284146785736 -0.10724057257175446 0.020491493865847588 0.09866447001695633 -0.10723181813955307 -0.003789890557527542 0.049713652580976486 0.03131425753235817 0.011819849722087383 -0.11799339205026627 0.04626172035932541 0.05314800888299942 -0.11752940714359283 0.07509774714708328 -0.05002396181225777 0.029717877507209778 -0.014598941430449486 0.03167248144745827 0.024069759994745255 -0.008277583867311478 -0.14237166941165924 0.07581394910812378 0.06604461371898651 -0.06076529994606972 -0.07371477782726288 -0.029444394633173943 -0.06345076113939285 0.032212600111961365 0.11446960270404816 0.032946158200502396 -0.05460184067487717 0.06433288007974625 -0.030161214992403984 0.05142024904489517 -0.0007990428130142391 -0.07648710161447525 -0.03839154168963432 0.02135985717177391 0.05383651331067085 -0.0014455216005444527 0.0844360888004303 -0.08845502138137817 -0.011440836824476719 -0.055126212537288666 0.07266455143690109 0.060164399445056915 0.030533477663993835 0.006888361647725105 -0.11462284624576569 0.00027416853117756546 0.1104179322719574 0.062282152473926544 -0.04032386839389801 -0.06116338446736336 0.10744474083185196 0.009885061532258987 -0.021663812920451164 0.014437300153076649 -0.036337777972221375 0.03969491273164749 -0.029419707134366035 0.05272359400987625 -0.05399003624916077 0.03586664795875549 -0.08697056770324707 -0.04463193193078041 -0.011305592022836208 0.03978944569826126 0.16122323274612427 0.08475457730024165 0.03446365425040261 0.07857868440084703 0.021437196404341035 -0.13997546532468239 0.07507752167239352 0.057994874158087587 0.037766161872319993 0.06831453355872942 -0.004516555866479769 -0.06433335765094098 0.06814228992391688 0.14547897177430255 -0.008746353762620784 -0.0072109180653273566 0.095058576828766 -0.00631366037735257 0.05968985288631148 -0.09357216337547485 -0.08495095997083954 0.06932701826281283 -0.06061431546648755 -0.0882827452081239 0.007979553080561093 -0.0024744993654960755 0.03502274540993442 -0.017026050352893143 0.03935535956409099 -0.022645105773903815 0.015193802780127663 0.041122483097261624 -0.09695590494533537 -0.111532134327208 -0.028927885220999542 0.06278360437604626 -0.10877048584833486 0.010645487551446111 0.036137250426378026 0.059252194447076315 0.043184038934172636 -0.03895700364077245 0.035538352417076334 -0.049021964078099986 0.041593089933567244 0.07578470410641389 0.032343163175144955 -0.026763435871495066 -0.01043467187337833 -0.1340908262192371 -0.11493538128210495 -0.13455227789648844 -0.07604373494455599 0.06425820670475017 0.012502806179375457 0.08309697888680367 -0.026143092112094493 -0.05188740552587795 -0.16340986739134422 0.010055112040540425 0.023584793657551038 -0.013688232945587216 -0.038678615572914965 0.01552876718512653 0.07060884514284062 0.03672954517378143 0.0652158882368104 0.05499024913862581 -0.03117603679413938 0.0777010665266722 -0.0680088860367443 -0.009081795095468375 -0.10880692837548774 0.01880589293878083 0.048947331299103454 0.06289688572648121 0.06784011668215914 -0.04679827822076828 0.0061724666131007366 -0.015202460593255208 -0.16159062909856142 -0.09177826655427158 -0.07490213464660482 0.010275340068766261 -0.04105963009951457 0.00016992731288646479 0.07143838901153399 -0.10922223436471108 -0.14046261965538584 -0.03668590290637574 -0.021793413358762295 0.08706849819164542 0.027975515552235774 0.01520798689933357 0.10703472799879832 -0.08688549273078922 -0.0683479784389052 -0.0357594409362135 -0.005832239903940233 0.003607836106715341 0.068611712604281 -0.04491542850486658 -0.10829175011838893 0.0168194842183432 -0.04087400268227258 -0.05040202641404842 -0.017508284294086535 0.07708642064274338 0.00040332208756224485 0.0852641010649248 -0.05292475859326787 -0.024028856885377477 0.1023285148804572 0.10032669603197249 -0.04261280379160872 -0.1470079259804152 -0.06446381585463902 0.09855817118059833 0.09422535259392316 -0.00462714255706904 0.10733376386685937 0.030177992058137315 0.049074910141025545 -0.009763274171351049 -0.018565790542554167 0.017739491957707798 0.02157216452832275 -0.014341014199899919 0.04704393046747769 0.018260871165276773 -0.00857608402892514 -0.011814594528528375 -0.10432295653187841 0.04642098754919669 -0.0844184428645124 -0.007830843204078435 -0.016113873462844115 0.052203706892764865 0.10879982275967746 -0.08779507356101948 0.048287245982427986 0.009915798643026717 0.1744202807356717 0.059673248816183265 -0.04438004830462627 -0.01168106213315763 -0.003964962463257892 -0.07501214915927318 -0.029455702764034614 -0.06758412479498711 0.03756321791840006 -0.0034646778555390387 -0.18059929170651812 0.11395221617440039 -0.13625160252669843 0.11812202103244052 0.015460568866818606 0.04076920155137145 -0.03605611131864945 0.08131847204597006 -0.06909685351670525 -0.1375649594691313 -0.07162357834509836 0.1156008033440258 -0.021952662690051836 -0.0466159666240191 -0.052970651783533836 -0.009818088941036234 -0.11652321116011086 -0.0641833858706234 -0.07762847076672233 -0.02842659316814038 0.09655249860851924 0.007870957804185385 -0.04945043070563107 -0.00211887017757898 -0.031427307210592045 -0.009780796576872357 -0.08184427788146592 0.0015896257283102633 0.018367002556312434 -0.012483741421882273 -0.0377669516787339 0.02122540334798762 -0.020897583546992126 -0.03415038325417955 -0.008794801003862967 -0.052603618850091266 -0.048131928407570204 0.04488649602609263 -0.015441779469767795 0.046518526812294084 -0.05215631889568187 0.022691764067471937 0.0886221849773651 -0.07672650770765083 -0.04697459742238959 0.04546249293277559 0.04239278033261545 -0.06991028152822815 0.019645806766610485 0.02000252529978752 -0.01364903338253498 0.04841296374797821 0.029158707708120346 0.07242873311042786 -0.034605372697114944 0.016334477812051773 0.06338658183813095 -0.0047544073313474655 -0.021021002903580666 -0.03452610597014427 0.05551287531852722 0.0757843554019928 -0.07030586153268814 0.01217072643339634 -0.047647152096033096 -0.01147020049393177 0.014881761744618416 0.06355629861354828 0.052515529096126556 0.05948222056031227 -0.030406281352043152 0.09069151431322098 -0.02475576661527157 0.060491982847452164 -0.025464294478297234 0.02299991250038147 -0.05226103588938713 0.03817560523748398 -0.013917089439928532 0.04295061528682709 -0.10172063857316971 0.007092474494129419 0.1185421496629715 -0.04175921157002449 0.07029984891414642 -0.03455440327525139 0.03262549266219139 0.0017621931619942188 -0.017658332362771034 -0.002965264255180955 0.16345225274562836 0.008777529932558537 0.0007411466212943196 0.05102098360657692 0.005591798573732376 -0.01933499611914158 0.025405755266547203 0.02028520405292511 -0.09167246520519257 0.015581696294248104 0.01114185992628336 0.008237514644861221 -0.06799612194299698 0.047987863421440125 -0.07133206725120544 -0.0425233319401741 -0.07165195792913437 0.00567856477573514 0.06816724687814713 0.012558992952108383 0.015759680420160294 0.049822136759757996 -0.16029126942157745 -0.09529540687799454 -0.0242159366607666 -0.04487249255180359 -0.05969083681702614 0.0541156604886055 -0.06175404042005539 -0.030571753159165382 -0.04450139030814171 -0.021907484158873558 0.013791642151772976 0.09835166484117508 -0.004863559268414974 0.058761999011039734 0.06808995455503464 0.1002453863620758 0.0271870456635952 -0.014758944511413574 0.07643480598926544 -0.13302302360534668 0.027111615985631943 -0.021693069487810135 0.009319251403212547 0.012268686667084694 0.0830746442079544 0.11031411588191986 -0.012933623977005482 0.022631920874118805 0.04482008516788483 -0.1298184096813202 -0.0007772587705403566 0.06213442236185074 -0.1371876746416092 0.02031746320426464 0.08988850563764572 -0.00018111169629264623 -0.04443090036511421 0.024113938212394714 0.04574715718626976 0.14545662701129913 0.06435955315828323 0.04571999981999397 -0.00749026658013463 -0.032868292182683945 0.017009373754262924 0.01642644964158535 -0.07097102701663971 -0.030865168198943138 -0.006932668853551149 -0.03838023915886879 -0.040611639618873596 0.04858164116740227 -0.054837822914123535 0.13332998752593994 -0.08529402315616608 0.025642309337854385 -0.029426416382193565 0.0779326781630516 0.027452433481812477 -0.0899021327495575 -0.15435847640037537 -0.07518274337053299 0.0034414224792271852 -0.024727169424295425 -0.06815601885318756 -0.11043431609869003 -0.02723308652639389 -0.03737067058682442 0.008840861730277538 -0.03228243067860603 -0.04963783547282219 0.17159192264080048 -0.043122198432683945 -0.06525157392024994 -0.034931011497974396 -0.09119294583797455 0.10035944730043411 0.0962054580450058 0.10014540702104568 -0.0019352047238498926 -0.1095397099852562 -0.0801362469792366 -0.08931101858615875 0.11710450798273087 -0.04502182826399803 0.07863101363182068 -0.020812882110476494 0.026808373630046844 -0.06850580871105194 0.007550790440291166 0.007438595872372389 0.10364193469285965 0.009444107301533222 0.04446975886821747 0.018066199496388435 -0.014592613093554974 -0.008198974654078484 0.0793825015425682 0.04708397388458252 0.09714049100875854 0.03776858001947403 0.15046335756778717 0.03264240175485611 0.02166883461177349 0.0026402564253658056 0.023347729817032814 0.00843616109341383 0.014369338750839233 -0.07181597501039505 -0.01618923433125019 0.01961773820221424 0.07740550488233566 -0.01952739991247654 0.055292434990406036 -0.032732538878917694 -0.035975683480501175 0.043566521257162094 0.05269912630319595 -0.04209507256746292 -0.07110749930143356 -0.06553734093904495 0.09111514687538147 0.1237562745809555 0.08623094111680984 0.09591121226549149 0.04879193753004074 0.10773660242557526 -0.10934151709079742 -0.03583289682865143 0.0369962602853775 -0.03596445918083191 -0.05651729181408882 -0.012218448333442211 0.050404347479343414 0.007297278847545385 -0.09846972674131393 -0.005020634736865759 0.11402592249882641 0.12803912712064813 0.12315368253889751 -0.006012492220873611 -0.10566838514318042 -0.018946744394555678 -0.011013249784406074 0.06881144680432283 0.03330627797169494 -0.020957611311522985 -0.10326515242547864 -0.017948330761006936 -0.042856743685606054 -0.0200430950893841 0.011372586881796643 -0.0010590461261143767 0.12422912439711145 0.11193490559092899 0.03107480961957324 0.010651515890403508 -0.0398364796033554 -0.006156900745041635 -0.0057159722718054485 -0.048022041927063705 -0.05462366654987728 -0.049354950635904324 -0.014730457670214147 0.003132785057325674 -0.017572230571175556 0.06575866757807886 -0.024012516339840875 -0.050363762742736295 -0.015178201134325118 -0.09703503166186433 0.005059831699504746 0.007881189998568952 -0.0214700546834297 -0.0451343691213084 0.09048782129946455 0.010368148958141041 -0.1052852953007979 0.0014311100556756876 0.15402345594267305 -0.01834580291390513 -0.054721127417371854 0.016633950908318436 0.15545411637310147 0.009730368476064654 0.05340283430935162 0.09977549836081567 0.09233376639469214 -0.0050519388181711564 -0.02235687923455478 -0.07016818051755891 0.05895525297816396 -0.08220167780843451 -0.015473429325213117 -0.01765271222074493 0.012686338931443514 -0.01813881118022653 -0.07968795071754797 -0.0027311025940675118 -0.15190581407868292 0.012939592867949695 0.004539341788768638 -0.06025717474163902 -0.16578309536336797 0.011049503813168137 -0.04073643387810467 0.027987442858034686 -0.0064995295665020965 -0.07918941139124014 -0.03783042729955815 -0.053667042447519755 -0.12937218872619735 0.123795388570084 -0.053558049800656635 0.009668077189854586 0.09998312763205285 0.014336140161988946 -0.0015990661142374209 -0.036632418684607905 -0.05671383916034868 0.1005361906011754 -0.09496503169791758 -0.11606128343960191 0.10303035084636022 -0.009643255124975592 -0.026504940865703902 0.006402049958317334 0.12267518806911261 0.10991772777770754 -0.022828498846276465 0.03238859198767876 -0.02145100727107081 0.12456679921948577 -0.054470801283562346 -0.02899679128977219 -0.04130948123134261 0.012503293588981184 -0.05261233453015745 -0.040483082737549164 -0.12622483048275587 -0.014245873922617931 -0.06137905651825241 0.0138426851843458 0.034137472489048026 0.018229833739127017 0.014745645592231345 -0.055658807266494345 -0.06663881303698897 0.10484056262270995 0.081992679668254 -0.08830035888192528 0.03306542624191948 -0.0707745882284878 -0.11506659538388622 -0.04930563107526149 -0.047533296979875905 0.0221288324943635 0.017806743639201643 -0.009146961819184384 0.05345542263324603 0.13967174863362541 -0.12095700392204599 -0.01650257384970969 -0.0901734890658478 -0.11419033081937613 -0.0325207494612747 -0.08865311461844298 -0.05021171443227163 0.0016200621540945136 -0.05998391517459609 -0.042173258957924196 0.06832084433089994 0.006572701364710681 0.08940920265092639 -0.03266854487385049 -0.07606032613574941 -0.0035832192997634635 -0.08215201470726417 -0.06903872862095439 0.02437284878514236 0.006460147309405246 -0.004063508364909943 -0.006269649519534747 -0.00019180549398082497 -0.07358408617157368 -0.0037741168262666784 -0.0002800443293186754 0.07028324484002825 0.0321469013634599 0.06821782354141852 -0.10208811010716867 0.01644220450458509 0.012657076751948248 -0.09713285964493244 0.1688207338183041 -0.07798656560347529 -0.08124316754556114 -0.05303437352506842 -0.04204153319730265 -0.03610322038760849 0.006534195548174555 0.052334723721180955 -0.04331486031005343 0.08678547749801056 -0.027599770511066383 0.03233256398230514 0.03076256672231665 -0.10908852299151231 0.03265264411607147 -0.027691612393977858 0.008492117305155752 0.09358473133712196 -0.04829333223206885 0.037493752476794096 0.03960822559625258 -0.0587389210240685 -0.05707720238050576 0.04815483079999607 0.09869867374356768 -0.05214098486203462 0.013208101304812274 0.0758274990616509 -0.055483895893950134 -0.016883171367305765 -0.019722014519755176 0.1139199932229236 -0.12232862900655272 -0.04688279557528631 0.05931017398021428 -0.11076161720013952 -0.025415901690348637 0.09104678238262824 -0.016861531282945038 0.057085918697623195 -0.006549185905414247 -0.0843646255709018 -0.032983357537395626 0.045885320752859116 -0.16024132072925568 -0.027486635372042656 -0.11490599811077118 0.09648104757070541 0.06716588139533997 0.059789109975099564 0.0051178778521716595 0.011232870630919933 -0.04172296077013016 0.0261418167501688 -0.020858626812696457 0.16417671740055084 0.021736491471529007 -0.026134654879570007 -0.024633489549160004 -0.020535971969366074 0.1872459352016449 0.04723301902413368 -0.08880592882633209 0.07918565720319748 0.025117505341768265 -0.01725715771317482 -0.04239247366786003 0.035793237388134 -0.010383667424321175 -0.000572633114643395 0.07518265396356583 0.060017865151166916 0.09584665298461914 0.09688034653663635 0.11711550503969193 0.02402253821492195 0.007455571088939905 -0.04252837598323822 -0.022921372205018997 0.007279760669916868 -0.017597315832972527 -0.015234318561851978 -0.007349294610321522 -0.04296320676803589 0.04570520669221878 0.006522287614643574 -0.11140715330839157 0.025838728994131088 -0.1440618634223938 0.0002715217415243387 0.0005694935680367053 0.033488206565380096 0.038055967539548874 -0.07222458720207214 -0.02926171012222767 -0.11724976450204849 0.07295423001050949 -0.014717833139002323 -0.04150521382689476 0.03876403346657753 0.08261413127183914 -0.026120807975530624 -0.04729416221380234 0.08262211829423904 -0.0034300796687602997 -0.03755522891879082 0.07290074229240417 -0.013971514068543911 -0.1083701103925705 -0.02607642114162445 0.0685352087020874 -0.010454680770635605 0.0028351331129670143 0.10877829045057297 -0.09495782107114792 0.0377546027302742 0.06905081123113632 -0.05663186311721802 -0.02790374867618084 0.08946363627910614 0.013105010613799095 0.010360907763242722 0.01748020201921463 -0.03356042876839638 0.11506062746047974 -0.04624439775943756 0.08551814407110214 0.015313483774662018 0.014017714187502861 -0.09674090892076492 -0.1483859270811081 -0.06952252238988876 0.045113272964954376 -0.010306122712790966 0.10986518114805222 0.0684063583612442 -0.05257333442568779 -0.04660642892122269 -0.06572648882865906 0.043315302580595016 0.04721744731068611 -0.08443640172481537 0.15160240232944489 -0.026792772114276886 0.047700222581624985 0.04635561257600784 -0.012987877242267132 -0.07376686483621597 0.008237575180828571 0.007896040566265583 -0.009942085482180119 0.05290164798498154 0.007072968874126673 -0.03067488968372345 -0.0723172053694725 0.01642860285937786 -0.04947926104068756 0.031128691509366035 -0.024745767936110497 0.03258723393082619 0.02062102220952511 0.12977828085422516 0.02532777190208435 0.012453539296984673 0.02091183327138424 -0.013586018234491348 -0.0691244825720787 -0.03514416143298149 -0.02421615645289421 0.04084772244095802 -0.004215569701045752 -0.058371588587760925 -0.0637957975268364 -0.026348834857344627 -0.017268598079681396 0.03069041296839714 -0.10186327993869781 -0.03224879130721092 0.12149028480052948 -0.04895203933119774 -0.04564809054136276 -0.046529822051525116 -0.046257100999355316 0.041493989527225494 -0.06284861266613007 0.012973278760910034 -0.035852428525686264 0.09612855315208435 0.0582398846745491 -0.020978594198822975 -0.0006341693224385381 -0.05482140928506851 0.030348848551511765 -0.040646858513355255 0.00585609907284379 -0.04850900545716286 -0.12350203096866608 -0.024562476202845573 0.012009214609861374 0.02561723068356514 0.0754050463438034 0.01774846389889717 -0.004361605271697044 -0.003705042414367199 0.11129125952720642 -0.06593401730060577 -0.03168957680463791 -0.017209170386195183 0.020373385399580002 0.12814819812774658 0.055382292717695236 -0.01762043498456478 -0.08427925407886505 0.07931655645370483 -0.06694625318050385 0.028999553993344307 -0.036689091473817825 -0.04690166562795639 -0.038479581475257874 0.08161335438489914 0.0005488417227752507 -0.019490372389554977 -0.017088940367102623 0.08821122348308563 0.04976823925971985 0.10385762155056 -0.02016001008450985 -0.0912143811583519 0.15903489291667938 0.002140296855941415 0.011329260654747486 0.018963754177093506 -0.004055717960000038 0.08330012857913971 0.005421658977866173 0.10639955848455429 0.0013662549899891019 -0.05535940080881119 0.04579281806945801 0.09201451390981674 -0.037612758576869965 -0.021709848195314407 -0.07153525948524475 0.10092449188232422 0.01676902547478676 0.04719284176826477 0.0947270616889 -0.08720913529396057 0.016063731163740158 -0.025048015639185905 0.05985742434859276 0.004376241005957127 -0.14346198737621307 0.10351701080799103 0.03767719864845276 -0.05538983270525932 -0.008964943699538708 -0.02333655208349228 0.10793130844831467 -0.07666376978158951 0.06161133199930191 0.009800381027162075 0.02542809583246708 0.044236648827791214 0.04482429847121239 -0.015608937479555607 0.06469905376434326 0.016883913427591324 -0.043384186923503876 0.051698047667741776 0.11107659339904785 -0.006841887254267931 -0.14747647941112518 -0.1202029436826706 -0.08719941228628159 -0.03199227526783943 -0.09722352772951126 0.00187240622472018 -0.05984324589371681 -0.005301694851368666 0.14564843475818634 -0.017690280452370644 -0.09828487038612366 -0.03917193412780762 -0.19178959727287292 0.029752502217888832 0.005341220181435347 -0.06590762734413147 -0.014966337010264397 0.07431800663471222 -0.05759597197175026 -0.09062022715806961 -0.04424678534269333 0.08383700251579285 0.03494933620095253 0.00814639963209629 -0.2205226570367813 -0.012252812273800373 0.0007327983621507883 -0.05166005715727806 -0.041612658649683 -0.0984802171587944 -0.10630952566862106 -0.016546545550227165 0.06974489241838455 0.06467873603105545 0.017103157937526703 0.011734453029930592 -0.018870625644922256 0.0469176359474659 -0.11315459758043289 0.0027041032444685698 0.010228152386844158 0.04878059774637222 0.13140727579593658 -0.08686906844377518 0.017849570140242577 0.016737231984734535 0.05345003306865692 -0.0027831809129565954 -0.003113164333626628 0.12699353694915771 -0.006965707987546921 0.007787065580487251 0.05623672157526016 -0.009455250576138496 -0.028573056682944298 -0.0010688583133742213 0.03847595676779747 0.030814291909337044 0.024027979001402855 0.013285411521792412 -0.1185249388217926 -0.028322476893663406 0.09452217072248459 -0.01727142557501793 -0.026805132627487183 0.012083576060831547 -0.05948471650481224 0.007991927675902843 0.025385139510035515 -0.046624116599559784 -0.04149637371301651 0.03632395341992378 0.1328183114528656 -0.022998906672000885 -0.029247276484966278 0.04799824208021164 0.17761924862861633 -0.052407700568437576 -0.05761205032467842 -0.10612569004297256 -0.09058883786201477 0.0754401832818985 -0.0511985681951046 0.009242578409612179 0.009596358984708786 0.01785840466618538 0.07514037936925888 -0.0714971199631691 0.00881418026983738 -0.04415525123476982 -0.012110003270208836 0.04817492142319679 -0.015677962452173233 -0.04700294882059097 -0.07603603601455688 0.024604715406894684 -0.036348335444927216 -0.07419902831315994 0.03145042061805725 0.08322011679410934 -0.04434221610426903 -0.005216542631387711 -0.057102594524621964 -0.002245528157800436 0.024506831541657448 0.01743796095252037 0.031358543783426285 0.029475418850779533 0.00765398470684886 -0.029032094404101372 0.006701896898448467 0.014555484056472778 0.02829032391309738 -0.008603155612945557 -0.0315878726541996 0.04774865135550499 -0.00682166637852788 0.03369009494781494 0.11682023108005524 0.13948075473308563 -0.07666166871786118 -0.031176550313830376 -0.1235797256231308 0.017904261127114296 0.01823269948363304 0.05157679691910744 -0.1306992471218109 -0.046621691435575485 -0.07280649989843369 0.06163979321718216 -0.05175374075770378 -0.014639252796769142 0.01899123750627041 0.04436226934194565 0.08240918815135956 0.0693046823143959 -0.05754246190190315 0.1026003509759903 -0.11197559535503387 0.03343374654650688 0.041302938014268875 -0.058274269104003906 0.0037471093237400055 0.05341740697622299 0.05587458983063698 0.05475940555334091 0.0184788778424263 -0.018416423350572586 -0.015273328870534897 -0.003478879341855645 -0.0870523527264595 0.08717527240514755 0.08024249970912933 -0.10475733131170273 -0.13207468390464783 -0.09765337407588959 0.15957455337047577 0.08671405166387558 0.045534223318099976 -0.06032507121562958 0.05957783758640289 -0.09830281883478165 -0.023349450901150703 0.008731070905923843 -0.004255456384271383 0.03431795537471771 0.008301415480673313 -0.1885407567024231 0.00683695450425148 -0.05349266156554222 -0.039682988077402115 0.06267151579250432 0.047972823650108076 0.03324692887554763 0.019969854408792082 -0.0051603225115209525 0.009048567428748369 0.039343264048420375 0.08645116229143687 0.10616087457518524 0.11260395143292423 -0.04065705884866406 -0.042569745078491844 -0.013313112052382647 -0.09383382427154237 -0.0878177506164979 0.0764287085994451 0.008798897514120694 -0.05431689443120835 -0.04004217865536667 -0.012364063271966888 -0.016330963584202655 -0.12479489762902957 -0.10849138688000348 -0.08165236331710622 0.009195028786247027 -0.05212339019698734 0.036076158558240375 -0.00816812096797354 -0.15541841183682867 0.05038878942161508 0.08501444496351139 0.1157889535184493 -0.008594923251290767 0.08644631121156605 0.028094654682773904 0.014780446159362134 0.0580288099157054 0.15957171356320612 0.05382495434841823 -0.07691245791545398 -0.004070061000465836 0.02089666979709244 -0.021265051429186044 0.14252137132658685 0.037501254203397845 -0.08390976052017102 -0.00980644986228325 0.06245181956124678 -0.02199626267574468 -0.11644223797231232 -0.01622304662681002 -0.0407533789988917 -0.00974093495393296 0.02007849183399321 0.006568623611906126 0.050758112930911196 -0.06356798580785139 0.09718209656187178 -0.010340946180628552 0.010773666858660613 0.08119683793590572 -0.010596655844483946 -0.10714698754981544 -0.06789969618262413 -0.09150755070809152 0.04575908540117866 0.0025863898198197036 -0.0564050148417526 -0.13634486485069253 0.08703844839544574 -0.02124165796305188 0.08077073551681915 0.017800976865604796 -0.02792933598763786 -0.09247153867170743 0.08365880454929649 -0.03382497084140753 0.0021664609360680038 -0.05265482327818068 -0.040951322378226004 -0.04468250059639291 -0.019511529031594983 0.03745503549950155 -0.029768684945130918 0.003707658631064818 0.011076973375806029 -0.15714429177961572 -0.09609377451834178 -0.0470253969363987 -0.004465956584828468 -0.021819540084859684 -0.09822076552062314 0.0031808521659618134 0.030174709941231424 0.010013815003345078 0.12457821920044485 -0.04481692883583298 -0.03187095325334506 -0.0056636303139208435 0.07711381065349693 -0.07427820166866952 -0.06264841675279109 -0.049750235456538346 0.00862997850493004 -0.09795388309580043 -0.06835004218974536 -0.03720719102014801 0.036041184807716564 0.020444541064196544 -0.08416147109452757 0.005998674028318377 -0.06164477496916657 -0.039229947008850914 -0.10532688567436159 -0.03759300567679875 -0.0274976763009757 0.005680333848588681 0.018066818653258227 0.0116877764370564 -0.020347546977550944 0.05834608794769739 0.12601197763195468 -0.005028957360163279 0.024043153049531234 -0.06561577913349072 -0.033242512600221714 -0.06352438072558504 -0.08395431397615925 0.09426884103415628 0.03763549146273555 -0.05932445208845415 -0.12054094589551745 0.026308378836138357 0.09392712247821002 -0.07496631840169359 0.00754395179662483 0.091690594128921 -0.04574531170466643 0.004925690194187694 0.027175480633516068 0.011286586815672251 0.0567764016702772 -0.021685851912429548 -0.05656362209701844 0.03754307111565546 -0.05688408671236488 0.053550330664444874 0.008635747518169833 -0.0028921245412072867 -0.012473033098649692 0.015941677403070738 -0.14321514400756843 0.07345123198582185 -0.007123549919239134 0.015083888668855249 0.049850223308242445 0.04358818356975221 0.00720672852588569 -0.13097392613868794 -0.06881553436312768 -0.018687732791046668 -0.030940555010812297 0.028586774683658327 -0.009194899914056654 -0.028536888255871966 -0.028874490281577955 -0.02709863766226452 0.04729500716314624 0.05835220592012172 -0.05316714748657907 -0.12866916352396582 -0.00223893390036149 -0.028641531586549224 0.016954114920089646 0.053134264012944084 -0.07333082057604114 -0.05627928960794185 0.025163716397815065 0.015446418351288611 0.005597692213005395 -0.0413193781289749 -0.07275734659410502 -0.01916922330238785 0.013733281370044089 0.03670588000347799 0.019271373910192135 -0.06858841856235566 0.025655227584971872 -0.08001205228438553 0.009593965272204116 -0.016595672390882273 0.022364960726189285 0.09542916999894935 -0.03708064895088234 0.10983159482494828 -0.0025086307799554054 0.07060551090214617 -0.16262379073688663 0.03505442257408138 -0.1361604444198408 -0.030249057337641716 -0.099272720515728 -0.0773526132106781 -0.08180613070726395 -0.029064156115055084 0.13376417756080627 0.048691097646951675 -0.0164849441498518 -0.13150744140148163 -0.03289041295647621 0.07833659648895264 -0.051458414644002914 0.0733909159898758 -0.10810674726963043 -0.0016428130911663175 0.06695615500211716 0.1155734434723854 0.023218723013997078 -0.0353214256465435 -0.1092015877366066 0.007221991661936045 0.11731988936662674 -0.05154481530189514 -0.027036791667342186 0.020277444273233414 -0.07756325602531433 0.014540021307766438 -0.035467274487018585 -0.01011630054563284 -0.06162573769688606 -0.026427701115608215 0.026382513344287872 -0.009664698503911495 -0.015540788881480694 0.0010085690300911665 0.06833105534315109 0.1051890105009079 -0.030512139201164246 -0.010445615276694298 -0.05716639384627342 0.13779984414577484 0.0873098373413086 -0.04533825069665909 -0.09037560224533081 0.051762655377388 -0.09863468259572983 -0.03853227198123932 -0.025171928107738495 -0.06044591963291168 -0.092866450548172 0.02783111110329628 0.10931876301765442 -0.04347444325685501 -0.020019782707095146 0.045941635966300964 0.11346738040447235 -0.042999450117349625 0.024882961064577103 0.04149264469742775 -0.10139141976833344 -0.008369636721909046 -0.03844238817691803 -0.005173493176698685 -0.09927003085613251 0.05731827765703201 0.045700203627347946 -0.1234813779592514 0.04323457181453705 0.10817817598581314 0.0911649614572525 0.04975934699177742 -0.0163281187415123 0.051606398075819016 0.11113269627094269 0.08633553236722946 0.041963111609220505 -0.08131882548332214 -0.07101571559906006 -0.016705580055713654 0.03436565399169922 0.03220684081315994 -0.004299428779631853 -0.006774324458092451 0.05517475679516792 -0.1745471954345703 -0.04146473482251167 -0.042127255350351334 0.09190782904624939 -0.09221607446670532 0.14433397352695465 0.07085730135440826 0.005396473221480846 -0.12065449357032776 -0.0562509223818779 0.11640139669179916 0.06124841794371605 -0.07249487191438675 -0.08098600804805756 0.0612080879509449 -0.0009204845991916955 -0.010568073019385338 0.07396461814641953 -0.08725540339946747 -0.14133679866790771 -0.062413621693849564 -0.03660445287823677 -0.043207790702581406 0.08178655058145523 0.012383599765598774 -0.05303742364048958 0.04464858025312424 -0.04403403401374817 0.03257167339324951 0.08028440922498703 -0.09523030370473862 -0.1484450250864029 0.03998444601893425 -0.006433191243559122 -0.0887787863612175 0.15645597875118256 -0.00708747748285532 -0.03566940128803253 -0.04387448728084564 0.04888392239809036 -0.03356537967920303 -0.07661636173725128 0.11111371964216232 -0.030079243704676628 0.051292095333337784 0.09582299739122391 0.03466203436255455 0.06019268557429314 -0.03243393823504448 0.046528369188308716 -0.0899621918797493 0.020483195781707764 -0.006994922645390034 0.06897241622209549 -0.034448519349098206 0.03123004175722599 -0.08144308626651764 0.11351782083511353 -0.056800007820129395 -0.06022203341126442 -0.034919943660497665 0.04606374353170395 0.1522793471813202 -0.05500559136271477 -0.045422229915857315 0.06226203218102455 -0.007317285984754562 -0.01449961494654417 -0.15946221351623535 -0.02299553155899048 -0.06958815455436707 0.006809481419622898 0.011512759141623974 0.06334125995635986 0.0724920779466629 -0.10771938413381577 0.054422635585069656 0.030475104227662086 -0.03331685811281204 -0.03361685946583748 0.043952085077762604 0.11124961823225021 0.11097252368927002 -0.0068104807287454605 0.056079037487506866 0.13949039578437805 0.06880771368741989 0.013555162586271763 0.032663412392139435 0.12034950405359268 -0.0460330992937088 0.04816000536084175 0.0797046348452568 0.018537646159529686 -0.17758126556873322 0.11104942113161087 0.13180263340473175 0.08239752799272537 0.0038814665749669075 0.0427187979221344 -0.07871566712856293 0.004062846302986145 0.043539393693208694 -0.039678484201431274 0.11072243005037308 0.019182344898581505 -0.025878695771098137 -0.06656088680028915 0.0459379181265831 -0.04690706729888916 -0.05652026832103729 0.020290695130825043 0.03912583366036415 -0.06551054865121841 0.01570691354572773 0.006834075786173344 -0.003788529936492364 -0.019085837400069097 0.00015703528127048046 -0.01540162606583076 -0.025236307868184357 0.06443809411082285 0.005702447905981196 -0.04983131117571669 -0.03056292538920148 0.011104280525335268 -0.03725389782417375 0.06234815877658561 0.14080015740882226 0.16216882408472183 0.07039058273855521 -0.028858180348000435 -0.08745340897639624 0.0009362632356283125 0.01376115708177599 -0.06395248606847513 0.01302183889216208 0.023821323178992403 0.010189932740745797 -0.05623909492355108 -0.08895574980170405 -0.04085843237264742 0.11053540385317902 0.0988332601466604 -0.004628143282542444 -0.08381524513493109 -0.0300363599373359 -0.1186463874855849 -0.046881559848573263 -0.11093724139907216 0.1202603110361894 0.013594612144814064 0.056469206553752406 0.11481784202476202 0.1063483827531545 -0.02976455811929134 -0.06591247104029499 0.007857276860230168 -0.009512756971781071 -0.010272637221138707 0.010589965764654085 -0.05487337060642419 0.10903470574066094 -0.022821965604791498 0.0027943619811130445 0.006467183516127952 0.01258733667614528 -0.045673213657451174 0.029263863725713705 -0.011909109862374652 0.058223512474974 -0.04221755764084328 0.06349118470177297 0.07726433363452184 -0.06895429548662957 0.05576746839932184 -0.03873681470645652 -0.019033416101071843 -0.050413239461403 0.0008918068132329546 0.07257698943188437 -0.13000644086615082 0.010937054533594299 -0.053772912574560405 -0.08220186024403034 -0.010015036786526963 -0.11859058782188879 -0.07729509379333867 0.07740349042794094 0.01530550041266118 -0.10451732174574534 -0.14036672405235306 -0.023218390249346944 -0.057318858051477746 0.02141626529028321 -0.0003210083856361852 0.05382935509194923 0.040839113974667204 0.02554580438544062 0.07475957415120074 0.014653337852114609 -0.12203807458430188 -0.011457495119962965 -0.06165315875786301 -0.04453639244513497 -0.03445887842516725 0.05366896611325699 -0.003400840872494701 0.07359036914303148 -0.036657737308589775 -0.055476387558451135 0.1988750843912065 -0.006354170503800685 0.09814706133788748 -0.03367189578735266 -0.036658096712445375 -0.005119856770305549 -0.034699613944446775 0.008702474648309064 -0.02139074307683796 0.07672319068532142 0.09435255464879733 -0.07101454815968992 -0.07372325033359008 0.015685254803712564 0.18636417752170256 0.06801656808670115 0.01947363985719305 0.053961210713713986 -0.0844688960675341 -0.04192804142132206 -0.018464880871400784 -0.13883153223255387 0.06263388842227315 0.03164358698690572 -0.21336253788244786 0.04021155771563893 0.14498289486832233 -0.10894627299107991 -0.05788930080358239 0.015995848983541068 -0.0454065807472184 -0.02612029648514042 -0.014877055775460994 0.029093776630535615 0.016803107802726938 0.02999356947917413 -0.022542042612112935 -0.06058355362908869 -0.014141979967407906 -0.08230202693260574 -0.07773161280217955 -0.012048482449449534 0.05161140004871702 0.06959429832270846 -0.10249331638579474 -0.03337840550464821 -0.04903255503727554 0.007616149651424098 0.020983813184473867 -0.047407742577802385 0.04228847273477837 0.0012497955048338834 0.04514240068319565 0.026091756183967835 -0.038524780311892264 0.03414466015650111 0.02644787738251729 0.107024706556239 -0.1153410874178742 0.01324350194038288 0.08216733130390752 0.0645236543423488 -0.021842960674667664 -0.03437036736596691 -0.06803910869873607 -0.09222910994660032 0.07776632711806612 0.13869790702868676 -0.025382151643705695 0.02352486683441892 -0.0639072731720829 0.10985298194411777 -0.07846409233026061 -0.03263236442517167 0.012716612506877901 -0.02643164338007223 -0.058334277352691526 -0.05687994111030302 -0.021168824638710188 0.05031025420526821 0.007179723403918622 0.09855456594547982 0.009379800012772142 -0.0591952516038339 0.07039464767306863 0.030864357536457054 -0.018751592159031764 -0.028749785189195878 -0.006762534184522338 -0.08234963897273136 -0.05417281708296976 -0.0021358119818334206 0.11380721821886741 -0.019611819791063103 0.01728559943548308 -0.01738649181296499 0.03880796078697644 0.030602175442281866 -0.046034752234147214 -0.028531874213658596 0.035767690509609894 -0.09842071621827227 -0.08440540749130263 -0.1278231254040776 -0.10970761230309052 0.05544965714216232 -0.07728635519742966 0.03914783522486687 -0.08272616565227509 -0.015707887709140778 0.04882967844605446 0.0908985286951065 0.06460654735565186 0.021085625514388084 0.11160256713628769 -0.04270950332283974 -0.07595288008451462 0.09329814463853836 -0.05613572150468826 0.07704738527536392 -0.10671999305486679 0.06417915225028992 -0.019914839416742325 0.007273274939507246 0.02411137893795967 0.0745810717344284 -0.050963472574949265 -0.0456681028008461 0.06908515840768814 0.013714967295527458 0.011764693073928356 -0.10681916773319244 -0.004176545888185501 0.12036854773759842 0.02057136595249176 -0.05480903387069702 0.03357738256454468 -0.03556011989712715 -0.006631181109696627 0.08831236511468887 0.08409958332777023 0.05786087363958359 0.045974165201187134 0.03935261443257332 -0.08504027128219604 -0.0630759447813034 0.007362773176282644 0.05715692788362503 -0.06622187793254852 0.042604926973581314 -0.05741032958030701 -0.07054527848958969 -0.12842445075511932 -0.059297826141119 -0.01773371547460556 0.01013366412371397 0.04551133140921593 0.07430858165025711 0.05835704877972603 0.05104059725999832 -0.06295835226774216 0.1484300047159195 0.09206221997737885 0.09620528668165207 0.04895264282822609 -0.0001614712382433936 0.01883777789771557 -0.04394204914569855 -0.049822065979242325 0.05154450610280037 -0.06529528647661209 0.014960153959691525 -0.014396203681826591 0.10422540456056595 0.07221117615699768 0.08073905110359192 -0.10723202675580978 0.04297440126538277 0.03291873261332512 0.046091340482234955 -0.032957255840301514 0.03465903922915459 0.11547824740409851 0.01808011904358864 0.016223862767219543 0.12382034212350845 -0.02768980897963047 0.06733184307813644 -0.01126920711249113 -0.08153223991394043 0.05189915746450424 -0.10745399445295334 -0.0517340824007988 -0.019151980057358742 -0.19389396905899048 0.01414352934807539 0.014078721404075623 0.049341972917318344 -0.013043289072811604 0.04244409501552582 0.09316429495811462 0.001125206472352147 -0.027570649981498718 -0.019121956080198288 -0.012211441993713379 0.04964357614517212 -0.09700606018304825 0.0073507605120539665 0.03230101242661476 0.15110448002815247 0.024409640580415726 0.08704210817813873 -0.006103006191551685 0.02371300756931305 -0.015539643354713917 -0.030150432139635086 0.029097067192196846 -0.007943197153508663 -0.06460561603307724 -0.06423059850931168 0.06327848881483078 -0.05064980313181877 -0.11250589787960052 -0.01579413376748562 -0.003165869042277336 -0.019571712240576744 0.015030467882752419 -0.005713185761123896 0.09200754761695862 -0.06946656852960587 0.015103559009730816 0.03912238031625748 0.047628942877054214 -0.024328134953975677 0.047773294150829315 0.042584117501974106 0.1773524433374405 0.04761538654565811 -0.031028226017951965 0.02744123339653015 -0.03588857874274254 0.042069610208272934 -0.11154507100582123 -0.09961080551147461 0.012770072557032108 0.016631608828902245 -0.17378966510295868 0.05225861072540283 -0.022618047893047333 0.05273008346557617 -0.0014499527169391513 0.08617155253887177 -0.005502688232809305 0.12152938544750214 -0.07102929800748825 0.11849348992109299 -0.00410510553047061 -0.05092611908912659 -0.006658362224698067 -0.04013554006814957 -0.04801228642463684 0.006487053353339434 0.054599981755018234 0.02596556767821312 0.00413055345416069 -0.009507286362349987 -0.01479454804211855 -0.028150217607617378 0.060898203402757645 -0.0686623752117157 -0.02488102950155735 -0.03934348002076149 -0.025477604940533638 -0.03884018212556839 0.016921674832701683 -0.007152681704610586 -0.11029916256666183 -0.04658075049519539 0.0012742961989715695 0.020447609946131706 0.04333720728754997 -0.07395400106906891 0.15227825939655304 -0.03143208101391792 -0.018537303432822227 -0.07638893276453018 -0.011328266002237797 0.0752904862165451 0.053188107907772064 0.038995787501335144 -0.06402669101953506 0.07045365869998932 0.015720544382929802 0.012826787307858467 -0.028053628280758858 0.025609508156776428 -0.006822588853538036 0.12376801669597626 -0.05226388946175575 0.023877300322055817 -0.046891700476408005 -0.043620191514492035 0.09004300087690353 0.04301302134990692 -0.0039207241497933865 -0.005764253903180361 0.02204429917037487 0.08248408883810043 -0.04876349866390228 0.048363376408815384 -0.059585925191640854 0.021251434460282326 0.04731978848576546 -0.08148367702960968 0.0711517333984375 -0.0037913331761956215 -0.03176216408610344 0.027408389374613762 0.05092703551054001 -0.07245628535747528 0.02008037641644478 -0.061692316085100174 0.11820428818464279 -0.013704445213079453 0.06965391337871552 -0.05979465693235397 0.017072567716240883 0.06944673508405685 0.15385493636131287 -0.03099401295185089 0.008792975917458534 -0.07730324566364288 -0.04113242030143738 -0.12177889049053192 -0.006037415936589241 0.07143530994653702 0.038327645510435104 -0.0026723616756498814 0.06203978508710861 0.03771514445543289 0.08082132041454315 0.0886479914188385 -0.004814406856894493 -0.016286326572299004 -0.004164994228631258 0.010874731466174126 0.03206055983901024 -0.06223582848906517 -0.04421204328536987 0.042946334928274155 -0.06297708302736282 0.012673599645495415 0.015532768331468105 -0.1092483326792717 0.06654104590415955 -0.14055614173412323 -0.011920461431145668 -0.0373217836022377 0.004712244495749474 -0.06904549896717072 -0.13869811594486237 -0.07080799341201782 0.038531288504600525 0.059916600584983826 -0.12066241353750229 0.051370084285736084 0.0392390713095665 -0.01709761656820774 0.03115176595747471 0.035730596631765366 -0.013825471512973309 -0.08449777960777283 -0.06257800757884979 0.05104433000087738 -0.03383563831448555 0.046262484043836594 -0.08395028114318848 -0.09459492564201355 -0.04256969317793846 -0.02874036878347397 -0.13873715698719025 -0.0012825416633859277 -0.05404972657561302 0.014232366345822811 -0.0056184870190918446 0.09592793136835098 0.04455256089568138 -0.15005384385585785 -0.012513634748756886 -0.004627082962542772 -0.023011693730950356 0.025053001940250397 0.038477540016174316 0.021813174709677696 -0.10447023808956146 0.06830532103776932 -0.049317486584186554 -0.06160442531108856 0.08793193101882935 0.12951131165027618 -0.013116810470819473 -0.021090475842356682 0.012482591904699802 -0.0412018783390522 0.0955064669251442 -0.03973374515771866 -0.07192903757095337 -0.11067530512809753 0.046138372272253036 -0.0361749529838562 -0.029412435367703438 0.004200143739581108 0.06558535993099213 0.030360305681824684 0.11720667779445648 0.08743548393249512 -0.08926086127758026 0.000770028680562973 0.0187492948025465 0.07364743947982788 -0.0030259471386671066 -0.016946138814091682 -0.01463273074477911 -0.037845395505428314 0.08311013132333755 0.08140122145414352 -0.029552916064858437 -0.0002813573810271919 -0.04469608888030052 -0.06770651787519455 -0.020161522552371025 0.02033550851047039 0.021784590557217598 -0.056097760796546936 0.08540148288011551 -0.009654375724494457 -0.0074314516969025135 -0.019206490367650986 -0.13208559155464172 -0.026077212765812874 0.015448606573045254 -0.05451828986406326 0.03442740440368652 0.04854808747768402 0.017100701108574867 0.09360484778881073 -0.055475231260061264 -0.04667896032333374 -0.09570880979299545 -0.05908887833356857 0.13629664480686188 0.08782212436199188 -0.0560077428817749 0.054856665432453156 0.005301423836499453 -0.010171676985919476 -0.02017642930150032 0.04340658709406853 -0.026225194334983826 0.00022893158893566579 0.08747171610593796 -0.005453852936625481 -0.0554356649518013 -0.05978463217616081 -0.03647133708000183 -0.016972947865724564 -0.06589727103710175 0.024898074567317963 -0.08058824390172958 -0.012253200635313988 0.10889655351638794 0.18060055375099182 -0.07175327837467194 0.09366417676210403 0.03482672572135925 -0.06879223138093948 0.07399612665176392 0.00919331144541502 -0.004879864864051342 0.06515518575906754 -0.07556834816932678 -0.07026845216751099 0.10244856774806976 -0.08231678605079651 0.015317006967961788 0.00848639290779829 0.10107222199440002 -0.11593156307935715 -0.07913964986801147 -0.04633207246661186 -0.0030449414625763893 -0.020115574821829796 0.03156030550599098 0.022173205390572548 0.06402678042650223 0.029285382479429245 0.059187836945056915 -0.0722871944308281 -0.1177920550107956 0.0010121455416083336 0.011173073202371597 -0.002565056551247835 0.02173507586121559 0.029011284932494164 -0.01027704682201147 -0.010679091734912665 0.025509947094355372 -0.17394381149453403 -0.12740532660147502 0.04411306228326027 -0.13822063482408467 -0.005142441872749407 0.01791891357946374 0.008493898936661496 -0.02101839030444923 0.016829660406116595 -0.18833750009936776 0.01645743125323183 0.04244219646320186 -0.01972251130542897 0.0910694293412212 -0.02520819101698327 0.11968734449039192 -0.09428910611216901 0.040370423354177475 -0.06786177352302518 -0.03512075003958008 0.007524436419618175 -0.04717409009267478 -0.002522348258284979 0.032257028921362216 -0.06129369435068112 0.08465133487151445 0.007434451173658599 0.06805125384384507 0.07034906110968991 -0.03301072913985937 -0.034973814491142424 0.05292606810732343 0.016917043528026345 -0.07827349483755422 -0.014406476037599321 0.04392429790143886 -0.04285239673404613 0.06896483297649711 -0.020830084872679292 -0.009259236417493577 0.06120909159753511 0.03184551377939874 0.07976908375808635 0.036102288231342886 -0.1061505812496135 0.02099004756338518 0.03710690033695991 0.06537056202570497 -0.04070177109513249 0.17946202699986044 0.039624211703941994 -0.0501074233981893 -0.032413720933181844 0.018018896062205525 0.02451555666263337 0.06487301299817552 -0.028640363971991475 -0.0190230536580079 -0.08992335050841291 0.02582462167277329 0.06658038114888604 -0.01829114260140095 0.031250831193513004 0.023790365027523803 0.07650460753740265 -0.023479217843731588 0.004018526441750866 -0.007321727058148368 0.015368073864454528 -0.04565535440267633 0.047645717377726944 0.03706542048516147 0.005241949639328617 0.021790050030380526 -0.069328175073769 0.04697725743191886 0.033034058053374386 0.053192326488193824 -0.06459061450087077 0.020724901782885486 0.06903668743312405 -0.005171734185033235 0.08176832596109995 0.044830824427782745 0.08121223631407333 -0.031900347343263205 0.014042437151291503 -0.020925820518504657 -0.020892504015420803 0.024058011824824217 0.05686438444896285 -0.11931714766121321 0.009556372384673866 0.10257933926857073 0.015763428401567886 0.026959711202554717 -0.06980042817887651 0.009362885203371477 -0.055194564937062 -0.022433252595135397 0.025043944207223896 -0.04387322849497649 0.018933158624289376 0.014816908770278194 -0.04848030837827229 -0.04835070732127443 -0.025130954673827484 -0.05949676689893312 0.013348334762974484 -0.03575640306154501 -0.022603967795817897 -0.07840432511456481 -0.017295093790021056 0.0049052050231121564 -0.10686945338263477 -0.11171262364285148 -0.06642331571642955 -0.034805091417624306 0.04370776250196341 0.12888202550153388 -0.03828934336474983 -0.04050717296090398 0.051785612661139846 -0.12331099419607813 -0.03730600761173285 0.06186359175355639 0.057830709529700895 0.03999682429970939 0.04470388204845542 0.017913304208923658 0.09429303701648632 -0.08204703039500467 -0.11660209009935839 0.000878919903065449 -0.08136061259174311 0.026707545236172008 -0.06240948136301084 -0.031262336523568156 0.02678697513016486 0.01000516387908738 -0.0425675880310802 0.10029776489468357 -0.024494415319849205 -0.029777772108039845 0.08950362614644627 -0.0015412203766895782 0.02546173630950924 -0.09866110389319345 -0.04583278013966595 0.00894870757608868 -0.08292061602003974 -0.06368745893856366 -0.0023059221111689605 -0.08651728493196895 0.08820830361297251 0.07906756016614269 0.051680812063275704 0.006761759612508472 0.03853760730777266 -0.04975989930654106 -0.02421226756674909 -0.06977646194532354 0.0012898672793359633 -0.06177990137842299 0.025323152280052393 0.004360161031922588 -0.02432074032400626 -0.15092314057388398 -0.08390298811517727 -0.08418037798323262 0.06951023141299574 -0.04210753964545281 -0.0058212273702530236 -0.03299293759083558 -0.04788557832347678 -0.03899957004905951 0.06209985242316046 -0.07112256799866973 -0.01720513932134656 0.04961166429554427 -0.0523186942222776 -0.0730605177225956 -0.022978724545904394 -0.11592102594740379 0.019331399216227226 0.06754391147773961 -0.03497010094371268 0.12951186267871906 0.04095490305123958 0.012385948177962387 -0.09249896963083538 0.009915701431775571 -0.0489716372630916 0.03753397176140329 0.08634554897668315 0.07097320756065352 