0.16119291489478343 0.09550493035073536 0.013284507644385617 0.07543321944520362 -0.04884500689575967 -0.013704754709017775 0.035553994808635844 0.09029046331814874 0.03130091160051448 -0.0025245805058476236 0.09357934816155195 0.01901333493035663 0.05965935711301249 -0.07891665128741832 0.15381213601306912 0.041101364349861155 -0.09239551056160814 0.007615981359989561 0.05667716442034841 -0.040129942522570315 0.014417557893893311 -0.05241354336257257 -0.04755235252801784 0.01618131557736795 0.056182503240240426 -0.037294029879310964 -0.07498284368055197 0.03827734505105312 -0.033761829527477 0.2445606109713598 -0.0657203859665747 -0.010963229330548782 0.18516167526495692 -0.10517083698862555 0.010035712780770452 -0.09290796071953063 -0.16800330273691091 0.044673300154952654 -0.001464914234163756 0.035353119650142574 0.006986628253803441 0.009104440474347537 0.05230251021221329 0.00325357324726577 -0.0236783110414723 -0.0459387945370491 -0.05831306821598426 0.011738167489157654 0.019644800231588693 -0.012462734408905224 0.011285708458555666 -0.07062791303638788 0.013302225841147304 0.010412740092533717 0.06849209541305827 -0.051314405868186905 -0.07711248215885863 -0.12637172317390516 -0.0947330043497434 0.06381716671070477 -0.020564132095873135 -0.10747076599289404 -0.020206926152068518 0.051916834717472264 -0.05720214745595227 0.045633620862909986 -0.015265937473371082 0.04040376303790433 0.025264355079143475 -0.07482098119423534 0.1460497030881348 0.07801919644368258 -0.11516888645425728 0.08556714960457631 0.08514370624858611 0.08140477646422549 0.010962317411130532 -0.025523963029658057 -0.05568009986370471 0.06144567100535093 0.08630783039020634 -0.039304886172671964 0.06464664282975176 0.12087886830245143 0.007506787983615111 -0.2190980081387338 0.013990421382865896 -0.01335455088376529 0.026243780338912462 -0.03011120223698571 0.07878012967610372 0.007894023722843672 -0.12194740242485491 -0.0769769056966516 0.002668757538592004 -0.013327751855103607 -0.06556492108119388 -0.006645608581695122 -0.03961518855872573 -0.05551272822296519 -0.09912388463274832 -0.04893820470676734 0.10569110031509857 0.10802258248734684 -0.14970774044829516 0.07554738349902045 0.011564939219090516 -0.060833668887509545 -0.058634484982434475 0.09352322734597335 -0.095573262479657 0.08058798234662197 -0.15418586151342575 0.05493434524749467 0.057868195165142196 0.0617477139344342 0.031120946779046837 -0.008224466748015887 0.06385419696142519 -0.033470807592554185 -0.008890525477982329 -0.0053815980233265556 -0.015471686084161926 -0.10049384824908232 0.08063240315605137 -0.12114938359648135 0.05635435471818499 -0.0006048076029463885 -0.1024501439187358 -0.05980493471011743 0.0986542360300308 -0.11524940965400383 -0.059251393508925214 -0.03139888386100162 -0.06850948515330936 -0.022968958413561447 0.02438666700215177 0.07984196760749224 -0.14366542825701797 -0.05456509774864607 0.05910042439858038 -0.004548294003854278 0.11982005759103959 -0.0649014411437277 -0.08528295166239498 -0.03654668629044895 -0.09390878897093366 -0.014171650416952312 -0.14677660449926175 -0.01627770651206679 -0.0757555224769135 0.024091143474128118 0.12286677882064798 -0.09386065897726438 0.055972081510249926 -0.005151589471387642 -0.00995344248846625 0.06028116253641326 -0.007928189988697416 0.046909357366085584 -0.11608572189627198 0.024706923199391755 -0.14194591661933492 0.07696014473601476 -0.1450130078722016 0.07466112545501212 -0.002103834896730766 -0.049402077593002025 0.030203388700254356 -0.04734918368555641 0.00024477870107296766 -0.07376830450141209 0.029923018878183806 -0.0377330288005673 0.09342552120839274 0.12175562694352195 -0.10568203968011224 -0.016919888956351114 -0.0029119599453760856 0.10252920175495214 0.05585712889018881 -0.08493352629282955 -0.18295416244225995 -0.11105585511672486 -0.02829056014765438 -0.044660425171195735 0.033040284067466924 -0.03615275448252494 -0.08134260807252697 -0.04852336483815579 0.03743392357630541 -0.04610121348920563 0.030319815075253387 0.030037377939163657 -0.017790116398792993 -0.04529567040360497 -0.0430376921901293 0.07079398510192147 0.10801392006306584 0.08625628308336492 0.07953725010156631 -0.07334872335195541 0.08413595706224442 -0.012018091045320034 -0.044318798929452896 -0.011604337953031063 0.04477258771657944 0.03470132499933243 -0.12396907806396484 0.048347633332014084 0.013534057885408401 0.052818819880485535 0.005620812997221947 0.032370127737522125 -0.03566023334860802 0.12560778856277466 -0.016804199665784836 0.0026134473737329245 0.016612960025668144 -0.0315382182598114 0.10189353674650192 -0.12088533490896225 0.016350476071238518 0.03659593686461449 -0.07910678535699844 0.0776701271533966 0.07533124834299088 -0.06718560308218002 0.01303368154913187 0.022399799898266792 -0.03334711492061615 -0.10528367012739182 -0.027414821088314056 -0.01566893793642521 -0.07209376990795135 -0.032389361411333084 0.1268472522497177 0.0013898881152272224 -0.07354655861854553 0.19098065793514252 -0.040249016135931015 -0.058586981147527695 -0.1512044221162796 -0.0794404074549675 -0.026729820296168327 0.0028874005656689405 0.06675665080547333 0.1022205725312233 0.033909015357494354 -0.0336315892636776 0.057154543697834015 0.024250352755188942 0.030891643837094307 -0.0033629306126385927 0.07177159190177917 -0.10430161654949188 -0.009809531271457672 0.05988132581114769 -0.007257360499352217 -0.023512015119194984 -0.01020375732332468 -0.07472962886095047 -0.04013101011514664 -0.14411962032318115 0.05362126603722572 -0.06172676384449005 0.03771786764264107 -0.04162793979048729 -0.13934928178787231 0.015742292627692223 0.06362216919660568 0.0671192929148674 -0.02799111232161522 -0.0037519645411521196 0.0979999303817749 0.02748970501124859 -0.015011242590844631 -0.14885015785694122 -0.02025327831506729 -0.03727190941572189 0.033416613936424255 0.015828575938940048 -0.052958838641643524 -0.04822349548339844 0.020687365904450417 0.1761210560798645 0.02960236370563507 0.02426183596253395 0.10858935862779617 0.025630366057157516 0.030600864440202713 0.010401920415461063 -0.0588996484875679 -0.16565652191638947 -0.038408637046813965 0.06637033075094223 0.1430387794971466 -0.1206478402018547 0.1935127228498459 -0.03389124944806099 -0.07445540279150009 -0.06889495998620987 0.0901339203119278 0.0078712934628129 -0.12066613137722015 0.04679371416568756 0.00922352448105812 0.02720496617257595 0.007535173557698727 0.02497740089893341 0.19820521771907806 -0.05862605571746826 0.0693717896938324 -0.0990130677819252 0.03137180581688881 -0.08292806893587112 0.05013830214738846 -0.08808013051748276 -0.08396761119365692 -0.034135494381189346 0.07121086120605469 0.1563471406698227 -0.03250892087817192 0.004937099292874336 -0.04870343580842018 -0.040333736687898636 0.0504896305501461 0.02217691019177437 -0.059871602803468704 -0.12069408595561981 0.09176772832870483 -0.039173271507024765 0.03310249373316765 -0.09186579287052155 -0.009706527926027775 0.08954102545976639 -0.001921209623105824 -0.06320198625326157 0.08101290464401245 -0.06590408831834793 0.13003455102443695 -0.03410233557224274 -0.028810111805796623 -0.0556592233479023 -0.007994827814400196 0.023781493306159973 -0.010102160274982452 -0.0024226682726293802 0.01634596846997738 0.09945402294397354 0.009385788813233376 -0.11087130010128021 0.06262622773647308 0.05529256910085678 0.013843059539794922 0.10864140838384628 -0.09763296693563461 -0.06601474434137344 -0.024456949904561043 0.04567475616931915 -0.023835493251681328 0.03182337060570717 0.014111599884927273 -0.09009009599685669 -0.06686020642518997 0.038223475217819214 0.10278131812810898 -0.07439092546701431 0.0702589675784111 -0.03480516001582146 -0.025306208059191704 0.03210387006402016 -0.06607109308242798 0.04902103915810585 0.035070840269327164 -0.02348919026553631 -0.024934496730566025 0.11273570358753204 0.07669956237077713 0.04526985064148903 -0.027717819437384605 -0.05226700380444527 -0.13146786391735077 -0.01544288732111454 -0.057567693293094635 -0.037180375307798386 0.042774613946676254 -0.08708364516496658 0.0064835259690880775 0.023357219994068146 -0.09908446669578552 0.17056161165237427 0.0420973114669323 0.010710358619689941 0.01547370944172144 0.007464083842933178 0.035004716366529465 0.04917549341917038 0.015905728563666344 0.037987153977155685 0.1066446453332901 0.018968384712934494 -0.03556128591299057 0.018947290256619453 -0.05129443481564522 0.04632497578859329 -0.020167697221040726 0.05240943655371666 0.017994500696659088 0.05509989336133003 0.0025641985703259706 0.13126595318317413 0.022724097594618797 0.02331177331507206 0.04035962373018265 0.021563516929745674 0.058736998587846756 -0.08498486876487732 -0.033675212413072586 0.027128862217068672 -0.010994014330208302 -0.14740954339504242 -0.053685784339904785 0.022010430693626404 -0.07944326102733612 0.013550647534430027 0.061842888593673706 0.039284367114305496 -0.05628097429871559 0.12236060202121735 -0.12191041558980942 0.0007366474019363523 -0.0022258723620325327 -0.14255061745643616 0.015108529478311539 0.005360457580536604 0.0424719974398613 -0.012353161349892616 0.011555010452866554 -0.010729635134339333 -0.08972108364105225 -0.037252455949783325 0.02452310174703598 0.005172396544367075 -0.01848052442073822 -0.051492102444171906 0.08300606906414032 -0.012611784972250462 0.06994263082742691 -0.06467024236917496 0.04420149698853493 -0.03424355760216713 0.043319880962371826 0.12709638476371765 0.018366536125540733 -0.08617517352104187 -0.05758083239197731 -0.03444405645132065 -0.05561983585357666 -0.020251186564564705 -0.05123558267951012 -0.016915911808609962 0.04194018989801407 0.024991968646645546 -0.02765054814517498 0.010647764429450035 -0.03300563991069794 0.114931620657444 0.16309790313243866 -0.06554926186800003 0.006213639862835407 0.0015205037780106068 0.00046705640852451324 -0.023988740518689156 -0.029585683718323708 -0.05472259223461151 0.10993414372205734 -0.03100994974374771 -0.0847959816455841 0.03446049243211746 -0.039796311408281326 -0.0668916255235672 0.01625296287238598 0.005304985214024782 0.024584831669926643 -0.058956705033779144 0.09905485063791275 0.07777546346187592 -0.005597458686679602 -0.02618282288312912 -0.03531422093510628 0.08871191740036011 -0.019182328134775162 0.09332267194986343 -0.009318174794316292 0.0037967818789184093 -0.035306356847286224 0.01584385335445404 -0.12473823875188828 -0.04415366053581238 -0.07846274226903915 0.013471635058522224 -0.045793186873197556 -0.0132064213976264 -0.05587601289153099 0.14113327860832214 0.050982967019081116 0.06272152066230774 -0.07146130502223969 -0.05080612003803253 0.13896137475967407 0.10874652117490768 -0.04630884528160095 -0.006904399022459984 0.05023029446601868 0.035241711884737015 -0.0638415515422821 0.018916768953204155 -0.0011289763497188687 0.03852904587984085 -0.07125916332006454 -0.105127714574337 -0.010054977610707283 -0.015447384677827358 0.04411325603723526 0.005102499388158321 -0.006711302790790796 -0.015373551286756992 -0.023468147963285446 0.033650241792201996 -0.06590817123651505 0.02272658236324787 0.06870029121637344 0.037801921367645264 -0.11799617856740952 -0.00019369751680642366 -0.042235128581523895 -0.0696144700050354 0.015267950482666492 0.011793399229645729 -0.03901821747422218 0.03948887437582016 -0.06840847432613373 -0.07363401353359222 0.07849118113517761 0.12778621912002563 0.006363042164593935 0.027043648064136505 0.004140360280871391 -0.028333112597465515 -0.06906317919492722 -0.03093196079134941 -0.11509434878826141 -0.030720843002200127 0.0007023325306363404 0.036048248410224915 0.06069246679544449 0.03351634740829468 -0.03346385806798935 -0.025376562029123306 0.00884090457111597 0.05180793255567551 0.03332395479083061 0.041506461799144745 0.04504035413265228 -0.0017855316400527954 0.0029661115258932114 -0.026614032685756683 0.020714960992336273 0.02489289827644825 -0.04348384216427803 -0.048693761229515076 0.0027267830446362495 -0.01008099876344204 0.022947760298848152 -0.004079485312104225 -0.15537603199481964 -0.02166956104338169 -0.04552163556218147 0.014188727363944054 0.11507905274629593 0.06957778334617615 0.046010468155145645 0.0013925092061981559 -0.030372988432645798 -0.12840059399604797 -0.0917406976222992 0.07862915843725204 -0.0007726147305220366 -0.03155903145670891 -0.03847334906458855 0.04113705828785896 0.05535569787025452 -0.05492217466235161 0.039142630994319916 0.004678784403949976 0.007852149195969105 0.09831909835338593 0.08286871761083603 0.05786735564470291 -0.020482164451760137 0.05797344471865634 -0.08979342788406808 0.001818905208617288 0.018608728820244162 0.061519407677044294 -0.08329619106285041 -0.01985401381105101 0.02949919887152789 0.06416319976097068 0.05267885254821968 -0.018720251041470324 0.005717428529105214 0.05031021908273221 0.12436881231596668 -0.0026925988757545575 -0.007820418377942326 -0.05567963886266961 0.02158689889281859 0.12398424487989665 0.06641271373754043 -0.036082841441393766 0.037861482850562976 -0.021748339798450395 0.026299520251635528 -0.026126324482833058 -0.09930868393234839 0.003550041136758069 -0.10470732613609164 -0.10055032050229079 -0.0052679573579975615 -0.066908415183599 0.1505409060078789 -0.024649675539004413 0.023738904130912356 -0.05132353060139772 0.049768013788576794 -0.08443202010432853 -0.05198701423185337 0.015912842394651374 0.02928707038325472 0.03314474111275807 -0.006908212391491037 0.04933382766921092 -0.13026363544967598 0.002721880000398869 0.10868292326495885 -0.03741543163410262 -0.07148238116784035 0.11777961563260803 -0.04717871428425993 -0.05124600213557364 0.022387980553369193 0.014389527004960488 0.015638304183746603 -0.09959109412174953 -0.10282999009707054 -0.11211069879281173 0.11065754917341662 0.12703216395652642 0.11345541626913033 0.11860789886178863 -0.1464148977658381 0.10857197621052014 0.005644751320754948 -0.030955816631200495 -0.0804814375122565 0.06466425104076728 -0.06548587955153842 0.01507767311210939 0.07417979865439352 0.052447288750720675 -0.05459289335475002 0.045729842889642026 0.07910042381658629 -0.04660202905753322 0.0051373543129259935 0.08294498754156905 0.02621432911554836 -0.0429075361948096 -0.14139283807074632 0.06175231413992775 0.04774170478407792 0.03165845528611098 0.03628847160710308 -0.09601218623712532 0.009702809336864949 0.013656419630091421 -0.030017718692728526 0.01632379933629718 0.025515338987924102 0.036340118969058394 -0.10643513388909347 -0.05940767422185724 0.05358738498265286 0.03289974967828289 0.07023369720162445 -0.0570655741100088 -0.039453410760720356 0.09583596260862277 0.04132565419037976 0.006364786703470399 -0.04260520327354335 -0.0065778337597938875 -0.06582059600521394 -0.020731888835597855 0.09350552303320987 -0.002174990502912955 0.0015400755865629156 0.017314220841855684 0.03679679593100444 -0.06825545815749766 -0.04536671003399023 0.002646872713092262 -0.02645107313522083 0.03883142968504444 -0.06915825574929188 -0.04509655169852534 0.09679975352044418 -0.02363989028496498 -0.010286452075137056 0.004729280603039911 -0.16047045729366316 0.06089519476007404 -0.016161809772765896 -0.0629152099373757 0.06479552154189047 0.06449527683274804 -0.01468448329638534 -0.056654876703141545 -0.0013207704948287454 -0.029152525110685328 -0.12922197097460736 -0.03192943194054404 0.10780028666357984 -0.07909470001656521 0.04893410891292883 -0.07178417830913242 -0.05443235936198998 -0.000940699619853492 -0.033942492697084825 0.0046048403451348545 0.18152795174285558 -0.03436028729490482 -0.08149304756768003 -0.016197773936293874 0.015219884094833897 -0.03836203848568055 -0.02040015973184183 -0.02211468457354665 -0.023058907067379394 -0.02511573051370044 0.028150561194290873 -0.03377464423007832 0.025147870986460402 -0.12902621242427273 -0.0940520786069916 0.03885945088347654 -0.056403675837897085 0.037374650630134613 -0.04808874711671053 0.061530155853148125 -0.00964977472535113 0.04912539037976987 0.08332543315171259 0.10964058324900369 0.011566723842215024 -0.11975812781616833 -0.05567494009247107 0.005225621058156469 -0.04412858239586537 -0.08921952216746303 -0.18020428864316368 0.0051726325740604024 -0.020958509816150186 -0.059497167286061664 -0.12044602659629337 -0.009581260565670588 0.13760795880658208 -0.0544539966993399 0.00794107046240036 -0.06990620895681789 0.04467871868539421 0.0317910553161502 -0.035588652031173375 0.00921588800720317 -0.03568257711746533 -0.0030297062645542228 -0.08902317120938755 -0.013406669074472435 -0.006499133546414282 0.03579996015091174 -0.06281052938343376 -0.08808533667216761 0.031767338397218646 -0.10764691258271335 0.07244716681834114 0.10182474099494403 0.028729132581624753 -0.040962867396005104 0.021215474233031273 0.0006425296305678785 0.020576102659106255 0.03008079156279564 -0.04951237142086029 -0.1412932127714157 0.03549150377511978 0.06615284085273743 0.0650850459933281 0.07778704166412354 0.052826177328825 -0.08178607374429703 0.03216481953859329 -0.0651506781578064 -0.042372964322566986 0.005375782027840614 -0.04397601634263992 0.011278517544269562 -0.005373040214180946 0.0010692906798794866 0.08488868176937103 -0.04171828180551529 0.0027293115854263306 0.013789108023047447 -0.13158167898654938 0.12158451974391937 -0.046451058238744736 -0.05985547974705696 0.06604419648647308 0.02092369645833969 -0.012198145501315594 0.05992741882801056 0.006408207584172487 0.09659714996814728 0.01235736720263958 -0.031000802293419838 0.06713483482599258 0.025185123085975647 0.04717631638050079 0.050541166216135025 -0.030480194836854935 -0.03606995567679405 -0.020910194143652916 -0.04451201111078262 -0.013333406299352646 -0.0033876514062285423 -0.09161262214183807 -0.034134410321712494 0.06246080622076988 -0.035003338009119034 0.08218637108802795 -0.02201146073639393 -0.008395795710384846 -0.04061415046453476 0.05687529593706131 -0.04289126768708229 -0.05968327075242996 0.08432260900735855 -0.08050219714641571 -0.03675748407840729 -0.017559722065925598 0.0731671005487442 0.04642725735902786 -0.09534642100334167 -0.058153729885816574 -0.15048660337924957 -0.08836065232753754 0.029526203870773315 -0.045057762414216995 0.0440853089094162 -0.00937647745013237 0.017923932522535324 -0.016477281227707863 0.06847599893808365 0.020996160805225372 0.020946431905031204 -0.004242517985403538 -0.1504611372947693 -0.07681885361671448 -0.17275430262088776 0.09384167939424515 0.0826464295387268 0.054809074848890305 0.04364967346191406 -0.027340753003954887 0.0889543816447258 0.04137621819972992 0.08037427812814713 -0.07757297158241272 -0.002546916250139475 -0.056393902748823166 -0.0811072513461113 -0.07387224584817886 -0.028716325759887695 -0.010831700637936592 0.12124094367027283 -0.02245618961751461 -0.09257283061742783 -0.08616684377193451 0.016205934807658195 -0.06645936518907547 -0.06267516314983368 -0.19082656502723694 -0.05852959305047989 -0.06582532078027725 0.016032354906201363 0.00013192663027439266 -0.08969814330339432 -0.05161259323358536 -0.007413019891828299 0.062229204922914505 -0.052374016493558884 0.03093583695590496 -0.12978054583072662 0.04704393073916435 -0.024155594408512115 0.05360618233680725 0.07747503370046616 0.07255257666110992 0.030096249654889107 0.06729619204998016 -0.019412513822317123 -0.029105374589562416 0.033583011478185654 0.009311478585004807 0.02684631571173668 0.08245447278022766 -0.050937965512275696 0.03998248651623726 -0.05532184615731239 0.010283813811838627 0.014785940758883953 -0.11394734680652618 0.015373935922980309 -0.0904196947813034 -0.05679912120103836 0.04328573867678642 -0.02955663949251175 -0.021254245191812515 0.031770166009664536 -0.015448915772140026 -0.04716522619128227 0.0255025215446949 -0.05237022042274475 0.0032987939193844795 0.04810503125190735 -0.07608798891305923 -0.008025935851037502 0.05260320007801056 -0.02676962874829769 0.05912089720368385 0.0330163910984993 -0.008300919085741043 -0.1100311428308487 0.09126697480678558 -0.021636828780174255 -0.0324229896068573 0.026209000498056412 -0.03291891887784004 -0.030917605385184288 0.025507336482405663 -0.05173719301819801 0.04807203263044357 0.09911278635263443 -0.01981864683330059 -0.08761455863714218 0.03823676332831383 0.13236287236213684 0.004405840765684843 0.030368411913514137 0.06989087164402008 0.059851717203855515 -0.0748278796672821 -0.005831622984260321 -0.07090184092521667 -0.025547154247760773 0.01068761758506298 0.23189842700958252 0.07559586316347122 0.043363045901060104 0.01608019880950451 -0.07043363898992538 -0.16463902592658997 -0.06307143718004227 0.019905392080545425 0.007800381630659103 0.03502430394291878 -0.054645657539367676 -0.01220496091991663 -0.03241175040602684 0.006462928373366594 -0.0660843551158905 -0.009023569524288177 -0.0016496205935254693 0.04118458926677704 -0.06158634275197983 -0.045762669295072556 0.12676803767681122 0.0038356801960617304 0.00424154382199049 0.09554005606973252 0.0749482296963494 -0.057607779477939415 0.022680714551597713 0.057738045599323974 0.010123842124874695 0.032650129463535606 0.07658167028772477 0.006403717704046739 -0.018007443911256523 0.052100170376123266 -0.08549312587920314 0.0206864976839824 -0.11017722583895162 0.020963580254492586 -0.10855132655209085 0.057894122327028265 -0.003159790139243405 -0.04244602335890367 -0.0073051715712366926 0.044953525542093115 -0.0359369252515005 -0.056418055646454406 0.03220298247050025 0.1203703705282102 -0.1038638323277955 -0.010578960431891141 -0.0070982858856750465 -0.03926463686472934 -0.12106589430145041 0.11123885202359397 -0.10005775711671916 0.07112053110525515 -0.09866396547766956 -0.037167985481021786 0.08800284079687161 0.025597980729862274 -0.03799142370544276 -0.02592941678303445 0.046563805877759816 -0.07125863029547236 -0.14824335577989978 0.057132408092947014 -0.01733588642352979 -0.026980336487953196 -0.009278225458643182 -0.031488246381023224 0.04595773129594259 0.014363371318532396 0.10060219152279222 0.07465112042782993 -0.019202315071679694 0.049189515939131796 -0.05355394177357233 -0.045028209100284516 -0.006544553376500633 -0.03576566611626076 -0.11888933850778106 -0.0687240404827007 0.06742978900553426 -0.006774670380934431 -0.08061963300113564 0.06841266432101863 -0.013862919656337918 0.03982643647476639 -0.04083972506556693 0.0377010524631699 0.007102943957080154 -0.09840068670521214 0.04462984351102366 -0.019489121706866286 0.10874562216176405 -0.10798453429441433 0.16527829709732844 -0.03274663198282536 -0.005697811611710918 0.01653194667281079 0.08513349756293452 -0.06378619689366971 0.03649396800943643 -0.006306900148742986 -0.026884252098960927 -0.17720510018564248 -0.0044527621411485875 0.0035859915254155216 -0.001012677709834606 0.011678924048437416 0.03390722657890501 -0.04855322259615227 -0.08641948879958455 -0.20037551876815457 -0.10410746309013767 0.028864196570816923 0.05261025524280357 -0.0422566528295257 0.09882525758016397 0.08336713523620642 -0.0670607492148329 0.01207244793587381 -0.1390052563787475 -0.06893004158990831 -0.018653922327692477 0.08331643809410455 -0.14117447845082307 0.034881347256057 -0.16780436268876017 0.012422249181111969 -0.044572353935728636 0.015619517426114693 -0.09799045804227309 0.13415001447426236 0.03279561999010605 -0.0380282682512283 0.04417322338102971 -0.008096737220844731 0.01719891104389269 0.07640441900318974 -0.09392091665801665 -0.08579047486707467 0.04467158048677023 -0.09728546361192007 0.048112135678379 -0.0285653824413847 0.0717194646130004 -0.02713883002513692 0.07468203881828435 -0.019370749415116816 -0.1085914341343093 -0.09913662163945834 -0.014630352114816725 0.04965328039017071 -0.060339511718960445 0.10009543059652844 0.06645320018967454 0.025214745125292964 0.014199618057503981 0.0572966658078964 0.013262481698377196 -0.04947359483429034 0.011073890595378836 -0.04809112819245344 -0.0778718223008888 -0.04281555560550351 -0.043203749488251085 -0.005354571773947718 0.07539004422102089 0.00238604596654173 0.004398947037828011 -0.0663356928925058 -0.0500423754926035 -0.006910703312590113 0.05454353151516701 0.007278276840408219 -0.022281721060626244 -0.14106061528946692 0.0302315433658391 0.016608465619574 0.058874954328586436 0.050347930280840336 -0.007326998362688475 0.0346301792977879 0.03923657951521048 -0.14111322404692836 -0.07367726524265056 0.017469829397406763 0.08906930321382388 0.049103391759377266 0.06061063422409156 0.07211216981719687 0.13889282307994555 -0.06389153465720494 -0.06423552287511858 0.018822920328433593 0.0941162975736511 -0.02457975717411615 -0.04034230035911631 -0.14107829223199522 -0.04892695046024616 -0.07147149707819747 -0.02943550949079601 -0.07654044622899361 -0.020035573735269607 0.02847875587158136 0.04439790347235702 0.04055542854151289 0.029465257784383164 -0.0012776140180147646 -0.10321480457893661 -0.05755770057452986 -0.049452955601886804 0.09700855944577083 -0.030065169792698583 -0.12274709981302277 -0.05724274957669685 0.017818964885103598 -0.05221494462164592 0.0257510785170029 -0.11377532620162145 0.0033450908577199803 -0.09552406436049067 0.011849203146994114 0.1165781021118164 -0.06284824013710022 0.06533133238554001 0.08496814221143723 -0.03917693719267845 0.06040702015161514 -0.01877671666443348 -0.019837848842144012 0.06932324171066284 0.009688135236501694 0.007187629584223032 -0.01034692395478487 -0.010843485593795776 0.03098335862159729 0.027581514790654182 0.13805589079856873 0.003990238066762686 0.036956265568733215 0.06551842391490936 0.04243966564536095 0.00474161934107542 0.04835217073559761 -0.013552745804190636 0.022486859932541847 -0.05622326582670212 0.08313727378845215 0.02845892496407032 0.018574869260191917 0.06146739050745964 -0.0015079110162332654 0.03006291389465332 0.05773656815290451 -0.008825134485960007 0.05316455289721489 0.11971288919448853 0.08520791679620743 -0.09098398685455322 0.23721416294574738 -0.010670237243175507 -0.03842182829976082 0.09476568549871445 -0.08417975157499313 -0.027133051306009293 -0.019898463040590286 0.05147736519575119 -0.0002787130943033844 -0.06083638221025467 -0.07847505807876587 -0.0004497916961554438 0.1330169439315796 0.018012596294283867 0.004530863370746374 0.11574289947748184 0.07254832983016968 -0.04163192957639694 0.06443370878696442 -0.014943646267056465 0.010862544178962708 -0.013775178231298923 -0.12744903564453125 -0.041557054966688156 0.09632556885480881 -0.014059471897780895 0.09374216198921204 0.09538322687149048 -0.09257013350725174 -0.031489524990320206 -0.10905427485704422 0.16458085179328918 0.025296617299318314 -0.05042155086994171 0.0029615212697535753 -0.11508781462907791 0.015333355404436588 -0.028713395819067955 -0.10299529135227203 -0.028056908398866653 -0.14967823028564453 0.08633115142583847 -0.022384362295269966 0.022992214187979698 0.007998434826731682 -0.03254557400941849 0.0480276420712471 -0.069139763712883 0.13287188112735748 0.11045227944850922 -0.0736478641629219 -0.07815713435411453 0.05431666970252991 0.021153001114726067 0.02131740190088749 -0.06747434288263321 -0.0008777862531132996 -0.028610052540898323 -0.024614259600639343 -0.13623841106891632 -0.04646650329232216 -0.12534911930561066 -0.1493678241968155 -0.07400194555521011 -0.04597656428813934 0.06635873019695282 0.09959135949611664 0.05200750753283501 -0.06844670325517654 -0.04439341649413109 -0.020748356357216835 -0.04319409653544426 -0.005425306968390942 0.01797814853489399 -0.03201284259557724 6.706789281452075e-05 -0.0002456975926179439 -0.10299824923276901 -0.021346155554056168 -0.03953607380390167 0.13262788951396942 -0.13941586017608643 0.018306104466319084 -0.09234759211540222 -0.14300666749477386 0.04117092490196228 -0.05090155079960823 -0.08283324539661407 0.020434916019439697 -0.20684993267059326 0.026286663487553596 -0.04191259667277336 -0.022168995812535286 0.017756784334778786 -0.06252583861351013 -0.027535688132047653 -0.0010829917155206203 -0.04240903630852699 0.015213405713438988 0.014241266995668411 0.0572718121111393 -0.08416111767292023 -0.05456225574016571 0.06568630039691925 0.07024138420820236 0.010358969680964947 -0.053889110684394836 0.11265973746776581 -0.0214973296970129 0.017377763986587524 -0.066253662109375 -0.06751071661710739 -0.022782213985919952 0.06846603006124496 0.0119179617613554 -0.11767981201410294 -0.0013559210347011685 -0.1415289044380188 -0.06564679741859436 0.005807497072964907 -0.07240699976682663 -0.008505601435899734 -0.0904429703950882 0.08313547074794769 -0.06506215035915375 2.544244307500776e-05 -0.011626356281340122 0.07058128714561462 0.011872359551489353 -0.09783970564603806 0.08819109201431274 -0.13963697850704193 0.012891413643956184 0.015940673649311066 0.036881256848573685 0.10737712681293488 0.07483721524477005 -0.04801119491457939 0.08306092023849487 0.02386919967830181 -0.1270442008972168 0.030004585161805153 -0.04906317964196205 0.09099335968494415 -0.02496224269270897 0.08096275478601456 0.143962562084198 0.020848946645855904 0.03490311652421951 -0.05383794382214546 0.030156489461660385 0.07342031598091125 -0.05116482079029083 -0.08305169641971588 -0.025685952976346016 -0.03414778411388397 -0.08496654033660889 0.09001518040895462 -0.0260760560631752 -0.049863770604133606 0.04228033497929573 -0.00805342011153698 -0.038344137370586395 -0.00830798875540495 -0.05098781734704971 -0.017622388899326324 -0.062488991767168045 -0.18673168122768402 -0.007314733695238829 0.04858074337244034 0.07548746466636658 0.001106329495087266 0.051078587770462036 -0.04714376851916313 0.011146655306220055 0.013879927806556225 -0.08342240005731583 -0.007540524005889893 0.04998455569148064 -0.028086509555578232 0.17260776460170746 -0.009471781551837921 -0.002771875122562051 0.024464117363095284 0.02099653333425522 0.005148362834006548 -0.14195464551448822 0.038783952593803406 0.08619590848684311 -0.08202877640724182 -0.007742475252598524 0.02084852010011673 0.0020930857863277197 0.031858447939157486 0.01156555861234665 0.088326096534729 -0.1256745308637619 0.03522466868162155 0.05865534022450447 0.05136175453662872 -0.00499373022466898 -0.020532717928290367 -0.02862812578678131 0.043575823307037354 -0.04632081836462021 -0.03574884682893753 -0.0470409020781517 -0.05050033703446388 -0.03645734488964081 0.023278677836060524 0.047376006841659546 0.007046466693282127 -0.1105957105755806 0.09231726080179214 -0.006188194267451763 -0.09223322570323944 0.03346467763185501 0.015279438346624374 -0.016801772639155388 -0.08074025064706802 -0.06613855063915253 -0.13167153298854828 0.016987735405564308 -0.0487450435757637 -0.040248382836580276 0.06137225776910782 -0.044098835438489914 0.0348014235496521 0.0905732661485672 -0.03063088469207287 -0.028140930458903313 -0.039864432066679 0.007727188058197498 0.010739178396761417 -0.005111842881888151 0.0691617950797081 -0.09880443662405014 -0.018900297582149506 -0.058166250586509705 0.10619058459997177 -0.047661684453487396 0.046060558408498764 -0.002023083157837391 -0.008059252984821796 -0.04796379432082176 -0.008571608923375607 0.048317164182662964 0.04577053338289261 -0.006113942712545395 -0.14233429729938507 0.017921047285199165 0.004433151800185442 -0.056749556213617325 0.08387158066034317 -0.07022112607955933 0.05869939550757408 -0.13085845112800598 0.008981718681752682 0.016663841903209686 -0.07318129390478134 -0.03012244775891304 -0.028216656297445297 0.08350063115358353 -0.023489609360694885 0.03433769568800926 -0.014421407133340836 -0.02908444032073021 0.09268402308225632 0.05419766157865524 -0.004612970631569624 0.012176473625004292 0.09074431657791138 0.09050995111465454 0.08021489530801773 0.0914328470826149 0.008863717317581177 -0.03558286651968956 0.06744705140590668 -0.10804395377635956 -0.051134590059518814 0.10737325251102448 -0.06986917555332184 0.055739231407642365 0.055392224341630936 0.07234340161085129 -0.007933558896183968 -0.08751054853200912 -0.07442497462034225 -0.042169876396656036 -0.09369460493326187 0.03558941185474396 -0.04153649881482124 0.037417713552713394 -0.0499684177339077 0.037603773176670074 0.01627259887754917 0.034448523074388504 0.061703745275735855 -0.06559903919696808 0.08461719751358032 0.040012575685977936 0.09175120294094086 0.02677214704453945 0.06998266279697418 0.027035502716898918 -0.047317542135715485 -0.07243738323450089 0.016840452328324318 -0.10003703087568283 0.10583565384149551 0.002136342227458954 -0.0007869105902500451 0.1255943775177002 -0.04316849261522293 -0.059195540845394135 0.014483131468296051 0.012437567114830017 -0.0790194645524025 -0.06967588514089584 0.002810704056173563 0.08504479378461838 0.012144764885306358 -0.01377052441239357 -0.04966556653380394 -0.06697385758161545 0.021770168095827103 0.0072912126779556274 -0.03352696821093559 -0.026225080713629723 0.062386464327573776 0.1434188336133957 -0.1493939310312271 -0.026042135432362556 0.01948949135839939 -0.000535312166903168 -0.04562261700630188 0.09665431827306747 0.008910898119211197 0.010117713361978531 -0.03755892813205719 0.11220508068799973 0.02158142253756523 0.07029003649950027 -0.07148592174053192 0.10302708297967911 0.01898227073252201 -0.09566665440797806 0.07315655052661896 -0.038125261664390564 -0.08226200938224792 -0.1018180400133133 -0.08233170956373215 0.010078386403620243 -0.042607422918081284 0.028347907587885857 0.06153677776455879 -0.03955421969294548 -0.06386284530162811 -0.08862938731908798 -0.10007676482200623 0.033567093312740326 -0.038621097803115845 0.02735144859637579 -0.014227060456507264 -0.03827975459247464 0.006797388306019466 -0.09048330053703293 -0.10420803081685594 0.08586809780945052 -0.0024934199520365683 -0.15863197861137582 0.08744172029431545 -0.010662340315423532 0.019892285658661545 -0.005264510974635397 -0.06153128969809132 -0.08154115061857085 0.011668665848953211 0.009510913241232067 0.0004220949967028125 -0.03783309055813087 -0.10841663516455285 -0.036410419000760176 -0.05136272274694499 0.060542437997608736 -0.013053189863417882 0.02352398171398109 0.07651346538766536 -0.05496090562432664 -0.02840619140971343 0.0012807029625457643 0.15930467733967763 -0.010340358178771197 -0.17336445261401415 -0.022677348275148508 0.1063266599778724 0.04466531193790567 0.12114814828477653 0.05343605703086815 -0.09845973638544966 0.024365019030096833 0.004505862938506205 0.031153462881630702 0.004920281792215044 -0.027282714069045717 -0.045560200339401974 -0.025096098213413305 0.000982207227699753 -0.01826838150946145 -0.08281927684241593 0.03927817157558844 0.025753772032266916 -0.035703008154720696 -0.019905894726318044 -0.05235019893731835 0.00324934607510838 -0.03866135743866173 0.06085021984687386 -0.07988919545088055 0.024933651810016857 0.06826631145639331 -0.22441555376738326 0.015354222498125404 -0.026604031929891497 -0.03161972820603671 -0.030314843140543453 0.11593185151452358 0.034766509289580055 0.05137719125176879 -0.050579860612518256 0.09206371262100922 -0.03678038332972201 0.013381342401533738 0.049164670845870825 0.07821662902357059 0.05587099010951133 -0.08661940761968667 -0.02002914885360295 0.03652011151768348 0.03626863953865496 0.10097180056938412 -0.018682012144948874 0.0008350517586958902 0.010629429547555571 -0.07977351547986089 0.001643007056351964 -0.061986029079268146 0.0065413141141509035 -0.03108843048084874 0.0004204817358186647 -0.05560013617221466 -0.07987221280522994 -0.010577744837615184 0.014531473566122388 -0.019214263413273924 0.04029294020408832 0.029452522588418538 0.02350367517489612 -0.06992283867979955 -0.1366542958961197 0.09512184794030965 0.025326744874607825 -0.04125605716323093 -0.0031512739640642013 0.0180049872228326 0.021481177562437444 -0.007793322417593038 -0.08240133054857096 -0.006657214117554437 0.003223313583368548 -0.05371208678534488 -0.004514006585524457 -0.0915798708510805 0.050121672463316634 -0.023072798796413926 -0.011419549627941323 -0.0694247701712953 -0.04055814891608318 0.04244100298812902 -0.03607682064391298 -0.02012276909007836 -0.036411760200441304 -0.02104527605050751 -0.0032711115580480767 0.016890018047830614 -0.080358678574321 0.03325832376002823 0.05048217713103665 0.029930701649486906 0.11847340839417785 0.15140680892365851 0.009082587767644808 -0.04647814271661978 -0.07955401928986126 -0.012127804623441344 0.10461731069737211 -0.015640980436332618 -0.08978557540890848 -0.031372580306480435 -0.01978896497739318 -0.060794693066704236 -0.003949967264036197 0.02181033929630511 -0.09510976769729064 0.01898808758251099 -0.11025448070927775 -0.002186257921935561 -0.002889940652802488 0.10842182470095776 0.11756658481002026 0.015274406534064823 0.00539702102114203 -0.05735066436282867 -0.02951390007769042 -0.023450814902624663 0.04252255763042895 0.09083752652025194 -0.03264192427667871 -0.04751809935909464 0.009079435466953509 -0.02111137122605173 -0.07949838506096325 0.07733999006861554 0.04420976457481331 -0.042561658701095066 -0.02769574421693757 -0.02334655306512069 -0.08200192076353596 0.09815784572811985 0.004319154715843978 -0.09779732898139888 -0.050807377215622014 0.06918642571706941 0.04624744013744065 0.05152472766295137 -0.08703209634918008 -0.06919119770085186 -0.012252259175639947 -0.01484947043515988 -0.05540916692863461 -0.0004289935592096182 -0.009798854989942736 -0.02889515509334703 -0.14905203468891795 0.025859089148969734 0.07554042804326058 -0.009907304489867466 -0.1420606353339508 -0.004507428518404458 -0.09863403945819818 0.019373226945596244 0.006895785104199394 -0.08247089515504541 0.027282023710182932 -0.013869785493547556 -0.06738363673896407 0.0188839048152003 0.015249922319472928 -0.07759733683575958 0.07874648942105958 -0.1112813872765365 -0.04105345178533664 0.01523878239095211 -0.05296239256858826 0.042694855481386185 0.04118688404560089 -0.038613226264715195 0.16647161543369293 0.08099199831485748 0.040913913398981094 -0.05045153200626373 0.030669711530208588 0.0021561880130320787 -0.03474476933479309 0.004576909821480513 0.06245610490441322 -0.057661835104227066 -0.04868217185139656 0.09879221022129059 -0.09619166702032089 0.012299108318984509 0.012877808883786201 0.056914426386356354 -0.021926552057266235 -0.064234159886837 0.07919411361217499 0.09594941884279251 -0.03543766215443611 0.042613912373781204 0.02627771906554699 -0.05559385567903519 -0.1667511761188507 0.0870223268866539 0.08346342295408249 -0.03439658507704735 0.10208069533109665 0.04633885249495506 -0.07357511669397354 -0.004642307758331299 0.03382910415530205 0.04060932993888855 -0.00309906923212111 0.06363817304372787 -0.027707841247320175 -0.0678349956870079 0.064346544444561 0.10826588422060013 -0.028645608574151993 -0.04771287366747856 0.05111830309033394 -0.07668500393629074 0.07636380195617676 -0.1407080888748169 0.06708657741546631 0.004538763780146837 -0.04363264888525009 -0.1301843672990799 0.0520210824906826 -0.14772705733776093 0.01788223534822464 0.05765251815319061 -0.03776930272579193 -0.031414955854415894 -0.14968323707580566 -0.03414824604988098 0.14010286331176758 -0.04335416853427887 0.10912299156188965 -0.04608507081866264 0.042717840522527695 0.03823956102132797 -0.1455235332250595 0.036275748163461685 -0.004010909236967564 -0.02527659945189953 0.014456920325756073 0.03856655955314636 0.015330418944358826 -0.01616554707288742 0.06633269786834717 0.02568347007036209 0.03528253734111786 -0.07776180654764175 0.03586810082197189 -0.03267720341682434 -0.02269035018980503 -0.07230204343795776 -0.03577224537730217 -0.03532160073518753 0.03954121842980385 -0.09614334255456924 -0.023340556770563126 -0.08237410336732864 0.01867803744971752 0.10263203084468842 0.07551243901252747 0.08503596484661102 -0.013768804259598255 0.009292512200772762 0.07628899812698364 -0.0218251533806324 -0.03330254554748535 -0.0654037818312645 -0.04287402704358101 0.02544999308884144 -0.003469036892056465 -0.050381097942590714 -1.4505851140711457e-05 0.005923569202423096 -0.02511509694159031 -0.12583313882350922 -0.11360061168670654 0.11182229965925217 0.08193139731884003 0.006288166157901287 -0.08758364617824554 -0.03828394412994385 0.0887373685836792 0.004281576257199049 -0.025031868368387222 -0.0016709755873307586 0.07511503994464874 0.0844603106379509 -0.09918982535600662 0.02500193938612938 -0.012103189714252949 -0.08626549690961838 -0.06006266549229622 -0.07604969292879105 -0.05666997656226158 0.025543982163071632 0.03926987946033478 0.017730019986629486 0.016664160415530205 0.006686795968562365 -0.010979189537465572 -0.0783144012093544 0.030651986598968506 0.07745809853076935 0.034132931381464005 0.04676946625113487 0.03945435956120491 -0.07593194395303726 0.012302631512284279 0.05367051064968109 -0.04702496528625488 0.007229551672935486 0.02000865899026394 -0.06349705904722214 0.03668220713734627 -0.05243328958749771 0.13916443288326263 -0.0009533562115393579 0.00831931084394455 -0.019052762538194656 -0.013109655119478703 -0.011379675939679146 -0.1448853313922882 -0.02193237654864788 0.024309827014803886 -0.051374681293964386 -0.014991297386586666 0.008668918162584305 -0.006640997715294361 0.07286606729030609 0.04491858556866646 0.013328062370419502 0.017027469351887703 0.01421353593468666 0.0075364126823842525 0.030819924548268318 0.021491123363375664 -0.03812762349843979 -0.05374423786997795 -0.01800963655114174 -0.05455893650650978 -0.037448856979608536 -0.04239743575453758 0.016978291794657707 0.015657570213079453 0.16008634865283966 -0.02081972546875477 0.0628553181886673 0.09674777090549469 0.04146389663219452 -0.01295506302267313 0.069336898624897 0.05647989362478256 0.0724932849407196 -0.03753947839140892 -0.09317419677972794 -0.041959162801504135 -0.017828242853283882 0.07188096642494202 0.04792714864015579 0.08896289765834808 0.058543477207422256 0.027169888839125633 -0.03760673478245735 -0.0657554492354393 0.016970375552773476 -0.026488713920116425 0.0026754145980948984 0.07508416941002372 -0.022639318942200327 -0.03282695258163994 0.03552024132239226 -0.04652992566557275 -0.13835896363227362 0.038753165949299916 0.020851943208590486 0.019435478352010427 -0.06204312634406302 0.06531966598625957 -0.06041943702314826 -0.06798146047947062 -0.011565202061557157 -0.015414030778908747 0.019129058236870222 0.1353293920370958 -0.018590973197991113 0.055307613333557236 -0.05384382519298585 0.08327474178653921 0.016519749362682468 0.08130487132829219 -0.034877910337507013 0.06892946802628803 0.007318379062895606 -0.0776452771673778 0.14837309549716732 0.016569590637018124 0.010272055625197238 0.060955001643364023 0.07857974254169685 -0.02165074503634178 0.024799191233918914 0.02369053202291264 0.10574731585207693 -0.03768568947308868 -0.019636791886205766 -0.04635589447646116 -0.022936685364734245 -0.043062711407231606 -0.01410445602302231 -0.04973161352283883 -0.04467073163536244 -0.043652022469141946 0.03834266806229958 -0.07705640897009339 -0.09787865280897612 -0.027549401177069752 -0.1370077290631067 0.09701884648804558 -0.06380133438498156 -0.004698620052711889 -0.044225109877444865 0.06608052736121556 0.07289468807001348 0.0478095882500607 -0.10849722170152126 -0.10018438993829448 -0.054742939763784096 -0.13447350436357125 0.0008290824166820913 0.19252389337628525 -0.0017390284587121634 -0.06380145981015427 0.1055849500855077 -0.020967713616534524 0.07800858136930616 -0.09590768538228146 0.01125440751094407 0.011254594548379241 0.044254367694735 0.027360412092874983 -0.025873629484892614 -0.0654401817475914 -0.05801205025864162 -0.03691455611976979 -0.0472321197248117 -0.023877847387600154 0.08072299876961969 -0.06950369361698328 -0.02965974225139619 -0.06030904845745153 0.11154751195464899 0.003099427161183192 0.07163827431134297 -0.07351549223588626 -0.09770611190812235 -0.008582638847406511 -0.12360604228847753 -0.005357639772991135 -0.075142084246518 0.02166197008486019 -0.06278306598491731 0.019985109591862157 -0.0007768926605326593 -0.005036957270047994 -0.038182113304262494 0.0017926087194273135 -0.06770035553204107 0.12476068106625397 0.013924971375451947 -0.04860787331141187 -0.0750018588756597 -0.11859887669246741 0.07152239340345261 -0.06727719964499991 -0.07383684754997501 0.0022969552999607943 -0.11561778008546167 0.10571515916615246 0.06659095041394802 0.020733005068839707 0.0990163320645959 -0.06445498680781914 0.022872283832299094 -0.13515560678311536 -0.10768636633491999 -0.07411141848068808 0.02356412658102992 -0.06679813500826734 0.022722109436290966 0.05923128472183231 -0.0543945791430188 -0.08584100458473902 0.05794742405271597 0.04747715531539455 -0.0062672050931302965 0.019352304234179808 0.041143390446573225 0.024210332201786557 -0.039352218450794924 -0.03403825928396317 0.009433761603477088 0.08564713746578297 0.029352279271700348 0.1354231365423662 -0.03623852241772799 -0.031760970171421626 0.01788403413391909 -0.1388620757064014 -0.09395378278270304 -0.05661042970980399 -0.024801632425211113 -0.1358688804732371 0.07407745424928512 -0.11210862585027345 -0.08595679390560597 0.06173667129774713 0.05622351691958891 0.005293552117213355 -0.1281337855993759 0.0559942060559935 -0.023903128944814785 -0.04434615436937161 0.01646987806320145 0.002626338445893563 -0.01789525822559234 -0.03704523739808215 -0.022216672378146406 -0.03210489130833664 -0.0734726635374241 -0.003464771842213378 0.06186455744783869 -0.04971635313239846 -0.04475794553225174 -0.09112445554881328 -0.11001610954411427 -0.08937926073938376 -0.07645245947290155 -0.07864410866647363 0.061764671448823465 -0.04256586525039974 0.07933126451585339 0.08893927928184217 0.04923162859679492 -0.013799894501349438 -0.04519840910384901 -0.043791046497764136 0.047392554087070805 0.013150641437842251 0.02491936353521062 -0.034408236204654774 -0.016739793595807437 -0.057806649689285505 0.03627354584833431 -0.07874017757964602 -0.033660868477600116 -0.061118384669081836 -0.06043844626697472 -0.07314381089813789 -0.06796731427114969 -0.10569249651481362 0.04504580580886205 0.010425820067784365 0.05609315200877185 0.002420024963310463 0.08716778960358684 -0.02273951621788032 -0.00279979663901031 0.061406563967466354 -0.008355459198355675 -0.03948867693543434 -0.037036001682281494 0.018894553184509277 -0.0016844511264935136 -0.006487824954092503 -0.03412342816591263 -0.025999873876571655 0.036306776106357574 0.04589637368917465 0.04379909485578537 0.008873267099261284 0.009502912871539593 -0.08837446570396423 -0.047499880194664 -0.04391346499323845 -0.05405871570110321 -0.03320830687880516 -0.03501470759510994 0.09769029170274734 0.025560595095157623 0.059015460312366486 0.013057365082204342 -0.055445797741413116 0.05078325420618057 -0.013531054370105267 -0.08238532394170761 0.10448725521564484 0.020580081269145012 -0.08137375116348267 0.03262743353843689 -0.09430019557476044 0.10346657037734985 0.0074403779581189156 0.01396946981549263 -0.03767145425081253 0.037979867309331894 -0.10631299763917923 0.06904610246419907 -0.09352707117795944 -0.06637633591890335 0.16907933354377747 -0.08749429881572723 -0.0342986024916172 -0.019865619018673897 0.10793793946504593 -0.06472257524728775 0.0793241560459137 -0.010030647739768028 -0.02983185090124607 0.023832781240344048 -0.08110269904136658 -0.0101822130382061 -0.07242739200592041 -0.11544588953256607 -0.10542917251586914 0.0164546687155962 0.0446251817047596 -0.014050869271159172 0.017958512529730797 -0.0746266096830368 -0.12557660043239594 -0.10811060667037964 0.09009235352277756 0.04975198209285736 -0.0875525027513504 -0.07337949424982071 -0.008834400214254856 0.07683736085891724 0.012323415838181973 0.11633658409118652 -0.17793123424053192 0.06558914482593536 -0.05100579932332039 -0.03055897168815136 -0.03353391960263252 0.005777308717370033 -0.03611290454864502 -0.051609233021736145 -0.04478937387466431 -0.02348051406443119 -0.05690496414899826 0.06651511788368225 0.019592517986893654 0.08802081644535065 -0.06449803709983826 -0.019172238186001778 -0.01311749778687954 0.02198166586458683 -0.047044429928064346 0.005822815466672182 0.018440650776028633 -0.08642509579658508 0.1025727167725563 0.003326600883156061 -0.017761899158358574 0.017393527552485466 -0.044424764811992645 0.15668977797031403 -0.10961078107357025 -0.052442800253629684 -0.0028326832689344883 -0.06781773269176483 -0.05212376266717911 0.07601095736026764 -0.0047341990284621716 0.00971731822937727 0.01801467128098011 0.06452018767595291 0.142899289727211 -0.035589370876550674 0.09955313056707382 -0.08327518403530121 0.02916782908141613 -0.03037201426923275 0.04279255121946335 -0.006485817488282919 0.018458465114235878 -0.019159680232405663 0.08276163786649704 0.04549802467226982 0.0022669979371130466 -0.06801678985357285 0.04074905812740326 0.05019906908273697 0.014931547455489635 -0.1219262033700943 0.08224291354417801 -0.06761976331472397 -0.048832058906555176 0.06197453290224075 -0.002657846547663212 -0.01109709870070219 0.11749430745840073 0.0029613561928272247 -0.12549826502799988 -0.06693775206804276 -0.12437590956687927 0.007889983244240284 0.0012794813374057412 0.04973750561475754 -0.000118408897833433 -0.07210204750299454 -0.13043251633644104 0.0026449826546013355 -0.051674604415893555 -0.0566040575504303 -0.01275981217622757 0.10139655321836472 -0.045784346759319305 -0.0812528133392334 0.028654448688030243 0.055003050714731216 -0.10297222435474396 0.0596693754196167 0.06913544237613678 0.035127583891153336 -0.07653746753931046 -0.0775117576122284 0.0283061470836401 0.000795704429037869 0.010106154717504978 -0.059524185955524445 0.0016425700159743428 0.04348785802721977 -0.030460096895694733 0.027045341208577156 -0.03747363016009331 0.058901336044073105 -0.062420397996902466 0.024435946717858315 -0.018012089654803276 -0.06607185304164886 -0.17314249277114868 0.008004589937627316 0.08980800211429596 0.09385483711957932 -0.1304023414850235 0.14642272889614105 -0.002674509072676301 -0.051364555954933167 0.1322248876094818 0.030175792053341866 -0.0760793536901474 -0.12816232442855835 -0.013794157654047012 0.13177001476287842 0.08083843439817429 -0.03205783665180206 0.11609946191310883 -0.10816428810358047 0.041021376848220825 0.020109092816710472 0.03711846098303795 0.05433724448084831 -0.008420158177614212 -0.01243490818887949 -0.012409177608788013 0.06550002843141556 0.009958142414689064 0.040343835949897766 0.015591830015182495 0.020403113216161728 -0.10686779767274857 -0.04407086968421936 -0.01680043153464794 -0.025953596457839012 0.05307692661881447 -0.015072992071509361 0.13596561551094055 0.05372025817632675 0.00730050727725029 0.05555083602666855 -0.013685747049748898 0.08672267198562622 -0.062759630382061 -0.02469143643975258 -0.09516619145870209 -0.18576671183109283 -0.10739580541849136 0.014933672733604908 -0.06055288016796112 0.10713537782430649 -0.06470528244972229 0.06625743955373764 0.04008585214614868 -0.0641302540898323 0.02423590049147606 0.02613372728228569 -0.05225053429603577 -0.03288865089416504 0.08543001860380173 0.14907632768154144 0.019674018025398254 0.03134147450327873 0.02145148068666458 -0.04468626156449318 0.027033669874072075 -0.11550974100828171 0.026330359280109406 -0.03355129808187485 0.08433492481708527 0.03283476456999779 -0.03405660018324852 0.03833097964525223 -0.037169311195611954 -0.08952634781599045 -0.049558449536561966 -0.08720515668392181 -0.07810267060995102 -0.05081194266676903 -0.04849293828010559 0.07922059297561646 0.060467857867479324 0.09174802899360657 0.0004292315279599279 0.01621565967798233 -0.07153458148241043 -0.012901111505925655 0.10437578707933426 0.006082586478441954 0.05878060683608055 0.11066418141126633 0.06348792463541031 0.13509564101696014 -0.1589987576007843 -0.06878402829170227 -0.09472960233688354 -0.044075775891542435 -0.08991820365190506 -0.0490526519715786 0.0033621834591031075 -0.002687470754608512 0.012836867943406105 0.09884096682071686 -0.09973878413438797 0.05197872966527939 -0.019138270989060402 0.12277209758758545 0.051262687891721725 0.017557835206389427 -0.11089015007019043 0.0792120099067688 0.03661853447556496 -0.024254491552710533 0.029141221195459366 -0.04746832698583603 -0.04256480187177658 0.0142696937546134 -0.02270486019551754 0.12630847096443176 -0.04670529440045357 -0.021112963557243347 0.06691011041402817 0.08548123389482498 0.11274106800556183 0.061099302023649216 0.05724960193037987 -0.17150674760341644 0.12376094609498978 0.0850420668721199 -0.15657801926136017 -0.07648079097270966 0.012332324869930744 0.030993640422821045 -0.07758115231990814 -0.040448833256959915 0.05639711394906044 0.038973890244960785 0.014006287790834904 0.027009915560483932 -0.08259314298629761 -0.038214657455682755 -0.05358337238430977 0.023006483912467957 0.01535964198410511 -0.012427618727087975 0.04029149189591408 -0.07437761127948761 -0.002758114831522107 0.01110698003321886 -0.039889510720968246 -0.028971131891012192 -0.03936024010181427 0.07578735053539276 -0.02800932340323925 0.06945852190256119 0.008032400161027908 0.011748800985515118 0.19504840672016144 0.12319987267255783 0.03652865067124367 0.010511892847716808 0.13257285952568054 -0.031220322474837303 -0.0057359980419278145 -0.05823683366179466 -0.03522028401494026 0.02099679596722126 -0.03812849894165993 -0.007329219952225685 -0.0034540274646133184 -0.03618568554520607 -0.1001359075307846 0.02287607640028 0.004087623208761215 -0.08802905678749084 0.01941746659576893 0.030011963099241257 0.005309368018060923 -0.0682179257273674 -0.05610685050487518 -0.006224093958735466 -0.03905269876122475 -0.08890625089406967 -0.0026094289496541023 -0.006997858174145222 -0.09907111525535583 0.04737330973148346 0.08830883353948593 0.009821726009249687 0.07884126901626587 -0.04538597911596298 0.03640957921743393 0.0278942734003067 0.08016796410083771 0.026667315512895584 0.002883774694055319 0.020907221361994743 -0.10452410578727722 -0.015462876297533512 -0.049305543303489685 -0.023291947320103645 -0.08185866475105286 -0.0449829064309597 -0.13314075767993927 -0.0005776717443950474 -0.09688351303339005 0.13378575444221497 -0.03888910263776779 0.04582274332642555 0.028482170775532722 -0.03571492061018944 0.14795373380184174 0.03858785331249237 0.05359349399805069 -0.02722720429301262 0.1049395352602005 -0.0217646062374115 -0.09211314469575882 0.024837205186486244 -0.09032370895147324 -0.057950157672166824 0.09185370802879333 -0.06852591782808304 0.03580208867788315 0.06333128362894058 -0.05344155803322792 0.1145711731335961 0.034496923623662634 -0.11690818511909493 0.12617058734923958 0.05079501727712086 -0.05411218878808691 -0.05329663814645186 0.03179063668162676 -0.027361283266362217 0.00945909093940163 0.06415144964212982 -0.01769099508303566 0.0302990368763707 -0.004191134513111173 -0.006771700216853459 -0.004976588339122905 -0.07369195139400019 0.02495474116406769 0.05752653926725012 0.11590362167876497 -0.11417175032034813 -0.12982911951751536 0.013373613283544802 0.07412979637016286 -0.0029295367220728502 -0.1260201713143936 -0.001144496203301415 0.019671831820273496 0.12032413802729777 0.09242107924766843 -0.08403747853248059 -0.061497837416770666 0.0445431918509927 -0.051576057121328345 -0.04556917440315856 0.03858112010299155 -0.07350515898659775 0.08595180627095951 0.02001361982491163 -0.005048131719996386 0.03586401545599827 -0.0788249300189552 0.11385873145984288 -0.05963232534197296 -0.019810514291262862 0.12117303608382357 -0.03138355973604648 -0.03838096153335278 -0.06303183780184504 0.0629441349941159 0.08928068245181586 -0.1264197526421617 0.0639741753972487 -0.06564754601557887 -0.041243590168976836 0.012611114043280964 -0.029556159324009384 -0.053796560190261196 0.01967082268664404 -0.01219512173763241 -0.03338898777998131 0.11108640076124549 -0.020515072801194082 -0.06876990972534516 0.05412328939300289 -0.031881451561518594 -0.0886593227839241 0.0197670745416657 0.005002146189684888 0.00982825421721674 -0.017451318130336357 0.0888694537043267 -0.07134874230706045 0.023565877661737636 -0.017728762607551397 -0.13164588876544528 0.019820302345400272 0.0175077317870511 0.06826380298899912 -0.07390437739378243 -0.17650512354173784 0.05481673290799634 0.07091379116626838 0.06091768695082475 0.005382389936530937 0.06263083146854684 -0.04996840798999457 -0.04676299142188187 -0.09945331985723523 0.04500205093894468 0.04544379276736684 0.00017133120029022623 -0.023694084265624724 0.08337160076452038 -0.06982952117817114 -0.0733444820608905 -0.05303231605847676 -0.05424681825048895 -0.05662735815293233 0.033414787446178984 -0.10983028670473476 -0.0332567848022646 -0.14656914352864195 0.00014248022860677788 -0.1280998455720168 -0.015614619504201612 0.01700028468333365 -0.03187588701003645 -0.07651306035490839 -0.02341935672088756 -0.12168986788069597 -0.04043262421139505 0.0757970608382117 -0.1856610183746763 -0.08490872687359563 -0.10999056976976064 -0.004015046605138873 0.016808632994617455 0.06778336559067684 0.024842182446213695 -0.0028266553435020224 0.02912276564254145 0.04498902652682468 -0.051426053116998556 -0.07169932510271172 0.03461463969916925 0.031902292737957014 -0.16269318082431714 -0.03970812700740454 -0.06673167934686285 0.04598926816103582 0.04716826331692809 -0.03796498829109748 0.011362990899093888 -0.06099772315680834 -0.053593960762536745 0.039835558264821276 -0.055221796857116826 -0.1001764766480884 0.04035965987875941 0.023129787793028784 0.0633272964305449 -0.05073986231836686 -0.0869530237700959 -0.019719653031481117 0.06596997351886046 -0.035996859015471894 -0.09509052847755117 -0.07313982916314499 0.06377026389556775 0.0892845444451064 -0.028596248040522465 -0.03052717567789193 -0.006127164651039442 -0.17685984778345673 0.056116655153008184 0.00986228016596333 -0.04574869603074414 -0.05339872861976735 -0.1743731519281347 -0.03733054112845363 -0.0777303545924076 -0.09040849496747955 -0.010592829907490817 -0.03314607198784261 0.032928290110578816 0.04927830865338047 0.055386762257299244 0.012703989504489335 -0.08091979730315507 -0.09485327290736867 -0.011797600550756975 0.02501956036856953 -0.08451799653387647 0.0008144060635996318 0.0906489364541518 -0.09636935604921884 0.07187973078718907 -0.004322392536880225 0.10160045161402459 -0.007297551674770895 -0.010209445936066474 -0.02394027989067562 -0.14500444215482838 -0.10506583486792616 -0.08857042666265251 -0.06467488159406573 -0.055500743097477344 -0.06163223915530585 -0.007332691146700022 0.026839482881863445 -0.014403914336351492 0.1180163209632866 -0.030341348036392227 0.04931370048811219 0.0621253828738005 0.09886228144775817 -0.08956018382943923 -0.08565338950358356 0.10369645952571037 0.09098771214485168 -0.09178706258535385 -0.055128682404756546 0.02131962776184082 -0.012717407196760178 0.010908513329923153 -0.13549873232841492 0.003382683265954256 0.010252207517623901 -0.10864190012216568 0.069364532828331 -0.025948084890842438 -0.11336805671453476 -0.04025837406516075 -0.015806540846824646 0.001829069689847529 -0.03811970725655556 -0.005394928622990847 0.04448671638965607 -0.025278160348534584 0.07954701036214828 0.0626620277762413 -0.01779846101999283 0.031545184552669525 0.029979975894093513 -0.00813486147671938 -0.05269474908709526 0.02509261481463909 -0.011618264019489288 0.06584654003381729 0.009729537181556225 -0.007845875807106495 -0.020426668226718903 0.02008172497153282 0.08864231407642365 0.00017984052828978747 -0.061386607587337494 0.06237662211060524 -0.07070419192314148 -0.16566649079322815 -0.07999144494533539 -0.028459303081035614 0.029652761295437813 0.06735677272081375 -0.09763196855783463 -0.006796172354370356 0.010145301930606365 -0.1279982328414917 -0.024134423583745956 -0.08568527549505234 -0.124739870429039 -0.09351345151662827 -0.07580704241991043 0.04671633616089821 -0.03391224145889282 0.028243323788046837 -0.01859121583402157 -0.10110750794410706 0.14857742190361023 0.05153796449303627 0.024902625009417534 -0.05312059447169304 0.0599052868783474 -0.00419151596724987 -0.001637432025745511 -0.018933279439806938 -0.033388033509254456 0.0404193289577961 0.006644834764301777 0.027439597994089127 0.043314073234796524 -0.021301021799445152 -0.10511749982833862 0.1558503657579422 0.06796324998140335 -0.11204825341701508 0.006864455062896013 -0.038634009659290314 -0.10843580216169357 0.006638322025537491 -0.026966847479343414 -0.0646989569067955 0.020635263994336128 0.058344919234514236 0.14581798017024994 -0.06875988841056824 -0.008695041760802269 0.011883423663675785 0.016675369814038277 0.0028737084940075874 -0.08785195648670197 0.024722648784518242 0.07503209263086319 0.02379843033850193 0.010758192278444767 0.016070563346147537 -0.029921405017375946 -0.02039950340986252 0.07588145136833191 0.036626629531383514 0.052467506378889084 -0.0018047065241262317 0.10324505716562271 0.015648068860173225 -0.07929344475269318 0.09685138612985611 -0.0002319284831173718 0.11766137927770615 -0.12048039585351944 -0.025144999846816063 -0.09803958982229233 -0.07765477895736694 -0.03894740715622902 -0.03441183269023895 0.03163120895624161 0.01964792236685753 -0.07063327729701996 0.04233618453145027 0.07407782971858978 0.038593217730522156 0.06186649203300476 0.013481969945132732 -0.04138505086302757 -0.033662039786577225 -0.09367568790912628 0.05955328419804573 -0.026565808802843094 -0.05021977424621582 0.009238340891897678 -0.04897160455584526 0.03450737148523331 -0.04005371406674385 0.06432190537452698 -0.03344377130270004 -0.008412610739469528 0.02382650412619114 0.08081526309251785 0.09491414576768875 0.13616527616977692 -0.05404962971806526 -0.016547013074159622 -0.03506788611412048 0.010450392961502075 -0.030002862215042114 0.03889254108071327 -0.03668677806854248 -0.022368909791111946 -0.07161200791597366 0.07386259734630585 0.041847892105579376 0.12190555036067963 -0.08544771373271942 0.01864362135529518 0.020125268027186394 -0.09727756679058075 0.05754362419247627 -0.030842501670122147 -0.047198109328746796 -0.08211350440979004 0.050070472061634064 -0.06115161255002022 0.0598682165145874 -0.04520999640226364 -0.027734873816370964 0.012930775061249733 -0.09635581076145172 -0.04792877659201622 0.10761718451976776 0.0009199054911732674 0.09406352788209915 0.027488257735967636 0.09296049922704697 0.08874332159757614 -0.040616098791360855 -0.0440303310751915 -0.03827355057001114 -0.007737546227872372 -0.02650510147213936 0.07875430583953857 -0.06232288107275963 -0.12165823578834534 0.053166694939136505 0.010052945464849472 0.07214512676000595 0.07960423827171326 0.01681136153638363 0.11618518084287643 -0.13375037908554077 0.024205463007092476 0.0333528034389019 0.001963637536391616 0.08873492479324341 -0.027792546898126602 -0.009150233119726181 -0.09783335030078888 -0.08911124616861343 -0.0011721585178747773 -0.03807005658745766 -0.03256174921989441 0.12197919934988022 0.02651542638626726 -0.08754385914900441 0.015789219892196227 0.09260593832083265 -0.07813891655465942 0.1002351166963804 -0.081403354497512 -0.02658130526908627 0.008833110825831205 0.005835289144114601 -0.08299448245661911 0.027898233759978186 -0.02241902588006197 -0.06084813619114443 -0.04727402692641259 -0.043224737999405335 -0.005336995426764521 -0.08388869949346267 0.09700437147064164 0.19090712740295393 -0.07239472237303338 -0.0357690913223862 0.01718971363891622 -0.007119712006648378 0.03438005364644944 0.042133082817286685 0.06290664261885627 0.007935906894548135 -0.002295028642595714 -0.02340473992142913 -0.03620895299690882 0.00915294477187016 -0.055233019075530784 -0.04905262004447429 -0.0008368831828363177 -0.059446012041538175 0.08673618388359673 0.021007968409379418 -0.004972935016711014 -0.02920170811895929 -0.03302711203605178 0.20629045217717212 0.033692861071159166 -0.14244382296513056 0.12951757432602992 -0.10257477057778704 0.05274965637676022 -0.07712788105838521 -0.01425679185708555 0.06158562158975756 -0.022756870307629403 -0.024539920899667268 -0.0744952702909772 -0.05090593142770271 0.024093083838599816 -0.025400278037844188 -0.07040877263268532 -0.19697441722936043 -0.012717155243110753 0.11701202593855349 0.15530888794726538 -0.03942723211922105 0.004044597307674315 -0.02313811416217801 0.005994382682664192 0.0625175835073086 0.007610776861150822 -0.0027150268606945956 0.03931412969083736 -0.012182443234252676 0.048066154421225984 0.04162128183824206 0.06359815949417506 0.0010857756833105982 -0.0021723465089860806 -0.06917491043702638 0.07077885308644354 -0.06264500679670704 0.03078407797664553 -0.04138440826496333 0.012185066693787236 -0.17632880195878453 -0.06517043595547228 -0.0051321918444265785 -0.028510385346861695 -0.08356136013526558 0.0541177068339465 -0.08315892707827706 -0.10657173856049136 -0.015555301160134778 -0.14202954345977026 0.009158650785667405 -0.015633850399351532 -0.011694846340538469 -0.023128584913405022 -0.06043187791328712 -0.0029788924092604813 -0.034192483204892175 0.08637059875861956 0.014399797778633702 0.041129232053975694 -0.04580747410206269 0.015936757681110858 -0.12230915985738494 -0.0005185098860346865 0.05409889166782118 -0.1355918804736771 0.02295166398170368 0.057989104098346 0.005358267596703358 -0.03344309835600911 0.0008206365268753066 0.013316099089522797 0.10293153271367567 -0.10061730013139807 -0.03388322381096647 -0.03654926554938514 -0.0649383580740189 0.003615048123494145 0.06587889326062829 0.006186594437891553 0.09090540143712852 -0.060773291765570295 0.051991276293469696 0.07365825097130359 -0.06216051205869191 -0.036075807889745015 -0.09906562419512455 -0.0915797678036867 0.12305727008876256 -0.024509675393078564 0.011734933591080632 0.00541749428333726 -0.026981306768020137 -0.09872450674588498 -0.02845365095345444 0.021312810007453106 -0.11171974511907384 -0.07820572804813092 0.0045454860082392275 -0.007456072982199772 0.1181471057295559 0.03105311255688898 -0.10510659939916972 -0.019759694021341204 0.09976211430228121 0.03966357304123301 -0.0048585527461291935 -0.02156524556447827 -0.05443691822233784 0.08013875396892343 -0.011075663997276136 0.04519850739628306 -0.032645662896458066 -0.03847719022480496 0.17055912998939546 0.019317714343609897 0.008812863314372863 -0.061226452048606564 0.03723580862211391 -0.08368483571821256 0.12620355980931133 -0.11133106780605011 -0.018816505507020742 -0.03391650566700529 -0.06306710363019179 0.0054350148700111935 -0.07127175990108121 0.015413200651271849 0.03289321540170205 -0.0513906478311135 -0.018982656760040444 0.03795028767018938 -0.060516890393291514 0.005105785958584983 0.06538668978309327 -0.046872151001312624 -0.019051120875217126 -0.019183392591134184 0.05749881800821181 0.00804846635006713 0.06399575220448973 0.04116110727854422 0.005190602587056422 -0.024137781636352426 -0.0031108055703139873 -0.020620147908797373 -0.09627620702206097 -0.03983875106824664 -0.05658464578936952 0.011057607351424364 -0.07448666350271463 -0.03827928589239878 -0.07341761292505591 0.03797998009235609 0.028863244870234724 0.02218880491804364 -0.09351159260804051 0.020617308682869408 -0.07281663932641363 0.07802125066518784 0.022688820958137512 -0.05257844179868698 -0.11806809902191162 0.08002931624650955 0.007886704057455063 0.0386895090341568 -0.1721411645412445 0.03072286956012249 0.01638084091246128 -0.09459703415632248 0.057318586856126785 -0.05460658669471741 -0.06378497183322906 -0.08469896763563156 0.011043277569115162 -0.08406227827072144 0.018202807754278183 0.014294018037617207 0.1432872712612152 -0.038785211741924286 -0.010195448994636536 -0.020755846053361893 -0.043290380388498306 0.08642001450061798 0.03538012132048607 -0.039005834609270096 -0.06371156871318817 0.011668004095554352 -0.032845042645931244 -0.06299999356269836 -0.04578418657183647 0.037099096924066544 0.11221415549516678 -0.02150692231953144 0.024863718077540398 0.06404755264520645 0.07063651829957962 0.09524662792682648 -0.03960602357983589 0.016704902052879333 0.055284906178712845 -0.05449054017663002 -0.04762716591358185 0.009535660967230797 -0.0077798087149858475 0.03518621250987053 0.011693713255226612 -0.018360605463385582 -0.0919470340013504 0.14653293788433075 -0.08745133876800537 -0.01619265042245388 0.12404686957597733 -0.013964933343231678 -0.0411074124276638 0.057564929127693176 -0.015676846727728844 0.07389462739229202 0.005077726673334837 -0.02537420392036438 -0.02812102809548378 -0.09892915189266205 0.006449951324611902 -0.14609457552433014 -0.05316178873181343 -0.01973336562514305 0.05889967456459999 0.04548894241452217 0.00562467984855175 0.04655624181032181 0.01736089400947094 0.03157328814268112 0.12512120604515076 -0.04247715696692467 -0.07847867161035538 -0.08280689269304276 0.0782516598701477 0.023581668734550476 0.02220645733177662 -0.026365838944911957 -0.02336495742201805 -0.020647868514060974 -0.06511717289686203 0.023183543235063553 -0.03191988170146942 0.0843447893857956 -0.06111473962664604 0.08252110332250595 0.06236688792705536 0.13390707969665527 -0.013192242942750454 0.03853173553943634 0.037343889474868774 0.10018020123243332 -0.03587958961725235 0.018853314220905304 0.09046725183725357 0.05324637144804001 0.03424772992730141 -0.05685615539550781 -0.03883038088679314 0.04369658604264259 0.07133829593658447 0.03500044345855713 -0.03521469235420227 -0.08922508358955383 -0.0065800403244793415 -0.07336738705635071 0.07450887560844421 0.07420530915260315 0.1011098176240921 -0.14688797295093536 0.08073095232248306 0.04743751883506775 0.01828201301395893 -0.015995457768440247 0.010085665620863438 0.10009660571813583 0.09250693768262863 -0.07043033093214035 -0.07552695274353027 0.05569437891244888 -0.06847203522920609 0.030745940282940865 -0.023765554651618004 0.10155358910560608 -0.04172242060303688 -0.03940615803003311 -0.026526613160967827 0.05761018022894859 0.025524597615003586 0.02289700135588646 0.08678203821182251 0.07197181135416031 -0.02872348390519619 0.010316765867173672 0.11981342732906342 0.025781281292438507 0.027037089690566063 -0.010858412832021713 -0.03556643798947334 -0.04471885785460472 0.03130854666233063 0.022032691165804863 -0.04338831454515457 -0.06091383472084999 0.06060458719730377 -0.09304885566234589 -0.09027092903852463 -0.1445341855287552 -0.04840165376663208 -0.018494052812457085 0.059575874358415604 0.03648228570818901 -0.025640949606895447 -0.037077970802783966 0.15871883928775787 -0.04728769138455391 0.05228600278496742 0.04657476395368576 -0.14579646289348602 -0.15626291930675507 -0.03344648703932762 -0.08363520354032516 -0.025608569383621216 -0.006765387021005154 0.052575722336769104 -0.03721664845943451 -0.06178286671638489 -0.00975554808974266 0.07775439321994781 -0.04366709664463997 -0.17860010266304016 -0.08498650789260864 -0.10607659816741943 -0.054263077676296234 -0.08246377855539322 0.05274439603090286 0.014332123100757599 -0.006594562437385321 -0.09232022613286972 -0.030939383432269096 -0.0048317676410079 -0.057357508689165115 0.04528546705842018 -0.11409715563058853 0.029747648164629936 -0.07587426900863647 -0.057654671370983124 -0.055087558925151825 -0.04068082198500633 -0.04234512895345688 0.05598912760615349 -0.00863240659236908 0.09805276244878769 0.04781237617135048 0.0439370758831501 -0.0895707830786705 -0.07274163514375687 -0.07141189277172089 -0.003765225876122713 0.04061868041753769 0.019931580871343613 -0.03848730027675629 0.00210743909701705 0.09215879440307617 0.0010427304077893496 0.10209964215755463 0.016942108049988747 -0.060929298400878906 -0.047858960926532745 -0.030756985768675804 0.15200181305408478 0.05861103907227516 -0.008359655737876892 0.05492381751537323 0.023109158501029015 -0.0213337205350399 0.07306216657161713 0.038495056331157684 0.01341699156910181 -0.12354281544685364 -0.012271671555936337 -0.06027788296341896 0.09080444276332855 0.07876428216695786 -0.02914533019065857 -0.015002074651420116 0.08607573807239532 0.0029000723734498024 -0.0441160649061203 0.09610507637262344 -0.03360838070511818 0.1090129017829895 0.17100563645362854 -0.006592991296201944 -0.014912578277289867 -0.015600604936480522 -0.005305621773004532 0.02669941633939743 -0.04450002685189247 0.0620403066277504 -0.008504695259034634 -0.03317081183195114 -0.05121419578790665 -0.011783616617321968 0.00045402819523587823 -0.10865511000156403 -0.025673333555459976 -0.0965750440955162 -0.014738824218511581 -0.0007473850855603814 0.06705469638109207 0.008898526430130005 0.05449570715427399 0.015157471410930157 0.09180272370576859 0.04566524177789688 -0.08361750096082687 0.00401851162314415 -0.09046301990747452 0.08230453729629517 0.018636664375662804 0.06453704833984375 0.058345090597867966 0.015200145542621613 0.004462879616767168 -0.1182207390666008 0.016584793105721474 0.019914573058485985 -0.0004667957837227732 0.07433470338582993 0.005955927539616823 -0.022195398807525635 0.10416335612535477 0.05518024042248726 -0.06775050610303879 0.002307505812495947 -0.0002469831961207092 0.0356910414993763 0.0811750590801239 -0.08443375676870346 -0.1007075384259224 -0.06069251894950867 0.03563721850514412 0.1216612458229065 -0.030927056446671486 -0.09106665849685669 -0.050363052636384964 0.015127119608223438 -0.002909610979259014 0.038201794028282166 0.03406565263867378 0.01732974871993065 -0.07070948928594589 0.0013398326700553298 -0.1223282665014267 -0.11014944314956665 -0.053071606904268265 0.0421040877699852 -0.028336908668279648 -0.031335219740867615 -0.011728225275874138 0.029065750539302826 0.16240139305591583 -0.027166394516825676 0.05606306344270706 0.07334426045417786 0.134131520986557 0.0025818294379860163 0.0038860777858644724 -0.03159328177571297 -0.07064110785722733 -0.07512421905994415 -0.06204104423522949 -0.008288816548883915 0.11572223156690598 -0.026674699038267136 -0.12428125739097595 0.05891619250178337 0.11814449727535248 0.042129065841436386 0.07843095809221268 -0.033415213227272034 0.002106254920363426 0.019302936270833015 -0.18331804871559143 -0.12452462315559387 0.0214182548224926 -0.09379763156175613 -0.04129493981599808 -0.04698311537504196 0.006710968911647797 0.03659240901470184 -0.008632299490272999 -0.041831888258457184 0.008997471071779728 0.15462622046470642 -0.023127945140004158 0.06514200568199158 -0.061609577387571335 -0.07039420306682587 0.13536463677883148 0.04560910910367966 -0.032888371497392654 0.04090159386396408 -0.013108855113387108 0.04617239534854889 -0.04856497049331665 -0.042491551488637924 0.09838441759347916 0.03665471822023392 -0.005383154843002558 -0.007350926287472248 0.03122779354453087 0.007454185746610165 0.09955676645040512 -0.00293416203930974 0.047528356313705444 0.021434150636196136 -0.02232290618121624 0.10475606471300125 0.0376884862780571 -0.07495357096195221 0.022884532809257507 0.0020424833055585623 -0.04705708473920822 -0.045426107943058014 -0.07717987895011902 0.04925978183746338 -0.020877571776509285 0.08034195750951767 -0.06816083937883377 0.05050024390220642 -0.06207556277513504 -0.025267278775572777 -0.009365340694785118 0.01960901916027069 0.09159298241138458 0.005948344245553017 0.013170170597732067 -0.04022779315710068 0.05014713481068611 -0.09064197540283203 0.0709458440542221 -0.010491552762687206 0.028420602902770042 0.012024231255054474 -0.08470842242240906 0.05537755414843559 0.04848649352788925 -0.01197565346956253 0.10477906465530396 -0.0025521249044686556 0.013355625793337822 -0.09430108219385147 0.07009097188711166 0.02281932905316353 -0.0643964633345604 -0.02644160517255608 0.045451547415860855 0.0445618727100556 -0.07331172997408342 0.07505943047727946 0.012060560309887282 -0.078974439248895 0.0016773739597604263 -0.0774993526760335 -0.05190652676404026 -0.0677606177611 -0.03890766649558763 0.06399160080332081 -0.23103753658062923 0.030343847688230105 -0.07440169638136318 -0.03994298589548853 -0.06087216152108815 0.22516482410747732 -0.06565789804705366 0.0020037075635559636 -0.07979505733798252 0.042432118764956776 -0.08906901793660792 -0.051932014919211206 -0.002919918163131083 -0.014775297414905644 -0.03305347649723331 0.060813222634665313 0.09400314089574811 -0.004058636882102631 -0.060726586452593816 -0.10535097712756143 -0.05177567802240653 -0.08114908024941123 -0.061897578347611136 -0.021053849272617754 0.013954321584127802 -0.06003589300705317 -0.042369477375482814 0.027666216327477542 0.021705207302103412 0.013386672502517464 -0.031993231284019014 0.04908288576022866 -0.08886539808921967 -0.04782355128460827 0.04163153649300289 -0.00950989668969809 -0.0052837074230742435 0.009106316702215666 -0.025252827777133512 -0.01728090822454767 0.1434890256614066 0.007008608032579846 0.018709304000030444 0.022446195233444145 -0.05902029254882203 0.07061437016096693 -0.027645620525380957 0.059381934124655485 0.009993719399500197 0.08254818207749638 0.050158168269832916 0.03722441500722402 0.09348740068170229 -0.09000549251784959 -0.06638064300619821 0.07055219230332244 0.07904009619096349 -0.006347345115077911 0.059536761347505976 -0.021181031368958585 0.04893031621130945 0.023116743722031152 -0.04779889020345118 0.030972085174435615 0.006440071847122023 -0.009321211568321209 0.002531668038704685 -0.016253877431491783 0.007625856395192214 -0.011490427263246856 0.0925429099818545 -0.054757318436501806 -0.02346945046516335 0.12520198383201364 -0.04439493848672852 -0.08494950154242552 0.02067196337381336 0.10826006755021392 0.08293175093413181 -0.08237737308474172 -0.016995986531138835 0.111581458528727 -0.008237021196960376 -0.04492481310146584 0.030291333877312348 -0.06961317618423729 -0.0049826328859913 0.06369635841568912 0.0662825704545567 -0.028121550101281693 -0.04932543937814746 0.10729166106093858 -0.03489825552078588 -0.17648369699934371 0.03951720066355586 0.015216585378681915 0.03902782809756974 0.02087728716406377 -0.22272532446983276 -0.08051396451327668 -0.09542846252799564 0.011755388503440652 -0.019017817043897406 -0.05269795235799257 -0.12663158534464594 -0.024380023917374212 -0.042919393245693105 -0.06774284555366857 -0.0501575422903854 -0.029391359790618708 -0.0071552661803429875 -0.09174410872286837 -0.056458063726474855 0.03405165562382282 -0.08985761856752122 0.0027989516396764395 -0.05936225165499957 -0.03691391749251497 0.05984358380729824 -0.0209909857254346 -0.05199011346767219 -0.009262172315044167 0.07392396256713753 0.04316179481270362 -0.026573981108680714 0.0385394007658277 -0.1352222178571529 0.007936348347601914 -0.07762305806697475 0.05875476818963231 0.06845966007890311 0.03521550890545152 0.0713042558898778 -0.0075185111689027116 -0.021504608107015166 -0.049272448945227296 0.005082043419968324 0.11498641096794864 -0.11061530741724471 -0.05916269728295296 -0.06511265547888238 0.0038578057753676565 -0.05207334425811046 0.0012824539118300381 -0.03624948997993703 0.059372079125526514 -0.001182616377521112 -0.015044972753838442 0.10265517373832848 0.021416896434092732 0.06667856431700622 -0.05091383080953098 -0.04287999123990154 0.12380008064027011 0.0033905228866611906 -0.0936686970073564 -0.06413952317851707 -0.014111967714865576 0.041170049325074655 0.03027358001601667 -0.1116550605534291 0.02098693429605996 -0.006040765907514622 -0.07219471361130866 -0.034642031314563414 0.024404427864809966 0.053754052519528035 -0.007758012126516252 -0.02325301012153976 0.09086782231085101 -0.05451615227804796 -0.019878976668037247 -0.00602807675822763 0.07116335746314714 0.012471548575081329 0.002261561447629307 0.04902009772291108 -0.011899292745857253 -0.005407632198402749 -0.06812995749329893 -0.07570589426159538 0.09683743819206543 -0.03451368011007393 0.007784998596034919 -0.07586695433637199 0.07172501402394223 0.01178426587586559 0.07194682210683823 -0.10588978976011276 0.011418606154620647 0.015011703595519066 0.0229976624250412 0.08087042719125748 0.09472718089818954 -0.06553700566291809 0.04769109562039375 -0.0328621082007885 -0.0572916641831398 -0.0958818718791008 -0.06482989341020584 -0.08685287088155746 0.09402338415384293 0.10550997406244278 -0.024869706481695175 0.033977922052145004 -0.0424400232732296 -0.008605931885540485 -0.08145366609096527 0.0293479822576046 0.0862310454249382 0.10294409841299057 -0.14631517231464386 0.06160964071750641 -0.061461880803108215 -0.015897493809461594 -0.0847170352935791 -0.05461179465055466 0.07688915729522705 -0.003351642517372966 0.07133569568395615 -0.03285536915063858 0.07244890183210373 0.07401474565267563 -0.04381793364882469 0.10201463103294373 0.057446204125881195 0.0560310035943985 -0.09461815655231476 0.05540488287806511 -0.03954412043094635 0.09020421653985977 0.040381260216236115 0.043066076934337616 0.03325217589735985 -0.008422291837632656 -0.01061360351741314 0.016080180183053017 0.05045387148857117 0.08694247901439667 0.005547863896936178 0.09375916421413422 0.04729025438427925 0.02563447505235672 0.05085856094956398 0.07023581862449646 0.02956739440560341 -0.03309165686368942 -0.00953823421150446 -0.021138517186045647 -0.010510039515793324 0.026833772659301758 0.06166106089949608 -0.07341736555099487 0.16956761479377747 0.07051154971122742 0.06874817609786987 0.04811929538846016 0.03646234795451164 0.07130245864391327 0.0256232637912035 -0.11568645387887955 0.024807201698422432 0.00418106047436595 0.06400870531797409 -0.027238326147198677 0.02535441145300865 0.004082780331373215 0.01937951147556305 -0.0956864133477211 -0.01626182720065117 0.01103832945227623 -0.0013524009846150875 0.04078371822834015 -0.07241968810558319 -0.045328814536333084 0.08684922754764557 -0.013469936326146126 0.06866232305765152 0.04649201035499573 -0.02227924019098282 0.004259178414940834 -0.05622290074825287 0.03594831004738808 0.02251843735575676 -0.05164292827248573 0.1486142873764038 0.05736786499619484 -0.046556707471609116 0.06504159420728683 0.13219225406646729 0.026695100590586662 0.025093385949730873 0.07147914171218872 0.008817365393042564 -0.08233874291181564 -0.048706892877817154 -0.03691398352384567 -0.07280520349740982 -0.07534804940223694 -0.029616178944706917 -0.0695691928267479 -0.14476223289966583 0.1102113276720047 0.07836784422397614 0.05715342238545418 0.02116612158715725 0.05695248767733574 0.01993023045361042 0.034518517553806305 -0.13583742082118988 0.07958710938692093 0.08317700028419495 0.06851626932621002 0.043247729539871216 0.193909153342247 -6.165150261949748e-05 0.058228909969329834 -0.047146353870630264 -0.0014816558687016368 0.04261166974902153 0.06595578789710999 0.0472751185297966 0.0728679746389389 -0.015623712912201881 -0.014977065846323967 0.05864822119474411 -0.06572525948286057 0.059756260365247726 0.11299868673086166 -0.011830025352537632 -0.014585506170988083 -0.04886164888739586 0.01564897410571575 -0.002047486836090684 -0.0023653297685086727 0.015997355803847313 0.001642346498556435 0.00725689809769392 -0.017739415168762207 0.05836452171206474 0.03719782456755638 0.035436924546957016 0.05066239833831787 0.05655171349644661 -0.018390260636806488 0.03647490218281746 0.023786867037415504 0.026084190234541893 -0.0018692642915993929 0.0025484603829681873 0.02030321955680847 0.15448036789894104 -0.026962798088788986 -0.07715847343206406 0.07060980796813965 0.026281263679265976 0.03404195234179497 0.09247972816228867 0.009121207520365715 0.08822103589773178 0.050441302359104156 0.034851089119911194 -0.03391062095761299 0.004447572398930788 -0.132738396525383 0.048920534551143646 -0.007512965705245733 -0.008610042743384838 0.04435032233595848 0.0033995111007243395 0.08019721508026123 0.00097320054192096 -0.09113677591085434 -0.012402278371155262 -0.0056607904843986034 0.026892108842730522 0.06608893722295761 0.026823608204722404 -0.0803925022482872 0.11706186085939407 -0.09023460000753403 -0.05075516551733017 -0.03601532056927681 -0.03298736736178398 0.019779985770583153 0.09712625294923782 0.05236469581723213 -0.06516027687233242 0.019679825722234593 -0.013539185458214531 0.011638174405956943 -0.042982937845181646 0.005242230578268572 -0.028377124354442236 -0.009499355884480932 -0.01935961352393361 0.06629725259908154 0.1123495515126684 0.08616574478243245 -0.05029470640671714 0.15822641351868005 -0.04639836794460333 0.04520905055594239 0.02285626831876476 0.012543181570547922 -0.061678816157252715 0.00912294595783174 -0.07948156994540699 -0.1407855776797641 -0.08468895997119419 0.03216343566575042 -0.049365216292470517 0.11684893782683516 -0.024649774637718034 0.03517654433671033 -0.06692015347550348 -0.04982224530892644 -0.06395385059900487 0.039065439437942655 -0.007867930381394168 0.022807158827016675 -0.037052795929946196 0.03490495154394587 0.0743371180257885 -0.0854694361846311 -0.021471394739926167 -0.12089300778269 -0.06413452951135061 -0.09144785748103053 -0.0236248290228559 -0.032092867855593774 0.034295870635754656 -0.14948824526803012 0.02172844401622931 -0.0012021801429726064 -0.0034500012235831735 -0.09889000283337257 -0.013741867499685968 -0.06305583758905832 -0.08155209955979842 -0.036212167612938516 0.12736913597970595 -0.026569510732994992 -0.022965843782850784 -0.04984022644921495 -0.046396130558916976 -0.04227992198408795 0.02791541171237535 0.019313834912415374 0.013054775952781312 0.03249210907349163 0.011382618466191995 -0.14686126885471046 -0.010150883355645362 -0.09642916255523817 0.16590450765868123 -0.046549080760336925 0.05025736068658008 0.01768122562924555 0.10897609866989896 -0.11624367467739734 -0.10269331678558534 -0.06645911877417902 0.1268917522560266 -0.00010218236637480027 -0.08187046038042378 -0.025828097237864084 0.08252688016598374 0.007456022498397202 -0.12250985679971856 -0.015578553405948908 -0.03646655841836404 0.047001179561727835 -0.084662792043781 0.08378345355970802 -0.09429819091047574 -0.0010494519009901448 -0.02644483040808 0.059658273859024696 0.10804489623857465 -0.006320349202919872 0.07973858784499618 -0.001968495994668396 -0.03965802069814298 0.031740473669391235 -0.11020406036897831 0.11539837100220444 -0.041503323131098016 -0.025411851899931483 -0.000925771251007092 -0.058445367796237116 -0.10776542276782973 -0.05807483688378599 -0.05710838734441756 -0.036782403141937786 -0.016533530842885988 0.0320007382972594 -0.009480062680711467 0.028520844248687574 0.04036344909205952 0.0763722266474814 0.05146322026459968 0.05315211827853137 0.045336417668591505 -0.004263259087831254 0.01937479254153004 -0.020230012591072336 0.04019402455004607 -0.053803700446848464 -0.11515180111719675 -0.0042014252456358085 0.03125672959785218 0.1266180265144021 0.07433161608777858 -0.07194108749282241 0.08635317188155392 -0.023504083324650687 -0.027246204995623188 -0.05008346041929659 3.556248256389796e-05 -0.024458970872395163 0.07046996702755233 -0.06011501735009651 0.06254081402316891 -0.09980200747411481 -0.01574164439569238 -0.1552115218788682 0.02182298473639798 -0.03814241367610326 -0.0026325043822637757 -0.06375207623996201 0.02179916204404321 -0.10809488982672523 -0.052427718365001756 -0.07889333882580252 0.025064142671960322 -0.05475477905637834 0.011681414722301388 -0.08687083608305726 -0.011725766449905844 -0.013932977457313641 0.0594445223951301 0.08305346217521078 0.0444236393169994 0.0756489127698115 0.0034897380515459962 -0.018602727966949933 -0.016222688155891705 -0.039060198257377596 -0.05542396361218087 5.5649542005289834e-05 0.09419564995579527 0.016667374292105172 0.024017199374149846 -0.08649738247032933 -0.05563156812640311 0.021308130081611 0.03163306873982264 0.038722575329529905 -0.051379918068994536 0.06501271465054985 0.01894421587444875 -0.037446925413385464 -0.051763166355367145 -0.055106074836914314 0.012635108189692993 -0.09056594838096087 -0.05936230556955552 0.06469631124316862 0.10122320992100416 -0.023039553678585817 -0.008249205589875137 -0.12182853057597315 -0.06245766599699338 0.0263910477093484 -0.054828669978143 -0.05127148467142435 0.09491316107610671 -0.004146484899007985 0.037787972083837905 0.029800093391182662 0.04434245014963173 0.15010071118971033 0.050043159025860574 -0.054427579107487835 -0.029236487248412275 0.014890465070846293 -0.09585386514663696 0.01585157960653305 -0.022747265174984932 0.012828154489398003 -0.01885334402322769 -0.06424833834171295 0.027040140703320503 0.07848753780126572 -0.005831454880535603 -0.04710790514945984 0.06604822725057602 0.09657565504312515 -0.006762834265828133 0.050035104155540466 -0.008426271378993988 -0.04384230822324753 0.03774036467075348 -0.0964033454656601 0.012417937628924847 -0.01918814145028591 -0.03617573529481888 -0.11432699114084244 0.08497782051563263 -0.052973851561546326 0.07867077738046646 -0.029663436114788055 -0.05977718159556389 -0.04132908210158348 0.05554700270295143 -0.12089110165834427 0.005755331367254257 -0.06121300905942917 -0.09362897276878357 0.015585867688059807 -0.05606765300035477 0.013939904980361462 0.013158559799194336 -0.13282060623168945 -0.02282615192234516 -0.02132556028664112 -0.09632696211338043 -0.0029923920519649982 0.007444261573255062 0.02495272271335125 -0.016076920554041862 -0.01937454752624035 0.030772030353546143 0.049682002514600754 -0.005071219988167286 0.08089672774076462 0.0374823659658432 -0.033803582191467285 -0.026833266019821167 -0.010942974127829075 0.08784174919128418 0.036303095519542694 0.022701578214764595 0.0720064714550972 -0.13242213428020477 0.05085515230894089 0.010865859687328339 0.059563301503658295 0.007366515230387449 -0.0836363434791565 -0.1782095730304718 0.01935253106057644 0.004911641124635935 -0.06050128862261772 0.03993711248040199 0.003433086909353733 0.04804600775241852 -0.0637754574418068 0.06466875225305557 0.12192762643098831 -0.11761517077684402 0.08377484232187271 0.13091111183166504 -0.08164767920970917 -0.04674764722585678 0.00615515373647213 0.05169226974248886 -0.027086324989795685 -0.005655412562191486 0.02282065525650978 -0.07150106132030487 -0.05157369375228882 0.09018275886774063 0.0996127724647522 0.06984857469797134 0.02369012124836445 -0.05741598457098007 -0.0014798050979152322 0.019784575328230858 0.00010070274583995342 -0.031571559607982635 -0.06585026532411575 0.03419144079089165 0.08251135051250458 -0.039943721145391464 -0.02386501617729664 0.027681931853294373 -0.04674858972430229 0.036748819053173065 0.021227404475212097 0.0026040964294224977 0.06052302569150925 -0.003994861152023077 -0.0027762562967836857 0.07063692063093185 -0.06868511438369751 0.004340586252510548 0.08582156151533127 -0.012108507566154003 -0.09890204668045044 0.05472596734762192 0.047984529286623 0.09962910413742065 0.006322792731225491 0.01755436882376671 0.15363934636116028 0.007099224720150232 0.07138112932443619 -0.09483864158391953 0.00099757662974298 0.026988588273525238 0.026110418140888214 0.015399263240396976 0.05780496448278427 -0.06277725100517273 0.019909309223294258 -0.1049967035651207 -0.01990658976137638 -0.07230694591999054 -0.05679773911833763 0.08628920465707779 0.025942303240299225 0.027495121583342552 -0.02738478220999241 0.012498397380113602 -0.042611949145793915 -0.04385477676987648 0.07785427570343018 0.09011005610227585 -0.052912015467882156 -0.025590993463993073 0.11495393514633179 0.03862009942531586 -0.0007815301069058478 -0.05404609814286232 0.02371014468371868 -0.006514568347483873 -0.07002479583024979 -0.025043997913599014 -0.011529783718287945 -0.00014823042147327214 -0.07473993301391602 0.039837658405303955 0.023776860907673836 0.03946152701973915 -0.07005534321069717 0.021835170686244965 0.07186869531869888 0.11816836148500443 -0.06816205382347107 0.09802410006523132 0.034038957208395004 0.08163997530937195 -0.1150912269949913 0.05870629847049713 -0.010947302915155888 0.0013377153081819415 0.01139721181243658 0.00836224015802145 -0.11629242449998856 -0.007837210781872272 -0.1215355396270752 0.008488660678267479 0.023200301453471184 -0.11758406460285187 -0.09049040079116821 -0.03668975085020065 0.10195320099592209 0.0058211227878928185 0.0055387686006724834 0.0043836794793605804 0.01808886043727398 -0.030448349192738533 -0.001383866765536368 0.04734721779823303 0.1510840654373169 0.024554841220378876 -0.08438587933778763 0.03548842668533325 -0.028820011764764786 0.06932004541158676 -0.09933203458786011 -0.11233090609312057 0.027910636737942696 -0.06340817362070084 -0.0488920696079731 0.06582639366388321 -0.01430821418762207 0.08601105958223343 0.02853405848145485 0.1199750229716301 -0.004370508715510368 0.009387522004544735 0.0009464307804591954 0.07205274701118469 0.1112605556845665 -0.012547191232442856 -0.16007201373577118 0.06488455086946487 -0.033101338893175125 0.03499728813767433 -0.09410008043050766 -0.10358981043100357 0.020059820264577866 -0.12353374063968658 -0.0255733709782362 0.030331900343298912 -0.07159941643476486 0.024876562878489494 0.016503993421792984 -0.10667582601308823 0.0727820172905922 -0.028142014518380165 -0.06284034997224808 -0.023939738050103188 0.01766730286180973 0.06269612163305283 -0.030084727331995964 -0.08043581992387772 0.07436752319335938 0.03822196647524834 0.04578816890716553 -0.051873527467250824 0.052997950464487076 0.009236234240233898 -0.10821137577295303 0.07677299529314041 0.03508858382701874 0.08747763186693192 0.0783214271068573 -0.002388600492849946 -0.006637205369770527 -0.06873150169849396 0.11912067979574203 -0.0036623056512326 -0.015515788458287716 0.04437502473592758 0.027277842164039612 -0.012434923090040684 -0.034067925065755844 -0.03616025298833847 0.16455486416816711 -0.06598368287086487 0.040721144527196884 -0.06120404601097107 0.06214793398976326 -0.0463542640209198 -0.15266162157058716 -0.02464938908815384 0.08909083157777786 0.04187224432826042 0.02567659132182598 0.09845566749572754 0.06599858403205872 -0.09780477732419968 -0.015930278226733208 0.06179998815059662 0.11647310107946396 0.03934603929519653 -0.0184145737439394 0.1373772770166397 0.028067586943507195 -0.014089073985815048 0.038855716586112976 0.10305018723011017 -0.10117915272712708 -0.021504275500774384 0.05929497256875038 0.0330621674656868 0.021054835990071297 0.003962946590036154 -0.011498000472784042 0.026899682357907295 0.04803965240716934 -0.14204593002796173 0.04972486570477486 0.02384122461080551 0.02113044075667858 -0.004654936492443085 0.05915692821145058 -0.05350172147154808 0.07625296711921692 -0.041298527270555496 0.03490029275417328 0.11297593265771866 -0.011855286546051502 -0.036899421364068985 -0.024025024846196175 -0.03869326040148735 0.11442658305168152 -0.010042008012533188 -0.07220762223005295 0.004668351262807846 0.05493129417300224 -0.01544137578457594 0.033198606222867966 -0.02986546978354454 0.040475741028785706 -0.14464175701141357 -0.008436123840510845 0.03921988233923912 0.007986027747392654 0.013428919017314911 -0.04697389155626297 -0.01614890806376934 0.006314524449408054 0.012755846604704857 0.029414668679237366 -0.03599652275443077 -0.10526122897863388 0.07323221117258072 -0.08621963858604431 0.05182712525129318 -0.023864716291427612 0.02183341234922409 0.035180676728487015 0.024211209267377853 -0.116416335105896 0.07417705655097961 0.041237108409404755 0.036852024495601654 0.027703117579221725 -0.09810203313827515 -0.13357388973236084 0.03447030857205391 -0.026121899485588074 -0.10750170052051544 -0.060665301978588104 -0.011035382747650146 0.04902241379022598 -0.11648667603731155 0.03036387264728546 0.07987865060567856 -0.12108530849218369 0.1030934602022171 0.12910883128643036 -0.017844658344984055 0.11066693067550659 -0.05587701126933098 0.015532456338405609 0.03053307719528675 0.005845767445862293 0.01629118248820305 -0.1501067727804184 0.05341746658086777 -0.024974292144179344 0.1916525512933731 -0.0662926658987999 0.1308733969926834 -0.0366186685860157 -0.1377071589231491 0.06729168444871902 0.01710561290383339 -0.018346842378377914 -0.0024057680275291204 -0.0468103401362896 0.04290236532688141 0.08398677408695221 0.007815812714397907 0.024286042898893356 -0.1030038371682167 0.06325490772724152 -0.07913285493850708 -0.02296125330030918 0.14469148218631744 -0.005473767407238483 -0.06131289526820183 0.0048755863681435585 -0.11212315410375595 -0.08055149018764496 -0.030261337757110596 -0.006290234625339508 -0.02339135855436325 0.0888090506196022 -0.024714842438697815 -0.022537805140018463 0.00422262167558074 -0.010204356163740158 -0.0025930642150342464 0.0897870734333992 -0.02442549355328083 0.04300003871321678 -0.0780886560678482 -0.030416078865528107 -0.022116849198937416 -0.021058909595012665 0.05787014568319853 0.05701864014809112 0.1578115589871775 -0.029188320294596833 -0.013743665018103576 -0.050516929808860356 0.02133362515541683 -0.06409387443966273 0.021351085351725013 -0.04355812675028876 -0.08522679320351771 0.05382975686887256 -0.038200495697709946 -0.10669195120853944 0.04724931568206462 -0.008372841990111375 0.01764308379198823 0.1254953712982466 0.031158315863669822 0.046131073761321216 0.04204414779673172 0.0076302273515022855 -0.033549685010504614 -0.06434325605659695 0.04268947513792163 -0.0052268258017397744 -0.0740297538060231 0.010960449938450093 0.1265749576666944 -0.015752434450997107 0.05374462480641801 -0.03538792866225458 -0.06690887675880683 -0.09139462661566727 -0.06278416137838982 0.10646153996793209 -0.008125708768806061 -0.015581148159597883 -0.012098841685495467 0.018043529216211118 -0.04423982888111557 0.020602092467743367 0.06371922131308444 -0.005840230338911736 -0.08889495142925795 0.0834222550046019 -0.08757425746603686 -0.016357414074481928 -0.004981967025186303 0.04969630833542039 -0.003592617410167689 -0.04401138168957778 -0.12502777857242314 0.028191077538067773 -0.01646458909307589 -0.08883869244739834 0.04295578629106869 0.031024029814366683 -0.029499350025820204 -0.02802623833329784 -0.013186203021816063 0.03508117204721525 0.029857405059897004 0.08407569720415085 -0.09984106485784752 0.01724882404020719 -0.0031834601093229877 0.009778183507218572 0.014236386333533326 -0.058476289877712195 0.04021415961471736 0.1492089734644198 0.11941085704902796 -0.04617222403882755 -0.028119458127953075 0.019401627375289575 0.03690766805839661 -0.07958842970976535 0.036659043710274904 -0.05046725981914449 0.030433446997780535 0.11212953872533173 0.0237396062974982 0.02070838053201743 -0.0019500619289853493 -0.03757144910515643 -0.059878749352750636 -0.06141200819256065 -0.041085425839844945 0.06241476081380024 -0.06027247758383855 0.014525949610637509 0.0007534364251727218 -0.012411948446165848 0.15190053485914923 0.025450723376817412 0.018211054011730014 -0.051038539253787533 -0.07006277771558701 0.033304052298178635 -0.02068003613715111 -0.04926862109453428 -0.022182821517187177 0.05793037026631379 0.02250667503450485 -0.013570537413147307 -0.05307174942013872 -0.010549794139732924 -0.07909756967467317 -0.04227520705344105 0.0018558548469552452 -0.08144320961575714 0.015986016334064105 0.056375236531734034 0.007234956451708499 0.04366747628042855 0.1259667664966608 0.08789739078113971 -0.028513538242713316 -0.004152263644523608 -0.16383426397007386 -0.018140780616915774 0.01726836664116956 -0.04768102028989243 0.0010645131264750115 0.06047432508635918 -0.028088663553902368 -0.006270542413330169 -0.030012274250861955 0.00609015164861301 0.07094508433161242 0.03668649628763578 0.032302056206262114 -0.10016613065474513 0.14337762745811572 0.11726946194685887 -0.0688254584254062 0.038848379497586676 -0.13893218014969283 0.031220649340935637 -0.09404227649147148 -0.09599774186868988 0.11932574821877628 -0.03136397258319312 -0.07318969780543957 0.02774151060657063 -0.1033675581623982 -0.03459447851574431 0.033686059053423485 0.02140659442782485 -0.0906525565461075 -0.06915445288908936 -0.04744202034698784 -0.04255360209071217 0.020559025354060623 0.10683393960733761 -0.16469143509698872 -0.14579771993389004 0.08677202073052862 0.0269542196706709 -0.049034153411395796 -0.015464952558638787 -0.0912415886714765 0.011232696745115754 -0.03276942414729919 -0.0204061135297647 -0.010384639154123033 -0.07193100284316534 0.08500442108041238 -0.018217444080622112 0.11235226177281833 -0.02927126383133533 0.002675915912833819 -0.06396171735948628 0.023133835708232662 0.10905812971042907 -0.045365368258505186 0.028463867859207 0.01501177564851617 0.03327502607696376 -0.032363933489745866 -0.06557551298730309 0.049508758213515164 0.10144945864206098 -0.06839133191919486 0.021053658900314062 -0.02012068866450953 0.007422503002939235 0.07550883580720134 0.03263788436186412 0.02764174034986235 -0.014523991919771438 0.02063867778165389 0.009461390534549856 -0.003836326210813672 -0.09744690509592431 0.046233160788935995 0.09199495334518257 0.03684684002735249 