0.04600540817737447 0.06855883526783162 -0.06624783804398261 0.027993968400151177 -0.09830392761192326 0.1785654356005022 -0.03773823711693392 0.056489203714201706 0.028646712983287432 0.03338436598955265 0.09583723688638918 -0.09308183123569708 -0.07138877079012358 0.08671592716752971 0.0422813877310569 -0.028746430067490253 -0.10799830088720933 -0.10430102854514074 -0.019838784473530366 0.035012057475104136 -0.08363065025925548 0.12894377907244814 -0.02168846548475025 -0.03352785825350554 -0.026092857239966738 -0.09465999570921499 0.044741401896135506 0.05956031952008166 0.0032401029380095575 -0.05699038534809524 -0.02614737563506733 0.05613056484801108 -0.07424196996874723 -0.10811794302329035 -0.03303590121296268 0.06181411930967925 -0.029927209268865093 0.21758626867906006 -0.05306518824020801 0.02913065614748714 0.08371651593482386 0.07423875256577084 -0.042424164792916524 -0.04466667984779833 -0.07305587319351377 0.05296045427544093 0.04551310974050152 0.11910153891551198 -0.06710759156328422 0.045647386727181126 0.097770803454168 0.008945790475610152 -0.012136999631986084 -0.0059119393047871085 -0.07148723952622738 0.04696541716060892 -0.06358493459139342 -0.12611551669168597 -0.013165449737137831 -0.02227552491333819 -0.1149454333690564 0.039185968361004825 -0.06131009244733338 0.013139458856619067 -0.015161495874336033 -0.05511308058353547 0.002564823314065701 0.017868257924137727 -0.06336829634314817 -0.04504577522835326 0.02253791482423378 0.06125064059011879 -0.13070231499913568 0.10890899073999173 -0.0023318726798101427 0.13227663068846263 0.06534067930569809 0.21613744757818906 -0.049682960357288905 0.018915839982436226 -0.004564390314067858 -0.11764559630723337 -0.0779780655240065 -0.025612877412550472 -0.06011637743517988 0.10093743061078825 -0.004885545768185513 -0.019904693903600976 0.08466958856129098 0.088055333695529 -0.024480483991654728 0.10445583432833103 0.024456982231356027 0.04136918081617259 -0.03864804189993746 -0.027305554773217 -0.07857453145264075 -0.07545522348258395 -0.02306162329869134 0.015447723508636171 0.0660361498594284 -0.05007600784301758 0.05175277963280678 -0.039279911667108536 -0.0855400413274765 0.0033636719454079866 0.10569258779287338 0.10603857040405273 -0.006937035825103521 0.0477561429142952 -0.09171649068593979 -0.029025975614786148 0.06480497121810913 0.04820874333381653 -0.04175370931625366 0.06480923295021057 -0.018324635922908783 -0.009291719645261765 0.12324312329292297 0.02142387442290783 0.07248057425022125 0.0618954561650753 0.1478472650051117 -0.11333160847425461 -0.0011146822944283485 0.010828278958797455 -0.0086554866284132 -0.08309930562973022 -0.05619572475552559 0.01266850158572197 -0.08032649010419846 -0.03152300417423248 -0.026795636862516403 -0.04360712692141533 0.08068040758371353 -0.004421483259648085 -0.15484893321990967 0.0463811457157135 -0.0021953429095447063 0.006287453230470419 0.0035193688236176968 0.06777641177177429 -0.03704799711704254 0.03593672811985016 -0.06786048412322998 -0.0015221399953588843 0.07061512768268585 -0.018393563106656075 0.15070582926273346 -0.013840758241713047 -0.05181218311190605 -0.09660935401916504 0.04165727272629738 0.02601628750562668 -0.13946817815303802 0.027471056208014488 -0.022274628281593323 -0.09371525049209595 0.06842494010925293 -0.041795965284109116 0.04207419976592064 0.07767894864082336 0.07549857348203659 -0.05501173809170723 -0.09438128024339676 -0.06129475310444832 -0.012007433921098709 -0.060383863747119904 0.05675108730792999 0.04521660506725311 -0.0653809979557991 -0.06653688102960587 0.017408763989806175 0.14202067255973816 0.009176227264106274 -0.13644158840179443 -0.0380595326423645 0.061386849731206894 0.06206255033612251 0.005496817175298929 -0.04077422618865967 -0.04205743223428726 -0.03176835551857948 -0.05892353504896164 0.02610659971833229 -0.04035740718245506 0.023469075560569763 -0.08076819032430649 0.050177209079265594 -0.02038995735347271 0.030072620138525963 -0.10208797454833984 0.07567723095417023 0.06627543270587921 -0.04931207746267319 -0.05133354291319847 0.07149511575698853 0.010875817388296127 0.03649289160966873 0.007835520431399345 0.0510454997420311 0.0009014636743813753 -0.004489315673708916 0.004315655678510666 0.044705238193273544 -0.03694424033164978 -0.0589807890355587 -0.06479485332965851 -0.00753308180719614 -0.05464613437652588 0.09809071570634842 0.034747328609228134 -0.043932896107435226 -0.019419169053435326 0.05303668603301048 -0.05974560230970383 -0.055004868656396866 -0.055149953812360764 -0.009980866685509682 0.007615020032972097 0.19884315133094788 0.024047033861279488 -0.00038771453546360135 0.07317344844341278 0.05853739753365517 -0.046747345477342606 0.05282900854945183 0.08268950134515762 0.016199085861444473 -0.0711570456624031 -0.01203394215553999 -0.014765527099370956 0.08965383470058441 0.02339129149913788 -0.04470616951584816 0.05272799730300903 0.08027787506580353 0.05486492067575455 -0.04818357154726982 0.07418553531169891 0.09669652581214905 0.07782969623804092 0.08370736986398697 -0.010159500874578953 0.1721230447292328 -0.005710655357688665 0.010212026536464691 0.0583064891397953 -0.09685875475406647 0.06790517270565033 -0.0788201168179512 0.10217419266700745 -0.058159682899713516 -0.004218262620270252 0.12698444724082947 -0.042657576501369476 0.009863982908427715 0.04276430234313011 -0.03315407410264015 -0.0069283377379179 -0.005581580102443695 0.0704672634601593 -0.052199836820364 -0.07087713479995728 0.018522312864661217 -0.0903371274471283 -0.014225427992641926 0.07685128599405289 0.06553336977958679 0.030537042766809464 -0.07731999456882477 0.05089562386274338 0.014753932133316994 0.10517293959856033 -0.031821928918361664 0.058875277638435364 -0.10738054662942886 0.12702684104442596 -0.07685089111328125 0.03364841639995575 0.09436318278312683 0.05738886445760727 -0.011442559771239758 -0.052945997565984726 0.04160980135202408 0.07433781027793884 -0.14147385954856873 -0.045501936227083206 -0.025934871286153793 0.0847383439540863 0.14489296078681946 0.026899045333266258 -0.03164965659379959 0.15710200369358063 0.033139847218990326 -0.07424286007881165 0.029707171022892 0.005367220379412174 -0.026683013886213303 -0.021052798256278038 0.04058085143575642 -0.09962509136172124 -0.060198584766575414 0.03150440464000235 0.01321820504064076 0.022786909908732632 -0.18248696236944578 -0.018237481404991818 0.06394038808261397 0.01857240234197218 0.09078818213701123 -0.033960379839120314 0.02327391489888779 0.040133110503506896 -0.0665967602448343 -0.022399297853936444 0.022327060991819126 -0.0715473582975992 -0.09161542656163624 0.05649388609335727 -0.012332044571825932 0.0214796889589102 0.022633000733004352 -0.0043824930009537305 0.04900023847530609 0.021031665526555426 -0.11679347445546083 0.023122791172495414 0.045783568464426556 0.035579630538289136 0.029210100169211477 -0.01410025465207054 -0.15003426513889231 -0.11311733448792288 0.028938564024281795 0.0474319962831631 0.16261723156434368 -0.033061043284150306 -0.02225321028575965 0.036764456692683314 -0.07074424301789421 0.025058373915804982 0.048153177795631 -0.012380367655286792 0.046284756688410804 -0.09095576791356198 -0.02895141866121353 0.031902789695140696 -0.0047657393918794115 -0.09931951213296984 0.10934006781103715 -0.007741738261198464 0.004859027398539813 0.07796850459089318 0.10779159661125591 -0.09989003027162993 -0.052988852554332354 -0.06280995740206465 0.03866697970407434 -0.03063631670498716 -0.1223782235045667 0.05837403165212323 -0.01195888897920673 -0.12113359140889342 -0.016946023770871482 -0.016342550367812403 -0.022362368993044054 -0.03213302490814059 0.02942940406824486 -0.09802425860906107 -0.11759950841769767 0.05341803059048501 -0.07388523599828596 0.06115151336176846 0.0018346163579263154 0.03824695693277513 -0.0593270448226128 0.0776208384219787 0.025614943145660183 -0.00865055503241338 -0.008955761796920004 0.017698196035936826 0.14473742816098573 0.045239184289035964 -0.024437394315919705 -0.017699996893359365 0.022915958233552157 0.06704624764095564 0.03669524147789717 0.053234389817986616 0.034159770072467927 -0.14698006442499364 0.014931341108248682 -0.0890980253519186 -0.09432464823879841 0.1025927833442527 -0.044254841778408986 0.08205178858500267 0.11753363162607366 -0.05488528023882798 0.0179467611014843 -0.004833091516047716 0.015112679451704025 -0.028644325211644173 0.02225683256983757 0.004392307251691818 0.014364657923579216 0.019464489072561264 -0.07933928072452545 -0.03916139155626297 -0.02295149862766266 0.12271833419799805 0.07921026647090912 -0.033504668623209 -0.047367919236421585 -0.10469003766775131 -0.09426896274089813 0.12424914538860321 0.05483604222536087 -0.08340056240558624 -0.00480615021660924 0.12293244153261185 0.012714813463389874 -0.004636416211724281 0.03835251182317734 0.014012555591762066 0.018451251089572906 -0.05845958739519119 -0.03766191750764847 0.032795634120702744 -0.01677943579852581 -0.05091873183846474 0.06438936293125153 0.046835582703351974 -0.02585468254983425 0.09794720262289047 -0.09743578732013702 -0.05609762668609619 -0.010620110668241978 0.04527980089187622 -0.001428020652383566 -0.042949073016643524 -0.09336407482624054 0.050426583737134933 0.003100054571405053 0.004309983924031258 -0.007773402146995068 -0.04667528718709946 -0.062147099524736404 -0.029241744428873062 0.030372601002454758 0.053348954766988754 -0.09383779019117355 0.12277282774448395 -0.04952828586101532 0.03552517294883728 0.03126146271824837 0.0018449766794219613 0.029071005061268806 0.02746710181236267 -0.08356960862874985 0.04771023243665695 -0.03447974845767021 0.021745415404438972 0.08115153014659882 0.07519972324371338 0.07696208357810974 0.07864958792924881 0.003366428893059492 -0.05716215819120407 0.09868202358484268 0.0449909009039402 0.006319917738437653 -0.04629736766219139 0.045526426285505295 -0.005496282130479813 -0.00813780352473259 0.12096966058015823 0.07266341894865036 -0.12838082015514374 0.11560357362031937 0.00967423152178526 0.01848701201379299 -0.051898568868637085 -0.03984306752681732 0.0021579002495855093 0.04671807959675789 -0.0104816984385252 -0.003964493051171303 -0.12325821816921234 -0.08547067642211914 0.03462949022650719 -0.04879428446292877 -0.07431924343109131 -0.056466467678546906 0.03330066055059433 -0.12925401329994202 -0.05477028340101242 0.08804433047771454 -0.06071925908327103 0.010077213528477744 -0.10450571572198991 -0.013832359909621554 0.03589233378892901 0.007399896644255291 -0.0956434621820815 0.06830960692007709 -0.008382372518559862 -0.012451589470812777 -0.0600766043173354 0.003565829754831371 -0.025075171604452245 -0.03890057977633376 -0.07006661761603575 0.019812536781219244 -0.06064545560098881 -0.10633368297531318 -0.04228661233964717 -0.11396359608440457 0.10284580074010367 -0.04202546760289933 -0.05228774401279289 0.02701065793235599 0.021121131414680208 0.05381017664718957 -0.015233807766751853 -0.1513693496006358 -0.05448365761503739 0.035564709669946966 -0.16774025466179926 0.07101956212421948 0.02910013393791113 -0.10452087206634467 0.0531353434954168 0.04946611344038561 0.06300672524422012 0.06976151708693379 -0.03853253356861156 0.01798803361704426 0.08067357755981332 0.09733930331468431 0.09532109577658232 0.02559342604078659 0.06645561401300702 -0.019336375961238893 0.04337839918669499 -0.041678722368433924 0.08891668497473713 0.07258052153786028 -0.009502650631968876 0.04349330820100838 0.06206063112982679 -0.09368430845776544 0.008556647222046878 0.16425275102251763 0.08957059807491305 -0.10733745703639731 -0.12838913220772163 -0.0018741259311249692 0.011437966459324479 -0.15815050701945366 -0.023610188526025224 -0.01835143740498161 0.02104288401479214 -0.03308754287255695 0.06640615101298056 -0.0754952414030455 -0.05564149316244503 -0.03748261387786625 0.07375510550137392 0.02546428608641382 -0.014107483172784584 -0.009880468394801344 0.11657154300772009 -0.01633044745995176 -0.0022166874601783912 -0.07520772836219049 -0.09553019668842401 -0.01814427807086742 -0.05993359684729151 0.0023593150471181465 -0.05725557955607543 0.005822178145458617 -0.03781983221979723 -0.11002865652621113 0.09837096583199949 -0.058456746683857655 -0.023076601802546705 -0.0003967613409536807 0.033634204543974755 -0.0313890749123254 0.11277190511209875 -0.027752278706790253 -0.041866246167717856 -0.08224672330336999 -0.04854461757975834 -0.04091040848366508 -0.11192721951920968 0.14490104272400264 -0.07901268727059362 -0.04850873723626137 -0.15479637682437897 0.0060577369295060635 0.08671069890260696 -0.02214888483285904 -0.05697175860404968 -0.02329845540225506 -0.02913951314985752 -0.06977735459804535 -0.007204866036772728 -0.07084069401025772 0.00800279714167118 0.08298102766275406 -0.013387353159487247 -0.019381247460842133 0.10698559135198593 -0.020894909277558327 -0.08580996096134186 -0.002755444496870041 0.05198183283209801 0.1293814778327942 0.04970186576247215 -0.0498264916241169 -0.12749303877353668 -0.08136801421642303 -0.08146515488624573 -0.11336426436901093 -0.06674174964427948 -0.057139668613672256 -0.015257578343153 -0.058632269501686096 0.0705389752984047 0.06407717615365982 0.01700657419860363 0.008697481825947762 0.07697776705026627 0.029889030382037163 -0.12520335614681244 -0.005904712714254856 0.05700313672423363 0.0033740850631147623 0.10898534208536148 0.08007550239562988 0.038201309740543365 0.057625334709882736 -0.033997148275375366 0.05820905417203903 -0.028398526832461357 -0.0008662263862788677 0.07528962194919586 0.007703491952270269 -0.1024593785405159 -0.02639855444431305 -0.06482896208763123 -0.07003987580537796 -0.12724973261356354 0.12453155219554901 0.028727568686008453 -0.05568582937121391 0.11860162764787674 -0.09678319841623306 0.023475760594010353 0.04593583568930626 0.01071106269955635 0.00814212765544653 -0.015433160588145256 0.035394053906202316 0.029121942818164825 0.07512262463569641 0.04925733804702759 0.07811125367879868 -0.15726786851882935 -0.023094195872545242 -0.023744158446788788 0.19738498330116272 0.08744282275438309 -0.004178281873464584 -0.0342656672000885 -0.013862005434930325 -0.02876131422817707 0.04133813828229904 -0.005490393377840519 0.024498015642166138 6.0782593209296465e-05 0.018237367272377014 -0.03619510680437088 0.03397141769528389 0.028762511909008026 -0.04268955439329147 0.049184054136276245 -0.022066669538617134 0.05311976373195648 -0.0910034105181694 0.12327323853969574 0.020436791703104973 0.12128885835409164 0.01846841722726822 -0.039118848741054535 0.054048776626586914 -0.04264950752258301 -0.04061097279191017 -0.04824482277035713 0.04072803631424904 -0.08812481164932251 0.05863260477781296 -0.06763221323490143 0.05726264417171478 0.08335886895656586 -0.04996728524565697 -0.019442107528448105 -0.05406360328197479 0.034593045711517334 0.029849080368876457 -0.020596880465745926 -0.03548761457204819 0.08211813867092133 -0.04196399450302124 0.0026918125804513693 0.019732961431145668 -0.03268400579690933 0.037129320204257965 -0.036748193204402924 0.04705715551972389 0.172689750790596 0.0136795025318861 -0.05972937121987343 0.05475270748138428 0.03597964346408844 -0.07977234572172165 -0.04571277275681496 -0.028647154569625854 -0.009471552446484566 -0.06024051457643509 0.0006206772523000836 -0.015265341848134995 0.061645470559597015 -0.04562412202358246 -0.09581838548183441 0.01988825760781765 0.029182136058807373 -0.011953410692512989 0.07464326173067093 -0.03419680520892143 0.03606649115681648 -0.0067162043415009975 0.026134513318538666 0.02921999990940094 -0.03657398745417595 -0.04696349427103996 -0.08064582198858261 0.09271244704723358 0.11814595013856888 -0.11534376442432404 0.04667339101433754 0.06069578975439072 0.06570930033922195 0.012679120525717735 -0.051894593983888626 0.027391256764531136 0.11706967651844025 -0.01702120341360569 -0.06539088487625122 0.09586051106452942 -0.05236689746379852 0.012898290529847145 -0.12442142516374588 0.04980158060789108 0.02937597595155239 0.002748440718278289 0.005739761982113123 -0.07035871595144272 -0.10070552676916122 0.054206039756536484 0.1229509711265564 0.06311628222465515 -0.06205921992659569 0.055085439234972 0.06448205560445786 -0.00041343015618622303 0.06707815825939178 0.04964306950569153 -0.032497067004442215 -0.047279927879571915 -0.02557145617902279 -0.011285544373095036 0.022610720247030258 0.02004828117787838 -0.005415667779743671 0.013986310921609402 0.03841383382678032 -0.0057119945995509624 -0.030651772394776344 -0.11961522698402405 -0.07026634365320206 -0.052275318652391434 -0.032310035079717636 0.03892464190721512 0.03430202230811119 -0.016085747629404068 0.024637028574943542 -0.07605796983062456 0.02868154914623128 0.09047024594404626 0.02969803176062257 -0.0034692577883789 -0.030449028194467116 -0.05075978188437736 0.019452074659201474 0.09365805218318893 -0.03245412288529779 -0.06800877126627514 0.12440799272574919 -0.017574292548274972 0.001198794574787435 0.04508589814739599 -0.03167151673650779 -0.02886515455071148 -0.007841927620680696 0.055349352029492135 -0.0003437369795006583 0.04271277499811097 -0.025751355561127356 0.029535498109339885 -0.01951484785425907 -0.011023125662532931 0.06411217222546539 0.0065840654347224335 -0.10243340194677367 -0.0003134403819935591 -0.05133807612425549 -0.09617240347977289 -0.028448222089023686 0.07684774043053186 0.034881038534024446 0.024679443790792364 -0.01799103068881516 -0.025545594072851452 0.13728203838809228 -0.10938019947908768 -0.08760105076069052 -0.016908422205441614 -0.028625545896759218 -0.06186084558402531 0.13509512022461473 -0.03928481183768042 -0.04432184159812875 0.09364076328532034 -0.03929434879956111 0.025478799559643394 -0.13636246400975113 0.007441260503189834 -0.10557201188699233 0.08760037491892177 -0.009121774295553404 -0.11408218805308307 -0.11673682497601252 -0.022454492723778297 -0.0220985604571671 0.05107342645444637 -0.018635670023063242 0.046384113955765444 -0.04860003859728032 0.05638859060917633 0.0633289635725927 -0.062056664423337425 0.13347650949383658 -0.053649196986741345 0.014870156281611686 0.09280331703187071 -0.058913512406467694 0.11434185405344016 0.019876935204854475 -0.04633879397420844 0.015270470930595005 0.02071587290315237 -0.06331594088562689 -0.0915030741144309 0.00895020472296386 0.028539667654631572 -0.005995755567769332 0.03446188526389615 -0.03262408732763358 -0.01660094557378124 -0.08432866881035192 -0.10800071288883246 0.06779955030139101 -0.09431299605094695 0.02146951787891804 0.06748647912093303 -0.08761595552684968 0.022280809781332338 0.01957330418899396 0.0775041709418182 -0.0038585660207653277 0.04786821462979029 0.01913768448273053 -0.040799314309164135 -0.04533609499938633 -0.07581901699140459 -0.017211589963041105 0.09016124904155731 -0.016006018966436386 -0.13438302278518677 0.040372926741838455 0.1426079273223877 -0.045986711978912354 -0.01502404548227787 0.03242555260658264 0.06999360769987106 0.016769349575042725 -0.03559150919318199 -0.02891809679567814 0.020771807059645653 -0.13107144832611084 -0.03263820707798004 -0.11103859543800354 0.020427804440259933 -0.033970143646001816 -0.021330494433641434 -0.04923534393310547 0.007223979569971561 0.04640742391347885 0.03390483930706978 0.0867430716753006 0.014622904360294342 -0.04144073650240898 -0.1340261697769165 0.009364643134176731 -0.1590767204761505 0.07657274603843689 0.07803306728601456 -0.021340498700737953 0.046818409115076065 -0.022939534857869148 0.06864951550960541 0.0064741033129394054 -0.07035551220178604 0.10313626378774643 -0.0477912612259388 -0.007904847152531147 -0.00238851853646338 -0.04635234922170639 0.022236904129385948 0.10110815614461899 -0.03436213731765747 -0.08307158946990967 0.03514447808265686 0.007462036795914173 -0.09049012511968613 -0.1218210756778717 -0.1244974434375763 -0.012439930811524391 0.06809889525175095 0.03269639611244202 0.11555827409029007 0.026643281802535057 -0.02775735780596733 -0.06477672606706619 -0.089601531624794 -0.12167652696371078 -0.015411756001412868 0.07065163552761078 0.039220694452524185 -0.03535393625497818 -0.06065311282873154 -0.03360927477478981 -0.02146943472325802 0.026279769837856293 -0.07278014719486237 0.12142157554626465 0.0040986365638673306 -0.0591217502951622 -0.058347273617982864 -0.03429840877652168 -0.07202992588281631 0.07644422352313995 0.07981335371732712 0.14944329857826233 0.07035162299871445 0.026865193620324135 -0.06818000227212906 0.05226293206214905 -0.06424719840288162 0.15280215442180634 -0.07029952108860016 0.028847428038716316 -0.017292434349656105 0.020960500463843346 -0.042998265475034714 0.07519228756427765 -0.012363260611891747 -0.09965977817773819 0.013783855363726616 0.04103361442685127 -0.023137331008911133 -0.020462466403841972 -0.041533514857292175 0.1195506826043129 0.10211148113012314 -0.05027822032570839 -0.06285216730377069 -0.04278358226971741 0.03977164387172748 -0.11499863776840763 -0.05708429138407344 0.006818061165518422 0.05792251256188114 0.05725454222260966 -0.05364266139435085 0.00149290502879024 0.07681730283943865 0.13694657976132696 0.045047526750507084 -0.0628041404964845 0.01700060198920258 -0.07955590643128257 0.026784927900124673 -0.016251052339721885 0.03649596578602213 0.06363119421144216 -0.0521026183313903 0.000842878133642484 0.023776851557450518 -0.057375309171661996 -0.03089957254548852 0.07567796883349215 -0.05362044109365683 0.030811977879030065 -0.014169784938867072 0.057239495121923854 -0.09714994748132402 0.07274605927753733 0.14379354492648386 0.07552042075187852 -0.09780067961650833 0.039718823124460255 -0.06962687263480608 -0.005830095462161075 0.08896013490914845 -0.038409788556116035 -0.006162880423368652 0.027286077561522258 -0.0027356717490551272 -0.020856614337689983 0.0853823282516924 0.09914656268435115 0.02043342948634455 0.0001424427328181267 0.04075403934121207 0.07637656837374822 -0.005278990850709219 -0.049597362925814736 -0.023985771121446637 -0.06393700967085174 0.05624320061384528 -0.12849172494534694 -0.11490353119735221 -0.19033408103189706 -0.07437539721839612 0.03373176786652239 0.038380720289003405 -0.037590038372171786 -0.09057224890120517 0.0624704089115908 0.11916734779388106 0.029898937174716582 0.012106679029322534 -0.07123525673844251 0.06664362423987047 -0.06901280446884372 -0.053821866837776254 -0.11244961926376724 -0.06870465178506267 -0.05557320148529849 -0.15728017960064847 0.07619701990705205 -0.02623952518483334 0.0386864702609648 -0.08254557789528964 -0.06270122305731501 -0.1604555663919503 -0.09034468668385806 -0.14154524355437056 0.10252727657808113 -0.007759969827420079 0.03144673646914612 -0.05808962487314988 0.08440292189769721 -0.05585846598212369 -0.0191091696647004 -0.11448312326263232 0.14615244563674573 -0.056194999339448215 0.006302737541788264 0.08231661922649569 0.015336074041655306 -0.02851116995443975 -0.10402464967570045 -0.05518542428855691 -0.01097423637349119 -0.08041515201330185 -0.009685639292001724 0.017103036865592003 -0.07137598097324371 0.00339071755297482 0.0008056068909354508 -0.0568532831966877 0.02991507202386856 -0.024086732417345047 0.034508612006902695 -0.06951045244932175 0.09068404138088226 0.09053574502468109 -0.1185288280248642 0.09684009104967117 0.05743614584207535 -0.04584425315260887 0.031779419630765915 0.008392010815441608 -0.10568015277385712 0.019699642434716225 -0.10234028846025467 -0.030971262603998184 0.08101852238178253 -0.12628497183322906 -0.01638065278530121 0.1334514617919922 -0.040050361305475235 0.048684749752283096 0.09266193211078644 0.056243930011987686 0.001873358036391437 0.00400308333337307 0.0027781135868281126 -0.012205407954752445 0.1802813559770584 -0.10269757360219955 0.011152466759085655 -0.01981101557612419 -0.04042239859700203 0.06385427713394165 0.01910405606031418 -0.002436470240354538 0.029058760032057762 0.1348114162683487 0.06740334630012512 -0.005166082642972469 -0.05144456401467323 -0.0019332198426127434 -0.015125161036849022 0.02758769690990448 0.027073903009295464 0.009786459617316723 0.0011031902395188808 0.03281710296869278 0.0403791107237339 -0.017116721719503403 0.0018371341284364462 -0.10936789959669113 -0.018558887764811516 -0.018545618280768394 0.011651985347270966 0.03847899287939072 0.062044657766819 -0.13002720475196838 -0.031457845121622086 -0.05578901618719101 0.04970267787575722 -0.08151018619537354 0.03061656281352043 0.12336607277393341 -0.017753280699253082 -0.0014474209165200591 0.002146993763744831 -0.0475933812558651 0.03589993715286255 0.038546375930309296 -0.03498416766524315 0.05920467525720596 0.024611489847302437 0.01756652630865574 0.027133168652653694 0.04687274992465973 0.03327131271362305 -0.03498196229338646 0.023320430889725685 -0.06860111653804779 -0.07784625887870789 -0.021334154531359673 0.010626166127622128 -0.02958722971379757 0.04686439782381058 -0.06978021562099457 -0.021629860624670982 -0.015509987249970436 0.11743670701980591 0.024519577622413635 -0.028358127921819687 -0.02058015950024128 0.04297013208270073 0.07662241905927658 0.17190754413604736 -0.013329535722732544 0.03057986870408058 -0.11352990567684174 -0.02650264836847782 -0.026203136891126633 0.11696559190750122 0.022880814969539642 0.0475364550948143 -0.08758456259965897 -0.01816098764538765 0.02197086811065674 -0.07069676369428635 0.07176535576581955 0.05082825943827629 -0.021723484620451927 0.002751600928604603 0.036673903465270996 -0.003890306456014514 0.07519929111003876 -0.03097677230834961 -0.023620275780558586 -0.028677906841039658 -0.06282532215118408 0.006976001895964146 -0.005543301813304424 0.07883916050195694 0.05578887090086937 -0.09301193803548813 -0.01659921370446682 0.18130457401275635 -0.046753205358982086 -0.07760506868362427 -0.014722435735166073 -0.02823040261864662 0.05045858398079872 0.04048425331711769 0.1428368091583252 0.163263738155365 -0.07735670357942581 -0.06161307916045189 -0.07542423903942108 0.03233938664197922 0.008117678575217724 0.0958700031042099 0.02238532342016697 0.02479008212685585 -0.03248121216893196 0.010368557646870613 0.1405867487192154 -0.023827841505408287 -0.043640606105327606 -0.01859884150326252 -0.09884250164031982 -0.08530579507350922 -0.015112502500414848 0.051400113850831985 0.06325170397758484 0.012606094591319561 -0.017407316714525223 0.030203530564904213 -0.06095702946186066 -0.040579039603471756 0.08602461963891983 -0.035149093717336655 -0.026756763458251953 0.0793299600481987 -0.03087427280843258 -0.052604593336582184 -0.025563476607203484 0.05665075033903122 -0.00445643812417984 0.09218531847000122 0.06296344846487045 -0.11050235480070114 0.06957719475030899 -0.07423287630081177 -0.018314633518457413 -0.06417406350374222 -0.09422256052494049 0.0013986078556627035 -0.11794458329677582 0.006606423296034336 0.1186307892203331 0.015746191143989563 0.009863072074949741 0.09038902819156647 0.07177786529064178 0.0074900733307003975 0.057811152189970016 0.0011068828171119094 -0.0320872962474823 -0.009152392856776714 0.01088238600641489 0.05939245969057083 -0.028189610689878464 -0.02185673825442791 -0.10397887974977493 -0.009417585097253323 -0.0271019479763905 0.019252672082093934 -0.093365863247928 0.11358469818038526 -0.10569432333478158 0.058974595413010714 -0.038541153825933525 0.02111385104630718 -0.18670336442240712 -0.17103888757869665 -0.044296254436377726 0.01229573564790673 -0.00968887761439634 -0.09333477630473652 -0.03718156950570452 -0.05943515317484001 0.08456548727788281 0.03969133434226235 0.11585754030140777 0.03903824279929392 -0.08106458229787379 0.07324860426460424 0.05686057965724867 -0.12851187108557924 -0.08202746713471003 0.10194847083047996 -0.09117122338851047 -0.07543909790788635 0.0018904869814869412 -0.014362931353433316 -0.08003030867288555 0.037272580532327876 0.10546191466706648 0.03135879248239275 -0.0016686613884301107 0.016954384347891024 -0.03924592480019303 0.034487345980277404 -0.028958192639641986 -0.003396719096760024 0.05302956643462452 0.03253136331133209 -0.09379059495327971 0.06931886170760249 -0.08541788037805391 0.04087468009138477 0.020628835807635512 -0.09359853025554439 -0.010934096324229425 -0.046955353961821836 -0.11131497796250751 -0.03245941739971988 -0.03859861787370844 -0.08738106911609116 0.010071107282532259 -0.08028274326910603 0.08777965881591117 -0.12282307372876065 -0.02683653663781375 0.0028770920474095046 0.08261624658984892 0.022004276656950407 -0.08856050755073985 0.04283345046686096 0.0023792343609071705 -0.11733934997095923 0.007759867622168677 -0.06735947283402129 -0.07703778238006334 -0.0009337413234461523 -0.05659463199323961 0.029676328425702586 -0.045613596037547055 -0.06486046255138739 0.028448299608808077 0.0730925484235337 0.05888582577018807 0.024427254365740423 -0.032077458085668184 0.12793483992609647 0.014417184734027309 -0.035175798843140225 -0.03964500572439853 0.0613346007893003 -0.08575819724370638 -0.012014905187997298 -0.06602501365276597 -0.010425088910459563 0.14456471701442583 0.029975798530836577 0.09915163464763999 0.020939779719741557 -0.07109330985853612 0.05115632341142558 -0.014764834310008083 -0.06931959898117611 0.027174202023263098 -0.024404507925858156 -0.06257243187149493 -0.015756711358532547 0.07569513469934464 -0.06636892259120941 0.06400542706251144 -0.12007445096969604 0.0007425518706440926 -0.10860206186771393 -0.04565443843603134 -0.002699103904888034 0.08650214970111847 0.0103871189057827 0.001764011336490512 0.10251862555742264 -0.023044748231768608 -0.04846782237291336 0.0023559234105050564 -0.07064468413591385 0.14873509109020233 0.15579722821712494 -0.014357943087816238 -0.045749906450510025 0.026525605469942093 0.035444293171167374 -0.0024408542085438967 -0.05674609914422035 -0.13536104559898376 0.02301901951432228 -0.03287600725889206 0.0006433765520341694 0.06957704573869705 -0.049682099372148514 0.003994183614850044 -0.02756773866713047 -0.038029659539461136 -0.16211241483688354 -0.08933764696121216 -0.059169236570596695 -0.0792919173836708 -0.01786317676305771 -0.062432680279016495 -0.03464329242706299 0.028328826650977135 -0.13136300444602966 -0.018259624019265175 0.032688040286302567 0.042010173201560974 0.030168859288096428 -0.008591702207922935 -0.04208090528845787 -0.0571003332734108 -0.06322725862264633 0.0660933256149292 -0.0018282636301591992 -0.001051470055244863 -0.014143009670078754 0.09040989726781845 0.07878972589969635 0.007535516284406185 -0.11531811207532883 0.01793183572590351 0.08896300941705704 -0.03198813274502754 0.11288918554782867 -0.05516797676682472 0.0859835222363472 -0.03871577978134155 0.00946841947734356 -0.0018141294131055474 -0.15169532597064972 0.006730862893164158 -0.03659482300281525 0.060260724276304245 -0.020864272490143776 0.07473161071538925 0.06311210989952087 0.00026843263185583055 -0.007832341827452183 -0.016915110871195793 0.013722801581025124 0.04045037925243378 -0.039372727274894714 -0.06377357244491577 -0.04064895212650299 0.1040155217051506 -0.0717083141207695 -0.027118463069200516 0.0507570318877697 -0.04452067241072655 -0.026510557159781456 0.008000467903912067 0.08532986789941788 0.013616942800581455 -0.05169500410556793 -0.025769084692001343 0.033338047564029694 -0.11779819428920746 0.01803271472454071 0.030022364109754562 -0.01903245411813259 -0.044443827122449875 -0.071751669049263 -0.045312111662316724 -0.034294459610283816 -0.07043265155653083 -0.024560843811500067 -0.08923274867179154 -0.03054360868854073 0.04862681143538252 -0.09631147191751842 -0.1437234158005724 0.016468635282400983 -6.111819620095482e-05 0.10996236320950416 0.032822946445720785 -0.05883221810486842 -0.05897763225191272 0.009210938666611301 -0.10794363445532797 0.013884616898428365 -0.033953622195185024 -0.049925138303486244 -0.12919016139628456 -0.01004562778814581 0.04012109501547311 -0.11354218509815933 0.021215795777683358 0.039916699118197424 -0.03624737302904202 -0.07901299294087492 -0.04238553195804837 -0.0007268264553694544 0.07397443979153409 -0.006652875670303096 0.039456750469292555 -0.035879004695918267 -0.00182900658426425 0.030849505854495907 -0.05586266030665376 -0.07935329275605424 0.0010826756025039616 0.05974992370278806 -0.03711898379267072 0.07838436362092314 0.019657774828403737 -0.11536351906724907 0.12016625777707592 0.06386094152619208 0.029768519798098643 0.07929766428865578 -0.009015779410098946 -0.11118371535400856 -0.07908377840805356 -0.023343524824138647 0.0077024871341430405 0.01677555970305914 -0.08653892782025494 -0.06395735854735249 0.026996394923170644 -0.0587617996554347 0.07656422390201909 -0.07893567736377237 0.01852326223868485 0.027854744596588207 0.06263732526732631 0.0032324602915563515 -0.04017253762074641 -0.027913666770756438 0.026004316089786202 0.0034498282804361455 0.0942924292952889 -0.0791830464465571 -0.043398939971092766 -0.055613248681250296 -0.033769030951947845 0.06928430014312859 0.05212083047266668 -0.05760583723569051 0.03681749336288884 0.14270640178594812 0.07888161585569992 -0.0257087344950627 -0.11461807981596175 -0.10384270017919109 -0.08556122217632717 0.07037559687973102 -0.05153574607370623 0.09988394683804079 -0.14715987532787553 0.007151603796972259 0.028209204378616654 -0.01902008294670481 -0.058535724659136965 -0.10628960677326434 -0.03634417941853287 -0.11408858889003637 -0.11981583545417945 0.0607001479591284 0.02792672004089793 -0.04848463523492796 0.00882755138207898 0.02030523436137344 0.006137657444924116 0.08439244329929352 -0.0272000003606081 0.015825040638446808 0.15816766023635864 0.06671879440546036 0.05490124598145485 0.09317324310541153 0.06774462014436722 0.04739563912153244 -0.01307669933885336 0.0512571856379509 0.009644811041653156 0.027668265625834465 0.0368754081428051 0.04358813911676407 0.02923378348350525 0.08410587161779404 -0.058037929236888885 0.09585492312908173 0.020528439432382584 0.00993132870644331 0.06903649866580963 0.021368389949202538 0.023486336693167686 -0.12026908993721008 -0.0801958367228508 0.09506464749574661 0.11642810702323914 -0.05165202170610428 0.08851046115159988 -0.07325153797864914 -0.036597106605768204 0.016128525137901306 -0.030038325116038322 0.0886724591255188 0.03972145542502403 0.034423019737005234 -0.1032307967543602 -0.08808302134275436 -0.07529127597808838 -0.01981174759566784 -0.03615916147828102 0.057635653764009476 0.026820888742804527 -0.0670749768614769 0.008702350780367851 0.010728674940764904 -0.052623871713876724 -0.01889991946518421 -0.002392144175246358 0.06184203550219536 0.04854777827858925 -0.009891957975924015 -0.004149145912379026 0.11219482123851776 -0.16015784442424774 -0.04005081579089165 -0.023990361019968987 -0.06926384568214417 -0.029275814071297646 -0.06172593683004379 0.03984410688281059 -0.051486432552337646 -0.12433300167322159 0.09606273472309113 -0.06704862415790558 0.03885467350482941 -0.07283870130777359 0.0152653269469738 0.027886254712939262 -0.07056459039449692 -0.028405027464032173 0.06066395714879036 -0.043438274413347244 0.00038679991848766804 0.0627780333161354 0.05827720835804939 0.02064467780292034 0.021058976650238037 -0.15027303993701935 0.09778254479169846 0.09997250884771347 0.06840743124485016 -0.016325516626238823 0.04411208629608154 -0.12211780995130539 -0.0543464720249176 0.11203371733427048 -0.037936560809612274 -0.01722351275384426 -0.0623629204928875 0.08766135573387146 0.022755233570933342 -0.028215842321515083 -0.08615300059318542 0.08981000632047653 -0.111040398478508 0.010158110409975052 0.03412056341767311 -0.0020529848989099264 -0.01528114452958107 0.04015045985579491 -0.0008028119336813688 -0.016232872381806374 -0.04900120198726654 0.10774524509906769 0.056528571993112564 -0.007445525377988815 -0.032460737973451614 -0.0012898673303425312 0.08991192281246185 0.008535550907254219 -0.04093227535486221 -0.029943684116005898 0.11842700093984604 -0.10055781155824661 -0.08578458428382874 -0.010778851807117462 0.01621994748711586 0.019132845103740692 -0.0794026181101799 0.15138424932956696 0.11090187728404999 -0.05761515349149704 0.06428734213113785 -0.04276517778635025 -0.07341931015253067 0.00985469575971365 0.023389305919408798 0.0007678763940930367 -0.1914791762828827 0.06882492452859879 -0.10684838891029358 -0.009174981154501438 0.08637012541294098 0.15127618610858917 0.04002262279391289 0.15017183125019073 0.030364863574504852 -0.12085109949111938 -0.1470666527748108 -0.05517401173710823 -0.07645358145236969 0.08491770923137665 -0.039727188646793365 -0.026419710367918015 -0.06047419086098671 -0.012762593105435371 -0.03653412312269211 0.021526293829083443 -0.0823633000254631 0.04428470879793167 0.13079515099525452 -0.004648569971323013 0.01809508353471756 0.03146464005112648 -0.07883690297603607 0.002207240555435419 0.003368518315255642 0.006034947466105223 0.1266733855009079 -0.06359437108039856 -0.01235901191830635 -0.05475412681698799 -0.04133781045675278 -0.023461146280169487 -0.007396369706839323 -0.02623150870203972 -0.05258752405643463 -0.0839380994439125 0.04371224716305733 -0.01739521138370037 -0.05963210389018059 -0.031297117471694946 -0.01067653764039278 0.05906129628419876 -0.041091613471508026 0.027676310390233994 -0.012637226842343807 -0.03943255543708801 -0.014440217986702919 0.011415151879191399 0.038451068103313446 -0.06287433952093124 0.01922731101512909 0.04304996505379677 -0.0005004809936508536 -0.04464336112141609 0.07171598821878433 0.022951969876885414 0.04047983139753342 0.03589101508259773 -0.08464705944061279 0.05763601139187813 0.009908508509397507 -0.04001456871628761 -0.008137067779898643 0.1035395935177803 0.03561568260192871 -0.016601676680503663 0.0003570584913434973 -0.1443991562927263 -0.008975677377751397 -0.04624668141394436 0.017546111209393915 -0.008909263820681036 -0.027606948674107023 0.13313174875050537 -0.022365026774773568 0.010826959996496254 0.09550613666682342 0.10248384011926821 -0.04088079322407822 0.034022927344969874 -0.0321255125079718 -0.024249585237807552 0.001965971162154645 -0.07870968572840288 -0.10530540771069932 0.05485495798424186 -0.013445138234477433 -0.05136954204906772 -0.004931960365784534 0.07206251970342395 0.019605249969357034 -0.02266151740839819 0.0290009562077597 -0.05819220059567035 -0.0019527523165611422 0.01770980029386698 0.05221129539889745 0.014516743406582737 -0.11279774366410548 -0.041609981093012165 0.0388361420346675 -0.04476982919948289 -0.04067888100054835 -0.09544330896622097 -0.09841669246509487 -0.052093151436614124 -0.02443921311715835 -0.04259493485686916 -0.009428957345284294 0.028260864634270105 0.019615842146696615 0.0434401180154235 0.04013430173155732 -0.1193732311938942 0.09841220149845488 0.009759555159739558 -0.0424725554420977 -0.03933805450417207 0.031049010753286418 0.06705022686805487 0.05401154757536219 -0.05761628701713336 -0.1732650514688947 -0.017017574935713323 -0.01648461019272306 0.0018937989577697905 -0.008843291731037886 0.08859583006199376 0.11804642634311081 -0.012692493657942758 -0.018861440840367037 0.004813697107699166 0.018901806549403533 -0.07642422500772147 -0.0035979464293687006 0.1656846080356815 -0.021580237824023647 -0.07803554923268362 0.15659333907604517 0.03359877835026099 -0.004323255545241589 -0.08763807607267497 0.07464824565966316 -0.07004684289110004 -0.03943705696078009 0.04715579700098232 0.05491022821750662 -0.07885146231545345 0.05995740002390608 0.010726979551559017 -0.08293529723780863 -0.07372294161248885 0.05211456806353747 -0.05887848050640401 -0.10843839351528817 0.0579557359884003 0.03815596038994205 0.07530419750586476 0.03829352377775037 -0.03730837619537722 -0.04460165001578212 -0.08925749406061152 -0.07033495359771082 -0.026165572179886066 -0.012987936150164907 -0.0017499062232673168 0.11833374202251434 0.08202109485864639 -0.017448587343096733 0.014374818652868271 0.0391383059322834 0.033896807581186295 0.019021252170205116 -0.10292444378137589 0.02403259463608265 -0.02231438271701336 0.03775354474782944 0.018198763951659203 -0.05229873210191727 0.12406714260578156 0.07591551542282104 -0.06681203842163086 0.1512618511915207 0.002768789418041706 -0.09009789675474167 -0.057797305285930634 0.08798810094594955 -0.007963773794472218 0.033003173768520355 -0.021008901298046112 0.038209736347198486 -0.016008660197257996 0.05882808566093445 -0.04723425954580307 -0.0033039816189557314 0.02011922188103199 -0.08076021075248718 0.008990188129246235 -0.10462991893291473 -0.009280314669013023 0.02483244426548481 0.016141697764396667 0.06598183512687683 0.03476029261946678 0.03597563877701759 -0.040784090757369995 0.046046182513237 -0.16031387448310852 0.03107801079750061 -0.06724891066551208 -0.029678359627723694 0.05690152943134308 0.02020547352731228 0.03218947723507881 -0.016125481575727463 -0.006606774404644966 0.13143225014209747 -0.002493182197213173 0.03525330871343613 -0.037311580032110214 -0.05007113143801689 0.07542511075735092 -0.006557806860655546 0.06864797323942184 0.15107332170009613 -0.012344944290816784 -0.060236651450395584 0.039642393589019775 0.01884271763265133 0.15662136673927307 -0.0048005180433392525 -0.05328327789902687 0.04019642248749733 -0.11512991786003113 0.01104497816413641 -0.02488102577626705 0.0933481827378273 -0.0012371573830023408 0.016394492238759995 0.0645679458975792 0.0523688867688179 0.04459264129400253 0.02632928639650345 -0.023655913770198822 0.12430183589458466 -0.017631324008107185 0.09672816097736359 0.06010796129703522 0.03174054995179176 -0.06000146642327309 0.020057732239365578 0.011949565261602402 -0.1219722181558609 0.07740626484155655 0.06994383037090302 0.03529337793588638 0.003668389515951276 -0.012140953913331032 -0.02081885002553463 -0.006461069453507662 0.06300421804189682 0.10305261611938477 0.0913744568824768 0.14168816804885864 -0.025822266936302185 -0.053463949191510346 -0.12671631824506963 0.016034305326994597 0.011119681503034622 0.07799325308769299 -0.05799814023892163 0.05764379762628478 0.022214573737216393 -0.12534439087467228 0.014078974947858548 -0.004794147119020946 -0.00745457651178982 0.10216068960157065 0.017270859553138944 0.10750506509294819 0.022262501535712152 -0.07296560672358923 -0.039612110470818473 -0.07419672313909886 -0.02021549641765294 0.09478454485655914 0.10097486569306761 0.04007533786801398 0.18118311368422918 -0.08154369051278432 0.03554472426306762 -0.0006138532109014286 -0.09177209456428777 -0.03412429694311806 0.0874721316438639 0.11365968465808722 0.0022435942306437305 -0.013829963216204028 -0.06013465305549606 0.07951799209265753 -0.016616138765802077 -0.022660395259399554 -0.0794863934883297 -0.024503406094212952 0.020224989931933376 0.028330487268655086 0.025178494565661545 0.05687500878433671 4.78576794562751e-05 -0.12099193807425736 -0.07184707072772974 -0.046000958653775105 -0.03599474795671781 0.039345017170920496 0.04677118398136128 -0.0793130301854268 0.013084403756444832 -0.004704255442662545 -0.052527108014699495 -0.02294254577381865 0.07075080860001726 -0.005082905172374603 -0.02118109894448267 -0.11485386313292774 0.08081480298714774 0.03933587680954798 -0.032810469481853746 -0.11611990110411043 -0.01144588584115963 -0.030457577907933752 -0.12232317580596443 0.05150045035905903 -0.06435966569233476 0.08607841578051982 0.025874876750656518 -0.04845365612415346 -0.10746899968815256 0.012946368439928455 0.1331598597004894 0.051652310225784294 0.03176236705633848 0.0457576981273536 -0.04001685515324203 0.11892890249125025 -0.02555704484818757 0.05019758304340838 -0.04427237443237544 -0.04992288230673756 0.07524279986019825 0.04231821494639654 -0.053055182342115426 0.0729371664148647 0.030980095439666386 -0.09233828497629828 0.16429576817128277 -0.024130036013922215 0.01766375428470232 0.09364853808111605 -0.014853110462156064 -0.005257931833679887 0.007443021456421865 0.04710126835503982 0.0975063739282009 0.020501955571749973 -0.19960378030531603 -0.07539785653352737 -0.1070009395480156 -0.07769868522882462 0.043478891253471375 -0.036346323788166046 -0.08226889371871948 -0.00987157877534628 -0.06236903369426727 0.0811072289943695 -0.026627296581864357 0.053785745054483414 0.02350960671901703 0.06381655484437943 -0.06341681629419327 -0.021505845710635185 0.01734561286866665 0.052879393100738525 0.01570342481136322 -0.007785900495946407 0.035441331565380096 -0.0848742201924324 0.07670958340167999 0.06944701820611954 0.006787066347897053 0.012039885856211185 0.08716072142124176 0.033078383654356 0.0572073869407177 -0.05455183982849121 0.002310057170689106 -0.03376156464219093 -0.02572844736278057 -0.04012596979737282 -0.054877519607543945 -0.0524255633354187 0.004475374706089497 -0.041575074195861816 -0.028317011892795563 0.01605193130671978 0.15330377221107483 0.03851006552577019 0.10158505290746689 0.06377393007278442 0.015864675864577293 0.053981244564056396 0.08882144093513489 -0.0686427652835846 -0.050338950008153915 0.01199368666857481 0.08407338708639145 -0.03219883143901825 0.04834744334220886 -0.02848634496331215 0.0458042249083519 -0.11209744215011597 -0.09483154863119125 -0.022004878148436546 -0.021758200600743294 0.09847714751958847 0.05727062746882439 0.010980749502778053 -0.04894069582223892 -0.030558517202734947 0.0710788369178772 0.08667969703674316 -0.09948816895484924 0.11757097393274307 0.029863284900784492 0.008057404309511185 -0.0019057608442381024 0.01024787500500679 0.09591235965490341 0.06664636731147766 0.03839435800909996 -0.0706876888871193 -0.04937835782766342 -0.09315357357263565 -0.10807905346155167 -0.07531784474849701 0.02801181748509407 -0.03063611127436161 0.00223705661483109 0.036695197224617004 0.11924269795417786 0.032247625291347504 0.1205262839794159 0.07821997255086899 -0.07843857258558273 -0.036242350935935974 -0.021350640803575516 -0.006477859802544117 0.17038017511367798 -0.0271459873765707 0.03395666182041168 0.011291391216218472 0.0669817104935646 -0.1278027594089508 -0.053914085030555725 0.010561798699200153 -0.030233999714255333 0.023539971560239792 -0.10574397444725037 -0.0359676294028759 0.026849210262298584 0.060722846537828445 -0.002805985976010561 0.01766040548682213 -0.0022870704997330904 0.06485429406166077 -0.013855976052582264 0.044274117797613144 0.01043799426406622 0.04406832903623581 -0.046532630920410156 0.09804191440343857 -0.02091745100915432 0.018023695796728134 0.036279935389757156 -0.0022032444830983877 0.03397504612803459 -0.050874341279268265 0.033893853425979614 -0.055842265486717224 0.0280260369181633 -0.09936096519231796 -0.07133308053016663 0.0015786504372954369 0.014126427471637726 -0.07304463535547256 -0.028260529041290283 0.015295140445232391 -0.00974016822874546 0.0015770633472129703 -0.0022137118503451347 -0.08985844999551773 -0.030307142063975334 -0.006013159640133381 0.07714144140481949 0.044023655354976654 -0.061534538865089417 0.028982430696487427 -0.06467901170253754 -0.009144434705376625 -0.060768816620111465 -0.05463682860136032 0.06153754144906998 -0.013557111844420433 -0.08598816394805908 -0.059996094554662704 0.0628742128610611 -0.04461897537112236 -0.00577771570533514 0.04028591886162758 -0.06527893245220184 -0.051035474985837936 0.08744587749242783 0.014983280561864376 -0.012011382728815079 -0.09168568253517151 0.032373443245887756 0.11865631490945816 -0.056716613471508026 -0.04693247377872467 0.03006855957210064 0.16669006645679474 -0.0595959797501564 0.02222110889852047 0.040493402630090714 -0.007901016622781754 0.033251769840717316 -0.03851690888404846 0.029508886858820915 0.029801633208990097 0.02257612720131874 -0.059910908341407776 -0.03781764209270477 0.00472351536154747 0.04526539891958237 -0.06962687522172928 0.01594560220837593 -0.02291182056069374 -0.046085424721241 0.03144964203238487 -0.07889452576637268 0.002079466124996543 0.021469712257385254 0.05680973082780838 -0.03585296869277954 0.0036960069555789232 0.018740322440862656 -0.01930900104343891 0.03620118647813797 0.017573615536093712 0.054226115345954895 0.03303898125886917 -0.04530401527881622 -0.1662934124469757 -0.016271959990262985 0.01362662948668003 0.06223351135849953 -0.10722719853809087 -0.026910253218593513 -0.08549611251781775 0.09160262878967493 0.022850212798222545 0.03151993326842362 0.11491575176187846 0.168030837059942 -0.0042728870252154855 0.035405033264280496 0.13917232254770992 0.03823166239142491 -0.031906123400827664 0.11725508739491441 0.08360960706188249 0.05172494044291025 -0.014893589666692767 0.08626008435742316 0.017346425014223333 0.0778467835805257 -0.06484253960577775 -0.05442079806918673 0.011190967136290468 -0.06427927922733025 -0.05893968717002121 0.016226916693443404 0.010469439515079101 -0.025573833789163884 -0.014032440012771706 0.06520677634324078 -0.05363360933244605 -0.11650384068598577 0.012139294759472147 -0.1217679856509682 0.043206259503348964 0.09606688806022201 0.002256356968748297 0.021663017739426447 -0.06434858119074344 0.012788427789424359 0.04105010591162131 -0.1517485942105002 -0.14266446718640027 0.14120602535653687 -0.08438321308135108 -0.06775808430035457 0.05010664390033477 0.046820239762269254 -0.08020975224759395 -0.0426438539346471 -0.04694390551900954 0.05307255315147699 -0.0629027894255183 -0.011635623402344862 -0.027607411904286533 -0.0039105887369577765 -0.0282244078014976 -0.04418820720310788 -0.007267242698028253 0.021467363985077738 0.016746433718157407 0.02147472527141812 0.07150507185385782 0.10467890074101817 -0.0310871748180978 -0.05952533590534845 -0.034997860199202244 -0.06294155153590084 -0.018962273014910158 0.06250239764335741 0.010935457482785554 0.08245647671022159 -0.029183243278289146 0.07290796184453577 -0.16232254494891632 -0.14854629071979078 -0.037106207390587315 0.020920990084931732 -0.01269553788470587 -0.015196755574453526 -0.015280281387261745 0.06331431506255537 0.10206122475811871 -0.159591290425577 0.012292698799257117 -0.002579078271922567 -0.02219024273721354 0.028388231323330886 0.021653265747386463 -0.016897167509844293 0.03336964987686164 0.051749290636866695 -0.04556240852277639 0.02197920245881295 0.01916024502412515 0.00047485007694433607 0.01623130654311297 0.03888082495859516 -0.1189019702215886 0.030187275403480467 0.0686541348695755 -0.014589951373636723 0.011965244077146053 -0.009908325970172882 0.07255369424819946 0.020674217492341995 -0.07542277872562408 0.05262283608317375 -0.11167795211076736 -0.0519292987883091 -0.02844272181391716 -0.048935696482658386 -0.062491465359926224 -0.043911390006542206 -0.04893834516406059 -0.05173909291625023 -0.04020942747592926 -0.028936536982655525 0.11213526874780655 -0.053576260805130005 -0.08962751179933548 0.07294939458370209 0.07836558669805527 0.03829467296600342 0.1011151447892189 -0.08689360320568085 0.010408570058643818 -0.10977399349212646 0.001603333163075149 0.005322734825313091 -0.0025960104539990425 -0.002411158289760351 0.05245138332247734 0.06068514660000801 0.10627522319555283 -0.15228602290153503 -0.01225464791059494 -0.03528295457363129 -0.09002020955085754 -0.06300950795412064 -0.06070201098918915 -0.041311006993055344 0.006677491590380669 0.013154116459190845 -0.13535025715827942 -0.0265143234282732 0.04294940456748009 0.019187502562999725 -0.04977784305810928 -0.012354477308690548 -0.054382625967264175 0.04461830481886864 0.01016324758529663 0.08349017798900604 -0.03379565477371216 0.035850584506988525 -0.07133188843727112 -0.02738371305167675 0.011933645233511925 0.03266505151987076 0.03284072503447533 -0.05929175391793251 -0.08373317867517471 0.005772617179900408 0.029504545032978058 -0.10072141885757446 0.055719852447509766 0.0038827992975711823 0.02062160335481167 0.026899337768554688 0.05111802741885185 0.03612832352519035 0.0021641450002789497 -0.05234796926379204 0.09561925381422043 -0.020451141521334648 -0.020385462790727615 0.047288861125707626 -0.005404769442975521 0.015073873102664948 0.12447962164878845 0.06853621453046799 0.06489954888820648 0.02037207782268524 0.028327470645308495 0.06183027848601341 0.004956305958330631 0.028856825083494186 -0.0407119020819664 -0.027929697185754776 -0.00937804114073515 -0.02068592794239521 -0.035743992775678635 0.09662964195013046 -0.07517381757497787 -0.008259354159235954 -0.0007062479271553457 0.0640898048877716 -0.02053610049188137 -0.13230930268764496 -0.07468806525692351 -0.10592235100098174 -0.045480639520575884 -0.17347828645522714 0.0008026905594554292 -0.10122150213337308 0.02917916075829866 -0.015452866573457935 0.09920151642403884 -0.027054506174128964 -0.004606822686047676 -0.03533679447443052 -0.0178631896736429 -0.020512060285037766 0.0009675119565143886 0.12282191477664595 -0.05253506751154366 0.035359969315218696 0.11257678944572423 0.16291681374508485 0.026123278644691748 -0.14692837198332157 0.0006259085809808119 -0.017185726793739857 -0.03321346428576798 0.14064381091842948 -0.02504239102777803 0.04167883311037651 -0.01969858524483002 0.0060451339846488965 0.10228812492742567 -0.02690934300551167 -0.009820815855149993 -0.03583821993238506 -0.0469349189520492 -0.12262331820752978 -0.024599376867900966 0.03440148601049765 -0.022151394315964 -0.07383382289314334 0.047216462247710575 -0.007715328956743878 -0.011354908051520651 0.01582399815271555 0.012496457939876785 -0.0029149281905263003 0.028016412514745504 -0.028094555603697537 -0.011194881140217295 -0.021548026307430978 0.03774253723613865 0.006718497078876526 -0.030474096575343293 0.11521182346718463 -0.04347330120621997 0.027618915106980443 0.04205984683900202 -0.027768463618953135 -0.06379269125765201 -0.08369801298225679 -0.005618040791888404 0.004126474384174032 0.012454726100311042 0.03232773340462303 -0.01999224248444279 -0.027211400295394986 0.17637735741100416 0.05732562076758504 0.049986937837603024 0.029546550310382814 0.007886483755999657 0.0032822687901245505 -0.043080602016527865 -0.019580938775097496 0.028194935967819412 -0.018781716633667088 -0.0026544765850792847 -0.05820586578626839 0.10253407724912755 0.017002983262770017 0.0032591320904137326 -0.050660582857083844 0.09339564803240683 0.04596237952423809 -0.027263222436636262 -0.061783403134028206 -0.05714359734507126 -0.02250184673221497 -0.007055693836964204 -0.026787072908371682 0.051051669925682996 -0.08150991150169726 -0.10717460838690544 -0.008696861948885613 0.045125164379029095 -0.0432624560027719 0.033198793979389664 0.0623928019545855 0.00982444057929792 0.06501198375541466 -0.10489848256111145 -0.06651584059000015 0.0680537149310112 0.052330706268548965 0.09293181449174881 0.019010251387953758 0.04418414086103439 -0.0854240134358406 -0.08931273967027664 0.06573839485645294 -0.013476495631039143 0.06533949822187424 0.08107764273881912 0.12976951897144318 0.09021303057670593 0.05517176538705826 0.022053971886634827 0.02591395005583763 0.03686468303203583 0.00998488999903202 0.11263763904571533 0.1462421864271164 0.0071712336502969265 0.08768784999847412 0.05402332544326782 0.05284808948636055 0.10819939523935318 0.02021743729710579 -0.026780296117067337 -0.06964941322803497 -0.05297773703932762 -0.04098635911941528 0.009712914936244488 0.12718798220157623 0.011945840902626514 0.0335182324051857 -0.026535823941230774 -0.13810952007770538 0.02591738849878311 0.09969902038574219 -0.07959091663360596 -0.0661875382065773 -0.04772065207362175 0.06521252542734146 -0.03690648823976517 -0.04133976250886917 -0.07116486132144928 -0.07763451337814331 0.037991758435964584 0.02342814952135086 0.15562692284584045 0.18919675052165985 -0.01505318470299244 0.09175888448953629 0.0642407238483429 0.003954276908189058 -0.06235349550843239 -0.0258396677672863 -0.06012406572699547 -0.012487021274864674 0.007170835044234991 0.037956707179546356 -0.049671001732349396 0.14366325736045837 -0.07688784599304199 -0.048429496586322784 -0.015007014386355877 0.11167163401842117 -0.027434641495347023 -0.01853649877011776 0.08687538653612137 0.0736369788646698 -0.13295362889766693 -0.00847967155277729 -0.06352800875902176 0.019494250416755676 0.014964564703404903 -0.019303910434246063 -0.03753548115491867 0.04085146635770798 0.11730431020259857 -0.020607711747288704 0.014727301895618439 -0.020329244434833527 -0.04004816710948944 0.026921873912215233 0.06057669222354889 0.05528204143047333 -0.028084803372621536 0.07567379623651505 0.01256558671593666 -0.04527583718299866 -0.08654528856277466 0.14192068576812744 0.010731917805969715 0.05716601759195328 -0.03591325134038925 0.04183186590671539 0.0175334382802248 -0.04574332386255264 0.0023180400021374226 -0.029481012374162674 -0.049728743731975555 -0.058537885546684265 -0.020437976345419884 -0.12470186501741409 -0.012373044155538082 0.03984399884939194 -0.05505180358886719 -0.015467347577214241 -0.041810542345047 0.08751245588064194 0.004988488741219044 0.08298515528440475 -0.03162495046854019 0.062043968588113785 -0.017370395362377167 0.13837620615959167 -0.035789478570222855 0.0516938641667366 0.020945971831679344 0.020521288737654686 0.019351432099938393 -0.06714088469743729 -0.12744492292404175 0.044255465269088745 0.09106262028217316 0.011865646578371525 -0.10344422608613968 -0.05853646248579025 0.07626565545797348 0.05543317273259163 0.057881951332092285 0.07235503941774368 -0.007129094563424587 0.00855544675141573 0.0660550445318222 -0.08088177442550659 0.10649280250072479 0.08818474411964417 -0.04635942727327347 0.10494080930948257 0.0912870243191719 0.13645415008068085 0.04281993582844734 -0.042320430278778076 0.002883667591959238 0.07705593854188919 0.08470679074525833 -0.005138322710990906 -0.016065429896116257 0.011609598062932491 -0.09193174540996552 -0.011802535504102707 0.003964749630540609 0.01958495005965233 0.061765898019075394 -0.01896013878285885 0.026106439530849457 -0.12841397523880005 -0.11910144239664078 -0.045273613184690475 -0.03224147856235504 0.014937855303287506 0.020191797986626625 -0.0878782570362091 0.09736241400241852 -0.03644026443362236 0.021677203476428986 -0.028283094987273216 -0.10557757318019867 -0.0031273900531232357 0.17649340629577637 -0.040900200605392456 -0.03321682661771774 0.03831099346280098 -0.04451456665992737 0.095753014087677 -0.05053479224443436 -0.02198629453778267 -0.08756595849990845 0.044013772159814835 0.023729993030428886 0.09487210214138031 0.038659028708934784 -0.05685190483927727 -0.055997107177972794 -0.004481415264308453 0.08399226516485214 -0.07022516429424286 -0.036451857537031174 0.06421420723199844 -0.062404874712228775 -0.021621843799948692 0.01719554141163826 0.0640486553311348 0.0716799721121788 0.051191795617341995 -0.002837597159668803 0.05474235117435455 -0.11375133425959733 -0.050181011555566285 0.02254801888818627 0.1193472107382325 -0.04052139062480744 0.07498779355075584 0.02784145145829062 -0.021693638742251692 -0.026752754663685277 0.017879290367384365 0.007080117707268088 0.02750333757376606 -0.06436790870236828 -0.05247191464953603 -0.10359343623778584 0.0035151296413206395 -0.029786374862861988 0.005444188987142368 0.045121613423041475 0.0832953751025268 0.003269373689406129 -0.012251939656407265 -0.13249145276481777 0.04364961672119035 -0.07413961053086913 0.11120420064692024 0.061173390289352654 -0.04018327086377498 -0.06914313947461576 -0.060347445996716424 0.05935343848928961 -0.06695522359437327 -0.011574643114605335 -0.06961380418961914 0.025693464819893954 0.050645158905845804 -0.07754801289501145 -0.0382480465613374 -0.08543419931856522 0.03787074312645024 -0.018427575177738745 0.07260154338857347 0.07724647315431532 -0.003931037332113448 0.023324244087088733 -0.05739419622578209 0.05095490584423095 0.028490190864740715 -0.006416685261518851 -0.024184206821670884 -0.12904168199438576 -0.10744776241454294 -0.12391017671386845 0.05918938308802181 -0.013442672736049056 0.013168690786946555 -0.05120553971191496 -0.10215348163658804 0.05093467005750092 0.004342131187149448 -0.03415874331637027 0.16321014141375476 -0.05143230085648436 -0.03689404871516202 0.044615760761049415 -0.07960235598472369 -0.0546427852380618 -0.02912141717434139 0.052054101286501044 0.0038829773533690863 -0.01923892824861518 0.020730259249417453 0.05936781684163922 -0.09152919628192714 -0.05975102291155845 -0.08795252262791554 -0.1767740047921603 0.07000013726756996 -0.0032183929220587527 0.013838765331139284 -0.10948214157529364 0.06955825678471726 0.07982444151552993 0.07177980673951675 0.03440674254647664 -0.0330454293755683 -0.0373844565095559 -0.010556211744337069 0.07075680382024854 0.07791440867834969 0.01809598706966774 -0.01568563028688899 -0.10643477350184424 0.06064109553459926 -0.028973112340901917 -0.02319342640473118 0.10561019810364335 -0.024012441069693087 0.09403564779435622 0.0733481057441147 0.011764740571379662 0.08552292734384537 0.09258908033370972 -0.06124972179532051 -0.04591942951083183 0.018261248245835304 0.043016716837882996 -0.08399249613285065 -0.0548674538731575 0.021242780610919 -0.002529409248381853 0.0581783764064312 -0.08904197067022324 0.06979906558990479 0.029874002560973167 -0.05741997808218002 0.02996247448027134 -0.11754796653985977 0.07265423983335495 -0.01886482909321785 0.07911177724599838 -0.042562052607536316 -0.07251846790313721 0.005704065319150686 -0.009890856221318245 -0.02433796040713787 -0.0690489187836647 0.07155972719192505 0.05606653913855553 -0.05461439490318298 -0.08359233289957047 0.03698987141251564 0.20968031883239746 0.07071170955896378 0.11430156975984573 -0.1209888681769371 0.0578918531537056 -0.028300700709223747 0.055964261293411255 -0.006430724635720253 -0.0645727813243866 -0.0008730150293558836 -0.07719530165195465 0.022634778171777725 -0.013134817592799664 -0.08084725588560104 -0.08710402995347977 -0.14125201106071472 -0.0460912324488163 0.11528581380844116 0.1598290055990219 0.04448317736387253 -0.04165642336010933 0.07579609006643295 0.10086449235677719 -0.07539605349302292 -0.11186930537223816 -0.044690437614917755 0.06503289937973022 0.011908886022865772 -0.03591397404670715 0.036647308617830276 -0.007139061577618122 -0.021558765321969986 -0.06948702037334442 -0.0565909668803215 0.10323618352413177 0.051084961742162704 0.060323264449834824 0.08968109637498856 -0.03183063864707947 -0.0895937830209732 0.07107075303792953 -0.06197197362780571 0.12502311170101166 -0.006271736230701208 0.05289221554994583 -0.0630272626876831 -0.11526315659284592 0.011696569621562958 -0.11566129326820374 -0.02437443472445011 -0.00019613016047514975 -0.02796296589076519 -0.08739703893661499 0.029207393527030945 -0.025319738313555717 0.07458207756280899 -0.06809966266155243 0.025932148098945618 -0.174322247505188 -0.022075779736042023 -0.13459111750125885 0.007160689681768417 0.04223451763391495 -0.19415554404258728 0.03712905943393707 -0.015613575465977192 -0.02225319854915142 -0.01693398877978325 0.009363652463576434 0.016881078178652687 -0.024698267187647442 -0.09043950900699745 -0.007071619563268212 0.055286792156032306 -0.014816693511115312 0.02283560454248801 -0.02532119176593497 -0.14203271747877075 0.046416648844800526 0.027825516161157686 -0.03850793921986917 0.008722037829235436 0.05255753008386547 -0.11030178992069928 0.025513794198391247 -0.017546302240332348 -0.012205589364834124 -0.025405949492825618 -0.046642343399090826 0.015363119790441472 -0.09753579548625685 -0.039313417079555546 0.08485123427833582 0.07237970129452231 -0.14253926878868264 0.11248713874800242 -0.01968029874441568 0.04994293218493925 0.08008290238619599 0.07970593390264384 0.02858394097896801 0.004522278124833901 -0.11116315950120223 0.018125262438512153 0.0221393878767675 -0.09106689099549337 0.024001122732794564 -0.07518759810448387 -0.009341516775091109 -0.03719018226400749 0.08400035367623929 -0.020686552857595398 0.05022229215323169 0.09873861139773858 0.0015439810052700058 0.012914922584103133 0.04321052467853275 0.030490090550526348 0.02257164725839588 0.09036977662829129 -0.16242182755364773 -0.13379269423637524 -0.01292924413114768 -0.007121038222468738 -0.036874623391556026 -0.03668554342906635 0.07254441278826695 -0.01262393327241571 -0.037336354347561204 -0.06002920124766387 0.002609678057731142 0.03566032327916334 -0.08142788952555205 0.0032736769312706813 -0.029795722949407584 -0.04186420124098225 -0.0072260490789456365 -0.07664405640371758 0.10074569733116413 -0.0839157885599255 -0.0001757893746142154 -0.008340287447264236 -0.0249127845626203 0.1257014037538492 -0.1278075878537779 -0.050776185830361385 -0.06364664965726864 -0.027658318205271284 0.06930663019788631 -0.007016804539039343 -0.017605599775414902 0.023125058619240413 -0.0358293865366057 -0.051588352231255984 -0.07485254260002785 0.09679034868215351 -0.060073101726103736 0.002417656085613164 -0.031029232189031586 -0.08960841223585302 0.03297099556211595 -0.05287991070921857 -0.06294800761622629 0.0661786293057314 0.10572836776007229 0.08988391524886691 -0.08558113156942675 0.049951747097538954 -0.10486716777086258 -0.007214327342808247 -0.08833352476358414 0.015095362439751625 0.13235950469970703 0.1378771811723709 -0.004073296207934618 -0.09060757607221603 -0.01745115965604782 -0.019349079579114914 0.0782635286450386 -0.04444051533937454 -0.05473015084862709 -0.07139091193675995 0.035290274769067764 0.0838928371667862 -0.05206369608640671 0.06808632612228394 0.03384711593389511 0.14811962842941284 0.02433312125504017 0.019243136048316956 0.004349672235548496 0.054674651473760605 -0.14895114302635193 -0.03994245082139969 0.011896985583007336 0.028825370594859123 0.01754857413470745 -0.008889976888895035 0.009254354052245617 -0.0725615993142128 -0.0420987606048584 0.014810202643275261 0.025957128033041954 0.04709703475236893 -0.076018325984478 0.045791443437337875 -0.011511899530887604 0.0029398188926279545 -0.018278472125530243 -0.010721727274358273 0.0865914449095726 0.0992203876376152 -0.006285780109465122 0.031743280589580536 -0.05748064070940018 -0.07343808561563492 0.05226444825530052 -0.05435080826282501 -0.03724949061870575 0.007643790915608406 0.004982342943549156 0.09131665527820587 0.04974449798464775 -0.04545293003320694 0.03135073184967041 -0.06924711912870407 0.06242787092924118 -0.04124250262975693 -0.014030314981937408 -0.09855105727910995 -0.05815425515174866 -0.013554563745856285 -0.05500705540180206 -0.021248919889330864 -0.050942644476890564 -0.0382327139377594 0.08173443377017975 0.01776190660893917 0.03980625048279762 -0.019393477588891983 -0.044932104647159576 0.013306062668561935 0.16196390986442566 -0.04367256537079811 -0.14859528839588165 -0.09675844758749008 -0.0363190658390522 0.017541926354169846 0.07571488618850708 -0.04000973701477051 -0.18775048851966858 -0.0463111437857151 0.10238011181354523 -0.08203523606061935 0.004303483292460442 -0.02294967509806156 -0.011946075595915318 0.02243981510400772 -0.037780120968818665 -0.05028310418128967 -0.07183850556612015 -0.013731135055422783 0.1216193363070488 0.02163444086909294 0.047933489084243774 -0.039414580911397934 -0.0626773089170456 -0.056994371116161346 0.009801028296351433 0.06631072610616684 -0.016630396246910095 0.03692331537604332 0.02792341262102127 -0.2009676694869995 0.030333813279867172 -0.06419975310564041 -0.02536642737686634 0.09335120767354965 -0.045467302203178406 0.016391150653362274 -0.06057265028357506 -0.06696945428848267 0.10293252021074295 0.008871410973370075 0.006895454600453377 0.03662518039345741 0.10363992303609848 -0.024781586602330208 0.044568609446287155 0.06869348883628845 0.10284522920846939 0.0395265631377697 0.04287414997816086 0.003547515021637082 0.021320514380931854 0.11394136399030685 -0.0536273829638958 -0.10572105646133423 0.12873665988445282 -0.07540804892778397 0.019039176404476166 0.05912014842033386 0.1053028404712677 0.06524556130170822 0.13728313148021698 0.04564870148897171 -0.027164997532963753 -0.14481674134731293 0.008179163560271263 -0.027360647916793823 -0.09624148905277252 0.06308663636445999 -0.016512440517544746 -0.10239765793085098 -0.08746560662984848 -0.015843214467167854 0.04697491601109505 -0.057812537997961044 -0.05695486068725586 -0.034145500510931015 0.09276113659143448 -0.04910026863217354 -0.09410203248262405 -0.08505050092935562 0.010932917706668377 0.12543267011642456 -0.02211681567132473 0.060749270021915436 -0.09627547115087509 -0.09847372770309448 -0.013144727796316147 -0.06245177611708641 -0.029908927157521248 0.05795751139521599 0.08802364766597748 -0.016281260177493095 -0.04026924818754196 0.054100438952445984 -0.018678700551390648 0.043344173580408096 -0.01019898522645235 -0.0888279601931572 0.041488293558359146 -0.03153320029377937 0.05642805993556976 0.01727791130542755 0.1704118549823761 0.03054257668554783 0.04776724800467491 -0.05094737559556961 0.023806022480130196 -0.05192696675658226 -0.044941406697034836 0.02754100039601326 0.10880246013402939 0.11283010244369507 0.0226987823843956 0.05858686566352844 -0.008961577899754047 0.0717344805598259 -0.057709675282239914 0.09730243682861328 -0.0011165998876094818 0.0751190111041069 -0.022476963698863983 -0.0031366245821118355 -0.07765518873929977 0.035628631711006165 -0.09089747751858303 0.08406269421944557 0.07107029016282444 0.00929124880992325 -0.03055155118721377 0.025530811860342926 0.05049946989918711 0.03667781949210814 0.05514596538733246 0.0009556215907430651 -0.0067709735561212354 -0.008647304455558126 -0.014966501604695202 0.0017212290582791952 -0.10735039044563832 0.07261467780855152 -0.024760070840580573 -0.03766246355963027 -0.06546143787243675 -0.023506966908019594 -0.08022419184434311 -0.02499878451673342 -0.027988695726455553 0.05511379688800342 -0.03964248450418717 -0.06245248161265937 -0.08748209956715416 0.02338841826558516 -0.032464126543745656 -0.05795787024487934 0.044936391548437905 0.051374901346596426 0.004575388185172781 -0.12474104407506126 -0.0734605451323061 0.021962110330045328 -0.025808425683756547 0.016011387330223913 0.010223526800043826 0.023826639784085533 0.004731496774045531 -0.026652748507335854 0.003009703591949187 0.14143591707969225 -0.02461105854539475 -0.09328257369117526 -0.10292826458007011 0.027979502221624965 0.034500826963758516 0.017925587702248495 0.014799814145808514 0.08222397621590288 0.058898076991736235 0.06652378755602559 -0.07751557094384033 0.02355315849530766 -0.032123706090634946 -0.04905089697809346 -0.012174176430620649 -0.026700302862448757 0.1097913783136099 0.06150869908244016 -0.0012556720226875953 -0.10493662514793399 -0.06584371984028667 0.030616526321387883 0.06642498349450196 0.012773300360187062 0.028119089288727295 -0.05042890904136703 -0.08305563334258541 0.08215332498839813 -0.0007389467806341875 0.02904603936758822 -0.08090994413469832 0.04397833646073181 0.0007439924134412929 -0.007039368874126296 -0.008667595431103174 0.015421538030217374 -0.09039599286910195 0.04889183805078283 0.020164655878837846 -0.026166635739653582 -0.003384510741447769 0.06353175143301 -0.004273856494960506 0.08810488756492614 0.09098886834297829 -0.017821589613688484 -0.15349142743354247 0.09499623050537279 0.06298602728237286 -0.14816883039870948 0.020854601152512687 0.06550136310507695 -0.09574418082003769 -0.056600491012366264 0.1292155888620526 -0.10593491627592828 -0.008636577054858208 0.06546743959188461 -0.010038158856332302 -0.011067907325923443 0.026499908417463303 0.011994468979537487 0.019602254033088684 0.029981007799506187 -0.017883023247122765 0.15122340619564056 -0.04982947185635567 0.02045392245054245 -0.028751080855727196 -0.11323248594999313 0.033262092620134354 0.010969015769660473 0.05472291260957718 -0.05530814081430435 0.12206370383501053 0.0348387137055397 0.06050937995314598 -0.08649551123380661 0.02914484776556492 0.06105858460068703 0.005952991079539061 -0.04213939607143402 0.05361027643084526 -0.05708003789186478 -0.08534049987792969 0.005793129559606314 -0.02871968224644661 -0.10456524044275284 0.05571604147553444 0.09874287247657776 0.047168564051389694 0.028563519939780235 -0.0888037383556366 0.08164548873901367 -0.008195201866328716 -0.06201215833425522 0.03625583276152611 -0.058930523693561554 0.09713272750377655 0.03896787762641907 0.09041669964790344 -0.04076739028096199 0.03397611156105995 -0.0743384063243866 0.07543224841356277 -0.01389884203672409 -0.014801380224525928 -0.035178277641534805 0.01455072220414877 0.05364305153489113 -0.02214716747403145 0.0676320493221283 -0.07648199796676636 -0.00811336375772953 -0.04714854806661606 0.038694482296705246 -0.04045411944389343 0.013330897316336632 0.1112729087471962 0.013221814297139645 0.008250131271779537 -0.08213110268115997 0.13724935054779053 -0.02766302227973938 -0.08417598903179169 -0.0808170884847641 -0.10423412919044495 0.08257919549942017 0.060262441635131836 -0.06885368376970291 -0.033382244408130646 -0.10077910125255585 -0.03834919258952141 -0.014504517428576946 -0.034526925534009933 0.008768504485487938 0.004520081914961338 -0.06069207191467285 -0.05989695340394974 0.003801740240305662 -0.07498649507761002 -0.024988027289509773 0.015566681511700153 0.13433174788951874 0.05031643062829971 -0.052155014127492905 -0.06133806332945824 -0.007675753906369209 0.025835484266281128 -0.029296744614839554 -0.10428735613822937 -0.013765590265393257 -0.06638630479574203 0.025216879323124886 0.04303429648280144 0.03505133092403412 0.01117419517117029 -0.05473476586717607 -0.017548839962318468 0.057068450877140124 0.11327640867260604 -0.037254766675674275 -0.13592544087795685 -0.00246457871464559 0.009168693761799842 -0.11856162351303169 0.07745226454160234 -0.020439893923347247 -0.0732410941889111 0.22128130121422324 0.02805570120890317 -0.027368470568339066 -0.16628092909677153 -0.013643516497932821 0.04458672708481708 -0.049995441726781074 0.07549122766110904 0.03272052271628852 -0.05113822228348612 -0.08251760028003782 0.1236946574087169 0.059188424938135906 -0.03978106576946649 -0.04140469130155506 -0.007145894859992503 0.0636898132359506 0.07247100477970425 -0.027611655490247196 -0.027092357388380044 -0.037765535367585465 0.0726590709199524 -0.06304813141503522 -0.01979530497386474 -0.115151122636614 0.0691769660206622 -0.08219009133066053 -0.02042792995397877 0.05987476721581812 -0.06680334678598177 0.06210723387008861 0.05723793560418125 -0.10777739061641138 0.07986275326694826 -0.007714542718330187 -0.032593966265504516 -0.036935800526036705 0.0844180890701743 -0.05224744563601635 -0.0011964637518347805 -0.017235816473826136 0.019670232152944552 0.07878595125457998 -0.0245674704112888 -0.05355699696555092 -0.04092326716425512 -0.011052390561726468 -0.08799104101456537 -0.09238976077488442 0.05764995807219994 -0.02213183297347445 -0.11039256934777962 -0.006691315402620298 0.09403178521418837 -0.0069532041537870345 0.026868669989292607 -0.04068145415475971 -0.03929914185925302 -0.04877203766341576 0.06181702543533123 0.09249426435644931 -0.027794383843317536 0.11107577295744864 0.0660244010058574 -0.05817258499347502 -0.05583314546801841 -0.02783860818001902 -0.04528915182693751 -0.01438983610749924 -0.05509133801562231 -0.011328372697384634 -0.08183196175639867 0.03416474962716282 -0.08860602110650666 0.05383569292454788 -0.11925547914703187 -0.07137756288000259 -0.040585438099363505 -0.06946652060895628 -0.043641615004893115 -0.01572161609157551 0.020636627536914334 0.04557069284554659 0.03550831481803295 0.035818625450538516 0.03348643751242453 -0.07148686900117415 0.07834247499704361 0.0008824257529340684 0.0875810906291008 0.025765789672732353 -0.012146899476647377 0.01858578808605671 -0.038255564868450165 -0.017679328098893166 -0.03147927671670914 -0.02450089156627655 -0.0065285200253129005 -0.030404893681406975 -0.01225263997912407 -0.01590087078511715 -0.07802432775497437 -0.02195749431848526 -0.058719389140605927 0.03617698699235916 0.008175001479685307 -0.2022390514612198 0.01910192146897316 0.08828375488519669 -0.03892318904399872 0.07499407231807709 0.14187076687812805 0.028825774788856506 -0.034516703337430954 -0.10093159228563309 0.14402779936790466 0.02542298473417759 -0.009637313894927502 -0.014029420912265778 -0.04964898154139519 0.030756903812289238 0.0007901319768279791 0.07168445736169815 0.13126635551452637 0.09194976836442947 -0.03256680443882942 0.09069906920194626 -0.042331162840127945 -0.027739111334085464 0.06291339546442032 0.07821213454008102 -0.04924752935767174 0.07167958468198776 -0.05316828191280365 -0.12015384435653687 0.02258201502263546 -0.0037784497253596783 -0.05133199691772461 0.0252562053501606 -0.0058976286090910435 -0.10077347606420517 0.11586534231901169 -0.11180416494607925 -0.02377987839281559 0.043799612671136856 -0.056170325726270676 -0.07309778779745102 -0.10867181420326233 -0.010139767080545425 -0.03497946634888649 -0.0785786360502243 -0.04041584953665733 0.004781239200383425 -0.009428728371858597 0.10692114382982254 -0.02125292643904686 -0.04604365676641464 0.04514092952013016 -0.04174371808767319 0.09600596129894257 0.05209566280245781 0.12429605424404144 -0.06377089768648148 0.05114180967211723 0.004967722576111555 -0.016492212191224098 0.09176158159971237 -0.007099188398569822 0.07738447189331055 -0.08921200037002563 -0.06330734491348267 -0.0080226706340909 0.00127414520829916 -0.10490874946117401 0.08412586152553558 0.05391234531998634 0.05070887878537178 -0.04176942631602287 -0.05105624347925186 -0.049903836101293564 -0.07307764887809753 0.005908672232180834 -0.02534947171807289 0.053829990327358246 -0.06257826089859009 0.06990878283977509 -0.0472257100045681 -0.12343426793813705 0.11916247755289078 0.010656776838004589 0.04318837448954582 0.04971298202872276 0.10667502880096436 -0.005302042234688997 0.01159941591322422 0.1114155501127243 0.08242814242839813 0.09264000505208969 -0.030356377363204956 0.03285565227270126 -0.019228877499699593 -0.057000771164894104 0.03604108840227127 -0.030424537137150764 0.10151265561580658 -0.012446535751223564 -0.061864499002695084 0.04754222556948662 -0.03981386125087738 -0.03510528802871704 -0.016956890001893044 0.0560862198472023 0.10275012999773026 -0.039581842720508575 0.006467359606176615 0.06906061619520187 -0.079686738550663 -0.007712149061262608 0.061891697347164154 0.06773874908685684 0.06984136253595352 0.05334571376442909 0.08237309008836746 0.00894857943058014 0.037654995918273926 0.01849706470966339 -0.024331923574209213 0.08089926093816757 0.06388857960700989 0.0999436229467392 0.022184815257787704 -0.05883229896426201 -0.10420172661542892 0.1229623332619667 -0.013915983960032463 -0.01871742121875286 -0.005206451751291752 -0.019542699679732323 -0.08060821890830994 -0.16188162565231323 -0.06871407479047775 0.07099417597055435 -0.0070869093760848045 0.026657860726118088 0.006758300121873617 -0.0102889658883214 -0.014287091791629791 0.008813014253973961 -0.00853731669485569 -0.0057226610369980335 0.06425106525421143 0.0012358399108052254 -0.07189061492681503 -0.01074534934014082 0.0675954520702362 0.05150874704122543 -0.04109254106879234 0.06012893095612526 0.04743391275405884 -0.06996659189462662 0.008746539242565632 -0.0002650457026902586 0.03832762688398361 0.04761296138167381 -0.054574426263570786 0.07655054330825806 0.045920230448246 -0.07959536463022232 -0.00924338586628437 -0.06151028722524643 0.07461706548929214 0.04540843144059181 0.1313144415616989 0.0038107566069811583 0.011535012163221836 0.08406687527894974 -0.014691238291561604 -0.022229254245758057 -0.004406968131661415 -0.00882620457559824 -0.0263021569699049 0.04969201982021332 -0.055220939218997955 -0.0999935045838356 0.08312191069126129 0.03212903067469597 -0.050258249044418335 -0.046660295097528365 -0.035084046343749405 0.12619114672397375 -0.021023199873178643 -0.08301072300837774 0.1351152523178345 -0.16801239958097136 -0.08358801069740157 -0.001514357909762139 0.13898245947407006 0.053833129569196135 0.03287951503815177 0.11662261852233734 -0.08023343008730356 -0.07868049289981786 0.004213797573488822 0.07543462145271032 -0.05030040007521313 0.028455962994844857 0.013632467752148358 -0.07679115747217265 -0.0013444756953955182 -0.07221520039999908 0.0749516595822699 -0.03232997224182115 0.11922217131526922 -0.08843116665945551 -0.05191621128956188 -0.020232911467404812 -0.06285652693094117 0.05311853140945633 -0.024607110755016433 -0.06563664073915666 0.03506677881241461 0.11496064649750613 -0.01463956316358223 -0.004839383347425117 0.00660965619992821 0.009306243134241752 -0.004688269164199963 -0.08125331711984271 0.08761646162114903 -0.09599789144481785 0.007658691022850054 -0.12404099441370231 -0.042566771453034835 -0.08956071177402375 0.0922229445667002 0.01289722590098688 -0.027364496937460372 0.016672111268038723 -0.05633927911155821 -0.17040443160504173 -0.009287113892637934 -0.02465158714152987 -0.07789972795018231 -0.12539389329325318 0.009815420603609746 0.034967031258658396 -0.029847998918184702 -0.0762323686280778 0.007419834283210728 -0.045034532706657374 -0.07581035069459673 0.03097697389271137 0.03587900700570767 0.04637909233338351 0.010039884721657557 -0.012589209866424199 -0.00033103648934319524 0.06660876216000135 -0.04163173962464731 0.0020423137781035846 -0.10371730283138844 -0.040626617574957564 0.0025004679154356554 0.09773643139803743 0.014003944860703681 0.047881776501850944 -0.016784553565410112 -0.004939869960078139 0.014250182309359455 -0.18159381191742238 0.0778100481931226 0.0038572338766367778 -0.10503117461855498 -0.014364224184916032 0.02224176068839725 -0.014378724153421278 -0.04122279368243526 0.0538733952197516 -0.02703891467323234 -0.03409436732033101 0.007989484240876282 -0.10871124205806534 0.015434925376217634 0.03061631406000415 0.01016952614535722 -0.04426172443452957 -0.010990637406921404 -0.06581389904022217 -0.10173805803060532 -0.06613259017467499 -0.0784805566072464 0.11282837390899658 -0.007653540000319481 -0.0832424908876419 -0.019178247079253197 -0.013142507523298264 0.10461941361427307 -0.13659565150737762 -0.014348313212394714 0.038616523146629333 0.16248084604740143 -0.03463388979434967 -0.03245234861969948 0.06492424011230469 -0.05227212235331535 -5.5029486247804016e-05 -0.0717831626534462 0.014158870093524456 0.023848185315728188 0.092216357588768 0.1219642236828804 -0.03319486975669861 -0.03377117961645126 0.08804849535226822 -0.06501524895429611 -0.03945058584213257 0.09290818870067596 -0.08062354475259781 0.049440547823905945 -0.02124311588704586 0.01670941710472107 -0.0038684795144945383 0.02483202889561653 0.01775229163467884 0.0816335529088974 -0.04541642963886261 -0.023303847759962082 -0.09851612895727158 0.01844889670610428 -0.036678969860076904 0.015076854266226292 0.009560354053974152 0.025744188576936722 -0.06403924524784088 0.038205716758966446 0.044964153319597244 -0.005813947878777981 -0.0009123089839704335 -0.1326705515384674 -0.15405458211898804 0.1156470775604248 -0.01990499161183834 0.007002801168709993 0.027198776602745056 -0.025651898235082626 -0.020380211994051933 -0.07127921283245087 0.10756898671388626 0.08339697867631912 -0.08794663846492767 -0.027546241879463196 0.027607712894678116 -0.05688890442252159 0.03201749920845032 0.042919792234897614 0.009359441697597504 0.11913624405860901 0.002584424801170826 0.02535167522728443 -0.029829254373908043 -0.03921474888920784 -0.004223941825330257 0.0754396840929985 -0.003919001668691635 0.01847073808312416 -0.07947984337806702 -0.023134255781769753 -0.006637482903897762 0.058962054550647736 0.05024249851703644 -0.04688384756445885 0.016034336760640144 -0.006368045695126057 -0.10943745821714401 0.02915017493069172 0.10563264042139053 0.025402197614312172 0.01727505773305893 -0.01671191118657589 -0.011050809174776077 -0.11167820543050766 -0.04746291786432266 0.09296650439500809 -0.06587482243776321 0.017603524029254913 0.039297863841056824 -0.0431344136595726 0.014323735922701695 0.019355214777007076 -0.12302992088302087 0.04104300474863658 -0.07100605090198872 -0.011241425716084778 -0.0726417716826957 0.0947682563107235 0.09218694008172329 0.016952520880581964 -0.17165504040320684 -0.12102404965670373 0.037443243401231306 -0.051792722116435104 -0.049116890659390844 -0.14273139251828296 0.03134840709353705 0.07858521694979122 -0.1246789928461678 -0.01771700382519139 -0.09115169344281239 0.21154769748214336 0.018204049951405347 0.020470100866642964 0.014257785776502404 -0.39776374333327474 0.1773292673418907 0.006639456195550786 0.0033071659162906145 -0.05636460592238199 -0.04448346518549721 0.15945461894357824 -0.10718428284187634 0.12485615616731063 0.11471423525202727 0.01498797267578681 0.25691667368695914 0.3134846654959399 -0.06141565467818435 -0.13678128004373846 0.04422408927074621 -0.13055574553921473 -0.007811185409026838 0.14373727846361015 0.04764790395491702 0.1256346425725832 -0.08883756011830753 0.24749278497655652 -0.06786248711381739 0.17668996246542507 0.008402510455990919 0.06495813696452467 0.0025398320061730886 -0.049723191514185375 0.37869240222862127 0.014975119791875114 -0.0946769892836754 0.22181012864464514 0.0296044172339058 -0.06036433320376738 -0.05773541355540673 0.13322885475526908 -0.08325067125185737 0.07712342245701306 0.08025605791192873 0.027909863193138193 -0.10785463295842612 -0.07872530429891429 -0.1764786204519564 -0.026904544905189978 0.12573327705376125 0.2709049069850381 0.053716769676010655 -0.23753566230019166 0.0266422481705387 -0.08167939190600165 0.16451101830155446 0.12721946765840902 -0.01813327852147203 0.09487344293724434 -0.02114568511434248 0.14997023433223122 -0.18988349790594586 -0.04372281874612798 0.29302657187335424 0.04984666603232668 0.07910489435374866 -0.16183101947721512 0.5684927762757794 -0.15178214733861545 -0.2403960234009291 0.007272969860015422 -0.19216441522965255 -0.06860029033294668 -0.014074287413837488 -0.23386720018246862 -0.09920984173501818 -0.10369485441203502 0.16517867407199913 0.09227914007809823 0.16474612057209015 -0.07769802957773209 0.05204243212938309 0.010098929516971111 0.07644674181938171 0.033790551126003265 -0.054933350533246994 -0.08948583155870438 0.04314244166016579 -0.011583372950553894 -0.07867658883333206 -0.04809312894940376 0.027554873377084732 -0.07502000033855438 0.05117266625165939 0.009698697365820408 0.11905491352081299 0.025424817577004433 -0.05664119869470596 0.0013559978688135743 -0.030896708369255066 0.01566370576620102 0.021810738369822502 0.10944132506847382 0.00338820181787014 0.030171800404787064 0.004882880952209234 -0.09346331655979156 0.04550878703594208 -0.08241782337427139 -0.016598498448729515 0.057943444699048996 0.05354519188404083 -0.10113244503736496 -0.2054961770772934 0.0014903211267665029 -0.005239862948656082 0.031370602548122406 0.06279058009386063 0.007776754908263683 0.1068684533238411 -0.010613841004669666 0.0325617715716362 0.04194796457886696 -0.01605849526822567 0.044016364961862564 0.06933557987213135 0.06295072287321091 -0.05228913947939873 -0.0060952152125537395 0.023824822157621384 0.06428058445453644 0.013101539574563503 0.0005686251097358763 0.10247579216957092 0.06617546826601028 0.030337046831846237 0.04443826153874397 0.026298074051737785 0.0881986916065216 -0.006235797423869371 0.022491099312901497 -0.009438619948923588 0.07361706346273422 0.015171205624938011 -0.15436981618404388 0.04331964626908302 -0.040116239339113235 -0.07101670652627945 -0.029997693374753 0.04775504767894745 -0.059271439909935 -0.06936150044202805 0.01124711986631155 -0.09386418014764786 0.04897385090589523 -0.08077330887317657 0.12180068343877792 0.1059839054942131 -0.06946063041687012 -0.0015101232565939426 0.020864276215434074 0.059599097818136215 -0.05607204884290695 0.06210101768374443 -0.11932466924190521 -0.05156414955854416 0.039228927344083786 -0.11655759811401367 0.005984886549413204 0.05478193983435631 -0.04439670965075493 -0.007970922626554966 -0.09231134504079819 0.048976022750139236 -0.01923670433461666 -0.012699497863650322 0.003973844461143017 0.0751938745379448 -0.04315411299467087 -0.016626739874482155 -0.03727478161454201 -0.03402967005968094 0.07884503155946732 0.03339594602584839 -0.054161421954631805 0.08754531294107437 -0.0026027823332697153 0.002033002208918333 0.027101600542664528 -0.037386130541563034 0.06739845126867294 -0.07368317246437073 -0.0500265508890152 -0.0551445409655571 -0.0363197922706604 0.015583338215947151 -0.044685378670692444 -0.02192876674234867 0.05265996605157852 -0.024029726162552834 -0.13294395804405212 -0.09320410341024399 0.01193125732243061 0.09696747362613678 -0.07997503876686096 0.153279647231102 0.1379552036523819 0.046070825308561325 -0.03083045780658722 -0.021403852850198746 0.04071233049035072 0.05981234461069107 0.04620930925011635 0.01034212950617075 -0.08716904371976852 0.1296435445547104 0.04453447088599205 0.041716232895851135 -0.05812562257051468 0.0048801167868077755 0.09271998703479767 -0.03662939369678497 -0.06537402421236038 -0.13635781407356262 -0.02951674349606037 0.09314396232366562 -0.009761904366314411 0.01758992299437523 -0.008714732713997364 -0.05749325454235077 -0.08202949911355972 0.02079128473997116 0.012646245770156384 0.01719873771071434 -0.048358287662267685 -0.015054152347147465 -0.03532641381025314 -0.03592759370803833 -0.00766815897077322 0.08343486487865448 0.07815418392419815 0.05183745175600052 0.0984828919172287 0.1105659082531929 0.09337782114744186 0.15960019826889038 -0.03547992929816246 -0.04475235566496849 -0.039352234452962875 0.08031364530324936 0.02844722382724285 0.008031850680708885 -0.09430357068777084 -0.058156128972768784 -0.003544013947248459 -0.0534537136554718 0.03708374872803688 -0.0599491186439991 0.0519561804831028 -0.042365912348032 0.06520433723926544 -0.011641241610050201 0.05056829750537872 -0.053000107407569885 -0.008799228817224503 -0.06442145258188248 -0.026819191873073578 -0.07465262711048126 0.04945627227425575 0.024948179721832275 -0.11392423510551453 -0.07290390878915787 -0.009217656217515469 -0.031832534819841385 0.02422524429857731 -0.016306856647133827 0.05199422687292099 -0.01380598358809948 0.008992457762360573 0.03396742466992739 0.0965590669792 0.19746542483636265 0.012802147130014029 0.23626913119602552 0.12449278138657559 -0.020229823616447592 0.298645733415443 0.1280879937005908 0.008809938927846064 0.019894328734266435 -0.09541700886702381 -0.02939058997516215 0.007504325224679274 0.04644777115396366 -0.027342774802640486 0.0881577192507987 -0.16542278862332027 0.006136703915395042 -0.03863509984300301 -0.02743525087766619 -0.012361341163242206 0.13671508939963117 0.004092953052676416 -0.07816231635367688 -0.061151360200542584 -0.01277463194611965 -0.006665074609842307 -0.08617036443794265 -0.0812302811562146 0.11240476069982744 -0.022881192689879447 -0.036732848677916305 -0.04561347100853581 0.05093315895258262 0.017568418803591935 0.2779409176049272 0.13898123876832652 -0.012259674185128642 0.02065619625067741 -0.004188674686261596 0.0052973115929561675 0.06956417947643545 0.06880382306990988 -0.0005209231910729716 0.03213471602057062 0.024544517173734254 0.04770194217864004 0.024440832477345013 -0.04704568292732303 0.043882127840610685 -0.00017476453094706788 0.0037169282586586804 -0.02020721930042058 0.17959870499547864 -0.08537352935715024 -0.11739299299909145 0.05543843524440043 -0.05275485574930007 -0.08822671338679887 -0.07183197622874558 0.1570032609468514 -0.0633590783559516 0.016699696026936276 -0.05880869485823906 0.029308380237494006 0.026144597223895262 -0.023894901865776183 -0.019964814668969894 -0.09921700057517872 0.14390879706421594 0.25321031070656885 0.0038834487814871916 -0.13886545894424107 -0.06502621918021881 0.06745082964308906 -0.01663965664692842 0.02399489945253178 -0.06418909731814708 0.018807921684680207 -0.04896120915355004 -0.138570056128943 0.06734465343708743 -0.04513323912215535 -0.08032383034077734 0.16333518479024184 0.12297435800400723 0.1670903919743382 0.2789191825995737 -0.073366885981403 0.034743859030475284 -0.03769880996640712 0.020707593721308832 0.0031922691341206093 -0.010210423835868277 -0.09360437968639958 -0.06842961944461165 0.03201440234349315 0.007211067194649082 0.045284316908734926 -0.009959090501070023 -0.007098483853042126 0.07568329572677612 0.008695272728800774 0.07222448289394379 0.0868176817893982 -0.13895513117313385 0.19725197553634644 0.011833804659545422 0.07872986048460007 -0.02045649290084839 -0.07664274424314499 -0.03633042797446251 0.15041716396808624 0.018107956275343895 -0.035411056131124496 -0.0766330435872078 -0.03934120759367943 0.011488083750009537 -0.047860320657491684 -0.026931172236800194 -0.05969939008355141 -0.019296176731586456 -0.05251583084464073 -0.03059188462793827 -0.009900526143610477 -0.04468643292784691 0.007691025733947754 -0.0893615111708641 -0.03136758878827095 0.05828690528869629 -0.026061300188302994 -0.12958653271198273 0.006418979726731777 -0.10990554094314575 -0.01128734927624464 0.030900554731488228 0.06260285526514053 0.1305757761001587 0.04712779074907303 0.0037764129228889942 -0.003357833018526435 0.0594228059053421 0.029933180660009384 -0.14716854691505432 -0.07357394695281982 -0.06835146993398666 -0.0007676519453525543 -0.07995395362377167 -0.05546567961573601 0.003226771717891097 -0.1165984570980072 -0.008375267498195171 -0.05202489718794823 -0.08102577179670334 0.05386101081967354 0.09289996325969696 -0.005024938378483057 0.11320554465055466 -0.02620181255042553 0.0885516032576561 -0.035221219062805176 -0.015563786961138248 -0.10668627172708511 -0.0782523825764656 -0.11199511587619781 -0.012786393985152245 0.00815563090145588 -0.11121780425310135 -0.09929485619068146 0.13736337423324585 -0.00028113427106291056 -0.08676125109195709 -0.038637734949588776 0.044912077486515045 -0.06578441709280014 -0.1417224109172821 0.07258486747741699 0.016016289591789246 -0.008504028432071209 0.019409319385886192 0.03573823720216751 -0.014066560193896294 0.11335998773574829 -0.037786297500133514 -0.09145116806030273 -0.058702144771814346 0.09479677677154541 0.012167125009000301 0.023900067433714867 0.02519332244992256 -0.07443635910749435 0.10082133114337921 0.02899397537112236 -0.00943276658654213 -0.08655118197202682 -0.01283621322363615 0.01033848524093628 -0.00762413302436471 0.0678231492638588 0.07884609716120605 0.002041283172257073 -0.08481318074069133 -0.03700360007642875 -0.07117894565650529 -0.07196339538493937 0.0075120347260848545 -0.08554376948862413 -0.04693620837555281 0.0646525264984829 -0.17939169859621862 -0.009624159944738125 0.051972090021827684 -0.06548801405240896 -0.031860941286067965 0.06070531276000848 -0.03873320271551037 0.1672062643175943 0.06753190754472753 -0.047938975764645786 0.0318194616680541 -0.03463419590825614 -0.1443028676929678 -0.03175049314781664 -0.11560142904003852 -0.21597687424877085 -0.06034643123467686 -0.08985549262328356 -0.04233999094292606 0.10141474129473449 0.06232754969069514 -0.12706787861574162 0.11328136961043286 0.019816960606384795 -0.03195297465438851 -0.041075369825817123 0.015822339530051428 0.16103200993946065 -0.014445175874296322 -0.008013756438991099 -0.09275117443620458 -0.09379919283414198 0.0021095346302594433 0.13934336827526586 0.004983260902713962 0.05680864910259219 -0.03218022591614168 -0.022784269788489117 -0.008981611737767767 -0.03075675413585941 -0.024013713966511176 -0.05564832823897193 0.09283637368255972 0.0003222763634407789 -0.001693176266660258 0.05866204008575413 -0.007074111140084653 -0.11440440926023357 -0.08450085390737502 0.02419704094578765 -0.010002906657814845 0.00812534113569365 -0.09685743588094836 0.10030134354967388 -0.03411135920952838 0.11086014308694711 -0.062046698728604556 0.07768929008349412 -0.083134303998925 -0.07686806417745931 0.09966230591355446 0.20845425727309883 -0.006081437572880283 -0.07273149195095674 -0.0007040410018910242 -0.03167613624398998 0.0036392742139249434 0.05101451349864092 -0.017382860449531193 0.01584925715310955 0.024615722658790775 -0.042553996770787264 -0.11623625332973037 0.037599253215846874 -0.17261867459068264 -0.031877707973999914 0.04599227236159484 -0.04541630255908405 0.037779158084718725 -0.07507133058021319 -0.09951458538254136 -0.03174486349224903 -0.009318752683438472 -0.038763161629859294 0.06904582912997319 -0.03559145583660999 -0.14134984117682503 -0.03093159473547027 -0.021435600310976383 -0.13707424872664994 -0.06731517612934113 -0.02711348980665207 -0.042106691747903824 -0.028504949063062668 0.003096406115218997 -0.013142631389200687 0.04118218272924423 -0.0033332055900245905 0.11158203333616257 -0.06861263513565063 0.024485448375344276 -0.06665866076946259 0.003136051120236516 -0.037982627749443054 0.1095757856965065 -0.0722188949584961 -0.07862292975187302 -0.06638260185718536 0.074077308177948 -0.08787548542022705 -0.07926364988088608 0.054259344935417175 -0.003581824479624629 -0.09261717647314072 -0.021509889513254166 -0.028929177671670914 0.010280569083988667 0.05128825083374977 -0.008489315398037434 0.04680125415325165 -0.11873266100883484 0.009339580312371254 -0.06739619374275208 -0.02398066595196724 -0.05971665680408478 0.04992688074707985 -0.013547064736485481 0.061413269490003586 -0.07358591258525848 -0.004937287420034409 -0.01675206981599331 -0.01437658816576004 -0.03834468498826027 0.004651048220694065 -0.07764576375484467 0.05625242367386818 -0.07771936058998108 0.04643811658024788 -0.04746830835938454 -0.07537103444337845 -0.10399644821882248 -0.04152974486351013 -0.088599294424057 -0.04482961446046829 0.07183327525854111 -0.03154756873846054 -0.10484936833381653 0.038855697959661484 0.03868287056684494 -0.02585439383983612 -0.08304870128631592 0.10952387750148773 -0.009497205726802349 0.03051045536994934 0.07679974287748337 -0.05748464912176132 -0.04233064129948616 -0.046651583164930344 -0.04589999467134476 0.053738683462142944 -0.0667484924197197 0.07894425839185715 0.026726195588707924 -0.052897997200489044 0.12760041654109955 -0.14482563734054565 -0.016205403953790665 -0.06292692571878433 0.04822537302970886 0.02988104149699211 0.009869410656392574 0.12049844115972519 0.020736146718263626 -0.060518067330121994 -0.18038350343704224 -0.08055344223976135 0.11746528744697571 0.04546846076846123 0.044550828635692596 0.05742158368229866 -0.09728589653968811 -0.07261420041322708 -0.017293160781264305 0.11019746214151382 0.05596260353922844 -0.06107759848237038 0.034544575959444046 0.005215893499553204 0.05293721705675125 0.07491033524274826 0.07852625101804733 -0.13606944680213928 0.03582902252674103 0.01117942575365305 0.08378253877162933 0.13614149391651154 0.03283892944455147 0.07231354713439941 0.040428441017866135 0.031341128051280975 -0.014117257669568062 0.045218244194984436 0.08443380892276764 0.10524861514568329 0.03110622987151146 -0.027741963043808937 -0.013066302984952927 0.11037828028202057 -0.02475106343626976 -0.017435811460018158 0.023515362292528152 -0.00045566249173134565 -0.0466708280146122 0.0879400372505188 -0.07473570853471756 0.09566036611795425 -0.03829482942819595 -0.17899592220783234 0.03325682505965233 -0.024557553231716156 -0.02537037432193756 0.039098016917705536 0.21397246420383453 -0.02527950331568718 0.0023791599087417126 -0.09976909309625626 -0.16370508074760437 0.02486248128116131 -0.019244937226176262 0.07698515802621841 -0.012139569036662579 0.07434968650341034 0.033554960042238235 0.15002226829528809 -0.025788692757487297 0.019407713785767555 0.04210715368390083 0.13331568241119385 0.0476338155567646 0.05485183745622635 -0.0176498144865036 -0.03948957473039627 -0.12866167724132538 -0.07718547433614731 -0.15685127675533295 -0.03286311402916908 0.020918648689985275 0.0959668755531311 -0.0763210579752922 -0.012738315388560295 -0.029968127608299255 0.10516940802335739 0.02132238820195198 -0.02847990021109581 0.03197887912392616 -0.11515657603740692 0.04399449750781059 -0.06985196471214294 -0.023303914815187454 0.030279606580734253 0.006084115244448185 0.001226424821652472 0.1609952300786972 0.038781993091106415 -0.013780908659100533 0.042403656989336014 0.05442221835255623 -0.04613201692700386 0.09075721353292465 0.07225189357995987 -0.03943658620119095 -0.06730874627828598 0.03888630494475365 -0.03823879361152649 0.010693228803575039 -0.04290129616856575 -0.03869242966175079 0.013588990084826946 -0.032622337341308594 0.024127431213855743 -0.0799277201294899 0.035021308809518814 -0.08922950178384781 -0.028107434511184692 -0.003588693682104349 -0.024423440918326378 -0.024921612814068794 -0.028173310682177544 -0.03422996774315834 0.05614795163273811 -0.059287297942229304 0.051196273149002706 