0.14982373132859028 -0.12897679726151512 0.010740600348684444 0.10006366595798438 0.22641810406510568 -0.047280742912649804 -0.03906702154446503 -0.04523897481547675 -0.014092252288967945 -0.04936100809872748 0.04282636630594464 -0.08155689661782316 0.04338836044113172 0.0490333910894948 -0.0022790236621151034 0.08092212796205579 -0.005276421923303839 -0.030103642326376003 -0.0725601256439045 -0.1088403368379799 -0.05267431444681712 0.07459735465325143 0.09732729017450359 -0.2490688117621031 0.06814972223122144 -0.012755844512834076 -0.019257140009232822 -0.017014272271201752 -0.010459346846985925 -0.04297846901283696 -0.037149211432550705 0.04556642397055959 -0.03628847664385583 -0.07150740223088889 0.010312756809233346 -0.020357536087206012 0.061362498343926555 -0.0019955612355181274 0.02327944005807285 0.1771274840859644 -0.05718687367581252 -0.08427816482861859 0.009767619852260006 -0.05738914538983159 -0.05255508853726077 0.07520239587088397 0.043769249584200434 -0.01964267358411412 0.0731544566268006 -0.14131312915694944 0.03308972610318048 -0.039324118204201904 0.05405843723018874 0.010147668988797936 0.0179564079800581 0.0089437057798144 -0.1979897686187666 -0.049538315232657136 -0.08039340286387486 0.030785719280972887 0.05822883260323817 -0.0758360090044332 0.11672160815225437 -0.010560388086046152 -0.003601794791141866 -0.015243380311945222 -0.011292716247272721 -0.05658973500585169 -0.010860097726780128 -0.08750270059000048 0.022665938253463212 -0.1291272641483265 0.053409060063276295 0.11112856207493806 0.09544743802082067 -0.10771219235589073 0.15348018055170648 -0.053502656940279225 0.09588932610358714 0.05045778713813086 -0.03348334944367054 -0.054696046557551836 0.10150672318697904 -0.03685761672344661 -0.06406589366285369 0.12966591437217248 0.011750935090589772 0.04129733973268968 0.020693806251756486 -0.044397585177135206 0.0712759638612975 0.10559222310923361 -0.0057688348292559985 -0.09592786491783532 0.0879447308292262 0.030424265937960677 0.05374395379607137 0.16828344031322015 0.009516333670547442 0.021831244615162473 0.12300465255975723 0.027032144367694855 0.07457291334867477 -0.00010817146539920941 -0.0488196425139904 -0.07851537317037582 0.01864568702876568 -0.13122625648975372 0.042294517159461975 -0.049338649958372116 -0.0178694911301136 0.016607366502285004 0.0017294584540650249 -0.07807332277297974 -0.04207484424114227 0.09516176581382751 -0.04343888908624649 -0.019318556413054466 0.0566447488963604 0.006924930028617382 -0.12418854981660843 -0.011826721951365471 0.012707781046628952 0.08111405372619629 -0.05073291063308716 0.05566953867673874 0.0003047494974453002 0.08895212411880493 0.13797736167907715 0.09520705044269562 0.10526809841394424 0.009382607415318489 0.03597557544708252 0.06009324640035629 0.010288442485034466 0.022802002727985382 -0.03193117678165436 -0.09848608821630478 0.04553704336285591 0.06534022092819214 0.07594921439886093 0.035023033618927 0.03487350419163704 0.10509131103754044 -0.14504481852054596 0.016763901337981224 -0.01229837629944086 -0.02349391207098961 0.06932855397462845 -0.10800693929195404 0.07002905756235123 0.03141253441572189 -0.035443346947431564 0.07804631441831589 0.05352611839771271 -0.057852983474731445 -0.004528182093054056 0.07136577367782593 0.054134029895067215 0.047065261751413345 0.011302266269922256 0.04930950701236725 -0.012273736298084259 -0.023896001279354095 -0.07117028534412384 0.07704444974660873 -0.07442212849855423 -0.07255035638809204 -0.03140060603618622 0.009128667414188385 0.08027380704879761 0.12222479283809662 0.025380495935678482 0.006240400020033121 0.06388600915670395 -0.07170303910970688 0.033247269690036774 -0.1451873928308487 -0.05144745856523514 -0.00252915034070611 -0.057235073298215866 -0.12741954624652863 0.0008372936281375587 0.025483913719654083 0.09734321385622025 -0.04936173930764198 -0.06528782099485397 0.06269180029630661 -0.08098291605710983 0.007806301582604647 -0.08453432470560074 -0.0891864076256752 -0.012419788166880608 0.04159000515937805 -0.003515507560223341 -0.000302178377751261 0.008800148963928223 -0.10906956344842911 -0.011066594161093235 0.10407847911119461 -0.05899254232645035 -0.08972804248332977 0.027551867067813873 0.0032395832240581512 -0.04233567789196968 -0.02624128758907318 -0.05112413316965103 0.0775805413722992 -0.05734298378229141 0.03264077007770538 0.04220235347747803 0.07508265972137451 -0.07458123564720154 -0.027215084061026573 -0.0306264515966177 0.009595474228262901 -0.036492783576250076 -0.0997452437877655 -0.0033224073704332113 0.06278777122497559 -0.01909412443637848 0.06569384038448334 -0.051136620342731476 -0.04305639490485191 0.010793768800795078 -0.02479463443160057 0.006032815668731928 0.0559990331530571 0.08138161152601242 0.08739747852087021 0.061277348548173904 0.03760376200079918 0.003542717546224594 -0.040348395705223083 -0.0023805752862244844 -0.07100645452737808 -0.17838723957538605 0.16641302406787872 -0.057715024799108505 0.006222166121006012 -0.06290729343891144 -0.023476319387555122 0.08415814489126205 0.010617180727422237 0.03203487768769264 0.07131583988666534 0.06622906029224396 0.01744718663394451 -0.05741998180747032 -0.016639232635498047 -0.11207208782434464 0.0439901165664196 -0.05324845388531685 -0.02182758040726185 0.08167314529418945 -0.07497493177652359 0.13100285828113556 0.1070033609867096 -0.1414836049079895 0.010107902809977531 0.0013722267467528582 -0.018647268414497375 -0.014489855617284775 0.04515113681554794 -0.03747817873954773 0.1582823544740677 0.053395673632621765 0.04944586381316185 0.04045852646231651 0.018761539831757545 0.06466434895992279 -0.02284993603825569 0.020923078060150146 0.050513628870248795 -0.02725476585328579 0.03268720582127571 -0.016795335337519646 -0.07748900353908539 -0.04304903373122215 -0.11845701187849045 -0.02350579760968685 -0.07383326441049576 0.1072317510843277 -0.16042087972164154 -0.05892571434378624 -0.018352612853050232 0.03705545514822006 0.005736932158470154 0.06555862724781036 0.024396158754825592 -0.05873629078269005 0.03783572092652321 0.052980948239564896 0.02687215805053711 0.021418841555714607 -0.016463059931993484 -0.060799531638622284 -0.08585081249475479 0.0033019408583641052 -0.07006772607564926 0.03265063603159328 -0.03409040155779073 0.11608811786111478 -0.030239590867527224 0.14106817575290564 -0.12732982551760033 -0.012665683546413009 -3.7557277016457834e-05 -0.10521100445044364 0.03747090003233273 -0.14843783481939044 0.04658637314185961 -0.007327564968874583 0.09627500235605478 0.08690002199955285 -0.04033415046805513 0.03380038410172104 -0.023828352813520783 -0.0077215190444259885 0.11864254494619152 -0.09465311902900492 -0.05061557891232443 -0.08018924232413914 -0.14766263458069687 0.024882353576883044 -0.04603826297211891 -0.03456891061265239 -0.005880657639159922 0.03785658389408873 -0.06067542230113592 0.10348580871608519 -0.027641837222436374 -0.02420414194493301 0.08759667997438426 0.1325986480121821 -0.016025667212070077 0.05537380661347454 -0.031836335533499176 -0.0409642058114786 -0.019621100177241176 0.006774352598543579 -0.0010171126983567716 0.003398010703013375 -0.002522276124091441 -0.03257144121388905 -0.11477243170406524 0.08727814657525615 -0.1267141504174806 0.025481722785011506 -0.01512750003080311 -0.05329403664454937 -0.040242137054970595 0.00470957307691104 0.08185519874970333 -0.015500730865418826 -0.11557949296376933 -0.018448579827403166 -0.043332136682666625 0.0105477972168589 -0.07406927525258708 -0.028587615992702656 0.00924017299973546 0.09329729805619703 -0.004134295233885352 0.057442836537262607 0.16864134387263263 -0.09738282316532404 0.025578322230284306 -0.05399303160395551 0.004588609045584548 -0.013816412627117577 -0.07260512455522272 -0.050360346108992635 -0.0004076751638723617 -0.030730190300753517 -0.0438618260463508 -0.00048158533679350127 0.08233659006473387 0.03236663071014355 -0.07641295840666323 -0.022793479207798666 0.06133404872294729 0.1284313573734809 0.0467130743517143 0.09523340129222821 -0.13026760555908434 0.06090487097363417 -0.09691629116913422 -0.016391601214596308 -0.00518968735640595 0.025814091003813294 -0.06790780696370176 0.08640667361823891 -0.06308355298750377 -0.0029392033783717628 0.13304893752696278 -0.16905212098811695 0.009182279119212529 0.04788204427401795 0.037043251141728094 -0.020506614819169044 -0.06556983292102814 0.0006019116844981909 -0.055121924728155136 0.08480615168809891 -0.008436542935669422 -0.052549198269844055 -0.041510436683893204 -0.04867187887430191 -0.10400402545928955 -0.10932746529579163 -0.06767287850379944 -0.04772423952817917 -0.004232857841998339 0.0009128608508035541 0.10498741269111633 0.03681716322898865 0.0926726683974266 -0.10813039541244507 0.006587156560271978 0.010801468975841999 -0.010187812149524689 0.03622320666909218 -0.020922202616930008 -0.0389554500579834 -0.14087459444999695 0.031029799953103065 -0.09475796669721603 0.04710961878299713 0.00631989911198616 -0.05241403356194496 -0.0026588873006403446 -0.029521707445383072 -0.09441602230072021 -0.032621633261442184 0.031163977459073067 0.0758729949593544 0.08776260912418365 0.036200422793626785 0.02565106190741062 0.01126956194639206 -0.023133978247642517 0.02565419115126133 0.031185435131192207 -0.07367274910211563 0.045674946159124374 0.020671576261520386 -0.0800568014383316 -0.060349151492118835 -0.006492063403129578 0.03043302893638611 -0.032970331609249115 0.0013390046078711748 0.1402900218963623 0.0021332474425435066 -0.009045624174177647 -0.016408652067184448 0.014657099731266499 0.0518709197640419 0.17851945757865906 -0.0019270529737696052 -0.028089530766010284 0.024207262322306633 0.08687744289636612 0.0011968242470175028 0.09815596789121628 0.07313591241836548 -0.04554661363363266 0.004952781833708286 -0.004974782932549715 -0.06477727741003036 -0.027932679280638695 -0.056727293878793716 -0.04943229258060455 -0.0547451414167881 -0.007303356193006039 -0.0057359253987669945 -0.04334200546145439 -0.0979669988155365 -0.16860242187976837 0.06300399452447891 -0.07101334631443024 0.0034091281704604626 0.011272165924310684 0.0721893161535263 0.1527332067489624 0.033331066370010376 -0.06743329763412476 -0.0300421342253685 -0.024858631193637848 0.0788402333855629 0.010479486547410488 -0.10361042618751526 -0.176859050989151 0.041910309344530106 0.10016141831874847 0.004716814961284399 -0.03984162211418152 -0.07368233054876328 -0.003441902808845043 0.08648300314799187 0.10295453452007734 -0.0141378387702591 -0.04077165638607683 0.11573642759110717 -0.0205252769539723 0.0139334643698236 0.039744463541649754 -0.03159784462459575 -0.0650657029266771 -0.09948603903631446 -0.06468104582664928 0.08247970301389744 -0.027705112720494314 0.07467072323163483 0.12616526574460818 -0.11086557711131223 -0.03355673887207084 -0.018229350573297387 0.027074458886521057 -0.011605368418893532 0.021721584865712875 -0.06585964118032912 0.025026427788290083 0.04998098907604969 -0.045341599780044206 -0.09311853838980154 -0.08246191058515245 0.006293896226682308 -0.05849951928513465 0.1532210917920566 -0.08685470932490905 0.06095460642709603 0.06728872748420163 -0.04409986175579154 -0.011852707553292116 0.02123410468790864 0.06287796283529248 0.023544059841923953 0.008761562942444 -0.055551885531686454 0.07723348487223065 -0.07461673054963666 0.01571469473168229 0.06470570945692015 -0.05515249442642151 -0.09361231373373574 -0.028256644683301926 -0.09546085865955606 -0.08939581108337889 -0.08802110201669947 -0.01682379346333652 -0.0634741471435048 -0.014630059136479981 0.05597914042623596 0.12638245923108662 -0.007516367389006761 0.16008174939515454 0.19781197306041431 -0.015720082685004824 0.02758802186387097 0.03585496915863043 -0.00716668762007383 -0.048678012650342356 0.07567808754359917 -0.003123935009106625 0.0658564961701398 0.03230926406181147 -0.11462896087936592 0.04987874136362619 -0.01713342099433568 -0.051482963596020004 0.03360406944208747 -0.029648857175615634 -0.07344442082185187 0.005981752170234077 0.02891702987017351 -0.1447537729265612 -0.007358497770293598 -0.029512384720115654 0.03714004832029044 -0.10924577054041426 -0.03949185583254381 -0.030173919893865926 -0.04657741719550663 0.09967203224633747 0.07980804613057207 0.10546108389162949 0.11097498451815901 0.10172867610243584 -0.05732660089051685 0.04798253157950958 -0.11541550762473306 0.06700046405203268 0.05166379543592928 0.022106095750591203 0.020596436378179376 -0.07559570767260461 0.011087678080575609 0.02045524725842747 0.09694688767194748 0.1002189964056015 0.023428507149219513 -0.01564897783100605 -0.04530324414372444 0.13616281747817993 0.06335674971342087 0.011696813628077507 -0.0072289868257939816 -0.07643265277147293 0.05113774910569191 -0.0077673387713730335 0.08624035865068436 -0.017668213695287704 0.05341404303908348 -0.06637401878833771 -0.056904397904872894 -0.023441536352038383 -0.08053358644247055 0.028256578370928764 -0.09881853312253952 -0.024651337414979935 -0.017504090443253517 -0.08579732477664948 0.05958234518766403 0.09942712634801865 0.051309797912836075 -0.03338486701250076 0.06089579686522484 0.016155611723661423 0.011660666204988956 -0.002281581750139594 -0.0884370431303978 -0.07251842319965363 -0.02189718745648861 -0.002068276982754469 0.007602993864566088 -0.06543673574924469 -0.025140203535556793 0.012454073876142502 0.06762763112783432 -0.013937247917056084 -0.0111813023686409 -0.046885669231414795 -0.05297209694981575 0.05242649465799332 0.020174050703644753 0.02140420861542225 0.0954127237200737 -0.03719766065478325 0.028912130743265152 0.03941534087061882 0.13178877532482147 0.006290537770837545 0.04262615367770195 0.09525565057992935 0.08532867580652237 -0.10070012509822845 -0.1057572066783905 -0.10115968436002731 0.04892784357070923 0.06714992970228195 0.1893155723810196 0.033777035772800446 -0.0013197186635807157 0.010245145298540592 0.05238834768533707 0.04606517776846886 0.12494231760501862 -0.040231525897979736 0.056108854711055756 -0.06915947049856186 0.1102333590388298 0.14037130773067474 0.045885082334280014 0.04358522966504097 0.024772658944129944 0.10476432740688324 0.08282497525215149 -0.13658538460731506 0.04644230380654335 0.013867701403796673 -0.04100940376520157 0.09228692203760147 0.014266490936279297 0.012665525078773499 0.07936793565750122 0.04067230969667435 0.016488155350089073 0.12368620187044144 -0.042728275060653687 0.07440449297428131 -0.19438178837299347 0.13068518042564392 -0.10131227225065231 0.038941171020269394 0.009913266636431217 0.07054827362298965 0.017223630100488663 -0.1498199701309204 -0.026897598057985306 0.058265138417482376 -0.07565482705831528 -0.01712692156434059 0.08250019699335098 0.06822862476110458 0.1000424474477768 0.12943924963474274 0.04710710421204567 -0.021498534828424454 -0.034074023365974426 -0.10002491623163223 0.10211683809757233 0.020305350422859192 -0.0732838436961174 -0.01265597715973854 -0.08384747803211212 0.04785878583788872 0.04082071781158447 0.044716957956552505 0.05184636637568474 -0.08268912881612778 0.040070414543151855 -0.03148026391863823 -0.06181627884507179 -0.054217007011175156 0.16207097470760345 -0.07285820692777634 0.0297298151999712 0.0009120312170125544 -0.03442486748099327 0.0005441681714728475 -0.04866286367177963 0.019640689715743065 -0.04820753261446953 0.046769965440034866 0.1255163550376892 -0.05165961757302284 0.04483013600111008 -0.002548821968957782 -0.01178984809666872 0.04356999695301056 0.050435226410627365 -0.015353209339082241 0.042839229106903076 -0.005305334459990263 0.025959495455026627 0.11802694201469421 0.07286088913679123 0.033940788358449936 0.005412282422184944 0.04999246448278427 0.017224246636033058 0.04278862476348877 -0.14759540557861328 -0.05909231677651405 -0.015002330765128136 -0.017821356654167175 0.18654684722423553 -0.10599670559167862 -0.0422532744705677 0.05477530136704445 -0.10529455542564392 0.05090067908167839 -0.00696407537907362 0.08189191669225693 -0.02180667594075203 -0.006699515972286463 -0.03390089049935341 -0.05062783882021904 0.09080029278993607 -0.022592628374695778 -0.1454792469739914 -0.023673957213759422 0.04814726114273071 -0.006221373099833727 0.07024074345827103 -0.020223909988999367 0.15824174880981445 0.02077120915055275 -0.07332669943571091 -0.011214332655072212 -0.05235598608851433 -0.02763243578374386 0.013591935858130455 -0.030520323663949966 0.013930668123066425 0.09377209097146988 0.07889071106910706 0.00667713675647974 -0.03772260993719101 -0.0389239601790905 0.0083403829485178 0.015330677852034569 -0.02310209535062313 -0.004511339124292135 0.05972503498196602 0.13022564351558685 -0.01676786132156849 0.03581273555755615 0.07565880447401618 0.044619394640630264 0.024962710559853527 0.08152705068473103 0.06449354401321974 -0.09098390132680786 -0.05284366201998912 -0.0693380543676603 -0.06108685663119062 0.030584232641774473 -0.030117110291968563 -0.01566814001559763 -0.08442656275337199 -0.04487597438645156 -0.052386015491034096 0.11952393767101553 -0.01890584809368486 0.0962868075567844 0.05785554436556396 -0.018852315450151227 0.021611428341684197 -0.04217289135844878 -0.014692409293641533 0.011961344873902357 0.059576716699420225 -0.052126003658094895 0.05154041436321117 0.08111643502841903 -0.00340320164111933 -0.04572444641923277 -0.020250153672258017 0.03311735916047735 0.052345487338442624 0.0014167459813346868 0.08184335535382747 0.020864565594218735 0.0021932715761810964 0.006717596660933606 0.016895084666672246 0.09143351281201648 -0.04522268712554302 0.008329441448936888 0.011421632737673779 0.059635273586988974 -0.11184224769013855 -0.10923674218582557 0.02584943691620111 0.02121244091452408 -0.00779545497517444 0.009680420615011794 0.06689176869012183 0.06853314882617463 0.0028963316339754137 0.10568512068058108 -0.15916538438381392 -0.04564317248834483 -0.09408201986096125 -0.053254966081417214 0.14935754362850312 0.07761702679292873 -0.019997620134892282 0.09212173449853228 0.04225998173468447 0.011853068354213056 0.01173155550457346 -0.011851850046994182 0.015777168330190595 -0.033251449303421124 -0.03988241185853925 0.04664932850800662 0.04696435621499178 -0.007280776521300694 0.1340104194605143 0.02465522095257553 -0.05614225064981207 0.003936531377618999 -0.0752787208505269 0.04779338544482793 -0.05559170702728005 -0.12995238081125818 -0.045374239925587916 0.03657404395068915 0.02703605271722128 -0.000982400831594567 0.022922902797572604 0.0314671837813571 0.012393582190379027 0.015243776276383798 -0.23410077770626123 0.11570523551021453 0.027590321417239702 -0.11328267577536742 0.12511479574176168 0.04764888101339803 0.03239662450019831 0.014501663198134208 0.007104718519719337 -0.0466591383865988 -0.03935211573552688 0.02042242092291467 0.06041790172457695 -0.05414004996418953 0.0449669286608696 -0.016966337338089943 0.12107078731060028 0.028119850903749466 -0.03851839900016785 0.054767463356256485 0.061368294060230255 -0.025609776377677917 0.018052970990538597 -0.07184519618749619 -0.12942397594451904 -0.07480418682098389 -0.014407399110496044 0.010589526034891605 0.03893986716866493 -0.021601151674985886 0.038856565952301025 0.0958046019077301 -0.007066045887768269 -0.12077280133962631 0.07661399990320206 0.02833123505115509 0.0361199788749218 0.016515878960490227 -0.06717071682214737 -0.11353107541799545 -0.06468021869659424 0.03129368647933006 0.00025803560856729746 -0.005901730619370937 -0.01931704394519329 -0.03278475999832153 0.0128278573974967 -0.0015690807485952973 0.007830698974430561 -0.010939876548945904 0.057777609676122665 0.02699069119989872 -0.11180048435926437 -0.09477756917476654 -0.07132986932992935 0.014657734893262386 0.015326649881899357 0.08880206942558289 -0.0225727129727602 0.11874794960021973 0.021446187049150467 -0.009421583265066147 -0.07889394462108612 0.022271322086453438 -0.14873740077018738 -0.02448585256934166 0.008688884787261486 0.06830941885709763 -0.06170567497611046 0.06617597490549088 0.0675385519862175 -0.017916377633810043 0.03692134469747543 -0.017296580597758293 0.04175364971160889 -0.008180837146937847 -0.09998361766338348 0.09777093678712845 0.01625395566225052 -0.07653781771659851 0.0827615037560463 -0.08469337970018387 0.03337383270263672 -0.12954840064048767 0.034342311322689056 -0.045985396951436996 0.03053968772292137 0.023658422753214836 0.06988663971424103 -0.044010285288095474 -0.023900633677840233 0.04574373736977577 -0.13036850094795227 -0.105235755443573 0.044145215302705765 0.04327492415904999 -0.08464701473712921 0.015192942693829536 0.02600274793803692 0.03797391429543495 0.04605889692902565 0.09405601769685745 -0.0415777787566185 0.08841925859451294 -0.08886207640171051 0.0645914226770401 -0.021846281364560127 -0.03016645833849907 0.08297429233789444 0.043286215513944626 -0.018781110644340515 -0.06417016685009003 0.004975215943674208 -0.10292116001233478 0.08569802194187656 -0.018820145355823374 -0.019239317295948282 0.023505462707061886 0.001157989933473407 -0.005569361505703868 -0.00044946000371631073 -0.0986437746615538 -0.06141797066446921 -0.08703853371158099 0.0015125533220220278 0.1616734936717653 0.09156925565330391 0.11041168107250907 0.0089316899508975 0.06956886048845207 0.040545003807276166 0.05677840133127851 0.02538394065677546 0.12227704473227537 -0.029287163185668597 0.0389085743303181 -0.031426817533059884 -0.007596213026768868 -0.13016124306960128 -0.10957167641409014 -0.0693271306283313 -0.004057958895632255 -0.027720574921242948 -0.02690396215093884 0.08995871753653426 -0.03656924471043448 0.08821193491359686 -0.05806049301745482 -0.029788427239557547 0.08910990572303056 0.059971082817004605 -0.058730215281227155 0.041486782316277136 0.013818906323975717 -0.01266832834583172 0.15765580720227557 -0.053741182988531776 0.017179330497848436 -0.027862325615096422 0.03371055447392142 0.009360348196525368 -0.015966964912104923 0.09461119673799746 -0.1165413436744493 -0.019050686004869862 0.04641906818789707 -0.01239176991019321 0.06008548356701343 0.050575907161226605 -0.07395032015162073 -0.11112169571510029 -0.1057979842529071 -0.15067472040744304 -0.05687151100052711 -0.03775060420955446 -0.08521041177819301 -0.016670085018168825 -0.06691365620414413 -0.005821239173678288 -0.17885144898695718 -0.038974569636980406 0.043020601097011855 -0.08220339003894929 0.12122540349093418 -0.0343428790384168 -0.021078443212129774 0.0024723474843867253 -0.10261249719934724 0.003583402635402715 0.041097230397620914 0.027142795760819523 0.06867958600598036 -0.002138997089089138 0.028245446992482614 -0.06884577101542415 -0.03476972075082973 -0.0603701227522037 0.03292093786475819 0.04295473821238983 0.051376772427967204 0.10895974736975682 -0.0533539516842442 -0.12952667563393244 0.024789214681041952 0.04940997591662634 -0.06533582572769944 -0.051905564263699216 -0.01533833298466143 0.041294625911068764 0.06708715721919445 -0.09153681674517929 0.07091168452033512 -0.053110990673303604 -0.11064445972442627 -0.057103902101516724 -0.08519472926855087 -0.0406600646674633 0.02027432806789875 -0.040908217430114746 -0.005074137356132269 -0.030829088762402534 -0.010170677676796913 -0.0005719297914765775 0.10392867028713226 0.09428447484970093 -0.013870731927454472 -0.03487193211913109 0.12623468041419983 0.0022633764892816544 0.11805456131696701 0.05052795633673668 0.029427887871861458 0.036628566682338715 -0.09504523128271103 0.08389081060886383 -0.03100193850696087 0.008107912726700306 0.1396036148071289 -0.041233863681554794 0.10692039132118225 -0.05138404294848442 -0.007729561533778906 0.08596640825271606 0.05429617688059807 0.036786969751119614 0.020438244566321373 0.13767552375793457 0.10758204758167267 -0.05536352097988129 0.05598200112581253 -0.03345077112317085 -0.039009176194667816 0.06035568565130234 -0.08630908280611038 0.03382684290409088 -0.016469575464725494 -0.13797979056835175 0.04213015362620354 -0.028392765671014786 0.08499369025230408 0.07805456221103668 0.0623173713684082 0.03395358473062515 0.09777377545833588 -0.06339601427316666 -0.0630592629313469 0.029161911457777023 -0.0065201143734157085 -0.005743189249187708 -0.02495722845196724 0.07998745888471603 0.013865883462131023 -0.07523849606513977 -0.011467627249658108 -0.0697941705584526 0.0745982825756073 -0.019121337682008743 0.07369250059127808 0.05251187086105347 -0.08794496208429337 0.00868048146367073 -0.10726051777601242 0.027178892865777016 0.048315249383449554 0.1031995639204979 0.07891391962766647 0.05024867504835129 -0.00023862432863097638 -0.028120070695877075 -0.04997144639492035 0.154009610414505 0.04514186084270477 -0.0529232956469059 -0.003289068816229701 0.020470356568694115 -0.012295834720134735 -0.08027538657188416 -0.046665776520967484 0.02416517212986946 0.060925792902708054 0.07402747124433517 -0.03651120886206627 0.10644708573818207 -0.010785337537527084 0.10279247909784317 -0.027107002213597298 0.07201515883207321 -0.028505247086286545 -0.01890372671186924 0.024404462426900864 0.06741439551115036 -0.02246255986392498 -0.06848321110010147 -0.002442956669256091 0.15097032487392426 0.031827352941036224 -0.028731616213917732 0.00715568196028471 0.033151280134916306 -0.0022145698312669992 -0.14719229936599731 -0.015182245522737503 0.06041203811764717 -0.04532947018742561 -0.04292973503470421 0.03933929279446602 -0.02284669131040573 -0.010130134411156178 0.036515478044748306 0.014816956594586372 -0.19427700340747833 -0.044317826628685 0.007612297311425209 -0.12393427640199661 -0.10256879031658173 -0.007742441724985838 -0.01735866442322731 0.04347976669669151 -0.0309134591370821 0.025584721937775612 0.15667307376861572 -0.02305253967642784 0.01218714751303196 0.021932052448391914 0.025834228843450546 0.15711332857608795 0.09302369505167007 -0.051911015063524246 -0.0735091045498848 -0.014580804854631424 -0.03687015920877457 0.028158048167824745 -0.09375151991844177 -0.05344070866703987 -0.004049697425216436 0.04638754203915596 0.018651459366083145 0.04066615179181099 0.1125190407037735 0.014160161837935448 -0.05999152362346649 0.05370936542749405 -0.03198068216443062 0.05506730452179909 0.11273954063653946 0.05839015543460846 -0.08089332282543182 0.06896083801984787 -0.07950769364833832 -0.04136213660240173 -0.01723482646048069 0.12946395576000214 -0.013347657397389412 0.06295859068632126 0.06032510846853256 -0.05104146525263786 -0.041907649487257004 0.1261770874261856 -0.04698161408305168 0.008456125855445862 0.11930183321237564 -0.07581547647714615 0.05561459809541702 -0.007268606219440699 -0.00994582287967205 0.05689331889152527 0.038201604038476944 0.08294674754142761 -0.01513952761888504 -0.01907859742641449 0.09167268127202988 -0.0793352946639061 0.007128385826945305 -0.13440415263175964 0.010646091774106026 -0.08300499618053436 0.01893296279013157 0.06597443670034409 -0.06856726855039597 0.03336792066693306 0.05197325721383095 -0.03824136406183243 0.019794970750808716 -0.09239757061004639 0.05331597849726677 -0.1045578345656395 0.02110227756202221 -0.11119071394205093 0.04910823702812195 -0.09174180030822754 0.050483234226703644 0.12925618886947632 0.021642758775114845 -0.07573490858545397 0.030141645000247075 0.06270254090396044 0.04643556307516489 0.03473049717624925 -0.0023837664626270875 0.06671649377765941 -0.16002233780943087 -0.040467715294671754 0.10680394055577849 -0.026734127909910525 0.09685348069914497 -0.08497599120137807 0.13336839126416522 -0.011873652692227342 0.14175338507665192 -0.013011778243993728 0.05705328335518791 0.06931629410876891 -0.023459481457779034 -0.035974876749044905 0.037270404361065504 -0.020592947566778843 -0.09543507457058044 0.030945885935814814 -0.03283113046968855 -0.012282615934225487 0.080260983325261 -0.021367037096811432 -0.2290899447938035 -0.0013980580571540105 -0.0025550286477399415 0.02801042979134168 -0.07510309485528692 0.014900244080621586 0.0036922778998906038 -0.019503572180040705 -0.03144806560330613 0.016715806979088522 0.029970930046788913 0.02639857450914558 0.012516192199014587 -0.069377226320442 0.02110277634807651 0.03996179820739534 -0.1547501107711764 -0.06562067851514539 0.08116956683433313 0.11282804005592281 -0.027869572815522152 -0.031016787355263694 0.08658978168913584 0.04913032356369838 -0.12110049343538956 0.06097037157933749 -0.035952041163907 0.020825774766409236 -0.03656915196412506 0.015219488643440426 0.05585685235746302 0.08653681355322997 0.10248578138346172 -0.004361928369057043 0.015530386700305704 -0.0579186020150863 -0.0461330498835357 -0.07378888215707817 -0.0880960862489072 -0.04747226195127672 0.06650918636975552 3.011021823187621e-06 -0.047313305706010556 0.009228255533555494 -0.04857760782356176 0.00020682706517968034 0.003326629924505572 0.02278833286308845 -0.04561122759216622 0.07831492727824967 -0.08567971106092336 0.04522837201410307 0.03732064104040086 0.015507456377547699 -0.1272943058882874 -0.030752029314259417 -0.0416713174124758 0.08972400995785101 -0.028496996525035487 -0.04786348555105131 -0.0420224466387682 0.024208667045780233 0.027572133546736318 0.02463823810772686 -0.054900573331570356 0.017542548838418798 0.026598147512958914 -0.08433738079963918 -0.05588350163953219 0.09471698712581192 0.08188753575086594 0.06192249059677124 -0.08986514806747437 -0.0018599266186356544 0.0012714393669739366 0.12186138331890106 0.12359575182199478 -0.01880211941897869 -0.05411652848124504 0.0360952764749527 0.014344138093292713 0.08668945729732513 0.008205907419323921 0.006565034855157137 -0.06740329414606094 -0.06322500854730606 0.004279120359569788 -0.02642347477376461 -0.0014650734374299645 0.07224439829587936 -0.00438605947420001 -0.1509317010641098 -0.023566950112581253 -0.04805940017104149 -0.01034734770655632 -0.028339948505163193 -0.07463520020246506 -0.07840774953365326 -0.1113661602139473 0.011150136590003967 0.0076638199388980865 -0.05688480660319328 -0.02046985924243927 -0.043825313448905945 -0.008932060562074184 0.0451098307967186 0.0010966736590489745 0.04559856653213501 -0.06706081330776215 0.061532553285360336 0.06371232867240906 -0.10557160526514053 0.06847568601369858 0.0437583290040493 -0.04084591940045357 0.020497331395745277 0.02334711328148842 -0.0895165279507637 0.0003897958085872233 0.042003098875284195 -0.03931167349219322 0.08812900632619858 0.06711228936910629 -0.00798927154392004 -0.009192912839353085 -0.006014023907482624 -0.061241328716278076 0.07049914449453354 0.012503867037594318 4.1514427721267566e-05 0.04237046092748642 -0.07356014102697372 -0.08380318433046341 0.029438139870762825 -0.03863954171538353 0.04310690611600876 -0.03781408444046974 0.08980290591716766 -0.03995293751358986 -0.0001205844382639043 0.0016249943291768432 0.0465027391910553 -0.06485181301832199 -0.06204516068100929 0.08253008872270584 -0.012857102788984776 0.029188387095928192 0.06755659729242325 -0.05242951959371567 -0.028828229755163193 0.14072157442569733 -0.06890697032213211 0.011593673378229141 -0.06991167366504669 -0.06996677070856094 -0.036395709961652756 0.02295052818953991 0.05858837440609932 -0.05939396098256111 -0.09034203737974167 0.0008101476123556495 -0.07765871286392212 -0.12803144752979279 0.03031293675303459 0.04058282822370529 0.033014051616191864 -0.03780758008360863 0.04715416207909584 -0.09590912610292435 -0.07876382768154144 0.04651703637952434 -0.05402304910523921 -0.024121364656144183 -0.03668996413121333 0.007484627400016185 -0.004824230249872741 -0.12704514590325702 0.12607888993752073 -0.1189492964200148 -0.08056183821807608 -0.03767628168096288 -0.0788311970439334 -0.014708117926413699 -0.00402633187607416 0.12265044826785848 0.027148661505799684 0.031023838016606478 0.00481374927592715 0.06442252766134964 -0.04512003380004186 -0.1100803671094695 -0.05470602378023926 -0.03887756569911698 -0.012871796859405895 0.06905677621921284 0.06660677435259649 0.09753057480838806 0.030250137121007638 -0.08544279257215884 0.03821773154134168 0.11173942544913817 0.05586171507150878 -0.03353501460465848 0.0180197520138683 -0.06696995462560242 -0.07001224523163438 -0.13913253769571898 0.033780542040825375 -0.011044425210131546 -0.04530430449584346 -0.06276105426054295 -0.0650602249124579 -0.03317264914308712 -0.005220496227794376 -0.05328599861227411 0.011921652657875939 -0.10190615639986465 -0.11733703612990543 -0.03762711819719874 -0.0164084922231511 -0.016195795663894147 -0.032922965618194855 -0.07160764472318758 0.07154685725446454 0.09859252089451927 0.013383626663080581 0.038251035543269744 -0.04766527071757364 -0.13089595101195609 -0.004851089514530049 0.010556682495821338 -0.0522665724885142 -0.030919725111771285 -0.13468870752925488 -0.01616291448304547 -0.07133514728264119 0.009553612851757721 0.051753416211107094 -0.08694700263779936 0.01166839887036941 0.05290359208962522 -0.05795202265393485 0.14446278900096995 -0.04650060856914239 0.023897855548370157 0.04121666048543341 -0.030298771779933918 0.06370109876768737 -0.030230938031898767 -0.07473812977414411 -0.06154194624882117 -0.027778706696395834 -0.025843386145774822 0.07693430711417157 -0.00764329905259116 -0.051656127817734904 -0.058153432910539565 0.06541816043671594 0.009062321512429932 0.03814334020518905 -0.09616660747472108 0.021133144416362774 0.017600694472013134 -0.11037372489670692 -0.045364998791321456 0.058250174314308574 0.013177795150898492 0.011145979162001447 0.08454030179440995 -0.006180366540799845 -0.040356721729040146 0.008341720327734947 -0.06386067718267441 -0.17221158742904663 -0.06650659441947937 -0.06262966990470886 0.013232028111815453 0.018173908814787865 0.04963142052292824 0.060342952609062195 -0.07442573457956314 -0.08370444923639297 -0.09569215774536133 0.04051085188984871 -0.010280214250087738 0.0390961728990078 0.08007512241601944 -0.09653134644031525 -0.04874151945114136 -0.08807302266359329 -0.006637513637542725 -0.06931591778993607 0.09302172064781189 -0.1173466145992279 -0.07074152678251266 0.08822321891784668 -0.00020995420345570892 0.028949372470378876 0.08687321841716766 0.007909533567726612 -0.04977211356163025 -0.04468458145856857 -0.018443701788783073 -0.001784694381058216 0.08446204662322998 0.04066561535000801 0.0825294554233551 0.05733665078878403 0.06560280174016953 -0.06833327561616898 -0.04903718829154968 -0.05626373365521431 -0.0683884248137474 -0.03505263477563858 0.07055740803480148 0.02902827039361 -0.0766749307513237 -0.014714466407895088 0.019378336146473885 0.13820652663707733 0.01793316937983036 -0.0018038676353171468 0.013675018213689327 -0.1490153968334198 -0.055259834975004196 -0.008840289898216724 0.12079021334648132 0.028180697932839394 0.0015923180617392063 0.09093993157148361 0.04428068920969963 -0.09517813473939896 0.05803133174777031 -0.06465747207403183 0.04708882421255112 0.012864758260548115 0.01765604130923748 0.0014488126616925001 0.052906811237335205 -0.0007993342587724328 0.08987325429916382 0.0479465089738369 -0.03684917837381363 -0.09456634521484375 -0.026958582922816277 -0.002943699946627021 -0.05124278366565704 0.07946282625198364 -0.038271334022283554 0.06648193299770355 -0.07313941419124603 -0.04648854210972786 -0.055846959352493286 0.006441113539040089 -0.02694651484489441 0.0026957544032484293 0.07047175616025925 -0.0631108283996582 -0.1002073734998703 -0.0086825555190444 -0.056605953723192215 0.13940006494522095 -0.06764709204435349 -0.03326519951224327 0.05972055345773697 -0.05629533901810646 0.010696669109165668 -0.008960327133536339 -0.049415238201618195 -0.0013523742090910673 0.0541963204741478 0.057360343635082245 -0.07846516370773315 0.056837886571884155 0.036981623619794846 0.036292996257543564 0.052381087094545364 -0.06425470113754272 -0.04229064658284187 0.07692772150039673 0.09284369647502899 0.026032768189907074 0.13658994436264038 0.14181503653526306 0.0033727469854056835 -0.002126941690221429 -0.08903054147958755 -0.019710903987288475 0.008783230558037758 -0.12020929902791977 -8.008690201677382e-05 0.049118805676698685 -0.017692439258098602 -0.05002477765083313 0.048911064863204956 0.040893785655498505 -0.08352714776992798 0.06775765120983124 -0.0470799058675766 -0.0037615105975419283 -0.033734630793333054 -0.0019261379493400455 -0.0255132969468832 0.004096715245395899 -0.04064261540770531 0.010401459410786629 -0.05226561799645424 0.002873313380405307 0.08041135221719742 -0.045161932706832886 -0.022294195368885994 -0.009085001423954964 0.13217045366764069 -0.05034521594643593 -0.05334039032459259 0.02191227674484253 -0.09160206466913223 0.05926165729761124 0.05660380423069 -0.05203210189938545 -0.03586573526263237 0.06836886703968048 0.1205853670835495 0.08355848491191864 -0.02727852761745453 -0.06179216876626015 -0.10684441030025482 -0.06305737048387527 -0.013796188868582249 -0.0034113044384866953 0.05516532436013222 0.06109512969851494 -0.09199756383895874 0.03857098147273064 -0.04567375034093857 0.007831421680748463 0.04999281093478203 -0.13795481622219086 -0.02522672526538372 0.07261812686920166 -0.02375936694443226 -0.04291530326008797 0.0506967157125473 -0.04413289204239845 -0.07954800128936768 0.08949068188667297 0.011529949493706226 -0.07899932563304901 0.08080154657363892 -0.025263739749789238 -0.01395345851778984 -0.02731630951166153 -0.03385046496987343 -0.1005551815032959 0.03851159289479256 0.023544030264019966 0.09556465595960617 -0.08960212767124176 -0.016633443534374237 -0.054160039871931076 -0.02421604096889496 0.03581596538424492 0.12031777948141098 0.13960014283657074 0.0996549129486084 -0.14615818858146667 0.03179505094885826 0.035096485167741776 0.0793212428689003 -0.11073940247297287 0.06438346188798068 0.05927716803581779 0.03370701275213739 0.06990055670981417 0.029889646578495178 -0.04482573628351507 0.09695889188295907 0.010258961787883289 -0.012321702473649132 0.004411521599413486 -0.09727621701881671 -0.05702642001713728 0.09679893117037662 -0.023606212828568337 0.002868720739852487 -0.07163826820122567 0.04016506825822906 0.03020948144182594 -0.060623151813776595 0.03913504466480342 0.00923961576260179 0.0887528480319821 -0.06379899318377899 -0.05050034856338526 -0.0991639216016493 -0.06531872822130964 0.012648804855670728 -0.06291354502578375 -0.1843370888944719 -0.03974503040915288 -0.029537042192612186 -0.06538268639948111 -0.09142068132685369 -0.03182849924153076 -0.0360685942631439 -0.04257920806619464 0.03050047510928277 -0.010319719741409682 -0.0501445136124789 0.056214899778098223 -0.04930867879708948 -0.00986731751783902 0.04973772098312263 0.050312525659508854 -0.06939545185265075 0.10221431236693086 -0.13224367309426743 0.03486904832894169 -0.03154813993727675 0.047415105956486986 0.07747893392446895 -0.01521106291612979 0.0321519829259186 -0.006003942783781875 0.0013027119329994021 0.03015359265071994 0.06990934639583034 -0.011421204508299549 -0.10637905795444273 -0.07698585124837597 -0.10429433444137035 -0.01827888567799765 0.018082388156685773 0.045808210268299746 -0.03985953262285107 -0.03013185691318677 0.029539064456496993 -8.389080547538668e-06 -0.07549985708089503 0.02774782731990952 0.04500291572956907 0.02733724903430228 0.1226012125684712 -0.060416362315311035 0.04131654713192667 -0.014553179976814008 0.03795874002198033 -0.06374998897561904 -0.02811275597768503 -0.0004584631128810126 0.12064920237792132 -0.014111969140961028 0.006409442642981707 0.04882924692550493 -0.046306320934338216 0.030718526731647704 -0.034299866375650565 -0.009943176918997881 0.08455691449266285 0.04927219500521606 -0.12613458200619923 -0.05164416306059305 0.002328352480362248 0.027647669238743715 -0.07461016386572396 -0.027006672073254728 -0.08384143951548588 0.1126332876166671 -0.030032895153794252 -0.016085902357688732 0.08895325660705566 0.009280220605432987 -0.016412464901804924 -0.02018345706164837 -0.01612750254571438 0.06585505604743958 -0.07925473898649216 0.004189988598227501 0.03338033705949783 -0.03251563757658005 0.01271460298448801 -0.03572436422109604 0.03562353923916817 -0.08182545006275177 0.05973874405026436 0.012611371465027332 -0.007603149861097336 0.13428659737110138 -0.1349087357521057 0.06437694281339645 0.030355289578437805 0.0028343356680125 -0.0636957511305809 0.06474986672401428 0.15229055285453796 0.043573226779699326 -0.041109245270490646 0.008942236192524433 0.03586659952998161 -0.08138326555490494 -0.002094887662678957 0.08191701769828796 -0.05291366204619408 0.03657716140151024 -0.03976736590266228 0.0038487804122269154 0.0025430861860513687 -0.01128991786390543 -0.06907537579536438 -0.018852194771170616 -0.1501993089914322 0.0558757483959198 -0.21332307159900665 -0.02379884570837021 0.0636894628405571 -0.06827236711978912 0.024625228717923164 0.03655242547392845 0.0023040110245347023 -0.010458064265549183 0.10160952806472778 -0.06508377194404602 0.01057528331875801 -0.03626612573862076 0.04734116792678833 0.0648171678185463 -0.06080201640725136 0.04083438217639923 0.045038606971502304 0.013738436624407768 0.05960817635059357 0.03145327419042587 -0.013771125115454197 0.042327191680669785 -0.07097959518432617 0.04851745069026947 -0.055325157940387726 -0.10239483416080475 0.00516342930495739 0.052307408303022385 0.07453083246946335 -0.0019327797926962376 0.003390300553292036 -0.006221963092684746 -0.0237969271838665 0.03970114514231682 0.03762711212038994 -0.028935890644788742 0.04502401500940323 0.140096977353096 0.018144290894269943 0.02724938467144966 0.025699520483613014 0.001696418970823288 0.043788135051727295 0.011704724282026291 -0.06488406658172607 -0.08726240694522858 0.06312581151723862 -0.06286101788282394 0.21472886204719543 -0.06061960384249687 -0.052206870168447495 -0.05005848407745361 0.021628351882100105 0.07957965135574341 -0.0150108328089118 -0.013916945084929466 0.018150394782423973 0.11639109253883362 -0.021676070212119914 0.03799132481821549 0.015105091368954784 -0.01607029037136079 -0.05218308965231196 -0.1526386549434861 0.02260833027897301 0.06706337664101913 0.03595374329388289 0.0404161829302321 -0.015046991172299094 0.017670083857635355 -0.00953209327971354 0.02296961286530809 -0.14489754585419945 0.0037911840171022705 0.07927184780829831 -0.13430268468723414 0.14899058326606554 0.02985884722868556 0.021505260224299497 -0.12245426354385155 0.020619862359804536 0.15348134497437954 0.02028697633853506 0.02038432765448657 -0.019657371175212473 -0.0008024257395354837 -0.09249025517998621 0.023605383871767673 -0.0890531313438461 0.016715817718216692 0.07997412894301696 -0.0008587397591023806 0.012351485761291655 0.04025234620331194 0.09421034352423999 0.05160611819803828 0.03343615570414124 -0.0163299032954185 0.0426828495349905 0.010857729030717987 -0.012129809714114318 -0.055426552274929916 -0.055212755978002216 -0.07583557001260607 -0.049305088836769276 0.06199773855980834 -0.1186306775447984 -0.03034291499296887 -0.0036152090662910797 -0.006952243998157474 -0.11738903195015238 0.030631193674253186 0.047983848609397355 0.023254796558014 0.0702529900922337 -0.0027264985939089385 0.026385104158706905 0.031583083211453096 -0.026509252622865204 -0.15774839677819505 -0.018617478084462274 -0.07312522893752647 0.032626642516769985 -0.09056494871423705 0.09491593133422498 -0.028137860546341795 0.009801576825539546 0.06386063042986327 -0.006389684933476702 -0.08199774954866977 0.0427264314639512 -0.044695019146488255 -0.09752098856727748 0.06978152224587032 -0.013888435483164693 -0.0846661643544681 0.021307064483560543 -0.08160163789480492 -0.015094190847581486 0.07389861545894026 0.02386673269649995 0.08324036016584806 -0.05040377350608649 0.006548707728554721 -0.06381239828894757 0.051588483455221226 0.1751745314850197 -0.03068289734031759 0.03830332849269264 -0.027039121218547586 0.07928258737407484 0.004119423724702467 -0.04899807898993469 -0.08412744796786481 -0.11676329568367506 0.014666954716721243 -0.0005921147258644354 -0.0936912254207315 0.013113626278936863 -0.017898760735988617 -0.07534585148096085 -0.06558147817850113 0.027732541784644127 -0.026531310752034187 0.08469174802303314 -0.04439622536301613 0.12373533099889755 -0.10224534571170807 0.09152879565954208 0.06498510390520096 -0.045272860676050186 -0.007763318717479706 -0.0023251741658896208 0.051156897097826004 -0.06441085040569305 -0.028738003224134445 -0.037290774285793304 -0.08868527412414551 0.023151550441980362 -0.006994387600570917 0.02988191694021225 -0.018053926527500153 0.02757903002202511 0.04005969688296318 -0.05839056149125099 -0.011779981665313244 0.1338392198085785 -0.06761886179447174 0.0385298989713192 -0.017104020342230797 -0.09425906091928482 0.022852862253785133 0.006988248787820339 -0.019991016015410423 -0.11979536712169647 -0.1457979530096054 0.04243212193250656 0.039514560252428055 -0.0333312563598156 -0.010205150581896305 0.012940377928316593 0.057371627539396286 -0.04644272103905678 0.003134886734187603 -0.036919981241226196 0.07881138473749161 0.05081557482481003 0.09100636839866638 -0.03141433373093605 0.001397624146193266 -0.05011802539229393 -0.043089382350444794 0.03368905559182167 0.013532640412449837 -0.01399816945195198 0.026972338557243347 0.07678012549877167 -0.09198568761348724 0.12253549695014954 -0.055440619587898254 0.029851138591766357 -0.09719562530517578 0.016342418268322945 0.05465680733323097 -0.04882325977087021 -0.02669069916009903 -0.09749024361371994 -0.025216933339834213 0.10928737372159958 -0.014840073883533478 -0.07752887159585953 -0.06765823811292648 0.030801165848970413 0.0987316444516182 -0.09653130918741226 -0.029799755662679672 0.00988142378628254 -0.004540673457086086 0.07445885241031647 0.024334944784641266 -0.049577172845602036 0.08275658637285233 0.030139373615384102 0.04818718135356903 0.030805202201008797 -0.04102897271513939 0.008900712244212627 0.10980085283517838 0.05862544849514961 0.06242888420820236 -0.03143617883324623 0.020861202850937843 -0.1902606189250946 -0.04677501320838928 -0.04497084021568298 0.0399414598941803 0.04304269701242447 -0.0338888019323349 0.03565920889377594 0.09171842783689499 -0.10110147297382355 -0.10245005041360855 -0.04681513085961342 0.04057884216308594 -0.07334647327661514 -0.10212113708257675 -0.03684614971280098 0.007855057716369629 0.07049506157636642 0.014244183897972107 -0.019840233027935028 -0.024343350902199745 -0.013650637120008469 -0.07615486532449722 0.01610148698091507 0.007097071502357721 0.018757350742816925 -0.05991712212562561 -0.07187199592590332 -0.008419121615588665 -0.016296444460749626 0.02015841379761696 -0.06729564070701599 0.030945230275392532 0.011929427273571491 -0.010302571579813957 -0.042293842881917953 -0.12052144855260849 0.08546389639377594 -0.03399793803691864 -0.01941019296646118 0.055191390216350555 -0.007820871658623219 0.012503650970757008 -0.013981340453028679 -0.0010782384779304266 0.032317258417606354 0.0445290170609951 -0.03646044433116913 -0.005400441121309996 -0.02695576846599579 -0.005866466090083122 0.0824369266629219 -0.055568259209394455 -0.05210314318537712 0.06124338507652283 0.07880712300539017 0.08830305188894272 -0.061058174818754196 0.09644933044910431 -0.03875294327735901 0.11852283030748367 -0.02210506610572338 -0.0653512254357338 -0.02414461225271225 0.008782034739851952 -0.08379587531089783 0.021335419267416 0.1682334542274475 -0.0398801825940609 -0.003626291872933507 0.0657501220703125 0.11156700551509857 -0.03792981803417206 0.025272570550441742 -0.04756466671824455 0.1256101131439209 0.01616932824254036 0.0464930385351181 0.019689064472913742 0.032069843262434006 -0.054090067744255066 -0.12245849519968033 0.0039723822847008705 -0.055578552186489105 -0.058597199618816376 -0.023918861523270607 -0.02984664961695671 0.10085341334342957 -0.04611935466527939 0.04249037802219391 -0.013573238626122475 -0.06298059225082397 0.04086509719491005 -0.04410224035382271 -0.0038680988363921642 0.051052361726760864 0.0038294135592877865 -0.10048114508390427 -0.11737579107284546 -0.024481767788529396 -0.027566904202103615 -0.07665038853883743 -0.07897492498159409 -0.05180929973721504 -0.02198810875415802 -0.05559072643518448 0.053745705634355545 0.007923793718458671 0.06832107743426735 0.08405821767842692 0.0021825368329623147 -0.002438421989194426 -0.012382856889131788 -0.09893628675614749 0.022439271097397354 -0.11737870761622703 0.06900512655928728 0.12709923400995823 0.09716535230770469 -0.06678785275173392 0.03996710776099758 -0.05141845723877294 0.0872901842170579 0.08068519143092218 -0.03595073669832983 0.16838399462129208 -0.07571276918452022 -0.10446215273335151 -0.03965311458260001 -0.09762939234754707 0.033719664666427986 -0.06729416822019238 0.14287663328956948 0.09008470743707807 -0.00021042955074778062 0.0074290806201712046 -0.01812562737270373 -0.03550939370261177 -0.05284283041245574 -0.04492216650336481 0.03438389250945054 -0.1903076438523323 0.02200712231360999 -0.03428640255457347 0.014319018293948944 -0.029815040811394272 -0.07569941315056776 -0.03579198849495292 -0.06603336824662322 -0.0700543301007493 -0.03446463451582861 -0.009061144574388435 -0.008325941106110747 -0.10291648011067492 -0.0029169062111617937 0.00793289793412459 -0.0004207087953697158 0.018098670601662068 -0.06544765025773457 -0.03338560451010147 0.009541753681373458 0.04179975047363448 -0.03844096417199571 0.043439552697908994 0.04617273746108223 -0.04274117217219969 -0.06785655629004252 -0.016285444982126224 -0.06054943188924753 0.0673749612539289 0.00813060949623019 -0.05445636708530137 0.046719212566788015 0.009312123809557092 -0.00906900119647179 -0.06339289154673566 0.007544551327042959 -0.0016353135741318076 0.018997497652919287 -0.07864242105609981 0.040147118348221864 0.027095504128738755 0.027603431639616385 -0.0469015523623592 -0.007369901690709182 0.09437774765737025 0.031534770204245215 0.021748316004562222 0.03957519540904383 -0.07949879426256053 0.021812213536060207 -0.11006128260426966 0.09122086353737464 -0.022670250934719725 0.04398246030632998 -0.015417874366499325 -0.05519637778895253 0.015339163131661612 -0.07249942796376342 0.013497801607052586 -0.05955156251086296 -0.05276109005730505 0.04298235996397625 -0.08916773260923716 0.054881262763307015 -0.09311946202992 -0.05657624261460702 0.008128874003887177 0.01903003267943859 -0.07757568359375 -0.05533091351389885 0.04896874725818634 -0.10661076009273529 0.01327966246753931 -0.05111819505691528 0.07794317603111267 0.08190347254276276 -0.09346693009138107 0.0024797916412353516 0.012853587046265602 0.0249171182513237 0.015857946127653122 0.06782255321741104 -0.0028305703308433294 -0.07160529494285583 -0.019965816289186478 0.02400871179997921 0.015521322377026081 0.004676258657127619 -0.052618786692619324 -0.05088141933083534 -0.035529639571905136 0.10089308023452759 -0.10438265651464462 -0.08461146056652069 0.04228715971112251 0.02681766264140606 -0.07200728356838226 -0.07714810222387314 0.03316880017518997 0.08058787137269974 -0.10087145119905472 -0.04048445448279381 0.03368689492344856 0.062381014227867126 0.020795004442334175 -0.08548543602228165 -0.10633879899978638 0.04046440124511719 0.139198437333107 -0.09776315093040466 0.06434159725904465 -0.02549116499722004 0.02369293011724949 0.010239528492093086 0.009938732720911503 -0.06133225932717323 0.014086847193539143 -0.014855800196528435 0.0621444508433342 0.0006384217413142323 -0.039308104664087296 -0.10785406827926636 0.0758112221956253 0.06223048269748688 0.08539333939552307 0.0585404708981514 -0.015234960243105888 -0.00447491742670536 0.13249576091766357 0.030677493661642075 0.051371410489082336 0.0030076371040195227 0.06908223778009415 -0.0009144835639744997 -0.18478702008724213 0.04188274219632149 -0.011403253301978111 0.06181628629565239 -0.017339514568448067 -0.0758359283208847 0.10832813382148743 0.0400129072368145 0.08088940382003784 -0.02162456512451172 0.09447041153907776 -0.0028716896194964647 0.032375872135162354 0.060155753046274185 0.20332221686840057 0.006335216574370861 -0.0754556804895401 0.029496358707547188 0.017631707713007927 -0.008480389602482319 -0.005684277042746544 0.04037972912192345 0.007504409644752741 -0.01528877392411232 -0.007185560651123524 -0.04347523674368858 0.0012680302606895566 0.018371030688285828 0.02825910411775112 -0.16816259920597076 0.04362725466489792 0.0030812255572527647 0.001810311853512159 0.08720179874445975 0.043920180383652016 -0.06737475447324401 -0.03893491949996268 -0.055573278317591034 -0.008801260575022693 0.03503468383329136 -0.0851122912016344 0.08019127059658741 -0.050014811898974026 0.07501949130725949 -0.006436141582466678 0.02601189441621638 -0.10557221842454075 -0.21392471584449102 0.08320365866119425 -0.16227587711597505 0.039625686784266576 -0.04655648726501365 -0.062487541899341276 -0.03689822954493228 -0.12613657810276288 0.04744136918643839 -0.007022152443807643 0.09416993659911717 0.01832953978363005 0.08342990144399064 -0.05009356429344209 0.052873886832871704 -0.12120294968011346 0.01959542859256823 0.026830328311156174 -0.06759163611729606 -0.012512974397058913 0.04453666918873971 -0.02771641975811679 -0.05348895504349087 -0.06241806031206533 0.06054211731491957 0.1388400259629051 -0.0760457950756068 0.06060361555897137 0.04464085612499791 0.06572550928375524 0.0017076041063697476 0.027860190631905164 0.032276368370018786 -0.0930887778416089 -0.10671578664382789 0.006981432234604342 0.051580953765380626 0.018494738000749703 -0.07553673911570796 0.046455638096893494 0.00047994278112445854 -0.06689567661473077 0.0010483939748656274 -0.1812508562874951 0.008330990780201282 -0.11732556000341159 0.19810050753115738 0.06422717503967532 -0.020082265361152794 -0.04073244706981488 -0.015277683161363579 0.03672941050298921 -0.041346108954545484 -0.04576431940938152 -0.020937360521632847 0.05650291642849158 0.009209913653780506 -0.07919477954026484 -0.02117041759064031 -0.13675668253348405 0.021183072602910732 0.00012308665505303724 0.00747317508501879 0.11601703313526188 -0.021694761375519993 -0.0480888902032312 0.0337978807184466 0.042598594729433455 0.12393635141576793 0.006132949873143737 -0.017720913167382897 0.012046936598828295 0.013319924142944207 0.06277454854288728 -0.04086289072425585 -0.12210504611693927 0.05947086037728467 0.025974843044167997 0.07739805753465685 -0.07654563877379385 -0.12137158392680493 0.048902314220399735 0.05682359989809119 -0.02954655139368212 0.03609913680150146 -0.06837871670722961 -0.02117285504937172 0.013464954681694508 0.07588041573762894 -0.024282682687044144 -0.11232578009366989 -0.05470966547727585 0.07518168538808823 -0.029742522165179253 0.05253511294722557 0.026469990611076355 -0.0038191520143300295 0.0779586061835289 -0.008193302899599075 -0.044341303408145905 -0.07330580800771713 -0.030781015753746033 -0.005317657254636288 -0.01923537440598011 -0.03242642059922218 -0.026999996975064278 -0.11363445967435837 0.03880568593740463 -0.11972057074308395 -0.08668065816164017 0.0072188409976661205 0.051447805017232895 0.0017802887596189976 0.03485598415136337 -0.02098807878792286 0.09764119237661362 0.04534921050071716 0.004440033342689276 -0.05977644398808479 0.04117294028401375 0.2008475512266159 0.13619108498096466 0.00891969259828329 -0.06446860730648041 -0.04231557622551918 -0.12226707488298416 -0.08418448269367218 -0.02379470504820347 0.00906695332378149 0.06543776392936707 -0.04079578444361687 0.009558234363794327 0.04826365038752556 -0.03952252119779587 -0.06752366572618484 -0.08269979059696198 -0.052012357860803604 -0.012564841657876968 -0.014772139489650726 -0.1144997701048851 0.03992701694369316 -0.018381040543317795 0.08494593948125839 -0.03426821157336235 -0.009269491769373417 0.0696837529540062 -0.0581992045044899 0.11019477248191833 0.014303266070783138 -0.06188640743494034 -0.007289068307727575 0.03644249215722084 0.005606535822153091 -0.044627245515584946 -0.0010923286899924278 -0.06829826533794403 -0.07147011160850525 0.062055617570877075 -0.050468601286411285 -0.030179085209965706 0.07236389070749283 -0.10225757956504822 -0.06329479068517685 -0.06722869724035263 -0.024620426818728447 -0.00890441332012415 0.04626990109682083 0.06652379781007767 0.0682351142168045 -0.03201650083065033 0.08248946815729141 -0.04166550189256668 0.04124956205487251 0.030497269704937935 -0.04019421711564064 0.025861727073788643 -0.00308343768119812 -0.02566739171743393 0.06639433652162552 0.08785739541053772 -0.01982203498482704 -0.1198577731847763 -0.12391097843647003 -0.1441257745027542 -0.0658658817410469 -0.002371191279962659 -0.03053513541817665 -0.02390863560140133 0.008579695597290993 -0.06214667856693268 -0.0412844754755497 0.04018307477235794 -0.04130961000919342 0.03437347710132599 -0.02024088427424431 0.06482440233230591 -0.15007628500461578 0.073210708796978 0.06086418032646179 0.0015732917236164212 0.03844926133751869 -0.15288010239601135 0.09947606176137924 -0.01119368989020586 0.051648057997226715 -0.00435034092515707 -0.017523199319839478 0.10529324412345886 0.04071582481265068 0.0003973465063609183 -0.0037993944715708494 -0.04312552884221077 0.05737048760056496 -0.09621964395046234 -0.006262701004743576 0.09025295823812485 -0.1512039303779602 -0.03815313056111336 -0.08394794166088104 -0.0226206686347723 0.013737047091126442 -0.00030957942362874746 -0.006122887134552002 -0.06164340302348137 -0.06235876679420471 -0.06742269545793533 0.08098025619983673 -0.07503673434257507 0.08254870027303696 0.0031155701726675034 0.028623929247260094 -0.07784221321344376 -0.007736293599009514 0.01953706331551075 -0.05549275130033493 -0.03672653064131737 0.08357679843902588 -0.1669934093952179 -0.0352700874209404 -0.02222808077931404 -0.04643061012029648 -0.03875230997800827 -0.0677204579114914 0.07978875190019608 0.04394279047846794 0.01716778799891472 0.038466766476631165 0.03367890790104866 0.0010712139774113894 0.03429684042930603 -0.0029646235052496195 -0.04465314745903015 0.09422730654478073 -0.0376189686357975 0.015673775225877762 0.06701461225748062 0.03214525803923607 0.01326114684343338 -0.027018465101718903 0.02237570285797119 -0.12939287722110748 0.036664124578237534 -0.009264986030757427 -0.03079475834965706 0.08972297608852386 0.013091553002595901 0.08194634318351746 0.012172149494290352 0.04652862250804901 -0.004536008927971125 0.12095358967781067 0.0763351246714592 -0.027249008417129517 0.09073429554700851 -0.035627033561468124 0.02436017245054245 -0.057656724005937576 -0.08167657256126404 -0.06615790724754333 0.17338405549526215 0.04740268737077713 -0.006788475438952446 0.06551869213581085 -0.028043847531080246 -0.09335609525442123 0.021342813111140838 -0.08865936633862602 -0.04641189727108132 0.003502250342138381 0.026696317428729043 0.05111188456069344 0.011666626503719043 -0.0630225251021089 -0.04802560750641991 -0.014539586996336264 -0.09211108047773037 0.07608716648506383 -0.05022160676312705 0.00626238977553503 0.008927205956084133 0.08183269769763915 -0.0048667680301227355 0.0013548468075731568 -0.0037901255497553824 0.04731821443629349 0.009494506111446685 -0.017247562643147533 0.06740835394687156 0.017796132413286047 -0.11041412789825673 0.03668447751897262 -0.10653135345113257 -0.010723381872459838 -0.019993729977322166 -0.05044366638596655 -0.024502773132758743 0.005482774699682227 -0.05468987632858614 -0.006021610169131012 0.07587123776638782 -0.02405123960927254 0.07092172552521063 -0.004853633295527458 0.013164540140248485 0.0313716583910266 0.07378316036430291 0.030557245454854116 0.027132770818352164 -0.07326538955947301 0.02836257671743512 -0.06330710081845115 -0.056290302359265146 -0.08015856484352384 0.05730821412368418 0.06122179236506365 0.021068680901448478 0.08142582694399708 -0.023935230044812426 0.08047316235708427 0.08445129011420972 -0.014902265225516579 -0.10417043408249194 -0.06954744857510284 0.022781382787500075 -0.13143625805201 0.08329438657273029 0.08318917080007228 0.08147035117079823 -0.028564868871713785 0.11183944481759588 0.009399019722239547 0.022974999995040768 0.05402936359784321 -0.01519942661767967 0.0583156836114728 -0.14846854337719378 0.03612062495768268 0.04874984136912576 0.0006002641987842243 -0.07161549178175663 -0.021381029450714125 -0.030220362667749787 -0.14850075520737888 -0.052748704644707094 0.06962113506722145 0.1293399674853786 0.09625392680797266 -0.09033919428434652 0.028431240607461945 -0.09151387601932037 0.05734732456244576 0.04651141311956227 -0.07709963696028353 0.07439604563469297 -0.020038582131117588 -0.06851967075868096 0.07180939719618713 0.009891108548728727 0.01470997142605897 -0.0033611076943545837 0.006541931080678812 -0.051178355017634056 -0.027337308750711685 0.0018848421424565247 -0.060065716721767165 -0.005732131656259298 -0.042498745024204254 -0.03567259758710861 -0.011620205827057362 0.051797132939100266 -0.009675339795649052 0.019316453486680984 -0.12624451518058777 0.01385346706956625 0.002274187980219722 0.04886893928050995 -0.061172742396593094 0.08731549233198166 0.02266179770231247 -0.05413931608200073 0.13347849249839783 0.036529023200273514 0.029539339244365692 -0.011523805558681488 -0.05104190856218338 0.06154444441199303 -0.04706321284174919 -0.011174133978784084 0.06714153289794922 0.040699832141399384 -0.026298077777028084 -0.04051230475306511 -0.017444683238863945 0.0023065009154379368 0.08649127930402756 -0.025203658267855644 0.13621588051319122 -0.033148933202028275 -0.002835384104400873 0.056840769946575165 -0.14362730085849762 -0.042503587901592255 -0.11019746959209442 0.0020958047825843096 -0.09434226155281067 -0.01809493452310562 0.0023530980106443167 -0.09329206496477127 -0.13091015815734863 0.0712595209479332 -0.08891937136650085 -0.0760931596159935 0.04204821214079857 -0.024521516636013985 0.11568911373615265 -0.08204159140586853 0.021269481629133224 0.024280790239572525 -0.018803950399160385 -0.01800941675901413 0.13545909523963928 -0.013899732381105423 0.0029067194554954767 -0.11778004467487335 0.10235980898141861 -0.03422774747014046 0.0030703088268637657 -0.04168642684817314 0.03264499828219414 -0.04136889800429344 -0.07578550279140472 -0.05335851013660431 0.014487285166978836 0.01141975075006485 -0.08757334202528 -0.051631443202495575 0.018912700936198235 0.04737940430641174 -0.0804784893989563 0.09849613904953003 -0.04261903837323189 -0.04664433375000954 -0.029055235907435417 -0.009398371912539005 -0.026551352813839912 0.001894072862342 -0.027311593294143677 0.03675490617752075 0.0624510832130909 -0.054935891181230545 0.0672905370593071 0.046386417001485825 -0.01764840818941593 -0.07334268093109131 -0.07439281791448593 0.06338682770729065 0.021863721311092377 0.06730540096759796 -0.04868229851126671 -0.0006607066607102752 0.01961597055196762 0.010099388659000397 0.00697074132040143 0.014888370409607887 -0.0379810594022274 0.008742020409764484 -0.08805898105725167 0.026731234589876744 -0.14900042119698412 0.07738059936108391 -0.209084116504103 -0.08783445507490487 0.03258954575927735 -0.042048213185492615 -0.00034438743665197774 -0.03901646695556021 0.014486668224768656 -0.05151742115150551 0.11995235920630072 -0.013354339067903434 0.046021270134130404 0.018296922882501808 -0.04901292330909947 0.09994141771608478 -0.02865754261236128 0.013576991263942817 0.08831428586888611 -0.08919522041351616 0.024093065150650975 -0.030937891729265178 -0.030376574360484795 0.14463501845967305 -0.038603848165128345 -0.04103368302356387 -0.037011845845060405 -0.08552556172215438 -0.06831225374898735 -0.011992534935832052 0.06246248016572659 -0.007643551330335814 0.04279077812580102 -0.06448392992600038 -0.060034335968959095 0.01672936592208975 -0.03956314479280459 -0.05277876413523778 -0.10914093198668343 -0.08485522697702241 -0.003842856243855585 0.013846593502267267 -0.04633530834049155 -0.03043922060536279 0.043951402329583174 -0.006190995157583868 0.043483565592589896 -0.09133722587388782 0.052471883546675875 -0.006333823733878985 0.001057810881143209 -0.0761244349951575 0.02863247375550281 0.012540321794591457 0.054314230525980785 0.021927116582689865 0.08651549396093106 -0.11421138134453025 0.1890428353351385 -0.09716260803938127 -0.058565487896749834 0.027040530495125732 0.02703991923380752 0.05926998960153805 -0.03934691084106598 -0.027052805094376797 0.024866241528497677 0.03275235119136274 -0.03497129064190677 0.019749689071644403 -0.03828211063279414 -0.02208232810422297 0.0448194680671224 0.06179071344476244 0.00680997138068987 -0.011876758311119997 0.22737214080365167 -0.010696006286590634 -0.042658745641414274 0.027992408930814755 0.10296039399882054 -0.051899768007979664 -0.06158099172330067 0.01644600271041463 -0.04488631192543403 0.10125915537027898 -0.10429669700999493 -0.08673278483252624 -0.07471205560395695 0.04749762113638909 -0.009619820633444135 0.002584780561472633 0.030658221454754726 -0.04168153534650036 -0.18539425071998242 -0.10210499676195027 -0.031225241380394793 0.026208985596895218 0.01500112097710371 0.01663825660943985 -0.16089332103729248 0.11304862052202225 -0.03200771287083626 -0.05640348047018051 0.046845693141222 -0.03094533458352089 -0.07786568999290466 -0.021457310765981674 0.1170518770813942 0.07863102108240128 0.006067635957151651 0.020928697660565376 0.13763433694839478 0.0033930561039596796 0.004237525165081024 -0.00929279439151287 0.06382858753204346 -0.10742086917161942 -0.009819910861551762 0.021556431427598 -0.036624182015657425 0.021865926682949066 -0.028344154357910156 -0.029262440279126167 -0.01089412346482277 0.08259566873311996 -0.11457904428243637 -0.16103756427764893 0.009879124350845814 -0.003618631511926651 0.08075008541345596 -0.09001552313566208 -0.08960113674402237 -0.024079127237200737 -0.059702835977077484 -0.059731047600507736 0.042494289577007294 -0.05693730711936951 0.04939441755414009 -0.05915961042046547 0.015478629618883133 -0.11864769458770752 0.04290896654129028 -0.0530858151614666 -0.06624476611614227 0.03314348682761192 -0.047576550394296646 -0.017258338630199432 -0.07730361819267273 -0.022886062040925026 -0.00024173867132049054 0.08161506056785583 0.09984606504440308 0.05512247234582901 -0.025844404473900795 -0.08228746801614761 -0.0531294159591198 -0.05684421584010124 -0.04339822009205818 0.010095984674990177 0.06475084275007248 -0.06346690654754639 0.023692874237895012 -0.03152013570070267 0.02104058302938938 0.05378587543964386 0.025064025074243546 0.027365390211343765 -0.0053451224230229855 -0.00251913839019835 -0.029275085777044296 -0.049727972596883774 0.04915902391076088 -0.18100853264331818 -0.036045581102371216 -0.10104291886091232 0.05412895232439041 0.11642321199178696 -0.08357521146535873 -0.059116315096616745 0.021748660132288933 0.05952877178788185 -0.009364009834825993 0.11949143558740616 0.030546551570296288 0.03789511322975159 0.031223410740494728 -0.03252037242054939 0.01788843609392643 -0.05348594859242439 -0.01567734032869339 0.1419316828250885 -0.037567026913166046 0.11896486580371857 0.03882118687033653 0.04511551186442375 -0.10083144903182983 0.08750208467245102 -0.10223765671253204 0.04161030426621437 -0.10009592026472092 -0.03815140575170517 0.10109780728816986 0.012073750607669353 0.05170284956693649 0.047376733273267746 -0.0018023769371211529 -0.04266657680273056 -0.029264556244015694 0.16884411871433258 0.07586619257926941 -0.01758532039821148 0.06730411946773529 -0.019258597865700722 -0.009512579068541527 -0.053175702691078186 -0.014683271758258343 0.03870667144656181 0.03950854390859604 0.01949683576822281 -0.008320399560034275 0.035077981650829315 -0.01090574823319912 0.08750923722982407 0.04302920773625374 -0.111068494617939 -0.022137576714158058 -0.026116715744137764 0.1637093871831894 -0.06572318077087402 0.03582193702459335 0.03476541489362717 0.04070864990353584 0.02074858359992504 -0.04686064273118973 -0.00568532757461071 -0.11346383392810822 -0.030457226559519768 0.13649830222129822 0.1090705394744873 -0.09349249303340912 0.0424996018409729 0.04205327481031418 -0.08826958388090134 0.03857928141951561 -0.020839275792241096 -0.0629330649971962 -0.040187492966651917 0.014540600590407848 -0.07225221395492554 0.09106895327568054 -0.005064316093921661 0.019117135554552078 -0.10994238406419754 -0.012987789697945118 0.056091438978910446 -0.05199852213263512 0.10772928595542908 0.02128596231341362 -0.047319840639829636 0.06088797748088837 -0.04257500171661377 0.09320354461669922 -0.12318477034568787 0.04391828551888466 0.001982650952413678 0.09658782184123993 -0.05465181544423103 -0.01722606085240841 0.043369896709918976 -0.006460065953433514 -0.05198398604989052 0.0729406550526619 0.0415366105735302 0.0593964047729969 0.05270753055810928 -0.017186744138598442 -0.04001821577548981 -0.04485493525862694 -0.025956837460398674 -0.008568532764911652 0.060198988765478134 0.019833652302622795 0.02885422669351101 -0.0009417509427294135 -0.04538453370332718 -0.03444981575012207 -0.04066867008805275 -0.02502160705626011 0.11118586361408234 0.007784389890730381 0.04763773828744888 0.07620178908109665 -0.09367330372333527 -0.03203298896551132 0.03055904433131218 0.024425046518445015 -0.07445155725959403 -0.06547685203005697 0.13990640601958684 -0.017177996761650525 -0.004396204856524266 0.0006192076410311779 0.14455121240687277 0.10148501054707416 -0.0408067302133148 0.048727540487109734 0.047592973396508136 -0.10143905415388706 0.011898229784375481 0.03460778109742143 -0.05367311102527428 -0.10889197723878491 0.010844672046868793 -0.017883989125716055 0.05474440879032664 -0.06076701767567592 -0.03871736212744289 0.13397485391656597 0.03068994336171981 0.00031794904235942965 -0.03932843552386677 -0.013745472558514351 -0.052876409518289015 0.0503279011377789 0.0022984775088866066 -0.03694951688075114 0.043852881797367405 0.07385247568620272 0.042782372824937985 0.012052841619791643 -0.040217396442730785 -0.025607201857040802 0.032040659777138575 0.05139933739461765 0.1134740587326787 0.024952857287730015 0.018421654549081994 0.000840266313420766 -0.03419404385278478 0.07717628339148669 0.04244716493807141 -0.016655063702165896 -0.08773342304592602 0.029798129409097065 0.07441090155012332 0.002463548577140708 0.011258439339550428 0.0489141255938961 0.010348590365016806 -0.016124647418339653 -0.013368869886066038 -0.05110867218525061 0.01883685036112586 0.026307020823280965 -0.03228566612257328 -0.05986679656835259 0.04615331517252832 -0.02217530944555369 -0.03752848259166039 -0.004669211218919778 -0.05022399814353766 -0.0322060290565293 -0.03273943632644187 -0.025986603443282092 0.02380899375936221 0.0017791511983072709 0.06407221757687534 -0.022116852758986862 -0.046621313460946646 0.03456840315187344 0.10927337361344094 -0.049952603993344384 0.03723321951898191 0.012238771761827583 -0.041464492571368035 -0.0023469073262416956 -0.035664399881716505 -0.035083779207625086 0.018663073962479616 0.04657841646877067 -0.0565927724202652 -0.05197281514494988 -0.02678523250242762 -0.11807116055205838 0.031450005393550896 -0.004266095807487845 0.0033281527014543465 -0.05860119421192943 -0.03135607067373649 -0.027178411911832404 0.05119514132829429 0.055843579334667784 -0.005988420422699466 0.04892154055663866 -0.07247762708358048 0.006795956512645294 0.026911048218607903 0.007063626311719418 -0.0360003300011158 -0.00667098443955183 -0.03481527045369148 -0.07322670519351959 0.11007318645715714 0.12289019674062729 -0.02260606922209263 -0.11772045493125916 0.07480218261480331 0.04550975188612938 -0.015785837545990944 -0.023070083931088448 -0.007814227603375912 -0.0321122370660305 0.014876152388751507 0.026245223358273506 0.07329214364290237 0.040831059217453 -0.04142042249441147 0.053277142345905304 0.020306561142206192 -0.0256569255143404 -0.06100084260106087 -0.07503760606050491 -0.027465641498565674 -0.016557738184928894 -0.011481835506856441 0.03975896164774895 0.0027549373917281628 0.005154266953468323 -0.08180828392505646 -0.030601033940911293 0.05817842483520508 0.00047773460391908884 -0.052439384162425995 0.03143310546875 0.03533283248543739 0.011969628743827343 0.031106706708669662 -0.05856778472661972 -0.09410283714532852 -0.032774005085229874 0.013759249821305275 0.011221141554415226 -0.027929844334721565 -0.04857265576720238 0.043186768889427185 0.00967438705265522 0.09408574551343918 0.04820626974105835 0.0002848283911589533 -0.04277411103248596 0.007327561732381582 -0.014237917959690094 -0.01040789857506752 0.04068366810679436 0.1700652837753296 -0.12185351550579071 0.0883936882019043 -8.614423859398812e-05 0.04888816177845001 0.05876011773943901 -0.01461117621511221 0.000863920955453068 0.10697271674871445 0.07092834264039993 -0.02487982250750065 0.07239634543657303 0.014342812821269035 -0.04107445105910301 -0.010845760814845562 0.031928226351737976 0.08686323463916779 0.05005457624793053 -0.17251448333263397 0.06679762899875641 0.01870875246822834 0.039413031190633774 -0.008347763679921627 -0.08428622782230377 -0.03924763575196266 -0.05049167200922966 0.09328784793615341 0.020446665585041046 0.10943425446748734 -0.04830325022339821 -0.03701820597052574 0.01503382995724678 -0.013669988140463829 -0.029103722423315048 -0.2271152287721634 -0.06291601806879044 -0.06995385885238647 0.07468395680189133 0.02357408218085766 -0.04041115194559097 0.027675537392497063 -0.07667645066976547 0.027906737531359877 -0.003760840806582147 0.0285215060673436 0.05255254891031483 0.014362664671372202 -0.08138924325086769 -0.07844055865515939 0.10489444104200571 -0.08793174271668829 -0.1084429825312294 -0.05233746914823812 0.10988441871566149 -0.09086983236161139 -0.10074524243899884 -0.07193177679817886 0.06941611940664708 0.03216180543064391 -0.07995021194903304 -0.07364050643623583 -0.08875938028996393 -0.06573979959554316 -0.006039888005960433 -0.0778715380041871 -0.02773594371959607 -0.012748651052802651 -0.013014412651729113 -0.013167017497243621 -0.011609063796059443 0.004417402467395485 -0.04060465669468605 -0.06273158590514151 -0.03402900461033797 0.02311329409706185 -0.021338595849418867 0.046069596438012075 0.17509064328849652 0.04411585307128986 0.0902691372067681 -0.0029286981352917452 0.0106215957390958 0.0029925985554670846 0.0023649040395556787 0.012478316721586748 0.04457296670394781 -0.06346512605278548 -0.000997895000555906 -0.053570298363673184 -0.027913132574876504 -0.06368430305544609 -0.0209945869380502 -0.06392236107762714 0.02858439298930554 0.052679254820791895 0.11570607470509475 -0.04481583659848154 -0.0053566662983758435 0.09701571816584455 0.029316775797993914 0.046086708381391936 -0.06852159376637106 0.08064854725924565 -0.06759207111905476 -0.06215423822210164 0.00016066796219222897 -0.03855683317936488 0.0013067772577183903 -0.05769561424044448 -0.0016065664014456235 0.007529489832264146 0.10167813087351006 -0.02431917620042063 -0.07129429488355382 -0.007497737744991711 -0.12754157638855435 0.007049202478076312 -0.03132704522454027 -0.01275170806377843 -0.08846290669872722 -0.030809992705515866 0.008582055888007081 0.02886708683480269 0.0934110866325906 0.12472669206810481 -0.06428993936459947 -0.0011730027154737723 0.0015500044783185879 -0.002023437882287801 0.0543157784077279 0.17884682860952572 -0.08584392510808822 -0.12566383054215663 0.20119385097861406 0.012046967308820159 0.006739817821576328 -0.12312105594736586 0.02252395577065414 0.04178312450168741 -0.0028489254308199942 -0.014389861107845535 -0.09993194818295488 0.062655508518219 -0.01784110628068447 0.07254088670015335 0.07428751140832901 0.02226676046848297 -0.059961456805467606 0.0650717169046402 0.051767487078905106 0.04905273765325546 0.06550897657871246 -0.12964312732219696 -0.05477914959192276 -0.1224425658583641 -0.08886014670133591 -0.014282530173659325 -0.0834803655743599 0.007548307999968529 -0.04417316988110542 0.0582902655005455 0.029827548190951347 -0.05069999024271965 -0.1645425409078598 0.0765249952673912 -0.03438827395439148 -0.07018394023180008 0.07595274597406387 -0.08451320230960846 -0.02713775634765625 -0.13239888846874237 0.08405299484729767 -0.08830668032169342 -0.04901903495192528 -0.028392361477017403 0.053556445986032486 -0.0384075902402401 0.018211547285318375 0.0808800607919693 -0.002574703423306346 -0.07038839161396027 -0.13505469262599945 0.004665616434067488 -0.07892864942550659 0.034703727811574936 0.04312492907047272 0.08360744267702103 0.007840962149202824 -0.04885571822524071 -0.03286430612206459 0.041665397584438324 -0.08093561232089996 0.06903654336929321 -0.026122137904167175 -0.07125601172447205 -0.03637384995818138 -0.08534462749958038 0.009924601763486862 -0.0357196219265461 0.045607712119817734 0.07347158342599869 0.06894834339618683 0.029620792716741562 0.00891996268182993 -0.048860277980566025 0.054176028817892075 -0.020472070202231407 0.07285892218351364 -0.03395158052444458 -0.024901892989873886 0.0268631000071764 -0.012936725281178951 0.11049803346395493 -0.053187545388936996 0.04708095267415047 -0.061933066695928574 -0.05545300245285034 -0.009762002155184746 -0.055257584899663925 0.04847671464085579 0.0421627014875412 0.010726002044975758 -0.04742095619440079 0.07877167314291 0.056316912174224854 -0.0815611481666565 0.032634638249874115 0.014268629252910614 -0.09075425565242767 -0.030087342485785484 -0.09015001356601715 0.029673460870981216 -0.01907329075038433 -0.006584001239389181 -0.07888562977313995 -0.006844904273748398 -0.04849476367235184 -0.06970464438199997 -0.01885104551911354 -0.11837304383516312 0.11752704530954361 -0.031779125332832336 -0.03563036769628525 0.006127895787358284 -0.04464153200387955 0.051962461322546005 0.022698868066072464 -0.15545691549777985 -0.07672499120235443 -0.016566099599003792 -0.056473150849342346 -0.035066429525613785 0.03311583772301674 -0.024516096338629723 0.012166277505457401 -0.011921833269298077 0.052703823894262314 -0.03254035860300064 -0.0006327755399979651 -0.04072899371385574 -0.007638279348611832 0.006091500166803598 -0.027304183691740036 -0.030956391245126724 -0.0076793497428298 0.005731456447392702 0.024716492742300034 0.007327007129788399 0.011701146140694618 0.04574166610836983 -0.06084223464131355 0.01698778197169304 -0.0718284323811531 0.03685838729143143 0.17301705479621887 0.05162505432963371 0.034422263503074646 0.02452838234603405 0.054222311824560165 -0.044392019510269165 -0.06390377134084702 0.026164572685956955 -0.09062174707651138 -0.053817957639694214 -0.007739892229437828 -0.05343906953930855 -0.014059958979487419 0.10633255541324615 -0.040605850517749786 0.07845811545848846 -0.02098255418241024 -0.05596565082669258 -0.08963824808597565 -0.037026453763246536 0.0713672861456871 0.031780194491147995 0.10858836024999619 0.016801832243800163 0.023800162598490715 0.05173823982477188 0.09315437823534012 -0.06653861701488495 -0.031179847195744514 -0.025145351886749268 -0.13188478350639343 0.10525698959827423 0.04490133002400398 -0.03246455639600754 0.07086190581321716 0.04550447687506676 0.04740232601761818 -0.002683572703972459 -0.015031260438263416 0.15481404960155487 0.10027438402175903 0.05920305475592613 -0.0858868882060051 0.032165538519620895 0.009023619815707207 0.023060878738760948 0.12955862283706665 0.05786821246147156 0.06871035695075989 0.044920530170202255 0.057747289538383484 -0.01934712752699852 -0.09359407424926758 0.016173765063285828 -0.01471009198576212 0.042351339012384415 0.06565643101930618 0.11064315587282181 0.01488600391894579 0.03777332603931427 0.03168239817023277 -0.001076819607988 -0.07971569150686264 0.037290722131729126 -0.04068245738744736 -0.0669192373752594 0.016177499666810036 0.01051426213234663 -0.035696474563022045 0.026199220696168205 -0.03919518081881443 -0.011709664644731704 -0.12906604130042737 -0.018683566017825518 0.06761489550653701 -0.06837763793469939 -0.10752793994976728 0.025975387919642857 0.052067083140458305 -0.021429896996087487 0.01347725318552145 -0.003102471536779212 -0.09108058766161278 -0.02285913952915075 -0.00791278299546577 0.08305572044988757 0.01862976101663637 -0.07910148344441356 -0.20056293056890212 -0.04769162336636831 0.00758439657029856 0.02976298037660816 -0.026632482881667516 0.10356580757297132 0.06456743459327233 -0.02526758775761326 -0.02196933046722304 -0.056472748639821255 0.04991195583257762 0.01975825445647186 0.0033167296602859644 -0.04110801414354317 0.013431560990546803 0.1280983505342829 0.0214392982334003 0.034810682221561855 0.042039621591051325 0.06255853803996364 0.02815034616585889 0.013167189805521591 -0.04589837208128579 -0.028287255246327483 0.11668105560311595 0.0053342287528925615 -0.014756995788910845 -0.05209487780318458 0.036409060425133664 0.12344497145399094 -0.01125456902546799 -0.09361550445784803 -0.0861359958579426 0.05650480661699281 0.012105364080957911 -0.004813977240321884 0.006691966147044972 0.09800871980474081 0.0005832542228029386 0.03967384142070248 0.13460790410020199 -0.010928707358663702 0.017786114141629776 -0.06565152540011801 -0.07145817219349264 0.10731856704961165 0.002598787028743843 0.03635670055164762 0.04633878735679479 0.005629058806807115 0.10921246185904993 -0.03295652547354863 -0.030174618910136543 0.07065260473501075 0.014525505932125071 -0.07247737356656801 -0.01574378228712483 0.030160663963438965 0.006195600975657339 -0.019110377410964385 0.1036612146656701 0.0028585027875786453 -5.6884019329649094e-05 0.05618362212039844 -0.032019588915072436 0.056321228893610985 0.011364655366457572 0.04712984776744845 0.01625817770388459 -0.055578206619607176 -0.059363398264243146 0.07512858022706852 -0.06345522513735834 -0.11948580335058166 -0.12980601746614653 -0.036636223143819 -0.03239309938923995 0.010157361887591363 0.019029860447197993 -0.0031604386347351947 -0.04787366837263107 0.015862014144659042 0.06169649213552475 -0.04212820157408714 -0.06342599540948868 -0.02343100681900978 0.035248834639787674 0.12493656575679779 -0.02562776394188404 0.02404443547129631 -0.03429974988102913 0.01988561451435089 -0.0009804862784221768 -0.04184964671730995 -0.12755003571510315 -0.009103411808609962 0.0005307582905516028 -0.08150053769350052 0.04117878898978233 0.14604485034942627 0.0773087665438652 0.14391711354255676 -0.06935488432645798 0.03702007606625557 0.0544777475297451 0.006293280515819788 -0.06848341971635818 -0.045013148337602615 0.041162822395563126 0.010760507546365261 -0.02077311836183071 0.11179383844137192 -0.17037516832351685 -0.030315572395920753 -0.0929466038942337 -0.09291847795248032 -0.08154375851154327 -0.10047271102666855 0.003307244274765253 -0.006056302692741156 -0.07701294124126434 -0.0029427881818264723 -0.0024380877148360014 -0.07541435211896896 0.01982126012444496 0.034849684685468674 -0.028713267296552658 -0.04424826800823212 0.08744259923696518 -0.041190072894096375 0.0031240240205079317 -0.021019432693719864 -0.06225065141916275 -0.024333219975233078 -0.12312738597393036 -0.05248146504163742 -0.1222863644361496 -0.017877016216516495 0.021976344287395477 -0.026105858385562897 0.04055600240826607 0.04848380759358406 0.025713782757520676 -0.0892658606171608 0.0013869922840967774 0.05878477916121483 0.11338009685277939 0.06070174649357796 0.03676737844944 0.05208800733089447 -0.11827129870653152 -0.04517616704106331 -0.013818399980664253 0.062223173677921295 -0.023407332599163055 0.020084330812096596 -0.061167407780885696 0.024645406752824783 0.036483705043792725 0.00468016229569912 0.053596131503582 0.06460756808519363 0.04504460468888283 -0.0050999936647713184 0.07041334360837936 -0.003316437592729926 -0.09146960079669952 -0.0385778583586216 -0.03972110524773598 -0.008895059116184711 0.053147055208683014 -0.037795837968587875 -0.02186107635498047 -0.015823710709810257 -0.030992405489087105 0.034727342426776886 -0.09324930608272552 0.0905611515045166 -0.12792439758777618 -0.1881236433982849 -0.03591466618985999 0.0145336357479725 0.08377035511859289 -0.031208905007574454 0.3598793691977156 -0.05921702352851079 0.0766537729941469 0.021003152639688438 -0.024835442344376915 0.19670186676751214 0.06707570482736791 -0.17761324730477784 -0.03376637811034625 -0.1089979923438015 -0.045279822398360016 0.011870565334508816 -0.0778948209189534 -0.0789625723351036 -0.10885201169194511 0.09535506766169306 0.000701215960040771 -0.10740160838746148 -0.09008544897414841 -0.09609843938901037 0.007760164255726175 0.06016741430704569 -0.0011358863491236619 -0.0681344346556449 0.07047031642753011 -0.024486147931498742 0.045059499063378396 0.02883601006551536 -0.11420740126388909 -0.09503066088308991 0.08921898451993153 -0.12002643085732237 -0.009431926326506572 0.008720365981268224 -0.03785789768964472 0.14104372946060256 -0.08081021675400794 0.07876128736789212 -0.08761455268232965 -0.05672381479141031 -0.08414118996258778 -0.011289952274903746 -0.08168996107437053 -0.10161627605686363 0.578749085389908 -0.04558459758688592 0.15177829607600826 0.051740816091188066 -0.008756669424424738 -0.17000657189240287 0.0872132611408674 0.016902017761932054 -0.013671217165819939 -0.07091910208431021 0.007657393650889822 -0.08055878933224066 0.0938206587710873 -0.017231619821366152 0.22807049432811657 -0.13403323109115886 -0.06901853863917827 0.16494294554831276 0.0419208837993701 0.034236184885332616 0.05142195623263706 0.15489410866679346 -0.02584631537325511 0.08555664274893153 -0.3560551414070279 0.009755192496025081 0.19702479830829553 0.023175756351204908 -0.06718487386458687 0.08434779502936285 -0.018126182936220946 0.02598768452351742 0.05150916310414012 -0.25553144823889234 -0.03495974016119807 -0.1400510279749142 0.05231714287772029 0.11068128044190459 -0.18305847635214348 0.021013490128742863 -0.14585287147884257 0.043087214073296534 0.41833082787378395 -0.04756106906219419 -0.2006815384894122 0.0032915625806816135 -0.036237358086467907 0.21882701132555504 -0.018438362095568536 0.1666810658781283 0.010386572194537546 0.08033529264484439 -0.06990643590688705 0.042559538036584854 0.011503329500555992 0.11600393801927567 0.03735582157969475 -0.07773963361978531 0.01055586151778698 0.050041135400533676 0.13994836807250977 -0.06928510963916779 -0.04595645144581795 -0.09349191188812256 -0.0475657619535923 0.07162053138017654 -0.050442107021808624 -0.13748721778392792 -0.040077224373817444 -0.04637358710169792 -0.019783277064561844 -0.056660473346710205 -0.057366207242012024 0.007642469368875027 -0.006308099254965782 0.07469522207975388 0.04107208177447319 -0.08001349121332169 -0.00868608895689249 0.011258110404014587 0.04281812161207199 -0.006718110758811235 -0.0009631076827645302 -0.08362329006195068 -0.15640148520469666 -0.009035550989210606 0.06002608686685562 0.050608474761247635 0.08210758119821548 -0.0058099995367228985 0.048023469746112823 -0.008847570046782494 -0.05812542885541916 -0.0644170418381691 0.04226882755756378 -0.0009498440776951611 0.08591359853744507 -0.0027870896738022566 0.021417347714304924 0.01277700811624527 0.07698957622051239 0.07929699122905731 -0.08577046543359756 -0.031454477459192276 0.02953835017979145 0.040817584842443466 -0.04803450405597687 0.03907862678170204 -0.016462290659546852 -0.08117552101612091 0.016841642558574677 -0.09019699692726135 -0.008920171298086643 0.2002449333667755 -0.037052374333143234 -0.04146275296807289 -0.016256088390946388 0.028177887201309204 0.07229414582252502 -0.006956244818866253 -0.008773742243647575 0.09297361969947815 0.052431099116802216 -0.003262421116232872 -0.07253741472959518 -0.06546704471111298 -0.08568151295185089 -0.010179108008742332 -0.036628980189561844 0.10659042745828629 -0.12292195111513138 -0.07600054144859314 0.016358135268092155 -0.0473083071410656 0.06317076832056046 -0.03436722606420517 -0.0061637223698198795 0.06812003999948502 0.02112223580479622 -0.12500815093517303 0.05690929666161537 -0.0516684465110302 -0.021638359874486923 0.15820492804050446 0.007190547417849302 -0.022367019206285477 0.005122982896864414 0.041553232818841934 0.09489330649375916 -0.01095501147210598 -0.06791174411773682 -0.09199728816747665 -0.08721882849931717 -0.010928614996373653 -0.11857940256595612 -0.06458491832017899 0.05340554937720299 0.10907194018363953 -0.12058039009571075 -0.05651789531111717 0.019861768931150436 0.06077739596366882 0.002309429459273815 -0.042739178985357285 -0.14652346074581146 0.028915539383888245 -0.07550978660583496 0.09775706380605698 0.16690173745155334 0.15285980701446533 0.06260205805301666 -0.11421675980091095 0.06865973025560379 0.04773184657096863 0.025718430057168007 0.07366503030061722 -0.029297856613993645 0.059153828769922256 -0.09480363875627518 -0.012734143994748592 0.05927121639251709 -0.1167718842625618 0.0029194075614213943 -0.05754728615283966 -0.03145992383360863 -0.16551993787288666 0.09892337024211884 0.043450094759464264 0.041205909103155136 -0.06099466234445572 0.004785366356372833 0.14164409041404724 0.02872341312468052 0.022823937237262726 0.0488794706761837 0.001960794208571315 0.11780624836683273 0.018791094422340393 0.0024651705753058195 0.050371263176202774 -0.045856401324272156 -0.06727917492389679 -0.013996997848153114 -0.09037315100431442 0.005763625726103783 -0.023324400186538696 0.03495246544480324 0.029832985252141953 -0.09109266102313995 0.09117113798856735 -0.01965901628136635 -0.018678227439522743 0.013103018514811993 0.016440607607364655 -0.14165137708187103 -0.07166551053524017 0.11320429295301437 0.021758874878287315 -0.11267254501581192 0.027661845088005066 0.021766530349850655 -0.13805925846099854 0.022914718836545944 0.018871372565627098 -0.05566299706697464 0.06718195229768753 0.04664256423711777 -0.08267345279455185 0.0049973526038229465 -0.0951734110713005 -0.02147684060037136 -0.05482359230518341 -0.02479489892721176 0.0674738734960556 0.05421747639775276 -0.11987980455160141 0.04401685670018196 -0.08907366544008255 0.017843415960669518 -0.1657935231924057 0.026506897062063217 -0.06920140236616135 0.021519865840673447 -0.06301229447126389 -0.12411114573478699 -0.07715810090303421 0.05916468799114227 0.03361429274082184 -0.005185219459235668 0.04324189946055412 -0.07074226438999176 0.05568338930606842 0.06546864572928643 0.07119482649889204 -0.0770193883992174 0.006197972819735251 0.1411878117454005 0.09783694899979113 0.10924186686148113 0.03221613922370891 -0.04410397324557535 0.045654250333235974 0.036125502320133104 -0.07272560185962099 -0.004217125763433284 0.10334969874425941 -0.08728311677018041 -0.03903347513399092 0.043289305147519073 0.04484863360181503 -0.10380909263120623 0.12818978110453513 0.059362944551311414 -0.04414595853099214 0.01607300075253068 -0.138867585400533 0.006188790392779418 0.052585221578062086 -0.06544596172879823 -0.08358082568285129 0.056808217618479324 -0.0263054412936839 0.05858872288129256 -0.05596946926370796 0.02184953432749825 -0.09083459066782584 0.07458827106949613 0.10960424150780099 -0.09803280066257988 -0.05408993422668449 0.07054243543473838 0.224386970757733 -0.18030856597836634 -0.09285457013508863 -0.02187305200649819 0.06088028116808978 0.03163129661812798 0.060282334541715506 -0.04370318721935641 -0.13507156566769954 0.13090949540718905 0.039754321733193085 0.09360334569816282 0.07356297001051469 -0.11846747892905406 0.04191936032416561 0.10337442111332307 0.0648042576874958 0.02987831186674582 0.12581573490340103 0.07217355490204311 -0.017757214327199237 -0.047593351077560395 -0.11313629401390601 0.020058616521729588 0.06980868762479286 -0.07794395038024797 0.22015816826461349 0.047218457618400524 0.08402543231769213 0.013310944902230143 0.24528514557191555 0.06817039145623968 -0.015376553248821439 -0.027556594257371225 0.07035315676530965 -0.16369442935175574 -0.018103172751601622 -0.04587392843832941 -0.09527366752935552 -0.02436166824866193 -0.053443255781615434 0.029245940619162546 -0.08809241793562315 -0.005675648956831812 0.10895314691131538 -0.012053259022191514 0.08575242636774538 -0.07511797369612835 0.09614373274163805 0.16118202474216864 0.01968867355166123 0.04444581636303242 -0.04273694597948719 -0.0934385146979827 0.23793498018673728 0.03143951610523379 0.16273212038796123 -0.012234476330447977 0.03264461884114605 0.031059690232635086 0.03512400993152469 -0.009036553092300892 0.02610471099615097 0.051529135555028915 -0.10166110098361969 0.049722738564014435 -0.0170240830630064 -0.011904115788638592 -0.009748989716172218 0.12413475662469864 -0.06525924056768417 -0.15653862059116364 -0.01275989692658186 -0.02647482231259346 0.03581338748335838 -0.0028572005685418844 0.03627568483352661 -0.07640644162893295 0.04777391627430916 -0.017681671306490898 0.010184396989643574 0.03521318361163139 -0.10496963560581207 -0.07318548113107681 -0.02415614388883114 0.03102807141840458 -0.14269545674324036 -0.028097178786993027 0.0037959758192300797 -0.03935737907886505 0.034666452556848526 0.06950949132442474 0.020295366644859314 0.0465734601020813 -0.1051684319972992 -0.06238279119133949 0.023153945803642273 -0.027110401540994644 0.03565453737974167 0.04284252971410751 0.06718433648347855 -0.04953131079673767 -0.03728218749165535 -0.013542776927351952 0.021044880151748657 -0.012261678464710712 0.06840622425079346 0.04874197021126747 0.028008265420794487 -0.0793442577123642 -0.023523753508925438 -0.0038263844326138496 -0.03368186205625534 0.08975278586149216 -0.01352658960968256 -0.06144466996192932 0.04491697996854782 -0.012950263917446136 -0.049913737922906876 0.055677395313978195 0.0601547434926033 0.0031903949566185474 -0.050120674073696136 -0.11688019335269928 -0.021408380940556526 -0.005365035030990839 -0.05947060137987137 -0.059211213141679764 -0.027861708775162697 -0.00021708956046495587 0.040774229913949966 0.052134349942207336 0.17754080891609192 -0.012859833426773548 0.07141412049531937 0.025295544415712357 0.02549378201365471 -0.10395785421133041 -0.0021025186870247126 -0.029160477221012115 -0.023336540907621384 -0.054857075214385986 -0.08051598817110062 0.06800235062837601 -0.11578335613012314 0.08533578366041183 0.03791633993387222 0.10947553813457489 -0.06589371711015701 -0.06481099128723145 -0.16270610690116882 -0.042691271752119064 0.0956883653998375 -0.012479892931878567 0.14692823588848114 0.10405578464269638 -0.04583711549639702 -0.08735784888267517 -0.058035094290971756 0.005529401358217001 -0.05708790943026543 -0.15155805230858807 0.024568448317267105 -0.08295627961933923 -0.03470642986023285 0.10944922070904536 -0.02598268521392374 0.06201735088696543 0.001353253276904101 -0.007015701889646088 -0.13094738921537719 0.10767898046117182 0.005293526141334513 0.04398045335276887 -0.09645325353810646 0.01021514223088187 -0.016673393696231217 -0.008640103452880256 -0.16921902773737738 -0.05863746601136008 -0.023691815248851444 0.038631438162520695 -0.04312117188932034 0.015435490271213234 0.05766214929941682 0.01595027711934737 -0.034051631611295714 0.03963032474699338 -0.06875089306478403 -0.06901919361464379 -0.02540166382587286 0.07935056395684134 -0.09892690747797012 -0.03170695650224383 0.0073375459457774225 0.02716075431366391 -0.16888844568614125 -0.0912112705909304 -0.07122246366953165 -0.006798354414176231 -0.01932621630423426 -0.012782910411055882 -0.04485493009074511 0.011979525326011254 -0.13400409401790922 0.0636181820262117 -0.07838308679509556 -0.06503418941799036 -0.005959218911283607 0.0029787058811602293 -0.031738022416296925 0.07599544155400628 0.04462005725884263 -0.07657114042308419 -0.03661764867823869 0.059888302432564856 -0.10609571303919259 0.014747181051376684 0.11299830940379463 0.05206579014357414 -0.0030245339902131973 -0.001329025488261211 0.01146464933179274 -0.2164719881109291 0.017790568967997848 0.08175700097101259 0.10445631435071862 -0.022496435714043486 -0.012780520883643773 0.00792631360712547 0.02550024844690159 -0.021583566283062575 -0.07897398867856426 -0.16898650638411916 -0.0161866181513733 -0.1344862824762285 0.02204138413084681 -0.02465690075635802 -0.0792593373172457 0.08731768380545403 -0.02391610073915754 -0.10480449064518196 -0.017785237649975322 -0.15136539541995786 -0.0021368701886434736 0.0497786834742995 0.08781019919367436 0.039888883176092536 -0.09369102857542536 -0.050401777311040286 0.09016382331572995 -0.07949133153662927 0.0034064209969955654 -0.00856701743396325 0.017119146207540924 -0.09636168029328598 0.014346659622179533 -0.10458287722462334 0.06057444010798917 -0.1187742624175609 -0.004770555650488304 0.061846960335969925 0.06608753651380539 -0.008100508712232113 0.03304223343729973 -0.010049229487776756 -0.03643489629030228 0.10107596218585968 -0.14605243504047394 0.00012316685752011836 -0.02049831673502922 0.08954648673534393 -0.01291633490473032 0.021317407488822937 0.0028437033761292696 0.06693665683269501 -0.01848307065665722 -0.001197130186483264 0.11666015535593033 0.018071366474032402 -0.2162889540195465 0.1323794722557068 -0.011581956408917904 0.041684217751026154 -0.030940907076001167 -0.07931282371282578 -0.023063864558935165 -0.014325229451060295 0.01651591993868351 -0.023857319727540016 0.05731537938117981 -0.009894990362226963 -0.043385956436395645 0.11438141763210297 0.07148334383964539 -0.1624789834022522 -0.01672389730811119 -0.07703964412212372 0.058377958834171295 0.12851062417030334 0.1780855357646942 0.05575492978096008 0.0020473189651966095 -0.008163798600435257 0.007663584779947996 -0.008028383366763592 -0.0110726747661829 0.07068975269794464 0.09090183675289154 -0.002019561128690839 -0.05514078214764595 0.05953584983944893 -0.016940971836447716 0.06765744835138321 -0.06739769876003265 0.13579852879047394 -0.04254881292581558 0.004177527502179146 -0.013981633819639683 -0.02178649976849556 -0.017812801524996758 0.0780944749712944 0.06252016872167587 -0.042915765196084976 -0.004748936742544174 0.010699923150241375 0.016340410336852074 0.1204080656170845 -0.038536760956048965 0.017292777076363564 -0.007823573425412178 0.05484423413872719 0.010489122942090034 0.007899273186922073 -0.11702140420675278 -0.015268106013536453 0.045058723539114 -0.04528924822807312 -0.12024538218975067 0.05734146386384964 -0.04824022948741913 -0.000740843650419265 0.07185272127389908 -0.013003135100007057 0.0376935750246048 -0.03241083770990372 0.014434575103223324 -0.05781320109963417 -0.05049809813499451 -0.023072846233844757 -0.03476376459002495 -0.03962913155555725 -0.08666089177131653 -0.03254790976643562 0.15659283101558685 -0.04237539321184158 -0.04981360584497452 0.07969629019498825 -0.04060621187090874 0.050330664962530136 0.012059803120791912 0.02611289732158184 -0.10215190052986145 -0.05548771470785141 0.027774691581726074 0.09360827505588531 0.021305009722709656 -0.11426559835672379 -0.044594090431928635 -0.11914698034524918 -0.02831076830625534 -0.004756838083267212 0.08384736627340317 -0.014132743701338768 -0.07254061102867126 0.14107587933540344 0.004309908486902714 0.21445858478546143 0.01195406075567007 0.15779177844524384 -0.00571275083348155 -0.004236593842506409 -0.009672487154603004 0.09749430418014526 -0.029606668278574944 0.07211556285619736 0.05964279547333717 -0.04147297516465187 -0.023804083466529846 -0.03519279137253761 0.06316672265529633 0.12545748054981232 0.07959707826375961 -0.02616775408387184 -0.02560766413807869 0.007341880816966295 -0.020772110670804977 0.059347741305828094 -0.07486002892255783 -0.013805804774165154 -0.06524712592363358 0.016571151092648506 0.029473355039954185 0.014374328777194023 -0.0075495075434446335 0.0013402932090684772 0.05175556614995003 0.10088799893856049 0.040834132581949234 -0.049823250621557236 0.045968540012836456 0.0182922575622797 0.1141221821308136 0.03310825675725937 0.04195740073919296 0.014492900110781193 -0.029834726825356483 0.001380488509312272 -0.032814424484968185 -0.02215355448424816 -0.00028622985701076686 0.03165888786315918 0.1153801754117012 0.08818729966878891 -0.023274211212992668 0.03265723958611488 -0.06411285698413849 0.05058937147259712 -0.06661549210548401 -0.08774858713150024 -0.06657171994447708 0.06711780279874802 0.04325322434306145 0.04224936291575432 0.029516907408833504 0.12284038960933685 -0.053848203271627426 -0.09361375123262405 0.09290330857038498 0.02099216915667057 -0.05947986990213394 -0.05972181260585785 0.04275399446487427 0.08374113589525223 -0.04549884423613548 -0.014289366081357002 -0.08144071698188782 -0.010412667877972126 0.0696391835808754 0.03149458020925522 0.036649566143751144 -0.04381519928574562 -0.05976665019989014 -0.01130999717861414 -0.0052059306763112545 0.07951059937477112 0.08845158666372299 -0.021926235407590866 0.008724089711904526 0.009985322132706642 