0.019733494927075157 -0.20174871669140546 -0.040191331772202105 -0.041937821319490615 -0.029906747173830968 0.0424901610493209 -0.11138994897526044 0.04725715978017995 -0.028370856104087128 -0.09981899189028579 -0.05251324401451134 -0.03626958939626982 0.11988459634086722 -0.0647048082630861 -0.013496517744694583 0.07852201755739618 -0.01507780858731871 -0.11151154364834232 0.06913821054536036 -0.1028285104376701 0.10471226834370066 -0.19534673409163683 -0.07775508120837409 0.03767200395800256 0.014403909239106836 0.016631332480589532 -0.11520845346829138 0.07505404477167958 0.11999631549190425 0.06200093630602429 0.019872490490759783 -0.07588005078294674 0.006388700939881407 0.08776970760963265 0.024891559722145296 -0.08107163509592016 0.05729373186002262 0.1453386926787712 -0.0732992483958615 -0.051728617729372144 0.04164802556052623 0.07836368039640774 0.006800582224333402 0.14775937425531688 0.04762126686772268 -0.10387957105973204 0.03836684654718054 -0.010321634305773372 0.156691577500241 0.03716918663332506 0.0037975913934223094 -0.0007401342627569961 -0.04425256213650609 0.05645289862760362 0.08833799968688849 -0.04036494391825874 -0.07178859713867658 -0.07034211139745929 -0.01947783467846552 -0.14718681924571506 -0.04109028724963714 -0.1577388910359115 0.07206193368652691 0.01765843835967762 -0.03866766274278248 0.045341417552003306 0.005261256957620692 -0.16682234671345877 -0.004491244569853289 -0.09052840227942134 -0.06435749900976068 -0.012912632099699546 -0.002876420965513637 -0.11528004462340806 -0.06405079246574491 0.052448763751256795 -0.019319470923968955 -0.13059905002610417 -0.08043424608338194 0.20537275292401017 0.04727643151009235 -0.022340633077115944 0.04060302336609546 -0.025324633479838904 -0.018226931235079583 0.09976430368101966 -0.03694610769052133 -0.008394215009098841 -0.05605180981267899 -0.006577383115785491 0.08166007586576196 0.06304115880691866 0.0063407956660337704 0.05205846320313678 -0.029262159617639696 0.03602903500611058 0.060409946865520224 0.06070471425687327 -0.13593937370732656 -0.13351062546303455 0.10579071193933487 -0.08372125774621964 0.027416424825787544 -0.0476062037050724 0.07124032080173492 0.03851599246263504 -0.09682204574346542 0.06401026993989944 0.025712179020047188 -0.010376966558396816 0.039816420525312424 -0.02973620966076851 0.008415666408836842 -0.026688678190112114 0.06591162830591202 0.07359997183084488 0.025343837216496468 0.006622469983994961 -0.05934187024831772 -0.0322338230907917 -0.07129815965890884 0.03342173248529434 -0.010404988192021847 -0.08532396703958511 0.14154595136642456 -0.011557883583009243 0.033636439591646194 0.0067198374308645725 -0.059964947402477264 -0.04897969961166382 -0.043690066784620285 0.02198266237974167 -0.09091489017009735 0.015984822064638138 0.033262379467487335 -0.03333619236946106 -0.009639762341976166 0.08849184215068817 0.032489679753780365 0.12412572652101517 -0.03885211795568466 -0.004164357669651508 -0.024134116247296333 -0.05068114399909973 0.08141080290079117 0.02240612916648388 -0.10178493708372116 -0.06277511268854141 -0.02344748005270958 -0.004080053418874741 -0.006993328686803579 0.09352852404117584 0.07547204196453094 -0.033299341797828674 -0.04197348281741142 0.05537288263440132 0.02281300351023674 -0.06023626774549484 0.01772306300699711 0.07470647990703583 -0.00257685175165534 -0.012303085997700691 0.038050975650548935 0.07356815040111542 0.07035218179225922 0.08358386158943176 -0.0421651229262352 0.039905890822410583 0.024553682655096054 -0.08352988958358765 0.04432360827922821 0.011373625136911869 -0.03098774142563343 -0.046293795108795166 0.02942500449717045 0.09082377701997757 0.026246489956974983 -0.035024769604206085 0.07990819215774536 -0.04409361258149147 0.016488604247570038 0.049024391919374466 -0.04849141463637352 0.1148306354880333 -0.03762662038207054 -0.04198697581887245 -0.03250529244542122 0.03258237615227699 -0.09572873264551163 0.017003145068883896 -0.15846356749534607 -0.13901862502098083 -0.0053551215678453445 -0.003962429240345955 -0.0322706438601017 -0.018104763701558113 0.015959886834025383 -0.070375457406044 -0.023415202274918556 0.042993467301130295 -0.01048821210861206 0.055909413844347 0.06348513066768646 -0.11872004717588425 0.012676228769123554 -0.09201068431138992 0.02963637001812458 -0.1067870482802391 -0.08211007714271545 0.055569425225257874 0.10218965262174606 -0.16923238337039948 -0.0176708847284317 0.021116238087415695 -0.05794302374124527 -0.04067951440811157 -0.007229526527225971 0.07232587039470673 -0.03539889305830002 -0.0010310085490345955 -0.06150604784488678 -0.010764005593955517 -0.04783182963728905 0.0844566747546196 0.013259036466479301 0.1661176234483719 0.008224362507462502 -0.025111544877290726 -0.002599551808089018 -0.030767174437642097 0.0006589541444554925 -0.10135883092880249 0.010136950761079788 0.08766963332891464 0.19937902688980103 0.11074943840503693 0.024586288258433342 -0.03977963328361511 0.0066254460252821445 0.027912329882383347 -0.045121386647224426 0.011736385524272919 0.007978989742696285 -0.007996945641934872 0.05596526712179184 -0.05951801314949989 -0.024108288809657097 -0.07209006696939468 -0.028202446177601814 -0.08310767263174057 0.09435200691223145 0.09824322164058685 -0.014112280681729317 -0.029888270422816277 -0.06774970144033432 -0.055274561047554016 0.12435867637395859 -0.06149982288479805 0.059319138526916504 0.025025315582752228 0.02826797217130661 -0.05203773081302643 -0.0446593351662159 0.04997776821255684 0.019700152799487114 -0.13552452623844147 0.08263016492128372 -0.07724739611148834 0.023685352876782417 -0.05363621935248375 0.046770643442869186 0.05138609930872917 -0.08332224935293198 -0.06512604653835297 -0.015480764210224152 0.05716850236058235 0.04162329435348511 0.010739336721599102 -0.011070157401263714 0.10373123735189438 0.006369798444211483 -0.04692664369940758 0.017919737845659256 0.022740820422768593 0.004009971395134926 0.030434174463152885 0.09028952568769455 -0.009165383875370026 0.16013622283935547 -0.005991703364998102 -0.02312401309609413 0.06558873504400253 0.14064191281795502 -0.04298336058855057 -0.11250234395265579 -0.04910992085933685 -0.0587843582034111 -0.04283839836716652 0.029384592548012733 0.0753135085105896 0.09272812400382953 -0.03851153876015093 0.023480812890529265 -0.08776296419034821 -0.012308278277194072 0.10177314655913089 -0.11797342346966368 0.030811787631820443 0.06319855122393268 -0.06837950329220749 0.02375068273715464 -0.025573919350570486 0.033226022535061496 -0.07251782177265105 -0.00264520883397127 0.07442175862441812 -0.0565146781930029 -0.029341409392142727 0.16712528588221653 0.11039374264974808 0.042214127922156605 -0.0242152834110463 0.015668230891367714 0.1293152501997332 0.10440956995592666 -0.16114555072631181 -0.08479955438387893 -0.0032650950678573608 0.06257335333232696 0.007844978511825352 0.08333159445000077 -0.010764017379531931 0.05613105915860209 0.04716773375193905 0.060502570958837404 -0.05463874061553321 -8.353926317233883e-05 -0.05944425399154146 0.0271426980127193 -0.06238817394154661 -0.06523356114918016 -0.018456718948644004 0.00859629081273732 0.11708899791594436 -0.02360300041782917 0.007740198062673759 -0.012487596831438496 -0.06627231621677011 0.024672698216282107 0.029815657366223353 -0.0031781386452684056 -0.06974099829348147 -0.008576367704624388 -0.009739545001537694 -0.029242762265825176 0.047010704233846144 -0.06936234293689693 0.013035748060204286 0.020063741788632246 -0.08741778840700645 0.14043820699707868 -0.07590527315862378 -0.058036995010426175 0.10133868255387128 -0.130301616547979 0.045893317425043635 -0.00769071885242161 -0.07070248765905723 -0.014076387624986142 -0.03981139816171394 0.08172199249202766 0.11876707615328085 -0.07097273433354817 0.08893328142117919 -0.10579092690687664 -0.0063981685299081235 0.02673953566856728 -0.012703700123498621 -0.05237840350077104 0.043097815999204946 -0.08601663813365625 -0.09308912230800931 0.05976672414931965 -0.07672079907380262 0.0467567990279739 0.017869090032306106 0.1109872983664124 0.17421325946284533 -0.05338705675240266 0.012376175967781212 0.07478167609459765 -0.17781154636723498 0.1034422127774302 0.08353412968966782 0.052269919117496906 0.04838166579147144 0.03847843898231677 -0.03656230011895054 -0.06857677129353565 0.07537952010687098 0.03863990306854248 0.06599166989326477 0.04895252361893654 -0.06382855772972107 -0.10225243866443634 0.052355870604515076 0.05506254732608795 -0.013315169140696526 -0.06759946793317795 -0.013292349874973297 -0.018511908128857613 -0.01885584555566311 0.0924137607216835 -0.07988093048334122 0.09927451610565186 -0.04083379730582237 -0.025906406342983246 0.015851665288209915 0.12929600477218628 -0.07623826712369919 0.046192388981580734 0.0867849737405777 0.09131652116775513 -0.08741280436515808 -0.10432907938957214 -0.07493368536233902 0.07339364290237427 0.08777132630348206 -0.021494286134839058 -0.008977451361715794 -0.04022517427802086 0.09394027292728424 0.026090245693922043 -0.024923356249928474 0.152399480342865 -0.046150270849466324 -0.010570203885436058 0.012628952041268349 0.03135785460472107 0.061225924640893936 0.05726010352373123 -0.039566878229379654 0.06977001577615738 -0.013288930058479309 -0.049641404300928116 0.017632121220231056 0.034401487559080124 0.04088637977838516 -0.07755433768033981 0.016267908737063408 0.014735824428498745 0.009643364697694778 -0.12864147126674652 0.036758601665496826 -0.0593828521668911 0.044067539274692535 0.04302709177136421 -0.033499155193567276 -0.0006709719309583306 -0.0031664385460317135 0.03610023111104965 -0.009943344630300999 0.011050407774746418 -0.10802771151065826 -0.0881555899977684 0.015036216005682945 -0.03558314964175224 -0.03936353325843811 -0.048866063356399536 0.046177636831998825 0.13550148904323578 0.025108639150857925 0.0658750981092453 -0.14719367027282715 0.10861341655254364 -0.03257150575518608 0.046206843107938766 0.05017782002687454 -0.02711067907512188 0.018262039870023727 0.002960481448099017 -0.023825159296393394 -0.04197485372424126 0.006278500892221928 0.03343577682971954 0.03376781940460205 -0.046587925404310226 0.020989594981074333 0.0005011281464248896 0.023678118363022804 0.01781843788921833 -0.007222649175673723 0.08062949031591415 0.016268346458673477 -0.0014024039264768362 0.04753771796822548 0.07494748383760452 -0.053662098944187164 0.016102833673357964 -0.023141371086239815 0.029514388705463707 0.0196452254237253 -0.051850147428456686 0.031448673937423455 -0.03825541741321435 -0.044847859972857354 0.059244191790566295 0.06566515031140542 -0.02047598147790193 0.0024095115674134136 -0.05994754171563388 0.116319455210462 0.03853883295200388 -0.015213817794805639 -0.09776870812284683 0.06057116731412151 0.12262289952568221 0.05686024313083987 0.09376581107054474 0.10051426307960144 -0.06223426477776337 -0.07620673921353678 0.07301207352326122 -0.020699598029100676 0.12441954177471214 -0.037965121676846965 -0.028812676697538675 0.0697835948540749 0.09071152313453326 -0.025701724316133955 0.00409819416674503 0.012339097642682961 -0.025997203709560487 0.07085717231621384 -0.036728930801811 -0.041539794894672265 0.08625324122947108 -0.10648472691706998 0.03934238930292039 0.007207566770240766 -0.10809510705334618 -0.11697793103543089 0.022634101983184284 -0.07026463797922385 -0.05127005969205959 0.036621364013885396 -0.004868254794795522 0.12039548264393354 0.03757064882435657 -0.1832207615542915 0.003892571453731661 0.05308945137141697 0.13609422057341417 -2.2096750508826296e-05 -0.01722244871927217 0.13692264785525454 -0.05260942576444361 -0.05422209654849073 -0.009240347050027574 -0.07901375610724559 -0.05380184823042467 -0.07422438600221883 -0.04267725712062393 0.07748039245793577 -0.017958756010370332 -0.05327042739358188 0.032636168184733465 -0.06525763634662836 0.04661487668693574 -0.020951621407413284 0.02649913071887604 0.016903727116671857 0.02670554482232423 -0.05950144065416085 -0.03657425352709616 0.02301712233612947 -0.11678579059846683 0.01931093301822398 -0.07022671021812846 -0.0941864398179692 -0.04900150465931238 0.05763692411388133 -0.057873583363985806 0.05730625057580772 0.011081646803190903 0.08070933864701511 -0.0654289727224034 -0.010236079001357966 -0.13170230810058592 0.07855216150338738 -0.026839031515461298 0.08590402955926257 -0.03916231618936696 -0.08156084088209546 -0.02727395730262231 0.0910925389745986 -0.03561661319875508 0.07442942682877271 0.0014845342964082053 0.08265814610996382 -0.04645770043134689 -0.07941999286413193 0.04790875315666199 -0.06282924115657806 0.07671881467103958 0.011198931373655796 0.01911291852593422 0.08856389671564102 0.025584755465388298 -0.012679160572588444 -0.008702285587787628 -0.06700314581394196 0.01899137906730175 -0.07418303936719894 0.002286209724843502 0.01321097556501627 -0.017940297722816467 0.0042616259306669235 -0.010878327302634716 0.1772347241640091 0.09928154945373535 0.14875797927379608 -0.07770538330078125 0.08480945974588394 0.06415782868862152 -0.006269189063459635 0.006659441627562046 0.006943766959011555 0.026063857600092888 -0.02595573104918003 -0.025972459465265274 0.02550053596496582 -0.010214965790510178 -0.1450205296278 0.04533235356211662 0.03303596377372742 -0.01251841988414526 0.055092472583055496 -0.04661136120557785 0.07035735994577408 0.03429193049669266 -0.06426676362752914 0.11565819382667542 0.02788345143198967 0.11778254061937332 0.027753785252571106 -0.08718090504407883 -0.000671903311740607 0.05218581110239029 -0.08412768691778183 0.04172823205590248 -0.04695110023021698 -0.13418205082416534 -0.12573595345020294 0.009772897697985172 0.035147927701473236 0.09940771013498306 -0.010563609190285206 -0.03710750862956047 -0.02004154585301876 -0.04438614100217819 0.0020197778940200806 -0.02831461653113365 0.03848177567124367 -0.018767250701785088 -0.08699020743370056 -0.05024992674589157 -0.0007823968771845102 0.016253551468253136 0.07124786078929901 -0.04724855348467827 -0.05826785787940025 -0.024839291349053383 0.012022782117128372 0.021024435758590698 -0.09941434115171432 0.10050643235445023 -0.05218112841248512 0.07874990999698639 0.005836787633597851 0.024026695638895035 0.07427367568016052 0.12654486298561096 0.04230780526995659 -0.026661643758416176 -0.003475756850093603 -0.01715981401503086 -0.004674425348639488 0.10564543306827545 -0.05144010856747627 0.01764010637998581 0.06344280391931534 -0.010926362127065659 -0.016237322241067886 0.01963132806122303 0.02396228164434433 0.03678085654973984 -0.0050821066834032536 -0.008347645401954651 0.016514882445335388 -0.02421623095870018 -0.04409753903746605 -0.018414774909615517 -0.10407260060310364 0.031016021966934204 0.028753699734807014 -0.018234791234135628 -0.010369346477091312 -0.056909605860710144 -0.04940982535481453 -0.03550420701503754 -0.08882062882184982 0.07262811064720154 0.022676797583699226 0.09167231619358063 0.02359536662697792 -0.027339238673448563 -0.023358339443802834 -0.005052278749644756 -0.023706575855612755 0.031235264614224434 0.038539715111255646 -0.036093685775995255 -0.04149994999170303 -0.023794416338205338 -0.016273725777864456 -0.04940865933895111 -0.02603163942694664 -0.04363471642136574 -0.17086359858512878 0.03485187515616417 -0.08442821353673935 0.026136944070458412 -0.008681884035468102 0.05553928390145302 0.02601086162030697 0.0037739260587841272 -0.004777009133249521 0.006927044130861759 0.10325613617897034 0.16171523928642273 0.0509968027472496 -0.015640994533896446 -0.02985701896250248 -0.023399479687213898 0.12797735631465912 -0.04468860104680061 -0.01250723097473383 -0.03567759692668915 -0.005677703768014908 0.05331901088356972 0.12937837839126587 -0.10738702863454819 -0.019440367817878723 -0.1282634139060974 0.1317676454782486 0.07273200154304504 -0.01470477320253849 0.06733305007219315 -0.11276369541883469 0.08055343478918076 -0.02481977827847004 -0.048072826117277145 0.1122337281703949 -0.015414918772876263 -0.05243656039237976 -0.10902152210474014 -0.06230204179883003 -0.03607254847884178 0.15327785909175873 -0.007892545312643051 0.01965019851922989 0.04727141931653023 0.014462330378592014 -0.043623000383377075 -0.03390916436910629 -0.010572235099971294 -0.0877634584903717 0.08904454112052917 -0.07107638567686081 -0.1084333062171936 -0.008268134668469429 -0.055634401738643646 -0.11922618001699448 0.024148330092430115 0.06887896358966827 0.10884087532758713 0.019733106717467308 -0.03314967453479767 0.017749730497598648 0.020100543275475502 -0.013546998612582684 -0.07798853516578674 0.02784782648086548 -0.04621783643960953 0.07784374803304672 -0.03161506727337837 0.08420111984014511 -0.0003488626971375197 0.08732357621192932 -0.002615072553270046 -0.0023220562818083114 -0.09867452865152866 -0.04673993574587014 0.08494091416664842 -0.008240647441583497 -0.012264426398689588 -0.12285665472648659 -0.020565330027264555 -0.12837808190185354 0.06737101650013169 -0.08506852238170044 -0.07407801321498582 -0.027942622490890065 0.08838996518126384 -0.04607817683224806 -0.02996924831882185 0.05671594811456163 -0.05131853648097246 0.0712204757689095 0.04251971939949803 0.19097247783244078 -0.08967792474776451 -0.0186652616803529 0.011503186345014878 0.030218188159991805 -0.09765751976529215 -0.0007247788603188211 0.04827754010137001 0.0529614312697419 -0.04198130382020158 -0.0026911411464321917 0.008744941652995017 -0.020975550842417125 -0.0046906994736781145 0.007308593248100885 0.04189719882109993 -0.036862158370164363 0.04807328212054448 0.0530577606145455 0.008807265559759005 -0.061104753376394254 -0.04224659419989763 0.0661129573190305 0.11687058878341823 0.06447686012841837 -0.1400515372721559 -0.05810581588936666 -0.02699537289378602 -0.0321815814102381 0.04178199565810447 -0.03539357176278437 -0.0036941940610107516 -0.03257371679740084 -0.12269471970367704 -0.07894799637842395 -0.034283178491378234 0.0054036131546999 -0.011600693052926313 -0.0879740753533569 0.087152171356723 -0.030200754645470226 -0.00043940290092335483 0.09871134734812703 -0.0605692454214428 0.16702603106354874 0.05864344636950236 -0.09378549423268556 -0.04935992927124825 0.04301204995234572 -0.04039161795165333 -0.006750918824229891 0.04309733624021125 0.08766876822661572 0.05308992027471677 -0.009220233167553764 -0.06733190777760287 -0.005164147474942849 0.04765549670462234 -0.045693976732946257 0.023195825075240643 -0.022445313182128824 0.001778111540636037 0.0014569694806206796 -0.06833285438278835 0.056080447937595694 0.030110152107083153 -0.13731258444091055 0.03480149507126911 -0.03469040666398201 -0.02440325820272034 0.02504389340909801 0.05610453492788515 -0.026232974220555202 -0.0807238447894942 -0.04556070733004434 0.07209867482720338 0.15718704907105027 0.1079389241517732 -0.004974766186313413 -0.028631143271923065 0.0319855734705925 0.09732988476753235 -0.05573709309101105 0.09667710959911346 0.08530235290527344 -0.018997307866811752 -0.12389973551034927 0.002773186657577753 -0.13077646493911743 -0.10162470489740372 -0.013203692622482777 0.02825198322534561 0.11240462958812714 0.0008350354037247598 -0.10701440274715424 -0.10024780035018921 -0.015532974153757095 -0.008602559566497803 0.04213535040616989 0.05966074392199516 0.07087211310863495 -0.07558435201644897 0.015732508152723312 -0.01051354594528675 0.1082705408334732 0.12463706731796265 -0.037051182240247726 -0.030433934181928635 0.026147574186325073 0.15575425326824188 0.015280785039067268 -0.0247720405459404 -0.044224340468645096 0.03827077895402908 -0.0030253236182034016 0.06529560685157776 0.020722022280097008 0.033552758395671844 -0.12199749052524567 0.0033470892813056707 0.021082643419504166 -0.034776803106069565 -0.07562557607889175 -0.06372421234846115 0.05248581990599632 -0.04829052835702896 -0.0758107528090477 -0.006860669702291489 0.05192018300294876 -0.01972641423344612 -0.015093369409441948 -0.01903032511472702 0.017414515838027 0.053663063794374466 -0.0865781381726265 -0.045762475579977036 -0.043346673250198364 -0.07654256373643875 -0.011190670542418957 0.05463520064949989 0.025156661868095398 0.04321496933698654 -0.027945563197135925 0.019279642030596733 0.05840689316391945 0.0038361784536391497 -0.07563503086566925 0.18263283371925354 -0.001973389182239771 -0.07996279001235962 0.010961262509226799 -0.01223157998174429 -0.009139138273894787 -0.02503831498324871 -0.003846714971587062 -0.10203009098768234 -0.010527129285037518 -0.06668418645858765 0.10808666050434113 -0.023044902831315994 -0.04851589351892471 0.03386615961790085 -0.048210643231868744 0.038795094937086105 0.19381701946258545 0.08929993212223053 -0.06789150089025497 0.00555088697001338 0.04540971666574478 -0.05455669015645981 0.012560009025037289 0.05055146664381027 -0.057299040257930756 0.054799824953079224 -0.01371513307094574 0.051141344010829926 -0.07977498322725296 0.009394112043082714 -0.0419621467590332 0.03475051447153989 -0.08437604599706677 0.07643036051108149 -0.06096218080725419 -0.017765321030479377 -0.11074453730633912 -0.0023562119243688098 -0.08739711128693074 -0.06516650963063972 0.0031658745936047044 -0.022021764418528628 -0.10822228430708833 -0.11543167063848486 -0.11185390870231937 -0.009653953399431642 -0.05374530702550749 -0.1085168194695146 0.06873959185516845 0.028734687179207845 0.061802673962765016 -0.07961174635791841 -0.06192180923739934 0.03152248134883029 -0.10499066156073227 0.04585860389929541 -0.06966901590089315 -0.002373551572945528 0.025493388841033665 -0.04184442835822101 0.006226235132954279 -0.11216407718631935 -0.10293098772711828 -0.06692927590294573 0.02162546736515831 0.05698129898888731 -0.021955401870316922 0.05709802873715786 -0.03823290943093174 0.0514780387548322 0.0030639093064796057 -0.052410434721991694 0.03432620758048364 -0.09298820399613741 0.023689621227271578 0.0038615208682905057 0.034608967642914774 0.0034431700864056393 -0.012859522978889856 0.04338821720947208 -0.09963694445146619 -0.043110530614217255 -0.01780139536327603 0.006563973029634658 0.028382333704447472 -0.08766035463014554 0.007810060178601722 0.007937043412625971 -0.06473028981812581 -0.04299271463264633 -0.019444774467406625 0.03516561029975739 -0.12349132787216695 0.004907637503489472 -0.08008738108477131 -0.12747576791392257 -0.01010442221756645 -0.0019076436025605035 -0.02678623995348881 -0.0644304791355151 -0.07206106731935007 0.04638492764676332 -0.025001900090726684 -0.00741157540556491 0.03503009739691411 -0.030995853274335648 0.03197311980841219 -0.004052824208775333 -0.043627549313031116 0.04542025688857011 -0.06541733855705974 0.021733324148548196 0.034836635264572736 -0.016850954965305403 -0.10588247242049957 0.09944075620383065 0.07543006953636848 0.03915006900077552 0.0993144927200836 -0.015049550254810385 0.05561848553893566 -0.03666677112161115 0.03644441602446385 -0.03000464325893959 -0.04258516204061513 0.03306221077812857 0.14546595939569687 0.06760169158433366 -0.04667975076485621 0.046450560697039456 -0.056187944251436785 -0.07217477262020111 -0.07768165320158005 -0.015945833176374435 -0.03913730010390282 0.02824077382683754 0.013238711282610893 0.006562802474945784 -0.03320526331663132 0.06059210002422333 -0.0839156061410904 -0.04829650744795799 -0.019713588058948517 -0.08018132299184799 0.12926660478115082 0.11880221217870712 -0.03064831905066967 -0.030923759564757347 0.09188418090343475 -0.014415384270250797 -0.0868784487247467 -0.06211305037140846 -0.018885057419538498 -0.029180776327848434 -0.0003817327960859984 0.2182764708995819 -0.045866549015045166 0.12156365066766739 0.00032715173438191414 -0.09345176070928574 -0.04557950794696808 -0.03260483965277672 -0.016633419319987297 0.028335392475128174 0.17664025723934174 -0.0757400393486023 -0.10856029391288757 0.06785063445568085 -0.01992212049663067 0.04433443769812584 0.05499003082513809 0.08903156220912933 0.042781759053468704 0.11839824914932251 -0.05269134044647217 0.114874467253685 -0.05941721424460411 -0.04656790941953659 0.07276361435651779 0.06756246089935303 -0.04232855886220932 -0.03617427125573158 0.04346628859639168 0.19350400567054749 0.024187156930565834 0.07634265720844269 0.022320758551359177 0.0042872014455497265 -0.010772500187158585 0.08620505034923553 -0.12462329864501953 0.1623687893152237 -0.03407246246933937 -0.05469532310962677 -0.02497592754662037 0.013473834842443466 -0.01554857101291418 0.0017875584308058023 0.04808378964662552 0.03779663145542145 -0.06271368265151978 -0.14823687076568604 0.026886753737926483 -0.01881575584411621 -0.08095380663871765 0.08615092188119888 0.08420004695653915 0.012756166979670525 0.07989350706338882 -0.04226874187588692 -0.049750976264476776 0.1714588701725006 -0.017973344773054123 -0.0906798243522644 0.03335930034518242 -0.05732613429427147 0.002489527454599738 0.04720669984817505 -0.13508488237857819 -0.07757464051246643 0.09560495615005493 0.15868499875068665 -0.00984271802008152 0.018534721806645393 -0.10776911675930023 -0.06762583553791046 -0.013258024118840694 0.008054313249886036 0.006660934537649155 -0.05055027827620506 -0.003170344978570938 -0.003104280913248658 0.005885651335120201 0.09931737184524536 -0.01372484676539898 0.008138995617628098 -0.017577040940523148 -0.060217294842004776 0.051151953637599945 -0.04732837155461311 -0.011316118761897087 0.034107550978660583 -0.06701011955738068 -0.006073834840208292 0.0594288632273674 0.07244841754436493 0.03618659824132919 0.015107225626707077 -0.02383575402200222 -0.013517642393708229 0.02629532478749752 0.08439811319112778 0.053197313100099564 0.03286348655819893 0.04352475330233574 0.12300865352153778 -0.010393713600933552 -0.041144780814647675 0.014945977367460728 0.05184222012758255 -0.07267781347036362 -0.02957794815301895 0.07900865375995636 0.03403998538851738 0.11966020613908768 0.11038918048143387 -0.07855837792158127 -0.06213961914181709 -0.11148908734321594 0.08613321185112 -0.0920449048280716 0.08991802483797073 0.02036914974451065 0.17955653369426727 -0.039072293788194656 0.03692774102091789 -0.08243919163942337 -0.01931966096162796 0.03713371977210045 0.07914960384368896 0.04394381493330002 -0.032495368272066116 -0.027591031044721603 0.0605638325214386 0.008287099190056324 0.06938732415437698 -0.00737823685631156 0.01929759979248047 0.04068419337272644 0.024564314633607864 -0.004401656333357096 0.01030640583485365 0.07067885994911194 0.021271850913763046 0.017519179731607437 0.039889611303806305 0.00338357244618237 -0.05235212296247482 0.05429782718420029 0.05217459052801132 -0.12475359439849854 -0.0236207228153944 -0.07308740168809891 -0.06788922101259232 -0.0022247887682169676 0.04292047396302223 0.05925438553094864 0.05735815688967705 -0.07232662290334702 0.20543172955513 -0.005906321574002504 0.07342386990785599 0.10376980155706406 -0.08917221426963806 0.025930996984243393 0.06814141571521759 -0.05941242352128029 -0.01718107797205448 0.021066924557089806 0.05417117103934288 0.10071197152137756 -0.055968526750802994 0.06540855765342712 0.029545437544584274 0.03827623277902603 -0.045463308691978455 -0.11387961357831955 -0.03409843146800995 -0.005477417726069689 -0.0760209932923317 -0.02166668325662613 0.013383816189000265 -0.010253081811261043 -0.08610209479194474 0.08757847008397837 0.01642237381147029 -0.01853078512629065 0.004753409377607549 0.0430323521406221 -0.0328487265972232 -0.06495227651866232 0.011910162596792692 -0.09336267439188091 0.07779033219082558 0.037152188607623524 -0.022050158593971313 -0.007706691085178658 -0.07831026521319172 -0.0727654663844175 -0.07501135244565844 0.011720824095296348 0.015361166421243999 0.08349939605488167 -0.06216706467843595 -0.12074170456557079 -0.08382254766351241 0.004733709417376243 -0.03337330425257714 0.03859408403629855 0.08701702629490533 -0.10529636197831838 -0.004978046267030088 0.007673066700001791 0.026848280018456974 0.029641231054347433 0.03567939664346215 -0.09887782813112171 0.05202721356967895 0.011693197822524743 -0.15397333469382882 -0.051993417361472935 0.03458879888552172 0.04599941104930126 0.12621756535315123 -0.03523330648758051 0.05947809395878601 0.06388168532108497 0.027698606994174386 -0.04633815057213905 0.0756823627752922 -0.05179934982939689 0.030901855230669097 -0.07800098022551756 -0.04048289423105791 0.08802438135100295 0.028791242986375015 -0.011564819591776044 -0.04985867923928016 0.06741687159477089 -0.03128063368332087 0.008243683703075788 0.10864347877210503 -0.16276976268129034 0.05901859246770119 -0.10922564185291798 -0.03273143836563226 -0.03689720448364887 -0.12046921373985746 -0.041674870516309824 0.0363639825598719 0.06104479894579446 -0.0632617861783049 0.07069434760459384 -0.03103163593897867 -0.014119094217660175 -0.08672932271144795 0.12705650838291535 0.031787485738183324 -0.07614672678320407 -0.0033835204263231115 0.04343922151229502 0.129277012901717 -0.1100369767936067 -0.04116819089607059 -0.04455195383209832 -0.044597910864285266 -0.04901552628186287 -0.009826627280295944 0.1084984907251051 0.08043933765734812 -0.026968417749799856 -0.008848570398723216 -0.015740865319871275 -0.05162413376672765 -0.0577072416248341 -0.013019778611384323 -0.19667708578535137 -0.019340101219939926 0.009985136887771154 -0.055249610723584267 -0.07163558359362436 0.06414683908224106 0.047353196889162064 -0.06086555868387222 -0.10418635606765747 -0.04563562944531441 -0.011309366673231125 -0.006286331452429295 -0.005072703585028648 -0.07065999507904053 0.029203763231635094 0.07855645567178726 -0.1078571081161499 -0.0460839606821537 0.06748251616954803 -0.06835111975669861 -0.05770821496844292 0.01740066148340702 0.009833668358623981 -0.09789813309907913 -0.05539180710911751 0.07661180943250656 0.032834719866514206 -0.09595523774623871 0.021764811128377914 0.04202272742986679 0.030373670160770416 -0.07538165152072906 -0.04745412990450859 0.014461614191532135 -0.006873403675854206 -0.05414513126015663 -0.033449746668338776 -0.0705297514796257 0.043077077716588974 -0.012455143965780735 -0.022690648213028908 0.05515524372458458 -0.06343568116426468 0.04011186584830284 0.040793050080537796 -0.05651416629552841 0.054594919085502625 0.018828317523002625 -0.030934913083910942 0.026847882196307182 0.04809409752488136 0.16976474225521088 -0.10573651641607285 -0.026839112862944603 -0.011843837797641754 0.07864464819431305 -0.029705770313739777 -0.0011981080751866102 -0.046605050563812256 0.07422284036874771 -0.010370448231697083 0.07023443281650543 -0.04857920482754707 -0.009274393320083618 0.07826974242925644 0.01736823469400406 0.06127241626381874 0.08554934710264206 -0.03347843512892723 -0.05247366055846214 -0.04872762784361839 -0.11264487355947495 0.041532840579748154 0.04190096631646156 0.049016233533620834 0.018775729462504387 -0.05600868538022041 -0.008983653038740158 -0.06491751968860626 0.02071414701640606 -0.045156221836805344 0.10671785473823547 0.02083677239716053 0.0408010333776474 0.014620253816246986 -0.04223436117172241 0.18323977291584015 0.007420566864311695 0.04909379407763481 0.06064526364207268 0.1306702345609665 -0.11387838423252106 0.023339401930570602 -0.033365435898303986 -0.12770897150039673 -0.06237317994236946 -0.038377806544303894 0.06614451855421066 0.010020005516707897 -0.06024608761072159 -0.07159727066755295 0.03824063017964363 -0.06253384053707123 0.046393800526857376 -0.0513421893119812 0.08343924789809311 -0.0342750895447278 -0.034138817507638954 -0.14761324429294775 -0.04974666585446067 -0.0469954971605344 -0.15513406039806663 -0.03780737402956685 -0.03272582089447574 -0.05909926694021076 0.06629624830562304 -0.059500968080644215 0.02727853574280526 0.058442713550426864 -0.0106439884778776 0.04574084193227932 -0.033836686382918216 0.06109452187869456 0.03919106575776552 -0.06261499180094368 0.027178741905437433 -0.00894943219606295 -0.04231244168252104 0.06284006979967471 -0.05433863504689129 0.035538751971311004 0.023187184845643735 -0.06624050691122785 -0.012493183766479121 -0.056232993871499985 -0.02000283643009905 -0.07293228157712585 0.026367632670583036 0.008055560760669577 -0.08769225248942025 -0.07285266583244121 0.03973171242459457 -0.09839295504108767 0.030097045429769084 0.0020859017191627244 -0.05085350085462774 0.012167426270402628 -0.010424465455696695 0.00850845771436602 -0.08349478335656838 -0.09691536439258318 0.02429737596826275 -0.004516550297910636 0.01755720578464118 0.009543325642212597 -0.08776478150922554 0.11111858172706925 -0.033761891561828274 0.09715826592259942 0.07695144455469397 -0.10249195964227273 -0.060818136968920786 -0.10772283333990669 0.06327329254378425 -0.021184012727190088 -0.06050543290890402 0.06758625676985279 -0.03513196801774558 -0.016087972865961492 -0.11807069748104497 -0.05037814969226069 -0.09684778235343472 -0.0818673178473025 -0.06504988001832707 0.008849316561281743 -0.16257524494085646 -0.0053288737237629 0.002857880264139601 -0.008263964041937102 0.008334940887604926 -0.09645720499874101 -0.01958147961193224 -0.1700404864519884 0.17405018308337689 -0.12569823654523923 -0.0590096882294315 -0.006135662030933148 -0.019050806455036633 0.046918564273330764 -0.05138783482293463 0.003011652851224651 0.013473984574598927 0.022703350228561105 0.04652546564015443 0.023805901603676245 -0.05239810440593089 0.03414334193755481 0.031132404881669958 0.010895932130975429 -0.11771152437151239 -0.011610096013645295 -0.12125170752964053 0.04017712904867816 -0.008069850517220544 -0.062156199208448816 0.1544162631034851 0.023196684196591377 -0.00553901307284832 0.09215327352285385 0.061548709869384766 0.09396965801715851 -0.039417121559381485 0.05865376442670822 -0.10263147205114365 0.08097225427627563 0.038387756794691086 0.0645652636885643 -0.025912851095199585 -0.023782553151249886 0.013216374441981316 -0.05722380802035332 -0.045838139951229095 0.058972567319869995 0.11304573714733124 -0.10368960350751877 0.00026804296066984534 0.036060165613889694 -0.04269867762923241 0.014524451456964016 -0.065880186855793 0.06290314346551895 -0.05342669412493706 -0.028792280703783035 -0.013067226856946945 -0.017032572999596596 0.11143661290407181 -0.05654444918036461 0.12670491635799408 0.048002999275922775 0.046370040625333786 0.12061312794685364 0.03020652011036873 -0.039895106106996536 0.0009932615794241428 -0.020105162635445595 0.08654924482107162 -0.036516062915325165 -0.09207796305418015 0.05642803758382797 -0.014051878824830055 0.036662209779024124 -0.0656924843788147 0.005154563579708338 0.04056943580508232 0.037119440734386444 0.015753431245684624 0.08435162901878357 -0.05857095122337341 -0.06875568628311157 -0.004747181199491024 -0.09815818071365356 -0.07315430045127869 -0.06430459022521973 -0.11703106760978699 0.015641415491700172 -0.04092523828148842 -0.07681785523891449 -0.0489211343228817 -0.019412247464060783 0.025645576417446136 -0.07496551424264908 -0.02764509990811348 -0.18810296058654785 -0.0014986754395067692 -0.04741213843226433 -0.035218823701143265 0.024867665022611618 0.0987284705042839 0.030108653008937836 -0.0368807353079319 0.06029689684510231 0.0446583591401577 -0.0009376524831168354 -0.04280383139848709 -0.01527747604995966 0.033535901457071304 -0.0787096694111824 -0.019880957901477814 -0.07616991549730301 0.16480813920497894 0.09114954620599747 -0.13397462666034698 0.0565984845161438 0.015120912343263626 0.11277551203966141 -0.07315222173929214 0.03404993191361427 -0.0015446373727172613 0.04401019588112831 -0.1177910789847374 -0.021243378520011902 -0.12329493463039398 0.0489923432469368 0.04087366908788681 0.007290856447070837 0.025075161829590797 0.03701883554458618 -0.05179821699857712 0.08010980486869812 -0.12779362499713898 0.09473776072263718 -0.004969057161360979 0.10894744098186493 0.023242631927132607 -0.00219495571218431 0.09321191161870956 -0.017834577709436417 -0.06612242758274078 0.0033347951248288155 0.04070800542831421 0.01956113986670971 0.008966882713139057 -0.06693333387374878 0.03290373831987381 0.006652556359767914 -0.08630122244358063 0.050383374094963074 -0.0017176043475046754 0.030970072373747826 -0.012724123895168304 -0.004118169192224741 -0.10954675078392029 0.06657808274030685 -0.041121598333120346 0.08371002972126007 0.11723671108484268 0.07404550164937973 0.11945556104183197 0.05463135614991188 0.021778032183647156 0.07392862439155579 -0.12691929936408997 -0.04697602614760399 0.04724851995706558 -0.04455409198999405 -0.02910376340150833 0.047254778444767 0.07164377719163895 -0.07217451184988022 -0.055226508527994156 -0.027447830885648727 0.03983853757381439 0.015535099431872368 -0.0915650874376297 -0.05297841504216194 -0.10321063548326492 0.029635174199938774 -0.03909033164381981 -0.01780850626528263 -0.03112736903131008 0.0675254687666893 -0.020794397220015526 -0.05475122109055519 -0.012300239875912666 0.01739821396768093 0.048587214201688766 -0.039920367300510406 0.13596493005752563 -0.006189948413521051 -0.08078741282224655 0.03459683805704117 -0.007875309325754642 0.08813317865133286 0.05258357524871826 0.03878859058022499 -0.01688648760318756 0.014357137493789196 0.005215686280280352 0.12888607382774353 -0.028882533311843872 -0.049458395689725876 0.013569877482950687 -0.10208767652511597 0.024875370785593987 0.05860871449112892 -0.005452346988022327 -0.03514466807246208 0.04008747264742851 -0.014056853018701077 0.05103565752506256 0.026186013594269753 0.002704666228964925 0.0193493589758873 0.07619470357894897 -0.03437937796115875 0.0771121233701706 0.08481615781784058 0.06293830275535583 -0.0282454751431942 -0.07027868181467056 0.004382092971354723 0.09392014890909195 -0.07611548900604248 -0.02682442218065262 0.08055879175662994 -0.0321312408164176 -0.021335583212948317 0.08601864085765021 -0.024637573082273947 -0.026439510246698484 -0.20628051793720184 0.03269100406786409 0.020650927158237017 -0.16948826258292282 0.03249060844414591 0.022380981615359737 0.030163587797734075 -0.05717802717142984 0.014189879427427193 -0.015071329813088489 -0.04687190720283472 -0.008911267522151907 0.09431298339292028 -0.014717846287043371 -0.09429807434466013 0.04670218838469374 0.021671493281460848 -0.08921705688810751 -0.018045438807896632 -0.051284909365550954 0.047678006105910165 -0.0359441978086972 -0.012563753872841395 0.05049021805433599 0.010843585713077383 -0.048667245842605095 0.021181019446255576 0.021989772075718575 0.04043943638502009 -0.09511116500062661 -0.029801401351971055 -0.13273782674982895 -0.0018009039376524053 -0.04529556442641163 -0.04150435162192094 -0.10167525638922742 0.03615788454278065 -0.05258745568986454 -0.014662620368956459 -0.09873572542057875 0.04021156963485306 0.014471943404197288 0.00484638144590306 -0.09123639913098384 0.026404207645939197 0.05051773807730845 0.07672766373855659 0.016758283170543137 0.1038107041894216 -0.01688997044705031 0.03104501649796051 -0.028812344250910442 -0.09907338140470705 -0.01845442234947907 -0.0005687998455193476 -0.03490272394073595 0.01399516046196539 -0.013971604216649761 -0.08252531980249943 -0.049422453861226866 0.041995542770021495 -0.036903426298460516 0.02464242528865904 0.020176036142268546 -0.0893609972645017 -0.11179039084464194 0.06660894438623516 0.03365694096367789 0.056729724181745475 0.10456968111037336 -0.04959745368881029 0.05955503135195208 0.10180142616268667 0.16983062503345328 -0.021941644785147724 -0.02524860012276599 0.05190726437647463 -0.05574717440599585 0.02995079160643632 0.009440325603328248 0.06335818349781074 -0.014839679327208494 -0.01382673292271319 -0.025367375031112516 0.06140364350817745 0.11550322745005016 0.02041035519211176 0.007259082303782666 0.06336492378552185 -0.004885062802603836 0.0035829820101506023 0.00981817587673005 0.011682325580937084 -0.08038036975420719 0.041060790075876354 0.06011243537068367 0.06089067459106445 -0.00434549106284976 -0.004190437030047178 -0.11043231189250946 -0.016324922442436218 0.012053653597831726 0.0035843090154230595 0.05677962303161621 -0.046275027096271515 0.03289739415049553 0.05292576551437378 0.14616405963897705 0.023529646918177605 0.033315952867269516 0.09441673755645752 0.009594157338142395 -0.04267337545752525 0.05975640192627907 -0.1685299128293991 0.024946393445134163 0.03191395476460457 -0.02142106555402279 0.05936964973807335 0.009731105528771877 -0.0956239253282547 -0.053242407739162445 0.0714421197772026 0.027700604870915413 -0.15480834245681763 -0.08720442652702332 -0.1039181798696518 -0.02040797285735607 -0.06881801784038544 0.01922006718814373 0.09370310604572296 0.07679302990436554 0.0005364358657971025 -0.024060213938355446 0.07547935843467712 -0.11721845716238022 -0.03862371668219566 -0.013586362823843956 0.07478869706392288 0.016582811251282692 0.09407851845026016 0.09583624452352524 -0.06556057929992676 0.0018487839261069894 0.08872509747743607 -0.06465768069028854 0.08519643545150757 0.009312045760452747 -0.008980872109532356 -0.006690516602247953 0.07611997425556183 -0.0203102957457304 0.056199487298727036 -0.029559332877397537 -0.06575025618076324 -0.054465845227241516 0.014195805415511131 0.035363826900720596 -0.022707171738147736 -0.059536516666412354 -0.06185365840792656 -0.12834297120571136 0.09120679646730423 -0.01758655346930027 -0.04587988927960396 0.03500955179333687 -0.11971018463373184 0.05521417409181595 0.026967208832502365 0.053251706063747406 -0.01887054741382599 0.0769258365035057 0.11206140369176865 -0.018869630992412567 -0.16163265705108643 -0.04574783518910408 -0.06584300845861435 -0.05637823045253754 -0.11596766859292984 -0.07009395211935043 0.10091405361890793 0.025563154369592667 -0.053134236484766006 -0.08899371325969696 -0.023932067677378654 0.002720121294260025 -0.004318355582654476 0.04365599900484085 0.0960313230752945 0.10781253129243851 -0.08341769129037857 0.07054566591978073 0.0687008649110794 -0.02811090648174286 -0.04895948991179466 -0.05445309709940987 0.07008609101005148 0.07872788468911189 -0.048124639136626735 0.13877282203781183 0.05359180181283778 0.16876985692035507 0.01658563714061713 0.025594469069360117 0.06677976084636582 -0.06842801269486008 -0.023642674614603072 -0.06397695995246902 -0.08323638866277956 -0.11619472312024981 0.013732169705092823 -0.039424694991032246 0.06220668876973824 -0.07767743299439576 -0.011258094309751419 -0.02184349774070251 0.2072753475497087 -0.020380300917700843 -0.0038734753532085565 -0.05815904902803152 0.026324885624826436 0.07065170651502084 0.010361432385519374 -0.07535963090049991 -0.05512957994484503 -0.1383968627114533 -0.06356343122304813 -0.1006317695411243 -0.04269454155228112 -0.08448147234504297 -0.03595367497318469 -0.06222267290325734 -0.06376860831754372 -0.013046309178155562 0.01040652318751946 0.030080495127792286 -0.0015207813421465757 0.058098463871954775 0.08466433255061295 -0.08363499276071029 -0.07026508109387883 -0.015326616865886752 0.06313806209372541 -0.06488469927620452 -0.017723500891038156 0.06283195481467743 -0.005179744144668428 -0.07071514539615849 0.0146414339466918 -0.061463106901947936 0.03197817581976118 -0.038050900931790095 0.22387136068546395 0.10192509094856345 -0.07172500279654181 0.007846018030178713 -0.053651443292568414 0.051777459104829095 0.021791071502782634 -0.09946186263355919 -0.05099775786808373 0.07610057612307089 -0.06260370045009317 -0.06345949252298666 0.1062189927851852 -0.046248717436783555 0.061968211459972465 0.023010232858399267 -0.009813814597498218 0.06918090403718026 -0.03409422007494132 -0.004552827565524497 -0.06178838433111604 0.024216126675183164 -0.010593659028188509 -0.02562065177502275 -0.020462441657518628 -0.02996099463369354 -0.042655837671040045 0.0527292027991077 -0.008544162528603277 0.016128633508362467 0.02343420636166368 -0.08383495537838884 -0.02117393827274402 -0.12209941033662602 -0.019418160659142324 0.048901650479218746 -0.09366943321642612 -0.05298482417233531 0.037546984861361536 0.03133919709804534 -0.046408496943767905 0.08103176721032511 -0.03787336403237145 -0.03108665905892849 0.011430032551288605 0.055910855531692505 0.02863832749426365 -0.06975987553596497 -0.04581093043088913 -0.09652014821767807 -0.0782506912946701 0.05176449567079544 -0.04514467716217041 0.09111065417528152 0.005715357139706612 -0.09456800669431686 0.04402092471718788 0.05058698728680611 0.018648661673069 -0.009542676620185375 -0.02341437339782715 -0.04292832314968109 0.0728016123175621 0.00790007971227169 -0.17793679237365723 -0.011795779690146446 0.05719343572854996 0.15978996455669403 -0.01502993144094944 0.1729343831539154 0.004446303937584162 -0.1033523753285408 -0.04059028998017311 0.05709918588399887 0.04902004823088646 0.014605160802602768 -0.0721241757273674 -0.06217718496918678 0.001500532729551196 -0.02841411903500557 -0.0069268918596208096 -0.05952353775501251 0.05344386398792267 0.06625586003065109 -0.0465206615626812 0.09743677824735641 -0.0018480625003576279 -0.12358944863080978 -0.14024655520915985 -0.007194694597274065 -0.05655409023165703 -0.0338766984641552 -0.09598656743764877 -0.050488583743572235 -0.05280402675271034 -0.024723371490836143 -0.07483696937561035 0.05170333757996559 0.01129643153399229 0.0021138545125722885 -0.02077048271894455 0.027225244790315628 0.07207038998603821 0.03263276442885399 -0.0859907791018486 0.05632273107767105 0.059068746864795685 0.027069469913840294 -0.036742907017469406 0.02090456336736679 0.0857713595032692 0.04240025207400322 0.010527468286454678 0.08109358698129654 0.010483795776963234 -0.010031822137534618 0.002006441354751587 -0.04053782671689987 0.13089287281036377 0.10387071222066879 0.039976201951503754 0.0023632661905139685 0.07589144259691238 0.05975174903869629 -0.017077181488275528 0.025545472279191017 0.07807043194770813 -0.07711882889270782 -0.035511795431375504 -0.05049721151590347 0.12175294756889343 0.06725945323705673 0.03611358627676964 0.032810308039188385 -0.008152996189892292 0.07849179953336716 0.015821553766727448 0.042405202984809875 -0.04011154919862747 0.02124437503516674 -0.06631443649530411 -0.035063520073890686 0.024009257555007935 -0.09697318822145462 -0.035618528723716736 -0.0220943670719862 -0.057524751871824265 0.05103564262390137 0.08978885412216187 0.03489021956920624 0.003769396338611841 0.007322179153561592 -0.04335813596844673 -0.07450069487094879 -0.0020032040774822235 0.048392705619335175 -0.07638493925333023 -0.012060454115271568 -0.0393357127904892 -0.07667644321918488 0.07722340524196625 -0.019530892372131348 0.10600611567497253 -0.07404102385044098 -0.023733967915177345 -0.02069854363799095 0.04835980758070946 0.01565513387322426 -0.05967460200190544 -0.006707174237817526 -0.02455134503543377 -0.06843690574169159 -0.0436529666185379 -0.060790542513132095 0.04682407155632973 0.0022448438685387373 -0.04451676085591316 -0.010976308956742287 0.01841653697192669 -0.007152816746383905 -0.03272305056452751 -0.10204391181468964 -0.01998567022383213 -0.04808533191680908 -0.07608781009912491 0.08337678015232086 -0.02094067819416523 -0.024857157841324806 0.22145792841911316 -0.10149314254522324 -0.00012098737352062017 -0.034018173813819885 -0.017304977402091026 -0.09372060000896454 -0.02899077907204628 0.11544634401798248 -0.06461981683969498 0.030617326498031616 0.01601329632103443 0.1807471215724945 0.04045218974351883 -0.05327533558011055 -0.06229528412222862 0.1531904637813568 0.14296527206897736 0.062400635331869125 0.003997895400971174 0.12013433128595352 0.00026116202934645116 -0.0416540801525116 -0.08693238347768784 0.04180919751524925 -0.014566397294402122 -0.06196717172861099 -0.02027800679206848 0.06972692161798477 -0.026396198198199272 0.03680505231022835 -0.06745514273643494 0.04823214188218117 -0.01999492757022381 -0.008818411268293858 0.06722327321767807 0.024656720459461212 -0.08816586434841156 -0.06795156747102737 -0.12884140014648438 0.026119675487279892 -0.02175859548151493 -0.10796063393354416 0.13383758068084717 -0.02588798850774765 -0.09189796447753906 0.03170113265514374 0.09003973752260208 0.1691305786371231 0.029090873897075653 -0.0342031791806221 -0.06656614691019058 0.0032987017184495926 0.06140429154038429 -0.061182714998722076 0.019783811643719673 -0.05052163323638234 0.09483576067170046 0.06531216669365518 -0.03297712990410284 0.005337921847497281 -0.06428958838932687 -0.10042392974566597 -0.03129241424082712 0.024803422843551037 0.028091819170251976 0.04111829859080292 -0.049567721588656403 0.06812864639659129 0.03287221334605699 -0.042886073805318066 -0.052323467034914924 -0.06854934990226293 0.014080248635596676 3.657238250820904e-05 0.11657650011968677 -0.10723411696637515 0.009864875635414947 -0.1834673177925911 0.0734116017169254 -0.08836014188917274 0.014000577838669875 -0.0954336712809201 0.05818860505981974 0.006395519529812844 -0.03725855253558659 -0.026124782253667624 0.07254578748059513 -0.0731214797044986 0.007789287800772195 0.1435804303103497 -0.04251167558822772 0.09219979526102516 -0.03743767806151181 -0.007608439978522417 -0.13153490847058577 -0.044375737739698495 0.0351082143661676 -0.047378783935685606 0.04161840188780297 0.06045884316313799 0.09582225031855719 -0.009499663972481403 0.002327260115070217 0.12712756542704154 -0.06416823710568538 -0.0314511838262408 0.07079884387801008 0.04190874058941031 -0.08482898538369411 0.10056889241376735 0.04883024343940874 -0.039146867117593694 0.08911465389626563 0.010439776543773451 0.033691032928625235 0.04530237149982668 -0.006682606868609832 -0.007155040228371905 0.07153767959531104 -0.12137301661285889 -0.03817760728826918 -0.059376212629499624 0.011004876756991177 -0.08326920378681454 -0.030594546659385047 0.05421504035098485 0.12114996198968182 0.020380416305246226 -0.04302677494247098 0.05244243702173089 0.003490091294026583 0.05305952915083104 -0.020459443146565316 0.033369614367677325 0.10135951429927188 0.08588301813617356 -0.056029239383240795 -0.0826111138954152 -0.10220167744807218 0.022215735583864357 0.015215183940028142 -0.10577547096741263 0.055172103590647587 -0.0888002760030353 0.05657829806999234 -0.04586632928818542 0.0014629263418553203 -0.07732639986427375 0.017690364879982573 0.0059110175082013406 -0.051725173339940915 0.0313632375160802 0.054979548584810425 0.01788740501363173 0.004213753988871302 -0.0316971018910408 0.05482160672545433 0.09464157372713089 0.036216095089912415 0.07150433957576752 -0.014350584708154202 0.05756795033812523 -0.01098770834505558 0.004195428919047117 -0.0527607686817646 0.0910615622997284 -0.09747090935707092 -0.054024793207645416 -0.0030357076320797205 -0.014356549829244614 0.035236869007349014 -0.08451059460639954 -0.07482367008924484 -0.08038222789764404 0.03503189980983734 0.0020554601214826107 -0.06011202186346054 0.01706286519765854 -0.17610222101211548 0.015136698260903358 -0.06847446411848068 -0.037327688187360764 0.008047775365412235 -0.04198938608169556 -0.039919983595609665 -0.004810563288629055 -0.027675971388816833 -0.011514044366776943 -0.04186045005917549 0.07320861518383026 0.0698600560426712 -0.10238935053348541 0.02901829592883587 0.01863033138215542 0.025407109409570694 0.022881312295794487 0.03647954389452934 0.08186200261116028 0.10957234352827072 0.008923390880227089 -0.062286458909511566 -0.010387727990746498 -0.06750127673149109 -0.004077848978340626 -0.06243770197033882 -0.039635639637708664 0.09527534246444702 -0.06234327703714371 0.055105630308389664 0.01688472181558609 0.07113200426101685 0.1921268254518509 0.009953565895557404 0.10146503895521164 0.0001789413799997419 -0.019692406058311462 -0.0347512923181057 -0.015383034013211727 -0.05381753668189049 -0.03130541741847992 -0.024318702518939972 -0.05637461319565773 0.15236599743366241 0.037787679582834244 0.04832719266414642 0.0021717578638345003 -0.028945844620466232 -0.1129031628370285 -0.01883671246469021 -0.12671639025211334 0.08629342913627625 0.00834536924958229 -0.07963551580905914 -0.08653323352336884 -0.0398244708776474 -0.05006517842411995 0.043198008090257645 -0.02236330136656761 -0.0476842075586319 0.020965401083230972 0.0013189748860895634 0.018553314730525017 0.025097809731960297 0.05940472334623337 0.04663983732461929 -0.060026947408914566 -0.043772656470537186 -0.03306032344698906 0.08383495360612869 0.1660851389169693 0.039173588156700134 -0.11182995140552521 0.05724629759788513 0.017746711149811745 0.02686363458633423 -0.03572033134778709 -0.046534518482051195 -0.1287095605824044 0.01601591466994234 -0.026659775378163046 -0.11955262537371736 0.07279935935079147 0.013513372028756394 -0.151212910867562 0.017216073189515287 0.03974776725008346 0.09607971149849212 -0.04513455189752501 0.001642034365800269 0.10744041709676216 0.010239286025554274 -0.11829770999805005 0.020821773068325045 -0.04019772718761696 -0.00048192806795618615 -0.09048003102223777 0.13762340739857168 -0.029812959578702235 0.10759673875836909 0.13055296726338644 0.03972366595792085 -0.07286312925115684 0.00119919591698724 0.07412580328360394 -0.06755120354234367 -0.049884519720697594 -0.008715656105739721 -0.0525270797394875 0.035479435502241495 0.05183540049818919 0.035934343016820414 -0.07590821098321113 -0.021244307705040693 0.02499470088583841 0.025549166967546007 0.012896675553585021 0.048945034351313726 0.06732348672177046 -0.121650204262999 -0.01731590027790205 -0.05589046239095245 -0.01452206695772706 -0.0661239494772856 -0.12308078049552174 -0.1453178011218902 -0.04176149272266377 -0.12505013640636653 0.0441642425020493 -0.03676613778018626 -0.10468404388277786 0.023314849340319008 -0.0657414244186835 0.047986380914000454 -0.044164414882222176 -0.006958198436345819 0.04324536916959629 0.001010242469254096 0.07161670238144617 0.05993973903959166 0.03722465352868694 0.08800220312629006 -0.03161159663375197 -0.16881988981528995 -0.0031087085759419516 0.01488129815763082 0.03835513202303027 0.00808947310590186 0.012127023991183884 -0.04525967460461706 0.04109921098188835 -0.09545560118785264 0.05240873298657465 -0.06526160517029644 0.08392200626197675 -0.10086043308425817 0.008337526823960266 -0.03184513992427504 0.024042907476854745 0.02390101204567269 -0.10639794530117919 0.04776427590892407 0.042303628608534254 0.11060583812991827 -0.04271002802965866 0.036336797099238524 -0.01973036454828898 -0.09299089181050248 -0.004426943061747361 -0.03435991638842165 0.043934883686723436 -0.027935534292829016 -0.057589959131397195 0.0115636292147928 -0.012433589551791947 -0.005094116924098191 -0.07563649117946625 -0.08789508044719696 0.025576168671250343 0.03308616206049919 -0.10613210499286652 -0.03611583262681961 0.08122284710407257 0.0567145012319088 -0.03137357532978058 -0.05154327303171158 -0.012875944375991821 -0.04323989897966385 0.04494255408644676 0.056767065078020096 -0.03264925628900528 0.08016809076070786 0.15053629875183105 -0.013238878920674324 0.07916383445262909 -0.017412947490811348 -0.2728506326675415 0.04752537980675697 0.06700258702039719 -0.028450028970837593 0.05953072011470795 -0.017599977552890778 -0.1578923910856247 0.11677456647157669 0.10149332880973816 -0.044358815997838974 -0.06788881868124008 0.013737564906477928 -0.024587877094745636 0.039392732083797455 -0.08426908403635025 -0.06732508540153503 0.12812410295009613 -0.051361046731472015 -0.026050059124827385 -0.14459389448165894 -0.0038279956206679344 0.09691699594259262 0.13905376195907593 0.027267854660749435 -0.02275463193655014 -0.005084451753646135 0.038990870118141174 -0.019617756828665733 -0.010592354461550713 -0.07940447330474854 -0.03737565502524376 -0.0861140713095665 -0.09137481451034546 0.013201401568949223 0.031567130237817764 -0.001685393275693059 0.04065265133976936 -0.01186775416135788 -0.014332136139273643 0.0009046228951774538 -0.09909242391586304 0.0685003250837326 0.024705907329916954 0.015943709760904312 0.04657773673534393 -0.015401044860482216 0.0043298606760799885 0.12824811041355133 0.012192371301352978 0.018481958657503128 0.04819469153881073 -0.004282542038708925 0.040552299469709396 -0.023414136841893196 0.0898776426911354 0.04255836084485054 0.029895389452576637 -0.10102877020835876 0.0026484536938369274 0.017630815505981445 0.17705045640468597 0.013289738446474075 0.06539523601531982 0.1386164128780365 -0.019121641293168068 -0.062424879521131516 -0.07544232159852982 0.02477634698152542 0.02988349460065365 0.08637337386608124 -0.0013643562560901046 -0.0369873084127903 0.014567895792424679 -0.02841857448220253 0.0010863348143175244 -0.07154306769371033 0.0273232813924551 0.001224036212079227 0.03297029808163643 0.0720491036772728 -0.05314149707555771 -0.07060267776250839 -0.04502924531698227 0.006192650645971298 -0.02947680652141571 0.034612275660037994 0.017613623291254044 -0.010467673651874065 -0.028410261496901512 0.09344982355833054 -0.06226247176527977 0.08367802202701569 -0.015182950533926487 -0.05653916671872139 -0.07287340611219406 0.05528716370463371 -0.09379090368747711 -0.004206538200378418 0.048900116235017776 0.20688383281230927 0.02325226366519928 0.07536657154560089 -0.01192508079111576 -0.03258468955755234 0.059052105993032455 -0.06260794401168823 0.05213136970996857 -0.016390427947044373 0.04261006787419319 0.008311079815030098 -0.02453252673149109 -0.102732352912426 -0.07172621041536331 -0.018115494400262833 -0.08377393335103989 -0.061917394399642944 -0.0058694020844995975 0.08365055173635483 0.09510969370603561 -0.05053357779979706 0.04113851860165596 0.0262665506452322 0.035982731729745865 0.009501345455646515 -0.07883305847644806 -0.041774898767471313 0.025203224271535873 -0.03875352442264557 0.0338401235640049 0.08274227380752563 -0.00506325950846076 -0.024595558643341064 -0.011187848635017872 -0.022356171160936356 -0.1301925629377365 -0.0034308391623198986 0.09801159054040909 0.00406587915495038 0.026942560449242592 0.007881758734583855 0.0027448064647614956 0.029141174629330635 0.09307711571455002 0.10045649856328964 -0.005141489207744598 0.013205436058342457 0.026548638939857483 0.09928916394710541 -0.038281138986349106 0.06691338866949081 0.10727573186159134 0.1191834956407547 0.0870799571275711 0.002037062542513013 -0.1742008477449417 0.04834684357047081 -0.0176934115588665 -0.030217887833714485 -0.09526492655277252 0.07159802317619324 0.010397926904261112 0.0007691878126934171 -0.01702367141842842 -0.024559663608670235 -0.02280597947537899 0.07952697575092316 -0.04133587330579758 -0.02089853584766388 -0.06925082206726074 -0.0047012809664011 -0.12001853436231613 -0.0302418265491724 0.01474414300173521 0.018140943720936775 -0.03014959581196308 0.01352132298052311 -0.012004703283309937 0.08476307988166809 -0.001480000908486545 -0.06009991839528084 -0.09143937217126284 -0.06413939334295296 0.038303147653601016 -0.04152044830444547 -0.024662519594624354 0.07660654905625475 0.012309491427889039 0.06720205848988658 0.1529402661095694 -0.08592847968883183 0.13991300484997832 0.043776170649301255 0.04190619941994019 -0.06763823669810566 0.011731612540568849 0.01417517404989134 0.05711487309500584 -0.11394577677043098 -0.09478474236866079 -0.04416070124217172 0.006651068724728177 0.05656657349547489 0.0910312190502733 0.06033693066950472 -0.035350040020874635 0.05785975078789188 0.043504151230163754 0.14816539756426453 0.040722572397370795 -0.02859886282519117 0.032166526278089365 -0.0931276805390572 0.11208556244475676 0.13407502370735533 -0.06528899490287977 0.0337805772839042 0.027753242103681006 -0.10062911637163122 0.026969711105826792 -0.012449985443123403 -0.014462974622161463 -0.06115174536955942 -0.08691967726589878 0.03668039291054579 -0.014831410452331327 -0.00895391348499592 -0.09927324145961029 0.08623490618891293 0.008307328758919512 -0.03749761239594943 -0.022629517004541654 -0.06348519237622989 0.02875380021782527 -0.022069929126757055 -0.03090625453215124 0.06037175867631214 0.04238557314203599 -0.0765063755839488 -0.10784260295947556 -0.1257907597529176 0.0846100588594286 -0.017140570516392797 -0.017337841265060022 -0.14641123256451952 0.028163042951283135 -0.006447169925707635 0.07270851434211083 -0.0001046477958885619 0.027086511647996914 0.009427935354408687 0.001942473783894405 0.038364667901456734 0.09054396626147385 -0.022808546120501767 -0.020168951715246557 -0.004939815977019808 -0.05909503956667232 0.047857551658804495 -0.0150851504672098 -0.10014959887142277 -0.04287743120864631 0.0485779974730122 0.0759558431879405 -0.10588806147465064 0.08443526114771924 -0.03212022882297993 -0.07558685151293332 0.014382863267715765 0.013803241326236372 0.09891730905558331 -0.08723545796836248 -4.148107690936652e-05 0.03424005043681258 -0.10449392700272324 -0.021610050763521328 0.0006434438675455003 0.09771401262024178 0.05193027791529298 -0.04930438928747574 -0.05322307537133298 -0.08601531386375427 -0.14660418033599854 -0.02845785580575466 0.030484765768051147 0.09131968766450882 -0.08802991360425949 0.018051479011774063 -0.0067909276112914085 0.03737293928861618 0.05105636641383171 -0.015305646695196629 0.07640166580677032 -0.045673880726099014 0.12186362594366074 0.02204730547964573 -0.04007701203227043 0.04605444148182869 -0.12676967680454254 0.048770058900117874 0.0732700526714325 -0.055571138858795166 0.08492396771907806 -0.08738495409488678 -0.009349475614726543 -0.03209107741713524 0.10341313481330872 0.049266278743743896 0.052219510078430176 -0.08462134748697281 0.024174805730581284 -0.05664543807506561 -0.1266034096479416 0.015557471662759781 -0.060571957379579544 -0.040556978434324265 -0.05275432765483856 0.03719611093401909 0.05033533275127411 -0.008462503552436829 0.072528176009655 0.011439371854066849 -0.006304780021309853 0.09831860661506653 0.10802090913057327 0.0028830794617533684 0.04237451031804085 0.07532946765422821 -0.1145653948187828 -0.012135114520788193 -0.006198917981237173 -0.039998333901166916 -0.005240061320364475 0.10618256777524948 0.07743237912654877 -0.008686654269695282 -0.09351910650730133 0.04041794687509537 -0.02588341012597084 0.07983575016260147 -0.08080504834651947 0.017747819423675537 0.06717066466808319 -0.05887766554951668 -0.020637821406126022 -0.0959610790014267 0.038018934428691864 -0.07255863398313522 0.030981464311480522 0.0033390389289706945 0.03140287473797798 -0.06362763792276382 -0.053496383130550385 0.009907759726047516 -0.023240841925144196 0.016629140824079514 0.041973624378442764 -0.02814445085823536 -0.02569645084440708 -0.05066617950797081 -0.026927979663014412 0.01970941200852394 0.036678943783044815 -0.04712539538741112 0.015109212137758732 0.014146780595183372 0.0045586260966956615 0.0305919386446476 -0.13380980491638184 0.005406555254012346 0.01962139829993248 0.002343844622373581 0.01247535739094019 0.02754978835582733 0.05747981369495392 0.006754179019480944 -0.07446080446243286 0.042469706386327744 0.05330149829387665 -0.04225596413016319 -0.07146020978689194 -0.10550759325352078 0.017087399412305634 -0.032861456399850365 0.01643006518655132 0.049878512382652375 -0.08730338519260214 0.02449062680585136 -0.05712494465930895 0.01659244227986444 -0.1483023780070866 -0.0413052290290541 -0.047243946805898544 0.0112772334040629 -0.10524407618686533 0.05971054276533868 -0.023199276498633358 -0.06071604841803266 0.04987668687654648 0.0535533434379641 -0.07503261300110177 -0.024551023148597518 0.0568060710813442 -0.025997065441948172 -0.12353914222544378 -0.12451956367406604 0.05061278795083089 -0.05510568367606293 0.08471766123738919 -0.024150676938577125 -0.038542074680099486 -0.006037341362489913 -0.019969641242222492 0.044214062783929156 -0.05096337063529722 0.02372850521174305 0.03913438055952835 0.040734466839329464 -0.011435734833928563 0.13949257599933126 -0.04021874105671795 -0.1417115235810722 -0.0016190074805856477 -0.03699296984839544 0.03191227289460386 -0.06220578107816743 -0.031953188243409196 0.0340291560431692 -0.03379914994039024 -0.05606214340452179 -0.01970204581572187 -0.005931584324590493 -0.06107199381649647 0.07525221279260585 0.032509891275679034 -0.03177072406090273 0.0059217253796721835 -0.10609295269360249 0.016299018107562954 -0.05284245114732221 0.014518649324004885 -0.004339351756374576 0.003071294482531271 -0.05529928953400246 -0.02649779065874294 0.00805324387154413 -0.10075076564703715 -0.0929902285101195 0.01594568827400826 0.08546664381366428 -0.0745268401420173 0.04983424874004901 0.03924153005946656 0.05788260723982343 -0.053831131273739286 -0.015684508306896158 -0.05503008927470741 -0.01789233839082355 -0.06072005709835168 0.056331889550291024 -0.08810671402281248 0.06065991635329767 -0.07585847732822461 0.03614792461853305 -0.02792445666857792 -0.03591032493984262 0.045536206840314716 0.024330249152289186 0.20321205106301457 -0.025259329322415876 0.023285816757488854 0.036173934309690174 -0.038225009158600734 -0.04012749270390173 0.12547247892484198 0.044549824880663474 -0.06303145650981692 -0.021590310827960046 0.04329266821798943 0.16230365157538565 0.005205934725146091 -0.06114360690116882 0.036254651844501495 -0.023600883781909943 0.03644935041666031 0.01404943410307169 0.02567233145236969 -0.020403413102030754 -0.017141152173280716 -0.013319719582796097 0.014731943607330322 -0.050241123884916306 -0.016197441145777702 0.014836324378848076 0.12726990878582 0.19243720173835754 -0.012390539981424809 0.10258416831493378 0.11706224828958511 0.03688185289502144 -0.11540176719427109 0.11641636490821838 0.16481906175613403 -0.07949604094028473 0.04393886402249336 -0.13440024852752686 -0.06865572929382324 0.023527245968580246 -0.05967895686626434 0.0015931033995002508 0.04206521809101105 -0.04115765169262886 -0.07612868398427963 0.05879725143313408 -0.05025136098265648 -0.04222337156534195 -0.045334361493587494 0.02006608620285988 0.10978784412145615 0.025248011574149132 -0.06628324091434479 0.02067697048187256 -0.09026069194078445 -0.012230867519974709 -0.046118173748254776 -0.01789468340575695 0.08345422148704529 0.06939585506916046 0.031952403485774994 -0.045128967612981796 -0.029981648549437523 0.03497732803225517 -0.021927859634160995 -0.03149901330471039 -0.07093845307826996 0.06254101544618607 0.08492341637611389 -0.02591981180012226 0.09477341920137405 -0.05112139880657196 0.06788855791091919 -0.008854411542415619 0.03165611997246742 0.03785992041230202 -0.08311542868614197 0.057808343321084976 -0.029151495546102524 -0.041592057794332504 -0.06454271078109741 0.0381491482257843 -0.010807301849126816 0.001010014326311648 0.005498697981238365 0.010557725094258785 0.043734367936849594 0.010712087154388428 -0.06668684631586075 -0.07039698213338852 -0.06661608815193176 -0.033926304429769516 -0.04707881808280945 0.05352411046624184 -0.06817848980426788 -0.032999251037836075 -0.029082560911774635 0.11419136077165604 -0.09517766535282135 0.004089011810719967 -0.04584423080086708 -0.06653763353824615 -0.0351836159825325 -0.07849307358264923 -0.19382646679878235 0.037753716111183167 0.05846565589308739 -0.15721607208251953 0.07434679567813873 -0.11993468552827835 0.0360417515039444 0.02758093923330307 0.07856003940105438 0.04725782945752144 -0.0448012501001358 0.04902281239628792 -0.05444813519716263 -0.016119344159960747 0.04417949169874191 -0.017075709998607635 0.07114537060260773 0.1222551241517067 -0.0027720031794160604 0.024308979511260986 0.010264374315738678 -0.04199111461639404 -0.08553393930196762 -0.05388282239437103 0.06662334501743317 -0.011735551990568638 0.1766204833984375 0.03768059238791466 0.06365358084440231 0.1195783019065857 0.12100887298583984 -0.009828910231590271 -0.035030655562877655 -0.041686590760946274 0.03968799114227295 0.035424456000328064 0.045049116015434265 0.08052398264408112 -0.039067592471838 -0.11064228415489197 0.09125497937202454 0.04399453103542328 0.024297242984175682 -0.06752309203147888 -0.01063711941242218 0.08589936792850494 -0.032867658883333206 0.07619050145149231 0.05219550430774689 0.027276335284113884 0.10755810886621475 0.04363775625824928 0.08424786478281021 0.07862362265586853 0.03479549288749695 0.07908118516206741 0.13018763065338135 -0.065620057284832 -0.05758862569928169 -0.047520462423563004 -0.10423307865858078 -0.02462807483971119 -0.07753349095582962 -0.00025889213429763913 0.02873970754444599 -0.05556976795196533 0.05443935468792915 0.06487515568733215 0.07007357478141785 -0.10092401504516602 0.023983199149370193 -0.009432249702513218 -0.022713778540492058 -0.04922748729586601 0.02327638491988182 0.016691096127033234 0.03164670988917351 0.03654491901397705 0.005452557932585478 -0.015541990287601948 0.06356984376907349 -0.1275738775730133 6.819105328759179e-05 -0.0035397238098084927 -0.0678902119398117 0.08007088303565979 -0.027837714180350304 0.031447481364011765 0.11911892890930176 0.015429879538714886 -0.02538466267287731 -0.14069151878356934 -0.005344167351722717 -0.07147613167762756 -0.07287738472223282 0.04817488044500351 -0.04404420778155327 0.0860367864370346 0.016688823699951172 -0.03081686608493328 -0.05039423331618309 -0.03403846174478531 -0.16492778062820435 -0.1479787528514862 -0.0055168429389595985 -0.031718555837869644 0.028366615995764732 -0.07943843305110931 0.02938414178788662 0.08970383357228759 -0.09339610755341077 -0.059911836881755005 -0.01020053526404394 -0.027803529977089497 0.026821773097952778 0.0792459329791079 0.06684441088954068 0.07940464901836286 -0.04402907540858184 -0.06067903918697471 0.07278394737038091 -0.1146850932572423 -0.11945364873667248 -0.03971432749795759 0.05341984722167573 -0.039481691531390646 -0.07685642970533416 0.0046012588391415804 -0.05330672568273406 -0.023069935701488846 -0.02280446551599501 0.06276379745852487 -0.11933866137957908 -0.07343707677559616 -0.0501680185905481 -0.005263287908767259 0.10937379887178372 0.04801102765278385 -0.04275870875868474 0.01801183865751167 0.06691978555663448 0.11700438040500402 0.03831985369941472 -0.08140296299630054 -0.014491063576598361 0.02433018950225351 0.0024270474800336377 -0.058504497477692104 -0.08972720486298033 0.06925256360350712 -0.05557181819492352 -0.07646350966447109 0.03700229661382662 0.11801225286055661 0.03166484029233329 0.032436049991036754 0.004336457601039122 0.051900550583083356 0.01152291469870399 -0.07614296876094788 0.007024321632438174 -0.058894646052402376 -0.00239928339462473 0.010874931847626659 0.06256015292303652 -0.06616365986610824 -0.03499042937081487 -0.11102039023093076 0.1033490916018805 -0.0034534397523496444 -0.017836600272475397 0.009821237862239703 -0.16125765312890267 -0.05817843644087941 -0.038849786651270604 0.056320828993955616 -0.011500742435574663 0.06556543247384525 0.09550412195273834 0.0324577989912732 -0.0804733264982097 -0.01670905702141241 -0.08523829289346625 0.11357632162966486 0.057367572428637915 -0.06125213237647397 -0.022443347692433266 -0.00460444867616021 0.04891110982159882 0.14259343916 -0.05531474822806658 0.013542292747461581 -0.023449628041056166 0.011719875924119643 -0.08675714590593969 -0.05650232814650263 0.02893431822303855 -0.10916937975483028 -0.10670288659374362 -0.029988556288345212 -0.00035386760067688487 -0.06476263275356854 -0.02456860756804446 -0.010018209606659336 -0.122860474688815 -0.07857417545006626 -0.0241891929869105 0.047255012347382795 0.0763225799281191 0.04172087460756302 0.09508173167705536 -0.005475298501551151 -0.012717797420918941 -0.07539798319339752 0.12620477378368378 -0.08841809630393982 -0.031658023595809937 -0.03528718277812004 0.06396309286355972 0.047888293862342834 -0.031158018857240677 0.0061240787617862225 0.06125450134277344 -0.0393536277115345 -0.04485830292105675 -0.06302846223115921 -0.07315071672201157 -0.13349445164203644 -0.04461393132805824 -0.004697917494922876 0.019227223470807076 -0.013320252299308777 -0.023448975756764412 -0.0834026113152504 0.036461133509874344 0.06071538105607033 -0.034049276262521744 -0.08406312763690948 0.1003957986831665 -0.039848506450653076 0.025578094646334648 -0.028357869014143944 -0.08708741515874863 -0.002448862884193659 0.0036626853980123997 9.985071665141732e-05 -0.05028802156448364 0.017275290563702583 -0.024272607639431953 0.06388331949710846 0.05653690546751022 -0.0634051039814949 -0.07783563435077667 -0.058897100389003754 -0.027623390778899193 -0.004432321060448885 -0.013188844546675682 -0.014839237555861473 -0.06488921493291855 -0.057221949100494385 0.072825126349926 -0.09643532335758209 0.024006366729736328 0.04334408789873123 -0.01003825943917036 -0.0760565772652626 0.003496033838018775 0.14712555706501007 -0.08034495264291763 -0.01676487736403942 -0.09059053659439087 0.0020768626127392054 0.007716570980846882 0.06387076526880264 -0.0597938597202301 -0.02277199923992157 0.06569437682628632 0.026337478309869766 -0.13886676728725433 0.09611967206001282 -0.04140811786055565 0.006149018183350563 0.05112077668309212 0.04724220931529999 0.03570647910237312 0.13020649552345276 0.08042750507593155 -0.03663414716720581 -0.19611674547195435 0.03956582024693489 0.10565507411956787 0.040387801826000214 0.045283809304237366 -0.14311620593070984 0.048424385488033295 -0.037845954298973083 0.006072045769542456 0.003513018134981394 -0.0022228811867535114 -0.055496085435152054 -0.09819221496582031 -0.08940418809652328 0.01971784420311451 -0.07875862717628479 0.00902483519166708 0.06314057856798172 0.03372987359762192 -0.0062284269370138645 0.06077666953206062 0.0038090418451828647 0.013593502828236702 -0.05524674425517095 -0.08774473560068506 -0.03371319319405352 0.023432551783196764 0.0034729055775026335 -0.046128231849765736 0.047006720669566376 0.06663407764489529 0.05266800096291832 -0.00027952471180504813 -0.12347141892094542 -0.08399693597895593 -0.1029004683065053 -0.04675376378039892 -0.010691264791335524 -0.08517582787691864 -0.011191976953227595 0.029713897710441303 -0.08330999715915541 -0.07447839278437246 0.004034043955789482 0.031176378765089698 -0.023237341661722203 -0.0311468755884277 0.04208772344848198 0.05288580193719645 0.03243016844542417 -0.060561381486717476 0.03246659883151872 0.10246370902506985 -0.07731327177405108 0.021202384371016274 -0.0022561524069927 0.003995745437813098 -0.11794963638734615 -0.11448081287350503 0.046303271314622245 0.050664248999863874 -0.11318811650337512 0.07108928269549705 0.12690626022752716 -0.05023106719675956 -0.003724055404896386 -0.03812555110273602 -0.04893781524184614 -0.015658352447501925 -0.0553670708235697 -0.03521539747597652 0.11787625193427576 0.03877804299236977 -0.15337556017138515 -0.003158531786616439 0.00535231100069238 -0.1302918224967004 -0.12867036960210637 0.01757129518772876 -0.011765865736751832 -0.03804079661921653 0.0440209940464518 -0.03612056241678945 -0.15340275255487087 -0.03445638506278885 -0.062040406415902825 0.04696764528820177 0.1122360654717608 0.09945535075863246 0.028615102534290535 0.014148366740894185 0.010588101798953108 -0.022065470735071483 0.008050951319483577 -0.02870716980726947 0.058163349887055966 0.01920954572966316 0.07213073198943092 -0.039918527311513095 0.04208055229460708 -0.02083019590093294 0.044942542195188756 0.1084187965459104 -0.032280052465945924 -0.015278509839624907 -0.07646236077626709 -0.06454156695139625 0.027259637931074714 0.10375380854957279 0.06343967904268462 0.0001436797230909947 0.11560551744384195 0.15809815062690838 -0.0069937070102669245 0.02702969660756703 -0.11853572841947226 0.01127421236026991 -0.08231869141363914 -0.010935096439819207 0.04533075797588092 -0.051901440836260686 -0.11679909378290176 0.10160333663225174 -0.025052864104509354 0.010351933538913727 0.044410087168216705 -0.09882597625255585 -0.040403369814157486 -0.07503864914178848 -0.0728607252240181 -0.07995552569627762 -0.023427899926900864 -0.008854991756379604 -0.01372025441378355 -0.05350595340132713 0.05747585371136665 -0.05718185752630234 0.01919848471879959 -0.018921565264463425 0.06558350473642349 -0.06995338201522827 0.03348797559738159 -0.009069526568055153 0.006047716364264488 -0.008221319876611233 -0.07580763846635818 0.002196459798142314 -0.0601218082010746 -0.037375666201114655 0.04454876109957695 0.09515008330345154 -0.07696057856082916 0.04154244810342789 0.0912427008152008 -0.05911998450756073 0.029500920325517654 -0.039266187697649 -0.08844966441392899 -0.07626932859420776 0.10967013984918594 0.04201161488890648 -0.015520308166742325 -0.020180558785796165 0.014016716741025448 0.03287776559591293 -0.02156594581902027 0.013823773711919785 -0.09427830576896667 0.07769033312797546 -0.03514007478952408 -0.01152869313955307 -0.07502750307321548 0.012688171118497849 0.01611475832760334 -0.08941756933927536 0.11402621120214462 -0.0009469828801229596 0.14298397302627563 -0.03959508612751961 0.060235463082790375 0.06822657585144043 0.0005622825701721013 0.08214646577835083 0.12640264630317688 0.022420436143875122 0.023690123111009598 -0.09039654582738876 0.005588997155427933 0.05432894080877304 0.12118639051914215 -0.05034855380654335 -0.06023060902953148 0.12568898499011993 -0.08496436476707458 -0.04170164465904236 0.09373852610588074 0.013710577972233295 0.10246144980192184 -0.04455861076712608 -0.10969137400388718 0.049052849411964417 -0.04765722528100014 0.06738244742155075 0.004841186571866274 -0.09015601873397827 0.17826826870441437 -0.09001971781253815 0.051661938428878784 -0.01471012458205223 -0.0480341874063015 -0.06397990882396698 0.04205603897571564 0.04508296400308609 -0.010907805524766445 0.04995881766080856 -0.036720726639032364 -0.025240382179617882 0.02532556653022766 0.0629349872469902 -0.014834006316959858 0.01153278537094593 0.04956348240375519 -0.002714486327022314 -0.03455185890197754 -0.05334009230136871 0.012779015116393566 0.08366019278764725 -0.057476941496133804 0.004665468819439411 0.11797254532575607 0.005109298508614302 -0.07287432998418808 -0.026371099054813385 0.06891457736492157 0.08357993513345718 0.025263594463467598 -0.04203474149107933 -0.031418729573488235 0.062308818101882935 0.15507449209690094 -0.008526699617505074 -0.04723678156733513 -0.003182073123753071 0.04160600155591965 -0.12698514759540558 -0.05487110838294029 0.078833669424057 -0.09625448286533356 -0.13358506560325623 -0.04851095750927925 0.0642680823802948 0.09103422611951828 0.1263340562582016 -0.028147296980023384 -0.0630568116903305 -0.005216830410063267 -0.0015342665137723088 -0.05730939656496048 0.041557878255844116 -0.006607926916331053 0.01828986406326294 0.049563005566596985 0.026411445811390877 -0.018502600491046906 -0.02094515971839428 -0.021060578525066376 0.07726842164993286 0.009804575704038143 -0.035053469240665436 0.005027324892580509 -0.12179188430309296 -0.08391125500202179 -0.06871087849140167 -0.10285429656505585 0.0508253239095211 0.003684536786749959 0.005621208809316158 0.10598710924386978 -0.081120066344738 -0.08570213615894318 -0.04440651461482048 -0.05032029375433922 -0.12644797563552856 0.01891406811773777 -0.09794723987579346 -0.10085838288068771 -0.13231772184371948 0.006928448099642992 0.06562080979347229 -0.03785937279462814 0.014507328160107136 0.0033918358385562897 -0.1437273621559143 0.045606449246406555 -0.07989658415317535 0.00959651730954647 -0.005532171577215195 -0.0670948177576065 -0.01528883446007967 -0.03679376095533371 -0.0016494274605065584 -0.011614949442446232 0.021920274943113327 -0.1154516339302063 0.011192148551344872 0.0634673535823822 -0.027951981872320175 0.012269812636077404 -0.07582288235425949 0.049636173993349075 0.021111467853188515 0.04026374965906143 -0.05282600596547127 0.06874080002307892 0.10592259466648102 0.08122077584266663 -0.009317278861999512 0.013259779661893845 0.004328405484557152 0.049926552921533585 0.05024780333042145 -0.07854092031734253 0.07805155989791672 -0.07946167944288715 -0.08628290760570712 -0.05474894006185104 0.039241916897246806 -0.026378108482680743 0.07927782348146159 -0.03440574831402051 -0.10194089672182953 -0.0005999583397963235 -0.07160336993671641 0.054778895254057325 -0.044607779604578686 0.011586470850356296 -0.0700786454419816 -0.005357041132844263 -0.10012180149224052 -0.005920457840045612 -0.087229744837209 0.03881553508518121 -0.02181373182322797 0.01968519741350168 -0.02502625556701317 -0.11597291353236011 -0.11811807829902535 -0.07904381914286399 0.04430644983426275 0.035289236713742234 -0.030871651841567725 0.011025216308750729 -0.000625820078334879 -0.04374473230028794 -0.089130261331613 -0.09263275072673396 -0.05605390572907866 0.02656595658383175 -0.03209639877699482 0.05981314191992152 0.02875090320922555 0.12017497674227616 0.06389324488396884 -0.0034254866772142497 -0.036705400895094685 0.05063156470232134 -0.07069377926733196 0.01167898041556272 0.12096313224147004 0.07920908733033724 -0.06073496710569054 0.02192495737093458 -0.028730605432495816 0.010836475481498109 0.022367008356811813 -0.010287196709782379 0.018983677732195458 -0.04475361123170039 -0.11495644165575473 -0.15591933786658044 -0.06907178981098434 0.10133843625142168 0.06079418999173854 -0.06322694275155791 -0.11290923030764143 -0.08412548141301028 -0.049100995379533205 -0.0020696043132560574 -0.04070993668210682 -0.04460907194995624 0.0032356977222140672 0.07745639900822267 -0.04566266661544215 0.06781661727722657 0.05292315268891112 0.017846049976840507 -0.05755569976097651 0.0023397968238149424 -0.02770161330070156 0.02305563758035155 -0.010749577574936064 -0.10066214786005293 0.04538904868843803 -0.07427104007306934 0.07947471976898035 0.027577584588484954 -0.11321082353702566 0.13050800610800284 0.003436656453957046 0.003120334417893233 -0.15890115789897621 -0.03187503680862576 0.04983521922886945 0.016648698832889927 -0.00824340510105037 0.05571093113239168 0.04664865604655331 -0.10202226411405942 -0.014828532379540892 -0.03320745207715376 0.043043090915660824 -0.10956807434558868 0.009843512438237667 0.01916354149580002 0.03604224696755409 -0.042621467262506485 0.07868997752666473 0.0537133663892746 0.03200698643922806 0.08193900436162949 0.0036883046850562096 0.1489773541688919 0.04649273678660393 0.015329130925238132 -0.037741512060165405 0.022984158247709274 0.03277017921209335 0.008838900364935398 0.006315277423709631 -0.020464029163122177 0.024978265166282654 0.0465017668902874 0.06431682407855988 -0.06193516403436661 -0.07782482355833054 0.08384784311056137 -0.07278483361005783 -0.08664597570896149 -0.09941563010215759 -0.013003519736230373 -0.06497997790575027 0.03888905048370361 -0.0322602242231369 -0.05537518858909607 0.03183591738343239 -0.062481530010700226 -0.011943257413804531 -0.06380961090326309 -0.041400060057640076 -0.0031562999356538057 -0.01791996695101261 0.0378681905567646 -0.07142995297908783 0.11273076385259628 -0.038386013358831406 0.08315690606832504 -0.14125914871692657 0.008358921855688095 -0.005477364640682936 0.0395529605448246 0.015133307315409184 0.0003972910053562373 -0.07076560705900192 0.07405952364206314 -0.043273523449897766 -0.046571068465709686 0.006400361191481352 -0.050278112292289734 0.1479707658290863 -0.12394818663597107 -0.01972610503435135 0.06991354376077652 0.05887667462229729 -0.15556727349758148 0.012116856873035431 -0.1164301186800003 0.06421680748462677 -0.17240439355373383 -0.08264001458883286 -0.007536167744547129 0.10809151083230972 0.11825129389762878 -0.013625728897750378 -0.07046312093734741 -0.023307835683226585 -0.09573177248239517 0.05423497036099434 0.08781851083040237 0.05690041184425354 0.03785672038793564 0.1137191578745842 -0.12286202609539032 0.05876965448260307 0.047520045191049576 0.03983646258711815 -0.031145241111516953 0.07717902958393097 0.04287320002913475 -0.10583306849002838 -0.131414532661438 0.0538390688598156 0.09941355884075165 0.0026291836984455585 -0.02781103551387787 -0.05697706341743469 -0.041560593992471695 0.08537846803665161 0.01885351724922657 0.1324441283941269 -0.08589927852153778 -0.05872596055269241 0.04137012854671084 -0.015505076177580806 0.1524671986228508 0.05168694585477597 -0.015008868004006958 0.12145698058183074 -0.03389673267771384 -0.19512678508295841 -0.08977862461317153 0.010112683931716531 -0.2626919998920775 -0.04811668485563371 0.03648196297188585 -0.0227518351097098 -0.14257817813267665 0.23804866437980396 -0.015359329540218104 -0.14164886404388208 0.015091165647541269 -0.08657110544787447 0.28952944537614994 -0.42465837158600506 -0.014519477881865878 -0.03578020346192412 0.22975399473195285 -0.04291824238637486 0.06810022080367727 0.040013100929694845 0.37723524977914064 0.2567236670483441 0.09391225506406706 -0.09736362403156927 0.13167834207952642 0.18249933987702321 0.00965181916397575 -0.02804637720147698 -0.004995453328101687 -0.1101605475404273 -0.0491491246950326 0.04842143503608111 0.35895602047161157 0.033004773952547965 0.08471276013235472 0.3240475743772032 -0.035216441175957916 -0.26477986130881087 -0.04501777932519663 0.09460019570581762 0.15616253749957035 0.3651781704129507 -0.0019141686981356313 -0.07507455765189419 0.372232897009308 -0.0027470855830342743 -0.12178398527815046 0.05154549582514036 0.0983898668954723 0.011661899602119821 -0.15810240759180957 0.04736120335873064 -0.2521065775658415 0.09720940454899274 -0.13661798886184529 0.1587418358648317 0.07151885522061266 0.10900064251879134 0.01126035188974819 0.16257591148062375 0.02640026244105278 -0.11772085845790896 0.17998898862016624 0.05207905099249922 -0.21185351126187607 -0.04083650563781406 -0.1414120026523643 -0.03198115454218912 0.12185900887414669 0.027128123340276162 -0.15346407742872367 0.33390743303206105 0.261078054839084 -0.04174191060022538 -0.07410417717776122 0.1057652405217056 -0.00027555432798475195 -0.033763692914343654 -0.14912127451925003 -0.2935446807470743 -0.02517557958675426 0.060556051617345806 -0.001367625536089158 -0.14361926048943563 -0.028472681923207562 -0.04269932111256865 -0.08360180674131544 -0.1060068174053942 0.13733707493799502 0.28827857493129494 -0.11024841401468839 0.23182902122086452 0.034435585141181946 -0.08131720870733261 -0.008781000040471554 0.029508184641599655 0.0445297434926033 -0.005807219538837671 -0.03019503504037857 0.03650115802884102 -0.11032024025917053 -0.057892441749572754 -0.1286662518978119 -0.014969934709370136 0.11282677948474884 -0.028338123112916946 0.009728839620947838 -0.07051534205675125 0.04526598006486893 0.15791389346122742 0.11829829961061478 -0.01715472899377346 0.039741478860378265 -0.03336293250322342 -0.08952338248491287 -0.0035803706850856543 0.08792514353990555 -0.09734122455120087 -0.00986393541097641 -0.009596790187060833 -0.08217732608318329 0.0028192950412631035 -0.03466382622718811 0.05796625837683678 0.06248096749186516 -0.01502502802759409 0.055070213973522186 -0.04894860461354256 0.08121427893638611 0.08642634749412537 0.08332610130310059 -0.03000417724251747 0.07960271090269089 -0.03760727867484093 -0.04479152336716652 0.09173044562339783 0.20631101727485657 -0.034649718552827835 0.0691533163189888 -0.12718217074871063 0.024395756423473358 0.08814409375190735 0.029554488137364388 -0.011386273428797722 -0.021553875878453255 0.011339763179421425 0.06397562474012375 -0.06595103442668915 0.03957949951291084 0.006226366385817528 -0.047418251633644104 -0.03141925483942032 -0.012710035778582096 0.019124843180179596 -0.04200302064418793 0.019777577370405197 -0.12216473370790482 0.10488037019968033 0.033439282327890396 0.035856615751981735 0.02288133278489113 0.019501985982060432 0.04588615894317627 0.036852095276117325 -0.03132062032818794 0.07707945257425308 -0.002496635541319847 0.031784556806087494 -0.12064094841480255 -0.029269622638821602 0.05185621976852417 0.019676141440868378 0.0977674275636673 -0.017605163156986237 -0.15474827587604523 0.04153533652424812 0.02732211910188198 -0.010103422217071056 -0.12314598262310028 -0.1291745901107788 0.03906125947833061 0.03453932702541351 -0.035711172968149185 -0.05854438990354538 0.03148720785975456 0.09739495068788528 -0.0051988535560667515 -0.0042042722925543785 0.017254086211323738 -0.06920929253101349 -0.03485562652349472 0.04864395782351494 0.042872652411460876 -0.033259954303503036 0.10243122279644012 0.03033917210996151 -0.017563698813319206 -0.02662247233092785 0.017322862520813942 0.09372315555810928 0.08263911306858063 -0.009090050123631954 0.03063242696225643 0.05417018383741379 -0.058182258158922195 -0.000617485900875181 0.06197061762213707 0.1336706429719925 -0.09928921610116959 -0.006150004453957081 0.013644569553434849 0.09675632417201996 -0.07230368256568909 -0.11712249368429184 0.09489705413579941 -0.0013766356278210878 -0.00033837472437880933 0.006803629454225302 -0.011545924469828606 0.019989781081676483 0.06844241917133331 -0.006649583578109741 0.04244455322623253 0.09826692193746567 0.0466497428715229 0.04329731687903404 0.04118975251913071 -0.0588604174554348 0.05231168493628502 -0.012990692630410194 0.04300079122185707 -0.1642744392156601 0.09074175357818604 0.030622093006968498 0.10307647287845612 -0.03134172782301903 0.05714813247323036 -0.05498263239860535 0.02139740064740181 -0.025483157485723495 -0.010397118516266346 0.027199730277061462 -0.10789713263511658 0.09305170923471451 0.048665113747119904 -0.02433272823691368 0.037147242575883865 -0.04812747240066528 -0.11425771564245224 -0.05297187343239784 -0.016566434875130653 0.012002427130937576 0.005124235525727272 -0.039686061441898346 0.012906295247375965 0.030044320970773697 0.09206458926200867 -0.019018085673451424 -0.030507728457450867 -0.05837845057249069 -0.07139528542757034 0.0466192252933979 -0.08530791848897934 -0.05824177339673042 0.03131170570850372 -0.00598551332950592 0.008691539987921715 0.03395061194896698 -0.0425722599029541 -0.07226218283176422 -0.025060433894395828 0.14127105474472046 -0.02265414409339428 0.045761968940496445 -0.08129438757896423 -0.0192643404006958 0.0771019458770752 0.09073389321565628 -0.045329637825489044 -0.05912889167666435 -0.023245377466082573 -0.006031857803463936 -0.10092993080615997 0.07799408584833145 0.018009446561336517 0.003811248578131199 0.07289016246795654 -0.08685577660799026 0.03412238508462906 -0.012584369629621506 0.13305774331092834 -0.008322750218212605 0.05600609241775998 0.08802538096188035 -0.16026639633380527 -0.04984886906609175 -0.0483778956870534 -0.004791850940163941 0.14218755087105003 0.128653421615252 0.30530588105444656 -0.010345622786601394 -0.1856914723785526 -0.07284891546260129 0.0026801337165759903 0.1466208390692651 0.17559705473073134 0.08979362393610248 0.012146742648233656 -0.03210521462111645 -0.06889577499641886 0.13509261026042163 -0.0026866092610703433 0.04663226653207465 0.14202916855763692 0.021935929465033734 0.019206330634927396 -0.1372401185274254 -0.026559839852061787 0.026422037746146293 0.203875657553654 0.22813614060710988 -0.03280642767728015 0.03543434473472513 0.15910940916982563 0.06690792785108061 -0.021456878764146942 -0.005801925832334448 0.05043235836966291 0.05782626390646189 0.026229113687382778 0.002278049851989887 0.35152197230636306 0.09927221851603675 -0.09617112490885014 0.0026815960635917114 0.0961689619381322 0.0024643544840879162 0.06147573813952534 0.0527263810542211 0.1409526842568565 0.0062476151778545295 0.06241977423142048 -0.07676934726260448 0.0464281575075472 0.16736417922324068 -0.03925292859387773 -0.1238734137768295 -0.02220115627291791 -0.031206427387302928 0.036256707342250886 -0.03772300221667635 -0.16403325662203158 0.1108211493619183 -0.04320041796644163 0.04147145414598238 0.06285984179798428 0.10471953581554636 -0.05088106642954955 -0.1283234520539204 -0.0844283464236112 0.07985221505917667 0.17518189079243918 -0.0009175017502457095 -0.0056931953854603284 -0.02466459306547451 0.04807053119564422 0.03170361932600276 0.025415597163844252 0.19751340015190555 -0.2110438425655115 -0.026439264357481465 -0.043618045575743905 -0.004829834245293067 0.11239391226297 -0.12064270309994399 0.03290456531055125 0.0768395685195302 0.0877705403537735 0.046018915885783385 -0.00792938451912898 0.3425324218229042 0.13027093900921471 -0.004372189442875484 -0.03472046181170156 0.08385655810913721 -0.07084690928065539 0.003608761434238396 -0.0035861651398322505 0.006359499281740981 0.011194167445858877 -0.07495635312904286 0.02659723535180092 -0.07683166861534119 -0.005613573361188173 0.024035226553678513 0.02426592819392681 -0.00032068134169094265 0.06379848718643188 0.012727688066661358 0.02096400037407875 0.05207746848464012 -0.05534835532307625 -0.01968192309141159 -0.07985777407884598 -0.051254354417324066 -0.07551031559705734 -0.13538186252117157 -0.05059263855218887 0.08060924708843231 0.01993534155189991 0.11389291286468506 -0.034389812499284744 -0.0646117553114891 0.08238761126995087 -0.0784684494137764 0.056943994015455246 0.02023891732096672 0.01299732830375433 0.012279287911951542 -0.009501210413873196 -0.018009096384048462 -0.04028330743312836 -0.08245444297790527 -0.015335474163293839 -0.03789613023400307 0.012593279592692852 0.016432957723736763 0.0022653385531157255 0.005596035625785589 -0.06316074728965759 -0.06371773779392242 0.02777290903031826 -0.11608307808637619 -0.07633411884307861 0.12019555270671844 0.0028665862046182156 -0.029125552624464035 0.0068142833188176155 0.07043667137622833 0.0287600290030241 -0.03115389496088028 0.08448898792266846 -0.031573887914419174 -0.1507592648267746 -0.08227567374706268 -0.04578874632716179 -0.04625028371810913 0.08171344548463821 -0.027550648897886276 0.05308379977941513 -0.03447091206908226 0.060488469898700714 -0.10434117168188095 -0.041506122797727585 -0.061355363577604294 0.020484771579504013 -0.04898481070995331 -0.0036133143585175276 -0.004613820463418961 -0.030589962378144264 0.006556021049618721 -0.03264215961098671 0.006073902361094952 -0.050647541880607605 0.055501505732536316 0.12382770329713821 0.2175125628709793 -0.11793213337659836 -0.009843967854976654 -0.07020734995603561 -0.010130707174539566 -0.08535419404506683 -0.12554481625556946 -0.03427716717123985 0.032356515526771545 -0.059645552188158035 -0.03971508890390396 0.11478597670793533 0.05512984097003937 -2.906406734837219e-05 0.04968910291790962 -0.04014679044485092 -0.009106345474720001 0.015194518491625786 -0.015268990769982338 -0.04598595201969147 -0.05500618368387222 -0.03423662483692169 0.015457442961633205 -0.038061607629060745 0.06798440963029861 0.0010000937070564824 -0.029443155664674456 0.08676669825043125 -0.07034158677555138 0.08381332819422961 -0.05033451997354499 -0.08327355522117315 -0.11757764727210736 -0.11018027336708991 -0.015005095846480385 -0.003459316997704503 0.025666785712641242 0.04901840510134519 0.10034780683458881 0.11910541845974121 0.02509846190619447 -0.024388871321727325 -0.12201585668047829 0.0021077738598951957 0.11430999483522031 -0.07537320147518915 -0.16826114574677403 0.005824365898332883 0.03862355125253027 0.020705069494422676 -0.032297041160115364 -0.17073312329912982 -0.18580153281429174 0.256466067188684 0.12647405075761034 -0.09954290457396113 0.06102394843437121 0.03315011814865037 0.06638045035759826 0.002208573576778811 -0.07095642519962399 0.13351846351109872 -0.08027826836390241 -0.052575904357651124 0.030936395793192035 0.047662185893919795 0.03332234014574856 0.03474766743101179 -0.09724969514029615 0.0078026548617079125 -0.07295425022942433 0.10502856446691092 0.1009738377916364 0.0392032556427685 -0.3176815834976062 -0.048999914821045557 -0.02687962501863001 0.09780910197884277 0.059439415055201825 -0.08603841470032747 -0.10171778819787972 -0.026103749861767354 0.004757320161471349 0.03917979250838005 -0.06787538492949066 0.034522686164913836 0.05702525302862331 -0.0360284850307149 0.13417003283741144 0.08377276265293432 -0.05801735901281939 0.002641044787386449 -0.16243518161587972 0.012744102447348922 -0.001186506680117636 0.013935183422718527 -0.13065071202237993 -0.11232759417628563 -0.005109224464603752 -0.023595356766146297 -0.08279693136446901 -0.1011328326554475 -0.021146421959690673 0.0009250542511927695 -0.005720423861991099 0.05014388702796703 -0.036205704091535305 -0.13131454536658918 0.023576118569096586 0.011005970017369523 0.03284497353346198 -0.11892270808541104 -0.014286079438068191 -0.050033292343541716 0.019812520695672298 0.02113952319167825 -0.023046931788958246 -0.04731363616158943 -0.03993831067679179 -0.08522357825430146 -0.05225370600956079 -0.042521307964164014 0.058568237014591094 -0.07760115586033725 -0.002449963606158304 0.06457728147506714 0.053992681205272675 -0.019086405634880066 0.0041103181429207325 -0.0796646997332573 0.19822068512439728 0.05935174599289894 -0.07940656691789627 -0.010654456913471222 -0.11904587596654892 -0.04991132766008377 -0.03982097655534744 0.07643664628267288 -0.09533019363880157 0.12986622750759125 0.03477118909358978 -0.0509096123278141 0.16468602418899536 -0.02081838995218277 -0.03241147845983505 -0.01323713269084692 -0.10280302911996841 -0.006908068899065256 -0.1166209951043129 -0.0186870526522398 -0.04035069793462753 -0.06486395001411438 0.009328586049377918 -0.07654709368944168 -0.0986759215593338 0.009520499035716057 0.007929359562695026 0.04660337418317795 0.0517042800784111 0.0716763511300087 0.030696364119648933 -0.049661360681056976 0.028063438832759857 0.1835947334766388 -0.0448743999004364 0.04385451599955559 -0.007224540691822767 0.012600051239132881 -0.0015059959841892123 -0.11505504697561264 0.05464749038219452 -0.05840558186173439 0.04869363084435463 -0.01612805761396885 -0.04349018633365631 -0.006531496532261372 -0.026032526046037674 0.02182156592607498 -0.14679893851280212 0.05651691555976868 -0.0737757757306099 0.0007251634378917515 -0.008538042195141315 0.03645849600434303 0.09764165431261063 -0.08050669729709625 -0.040641192346811295 -0.04331815987825394 -0.052755922079086304 -0.03299957141280174 0.039240483194589615 0.049770478159189224 0.0713302493095398 -0.0023408611305058002 0.0535505935549736 -0.05048077180981636 0.06623928248882294 -0.010030025616288185 0.048580292612314224 0.041021596640348434 -0.0351044163107872 -0.027689071372151375 0.03772610425949097 -0.006738387513905764 0.03717205300927162 0.055260539054870605 -0.07369775325059891 0.023851511999964714 -0.039692472666502 0.10198023915290833 -0.10975729674100876 -0.02615424618124962 0.034450214356184006 0.026659557595849037 0.03031199239194393 -0.04856344684958458 -0.013476306572556496 0.09896674007177353 0.022145261988043785 0.006964095402508974 0.031787000596523285 -0.0921541303396225 -0.012343009933829308 0.02662809006869793 0.06451026350259781 0.0241226963698864 0.026432126760482788 0.06017739698290825 0.008821303024888039 -0.028026513755321503 -0.01093383226543665 0.022080617025494576 0.01569686271250248 -0.0154686588793993 0.006974094081670046 -0.045797690749168396 0.054297007620334625 -0.037836335599422455 -0.021133998408913612 -0.005964823067188263 0.020667647942900658 0.020692622289061546 0.02289620228111744 -0.011622910387814045 -0.07779798656702042 -0.024073338136076927 -0.021738290786743164 0.02323320508003235 0.07332750409841537 0.09198745340108871 -0.02336130104959011 -0.007494246121495962 -0.03776782006025314 0.07412166148424149 0.006402003578841686 -0.02998211421072483 0.0587339885532856 -0.023851361125707626 -0.009156208485364914 -0.07199174910783768 0.0404854379594326 0.05572904273867607 -0.06660353392362595 -0.005881134420633316 0.014850574545562267 0.019537096843123436 -0.055448342114686966 -0.06632436811923981 -0.024889066815376282 -0.01782662235200405 -0.03863053023815155 -0.06877533346414566 -0.08963887393474579 -0.1142842173576355 0.04861489310860634 -0.016706114634871483 -0.018857013434171677 -0.024841977283358574 -0.08796187490224838 -0.14122021198272705 -0.032105881720781326 0.056902941316366196 -0.05575491115450859 -0.04814644530415535 -0.07180483639240265 0.028981532901525497 -0.005899493582546711 0.05831773951649666 0.04437495023012161 -0.03172367438673973 0.03202170878648758 0.09419915080070496 0.08014509826898575 0.03834826871752739 -0.10102726519107819 -0.0824049636721611 -0.02404201775789261 -0.013941651210188866 0.07348459213972092 0.058708589524030685 -0.0018540633609518409 -0.04839486628770828 0.011630861088633537 -0.08507411926984787 0.06957782804965973 0.04401540756225586 -0.008433489128947258 0.15831506252288818 -0.050422314554452896 0.01746077835559845 0.09742558747529984 0.0116469357162714 -0.026337657123804092 0.0077372584491968155 0.03755195066332817 -0.043096743524074554 -0.017889484763145447 0.030240537598729134 0.13426165282726288 0.00902783777564764 -0.0607876256108284 -0.052897755056619644 -0.10129071027040482 0.005068192258477211 -0.06186600401997566 0.007538813298247489 