0.028920583371726757 -0.06842082554902844 0.05076619239168737 0.06788071545934549 -0.12125776176149337 -0.028350209324530393 -0.015244166999905669 0.09647092485889444 -0.040610764381449 0.04074571930423408 0.0668629827602212 0.01675063109584428 -0.03708910060018731 -0.058418335064875204 -0.11373480483006346 0.0032418669777539827 0.005454060254394416 -0.14090144696664597 -0.060328378473025836 -0.04731801447298116 -0.08212734116370672 0.07024863591562447 -0.028312342424756293 -0.10974751021283238 0.031071423906314243 -0.09605740875913524 -0.14755752580121448 0.02100549574741663 0.016866673931678507 -0.10630998255296195 0.06886849197510823 0.06099911716589268 -0.007420432147307548 -0.011453285685489784 0.016978692602198073 0.033162903418051164 0.09655600174951987 0.00605973798671424 -0.081889371402569 0.037369123913468257 -0.14572812171956379 0.09425729365234953 0.06055266371984231 -0.056211647470408355 0.0029584866513564646 -0.009016458202501852 0.050263122426400055 0.03930397965409792 -0.020242857211648868 0.1464304042560685 0.0013601902472482935 -0.10721807594042836 0.13403863647360045 -0.12066725511346121 0.03620461702266413 -0.21947392602811952 -0.01824724665309149 -0.13612534254231784 -0.10563984180369039 0.09088781956663097 0.09297480136675156 0.0009994734062390488 -0.05161063794462402 0.07402682290588626 0.10221697490475806 0.03764701233733839 0.043697398752182696 -0.07118023397547986 0.10551823373519939 0.14720390488428503 0.0711024162261015 -0.09097578339213679 -0.0320073634381102 0.0001796676783066119 -0.08785313272929868 0.05079802070667543 0.002155106042289356 0.1694795477506574 -0.031317568975291324 -0.06502136639980385 0.05687443901753303 -0.13095818151994032 -0.1059360280022567 -0.09114013839071285 0.1836818056712779 -0.015402858360548334 -0.10511087514355505 0.025860168526766064 0.01225849261096511 -0.024571337610642653 0.019609639015186815 -0.028596895655915163 -0.07019591701173106 0.041419755184938914 0.0991011785676205 -0.1418472925828547 -0.004909230511447938 0.021306401660688586 -0.049637433079835175 -0.0658844973421132 0.151840940117836 -0.014937575906515121 0.014232139103114605 0.13671723008155823 -0.017860155552625656 0.037072017788887024 0.0851614698767662 -0.13148616254329681 -0.06483625620603561 0.017263567075133324 0.025181962177157402 0.0063941809348762035 -0.09232915192842484 -0.01903880015015602 -0.002568325027823448 0.002747036749497056 0.004656796809285879 0.19614094495773315 -0.11081796139478683 -0.008084392175078392 -0.056542299687862396 0.03183173015713692 -0.0818181037902832 0.11091700196266174 -0.11433792114257812 -0.06834792345762253 -0.042062908411026 -0.020265256986021996 0.07290522754192352 -0.06020548567175865 0.08462110906839371 0.05508442223072052 0.05831434205174446 -0.0020692406687885523 0.061581987887620926 -0.026013314723968506 0.12576793134212494 -0.09317167848348618 0.1163310557603836 0.03369970619678497 -0.14507490396499634 -0.03752073645591736 -0.04034734144806862 0.008851164020597935 0.14301514625549316 0.1481959968805313 0.05078470706939697 0.0721883773803711 0.08722370862960815 -0.053442638367414474 0.005684477277100086 -0.0021331857424229383 0.07810815423727036 -0.13428974151611328 -0.020468171685934067 -0.037082381546497345 0.11262612044811249 0.08374390006065369 0.011055543087422848 0.04212874919176102 -0.006021925248205662 -0.01183739397674799 -0.06718213111162186 -0.04929615557193756 -0.040643494576215744 0.020966265350580215 -0.02006334811449051 -0.11324446648359299 -0.0698082447052002 -0.041430894285440445 -0.06371963769197464 0.13348011672496796 -0.03679549694061279 -0.057596150785684586 -0.029474372044205666 -0.04041512683033943 -0.04920510947704315 -0.10901620984077454 -0.003861625213176012 0.0021653652656823397 -0.015285099856555462 0.04863075911998749 0.0022304572630673647 0.05246272683143616 0.038655541837215424 -0.08024987578392029 0.1407281756401062 0.008583065122365952 0.05851557105779648 0.04786105826497078 -0.09731323271989822 0.05842623859643936 0.0802178904414177 -0.04891271889209747 -0.08330412954092026 -0.011171989142894745 0.017811661586165428 0.048444971442222595 -0.04847640544176102 0.040528345853090286 0.057174768298864365 0.03140642121434212 0.015374925918877125 0.12583684921264648 0.06675629317760468 0.1610487997531891 -0.029095154255628586 0.05560130253434181 -0.025980550795793533 -0.1380261331796646 0.041095469146966934 0.058912087231874466 -0.054347213357686996 0.05586941912770271 0.026351071894168854 0.01841277815401554 -0.010088405571877956 0.010159228928387165 -0.06650535762310028 0.009652489796280861 -0.05337410047650337 -0.02070428803563118 -0.04598522186279297 -0.030374106019735336 -0.05690634250640869 -0.06743825972080231 0.05407913401722908 0.07908464968204498 0.03440196439623833 0.0705181136727333 0.006696524564176798 -0.01529616117477417 0.050391849130392075 0.03312205895781517 0.08131978660821915 -0.13120949268341064 -0.03223864361643791 0.05104194954037666 -0.002130849054083228 0.008858177810907364 0.015583525411784649 -0.00990854948759079 0.0028129087295383215 -0.03995038941502571 -0.0692516416311264 0.08216280490159988 -0.04185514524579048 -0.03235198184847832 0.13882456719875336 -0.12091366946697235 -0.0021696563344448805 0.005555134732276201 -0.04615582525730133 -0.05271301046013832 -0.06570322066545486 0.023109354078769684 -0.09038706868886948 0.0029828406404703856 -0.04732852429151535 -0.10040616989135742 0.1767941266298294 -0.05619608610868454 -0.010734785348176956 -0.0005139360437169671 -0.06407120078802109 0.0477747768163681 -0.009290062822401524 -0.04685952886939049 -0.0014703430933877826 -0.006081257946789265 -0.008710815571248531 0.06300884485244751 -0.03144842013716698 0.055927980691194534 0.056644994765520096 0.008103352971374989 -0.006924915127456188 -0.0002814895997289568 0.08443669974803925 -0.08617600798606873 0.040773969143629074 -0.015984242781996727 0.04699495807290077 -0.020631372928619385 0.012872597202658653 -0.2174673229455948 1.1396802619856317e-05 -0.08737209439277649 -0.007031244225800037 -0.024748191237449646 0.011025238782167435 0.032608143985271454 -0.08955805003643036 0.08680152893066406 0.008965621702373028 -0.02828778140246868 0.12987348437309265 -0.15079979598522186 -0.017600063234567642 0.023652583360671997 0.10207432859219459 0.04548404370630741 0.08021986779373666 0.042159292294941246 -0.008787832341634274 -0.042116064189834004 -0.09650803136761439 0.10647259289303082 -0.012254011072438014 0.08485777852767024 -0.11118622442992813 -0.006611489421127609 -0.017464813425471466 0.013689704822778256 -0.04227407481709489 -0.05265160588280116 -0.022398387465909653 -0.049171902409189575 -0.06388065999555369 0.05877088325139196 0.10548052618840227 0.0511390338496795 -0.08667347309185622 -0.043707666242177895 -0.014148426295527152 -0.06102456674727708 -0.0006195334273023248 -0.07895088014066565 0.014584407104617865 0.019418897887771083 -0.001953935818686147 -0.04627446273600227 -0.010911049198208705 0.06166831309573968 -0.045956247082372746 -0.07889374081170773 -0.03841492891473045 -0.034069204120307575 0.05176845139130199 -0.0534100845497654 -0.03955217388848573 0.040659956702814824 -0.07194071787055306 0.06038005367542545 -0.04634607598415859 -0.026173335998099435 0.02069502296547215 -0.03065847808634512 0.009834377091137641 0.16076078058363502 0.11512450185387235 -0.04658041280822243 -0.11579615820318966 0.010833294630902957 0.05365413033029029 -0.02197761138310434 -0.099420014656205 -0.048135899233012695 -0.015471047283857625 0.026266478312759415 -0.09339949347872754 -0.07390971256268727 -0.02568868367847626 -0.010527392490812904 0.011151242498429964 0.024005137054856678 0.1285606505743056 0.10743186499373007 0.07834910939364968 -0.002440839728536916 0.12708381508315883 -0.05089330277501832 -0.058815811923370154 0.05221181544968351 -0.09465880255815072 -0.13423214685629417 -0.1869716725919125 0.06468068602215352 0.061987447452843854 -0.10823931325221887 -0.051809196809084614 -0.0439784394416415 -0.14044015062294224 -0.0049179433511218435 0.057446130596535964 -0.061424450973897295 0.10114536119053262 0.028091675491160196 0.13112753541105898 -0.06390257929973228 -0.0013771692532002825 -0.06495458678592511 0.026338254496088512 0.02939734688684142 -0.1587752608703083 0.0679050640085244 -0.03296962298080927 0.10698112591251392 0.031692252712979894 -0.02072068530617962 0.005445142742246389 0.05182702839374542 -0.015299234539270401 -0.009142938069999218 -0.0485680028796196 -0.034219637513160706 -0.05100373923778534 0.017401661723852158 0.04535029083490372 -0.01005588285624981 0.062492188066244125 0.08681071549654007 -0.0960235446691513 0.0006862472509965301 0.00531367864459753 -0.037531204521656036 0.08616087585687637 -0.06057737395167351 -0.02182932011783123 -0.09427808225154877 -0.038886718451976776 -0.0530080683529377 0.03838655725121498 0.10740333795547485 0.14050957560539246 -0.10512609779834747 0.04986077547073364 -0.040943536907434464 -0.014741018414497375 -0.021922718733549118 -0.01581847295165062 -0.03941146656870842 -0.003426041454076767 -0.005113294813781977 -0.11568092554807663 -0.08424172550439835 -0.03422100841999054 -0.010179897770285606 -0.05577491968870163 0.02684488706290722 -0.024410540238022804 -0.08748579025268555 -0.01623598299920559 -0.09523578733205795 -0.02226325124502182 0.03731442242860794 0.028727220371365547 -0.02171117626130581 0.036932311952114105 0.02633957751095295 0.010584766045212746 -0.02374216914176941 0.01816842518746853 0.14759725332260132 0.08450522273778915 -0.04859264940023422 0.12041226774454117 0.08137752115726471 -0.015795059502124786 -0.004620925523340702 -0.05404168739914894 -0.007503735367208719 -0.05722326412796974 0.15331147611141205 0.04937370494008064 0.022491468116641045 -0.08153601735830307 0.08524369448423386 0.10049830377101898 -0.08965505659580231 0.058432646095752716 0.0647936686873436 0.06108495220541954 0.06000979244709015 0.08331930637359619 -0.009466337040066719 -0.16198132932186127 -0.03238818421959877 0.01585250534117222 -0.02036556974053383 -0.055002957582473755 0.02019333839416504 0.12620963156223297 -0.07267549633979797 -0.057201214134693146 -0.09674800932407379 0.060891781002283096 0.024630434811115265 0.10939070582389832 0.05458409711718559 -0.1018863245844841 -0.06243717670440674 0.042926445603370667 -0.09419076144695282 0.005893890280276537 -0.0869382694363594 -0.003500446444377303 -0.01253828126937151 0.06627999991178513 0.10756774991750717 -0.05545941435179433 -0.06565670083829851 0.02457959306684863 -0.06073208142687226 -0.009235309960579335 -0.07587786741045302 0.015634687158177393 0.05691836902094708 0.035842460027686554 -0.06247694302824419 0.0488003658181449 0.024284733813280616 -0.09842836546515196 -0.06252957676342613 -0.07155932145808018 -0.02855865895058197 -0.016628015001702256 0.007517423103530627 0.02707698763857804 0.0685463773146487 -0.04007164883375901 0.05593536657798255 -0.07593532208411387 -0.10784092669264082 0.05768195522530036 -0.010664879414339145 -0.09363923490029705 -0.017309773029024048 0.11994609035910538 -0.03837063596983751 -0.016252780141018126 -0.010735007095390717 0.054704073321676296 -0.03631063554439213 -0.029086243320754816 -0.2121033500572229 -0.05039201521111817 -0.03533058391825692 0.09273921231119492 -0.022866203315969783 0.08843386986446534 -0.18634457496737375 0.03752160402080911 -0.07177181666383467 0.0601946971836148 -0.04693393453941411 -0.07361506654163559 0.035379647613432666 0.09495048132405584 0.055930572010977175 -0.1920948072742107 -0.019012690785590647 -0.0833223314831726 0.12959324994042853 -0.0076358547812666 0.017930975442911175 0.06500665005455392 -0.029042370218810277 -0.03199584357418726 -0.005472456498593014 0.010254541703407859 0.027154941783075003 -0.10924984658445792 -0.019858242029856175 0.04215741739280689 -0.06890515937867805 0.028653036706425945 0.02853451977102157 -0.07958897752748162 0.08077016076572575 0.10063182829442754 -0.0018446637683459544 -0.1613133536698408 0.11063736151398698 -0.06477584655844859 -0.00946421224669961 1.562656074204633e-05 -0.07494218918754386 -0.1579850059533185 -0.034175696178124076 -0.03847100241299393 -0.10379312141274323 -0.005569323081122762 0.03647064201153984 0.06286048427982367 -0.04946629381462895 -0.008210719838298484 -0.09054181905659013 0.09297700744476681 0.04359236964405948 0.09487810283487455 -0.15380498561254605 -0.03680712832324049 0.10232289494854543 0.02524042988891536 -0.009896465192721441 -0.020867497465123012 0.05774244389710093 0.09006653495075395 0.012791492619051109 0.02699405886232853 0.04752732068300247 -0.07699215412139893 0.006192009896039963 -0.006575680337846279 -0.09868145734071732 -0.03727211058139801 0.06887490302324295 0.030127055943012238 -0.025142574682831764 0.060715775936841965 0.04305298253893852 0.010229818522930145 0.15670955181121826 -0.05952444672584534 -0.05263565480709076 0.060513198375701904 0.0015032986411824822 -0.09679210931062698 0.03391028940677643 -0.011556397192180157 -0.05786588415503502 0.06572937220335007 -0.010146398097276688 -0.04400419071316719 -0.11719256639480591 -0.0482928529381752 -0.04333888739347458 0.058514390140771866 0.10547273606061935 0.14367620646953583 -0.12257043272256851 0.021627577021718025 -0.11493001878261566 0.08183814585208893 -0.0006224970566108823 0.025270607322454453 0.12853632867336273 -0.0028855500277131796 -0.016543712466955185 -0.005475815385580063 0.055558789521455765 0.012096392922103405 -0.027469757944345474 0.026543140411376953 0.06510330736637115 0.1332075595855713 0.012996779754757881 0.0677686482667923 -0.056417495012283325 0.0530192069709301 0.08084329217672348 -0.03470165655016899 -0.03695738688111305 -0.04449426382780075 -0.03187483549118042 -0.016779592260718346 -0.00535676209256053 -0.09302537143230438 0.09998326748609543 0.0695883184671402 -0.021543284878134727 0.07429834455251694 0.012982246465981007 -0.08030154556035995 -0.033910878002643585 0.0036613824777305126 -0.051404234021902084 -0.021925289183855057 0.02443229965865612 0.07831931859254837 -0.09528400003910065 -0.04962046444416046 0.02119162492454052 0.00029694847762584686 -0.036779239773750305 0.094182088971138 0.022545062005519867 -0.07711528986692429 0.03295847401022911 -0.10657767951488495 -0.030698368325829506 -0.0343775600194931 -0.07212342321872711 0.07739631831645966 -0.09103097021579742 -0.18765173852443695 -0.10635531693696976 -0.0013903226936236024 0.019402479752898216 0.04684504494071007 -0.004805221222341061 -0.05217578262090683 0.07816625386476517 0.0018006116151809692 -0.09925425797700882 0.047408830374479294 -0.1001749038696289 -0.0595683716237545 -0.018820494413375854 -0.019886568188667297 -0.06849835813045502 -0.10243790596723557 0.009982914663851261 0.06165361404418945 -0.08164403587579727 -0.042897988110780716 0.000948536500800401 0.1000608429312706 0.09836602210998535 0.04607059061527252 0.0011166573967784643 -0.00952770933508873 -0.008714503608644009 -0.018673459067940712 0.0018511659000068903 -0.058154843747615814 -0.07811528444290161 0.11217322200536728 -0.16595134139060974 -0.016522208228707314 0.08540210872888565 -0.10621380805969238 -0.026226695626974106 -0.010356592014431953 -0.01349105965346098 0.0302771907299757 0.10631854087114334 0.04087785631418228 -0.006680241785943508 0.016171038150787354 0.03562821075320244 -0.025096485391259193 0.09542090445756912 0.04607170447707176 -0.04157445952296257 -0.0897204801440239 -0.07635101675987244 -0.00895641092211008 0.047686971724033356 -0.03566858172416687 -0.035069551318883896 0.09184672683477402 0.0008300951449200511 0.021629171445965767 -0.09020419418811798 0.0004853458667639643 0.0022222306579351425 -0.005654965993016958 0.08986496925354004 0.04468190297484398 -0.09691870957612991 -0.07501625269651413 0.05489533767104149 0.031033536419272423 0.15553216636180878 0.027329228818416595 -0.040961481630802155 -0.10768847167491913 0.05777544528245926 -0.052510201930999756 -0.09751828759908676 -0.033258698880672455 0.12341447174549103 -0.052812423557043076 0.027685580775141716 -0.024549607187509537 0.011390471830964088 -0.11335205286741257 -0.044328492134809494 0.08412051945924759 0.007107908837497234 0.09706401079893112 0.08716993033885956 -0.04403122514486313 -0.07244868576526642 0.0787179172039032 -0.0474390871822834 0.0715903714299202 -0.029897866770625114 -0.03167333826422691 -0.04953577741980553 -0.0657280683517456 -0.059669189155101776 0.036413200199604034 -0.023586783558130264 0.009097333997488022 -0.06806178390979767 0.02271636761724949 -0.10482416301965714 0.011070732027292252 0.013004528358578682 0.04646417126059532 -0.008630677126348019 0.034832119941711426 -0.09867403656244278 0.0369131825864315 -0.01753794588148594 -0.02409331128001213 0.015626123175024986 0.014339281769398346 0.02801892715283951 -0.21664797619042672 0.027047258981548108 -0.057870266162960454 -0.009274659048693836 -0.12355374708718192 -0.07022002459950782 0.09327536903443984 -0.007072355432895478 0.0345531577181235 0.06523156465011168 -0.023636033166502764 0.049288578504742095 -0.07914899262110053 0.01215173427633413 0.04358156269112018 -0.020961615786224047 0.07916341560845262 0.06380387244302327 -0.08902110604057886 -0.0030283783450701846 -0.025425074210936257 -0.04171149915171265 0.08314107021110062 0.032457002461975915 -0.06467813905379173 -0.02220912287011653 0.016351821279096606 0.1411816952986992 -0.09057450663901151 -0.09513836520613585 -0.018444787705338455 -0.08759846109400642 0.020316877938573688 -0.03637042942355724 -0.05846211130175264 -0.042587099670825586 0.03510923793524429 0.010193387205037048 -0.01625185703450782 0.042173505999227055 -0.029656722515558516 0.001916353789275445 -0.06361973575200683 -0.007397401267798305 -0.10406651332296506 0.04546572043010396 0.07320062473981305 0.01423826147129755 -0.06641968414523235 0.010941655866034112 0.050375536340208624 -0.02284478915994884 -0.02969559871507284 -0.07962644284337561 -0.03540980482931105 -0.052740109188554096 -0.04793136227405254 -0.07701382093753584 -0.12480024995840606 -0.07846167855994955 0.02725853180740651 0.09496332415862511 -0.028909285123919142 0.07730649266021451 -0.06777914584491096 0.054274795283161294 0.0396657934637828 0.13715444578098268 -0.10050382355478796 -0.004408055916626695 -0.0584468858878991 0.0282886679103588 0.11962315327712539 -0.0726319221083053 -0.021547084919532538 0.02521388217844425 0.024744323781086448 -0.019139111908620433 -0.022962539699296104 0.10463048025997522 0.067192193108615 -0.052955330482478004 0.03607737875607197 -0.057703840823186525 -0.003583376818338108 0.021150000099285565 -0.023340516810396634 0.10228463814189177 -0.0036043095007914543 -0.03204747107633524 0.08365920650482729 -0.0788492379220698 0.08763194574474492 -0.07264735630401312 -0.015769271184527343 0.01626712280781562 0.05804660469575686 0.1098026003692377 -0.022053178399801254 0.0009829094633460045 0.03971720114350319 0.05371193587779999 -0.0022034256253391504 0.01122538186609745 0.019199157133698463 -0.03261758014559746 -0.04318612068891525 0.03118160367012024 -0.012188821099698544 0.011759729124605656 -0.013021244667470455 0.010213254019618034 0.03355589509010315 0.0005826476262882352 -0.027842381969094276 -0.003461866406723857 -0.037237390875816345 -0.05556461587548256 -0.05108947679400444 -0.039748579263687134 -0.11005217581987381 0.04769524559378624 -0.05238465964794159 0.041900839656591415 0.036137767136096954 -0.06347465515136719 0.014038442634046078 -0.16459637880325317 -0.0069926041178405285 -0.030844135209918022 -0.057353269308805466 -0.1069856584072113 0.025289088487625122 -0.05371313542127609 -0.002189220627769828 0.09496104717254639 0.09011194854974747 -0.020606480538845062 -0.03895590826869011 0.10017898678779602 0.01616661064326763 -0.11052193492650986 -0.008782128803431988 -0.08059345930814743 0.06247648969292641 -0.0943491980433464 0.06163308396935463 0.03233439102768898 0.03749288246035576 0.06540390849113464 0.060376428067684174 -0.0852307602763176 -0.06812145560979843 0.028469953685998917 0.014078839682042599 0.031896162778139114 -0.02068834751844406 -0.05708872899413109 0.008340499363839626 -0.012603029608726501 0.08192678540945053 -0.09938149899244308 0.10807756334543228 0.06554606556892395 0.0004516897024586797 0.08904905617237091 -0.03564128279685974 0.050097063183784485 0.0321175642311573 -0.04599399492144585 -0.049784451723098755 -0.06879094243049622 0.051211193203926086 -0.08126755803823471 -0.0370362214744091 -0.18633925914764404 -0.05565658211708069 0.07446326315402985 -0.001763514126650989 -0.0590549111366272 -0.060397978872060776 -0.029180003330111504 -0.02324145846068859 0.042470239102840424 -0.0018278609495609999 0.02894013002514839 -0.06931442767381668 -0.06788407266139984 0.022564345970749855 0.07310482859611511 -0.025779470801353455 0.06852884590625763 -0.07228350639343262 -0.008787400089204311 0.09920717030763626 0.030446607619524002 -0.005196853540837765 0.09819421172142029 -0.039812777398339584 -0.13487773592708244 0.002292255139021337 -0.10449703828916461 -0.04257900597236914 0.0012138042198978143 -0.1143040721666011 0.036785887558643225 -0.006522599239027194 0.10981099345001495 -0.033719098897636746 0.014855730592454165 0.07383249617604222 -0.025262151009038954 0.130193270505958 -0.048568482543557535 -0.02950390087285989 -0.0663092795236102 -0.005470487918448429 -0.052807369331774635 0.008267660970160922 0.03876600646629297 -0.01032562298147187 -0.014698401263523335 -0.0031290878982346056 0.05049943951633833 -0.048805361039705224 0.0191223597984068 0.07749676655672867 -0.08995941341136621 0.051862764937709145 0.07690387026472273 0.04913760833551762 0.015414952149023045 -0.024074290505443616 0.03096033943041133 0.05458982339130146 -0.053759803194851616 -0.07868431376078446 0.0692019741290537 0.0035553102960227683 -0.15477724487912248 -0.042319418122219635 -0.013227449610881778 -0.0425191944617987 0.12440450054446041 -0.036708697893655266 -0.11411513476249056 0.010049255988164018 -0.09905547742198281 0.028292071370019618 0.05964403974755634 0.049007929611623396 -0.007802401565824933 -0.0944510931656891 -0.12294273170685768 0.06903484570115963 -0.03297478647325605 0.05902004170667587 -0.055814713244534686 0.045248383609241535 -0.03288940881929198 0.11472250018251573 -0.1326768841770462 -0.053750269593329986 0.0520999411240858 -0.006912263828317328 -0.07685036019149816 -0.02549407234684897 0.012180199459803758 -0.04131385537394096 0.017001637806009162 -0.06665003861265884 -0.009612600419106592 -0.08465139283973254 -0.07294072287414616 0.040909661012288205 0.046703728770687444 -0.032606682660808566 -0.01486123864598424 -0.106396444441641 0.07031346517872047 -0.06161597910883219 0.015200735003069371 -0.053235272497064945 -0.04246509351285143 0.12910256438613954 -0.12454182405688828 0.11762805644184496 0.12661104839162002 0.007693678319535099 -0.05339836086339585 0.04320255354376307 0.11667355423504676 0.02463679838748446 -0.06941658491575117 -0.05665727753828632 -0.08015376575728513 0.08505675464177448 -0.019317129149251513 -0.21449577808380127 -0.03942510858178139 -0.1300932615995407 -0.05060219019651413 -0.045391637831926346 -0.043608568608760834 0.052589964121580124 -0.0732583999633789 0.046412788331508636 0.08948765695095062 -0.0266831386834383 -0.03204793110489845 0.023935403674840927 0.03761450946331024 -0.03033769316971302 -0.0708860382437706 0.06509732455015182 -0.03736318647861481 -0.07370122522115707 -0.10183346271514893 -0.03338015824556351 -0.08549842238426208 -0.04457329213619232 0.06144344434142113 -0.031976740807294846 -0.02546558901667595 0.004969050642102957 0.08177746087312698 -0.005558576434850693 -0.0495031401515007 0.12453307211399078 -0.021239573135972023 -0.01096033863723278 0.0440099872648716 0.011480249464511871 0.06150945648550987 -0.0007049861014820635 0.034875378012657166 -0.007880876772105694 0.03285841643810272 0.13195137679576874 -0.023717200383543968 -0.050776224583387375 0.08097370713949203 -0.07225565612316132 0.17156431078910828 0.01931902952492237 -0.06495384126901627 0.022107422351837158 -0.028447512537240982 0.0793185904622078 0.025354787707328796 0.049283888190984726 0.08841714262962341 0.03195810317993164 0.0624825693666935 -0.040666721761226654 -0.02230013534426689 0.0015778557863086462 -0.021768542006611824 -0.13027767837047577 -0.06824521720409393 -0.06870952993631363 -0.1319473683834076 0.07912492752075195 0.024925366044044495 -0.07919478416442871 -0.05763556435704231 0.0295332632958889 -0.016523797065019608 0.037999123334884644 -0.09234517067670822 0.010846491903066635 -0.0963386818766594 0.10583294183015823 -0.10703063011169434 -0.07039634883403778 -0.01131962239742279 0.03470884636044502 0.07603331655263901 -0.01120427530258894 -0.0701238214969635 0.013801372610032558 0.03111540898680687 -0.041329726576805115 0.047149915248155594 0.03669903799891472 0.010875111445784569 0.08696568757295609 0.02408347837626934 -0.026384267956018448 0.05024247244000435 -0.09797439724206924 0.01608966663479805 -0.09422725439071655 -0.021194692701101303 0.06495197117328644 0.02975221537053585 -0.006712060887366533 -0.0491737462580204 0.024884993210434914 -0.07533822953701019 -0.029994552955031395 0.010666570626199245 0.11180979013442993 0.013771641068160534 0.09887610375881195 -0.000756557856220752 -0.05692185088992119 0.0018838639371097088 0.056600335985422134 0.04696715995669365 0.12667831778526306 -0.0017232446698471904 -0.033918824046850204 -0.09541526436805725 -0.014400645159184933 -0.007410148624330759 -0.046244245022535324 0.020107846707105637 -0.04986376687884331 -0.1180659830570221 0.006340011954307556 0.09393005818128586 -0.04955963417887688 -0.05449285730719566 -0.019735045731067657 0.026811260730028152 0.1217297837138176 -0.055701844394207 0.03494788333773613 -0.036726903170347214 -0.069281205534935 -0.11953935027122498 0.06409581005573273 -0.015732208266854286 0.02007145620882511 0.0682777613401413 -0.043225131928920746 -0.01462483685463667 -0.040973544120788574 0.039064642041921616 0.033686500042676926 0.08757409453392029 0.06078933924436569 -0.054920922964811325 -0.10142862796783447 0.039756953716278076 0.0769859030842781 -0.03318886458873749 -0.0049955835565924644 0.1500595062971115 -0.049649927765131 0.07019201666116714 0.07630839198827744 0.07689174264669418 0.02523394674062729 0.10890966653823853 -0.11076025664806366 -0.0351388119161129 0.1361158937215805 -0.011344276368618011 0.1267772912979126 -0.026538830250501633 -0.023905735462903976 -0.03277582675218582 0.08366585522890091 0.05376056954264641 0.048003651201725006 -0.04493571072816849 0.010458562523126602 0.05593488737940788 0.029444584622979164 -0.0013378435978665948 0.08275624364614487 -0.010257504880428314 0.03065383993089199 0.08534229546785355 0.1227542981505394 -0.03114427626132965 0.01378575898706913 0.012846452184021473 0.06083353981375694 -0.06828457862138748 -0.00867742020636797 0.10405412316322327 0.004902268759906292 0.016804592683911324 0.01993413083255291 0.045321088284254074 0.09245838224887848 0.020819852128624916 0.014291027560830116 0.06080787628889084 -0.047364138066768646 0.06874863803386688 0.00955178588628769 -0.15483613312244415 0.08231472223997116 0.06468198448419571 -0.05295497140907996 -0.007055802987268335 -0.04140406577669182 0.025739626906104072 -0.11440070480988142 0.12686316934347028 0.10242694141618693 -0.06297308957936726 0.0686350379392236 -0.011150897864582936 -0.07999477640567033 -0.0065114504426608604 -0.15310935686520002 -0.13215309562116132 -0.055473808365427514 -0.01227726483111093 0.016861668953942834 -0.05042909212490794 -0.12710261569733403 0.03520451226072351 0.04398047157258842 0.10103866236220625 -0.05249872369411612 -0.004104587307300949 -0.026178236883436838 -0.004747205143065298 -0.010011257158272287 0.007204240340354117 -0.006679104892915824 -0.00798727181680166 0.0024396112410032633 0.010968936028211723 -0.0651303416749667 -0.046248385344803175 0.08319744610765216 0.11572238364634936 -0.05698904715070226 0.03052390096619425 -0.020501427680498643 -0.11568281451842219 -0.04590269735030372 -0.11043128246278304 -0.0530853756991042 0.04034644714502646 -0.04896426019994773 0.09199360839374934 0.058009568773658614 -0.03645077041574282 -0.11597604760809248 0.001747500252937467 -0.02775701318842283 -0.041829661405869877 0.02599571250020216 0.025034898693241894 -0.014034095871048025 -0.04403305146907348 0.03016670980382346 -0.03742613611076363 -0.06803096464580043 0.06376264735056658 -0.1099287495105495 0.04768625826530912 -0.08807671000974482 -0.054726322874756955 0.027651572528505072 -0.08412018100172199 -0.01219112406499142 0.01156540148493173 0.09258991976409585 0.0021869102735472164 0.04018508466257438 0.01888705209413585 -0.07643352883012958 -0.09198358567485307 -0.05376996102621357 0.06899762594358816 -0.027981942841669865 0.005389766402254614 -0.03984479528740431 -0.009061361296342293 0.002101296531182998 0.023041144655617823 0.043388537140877065 -0.10751008824302839 0.04541762218341814 -0.06351138075784814 0.10343139289540233 0.1298022110566688 -0.08864621104228504 -0.02425804917581349 -0.11066863188521633 0.03474554176293292 0.014881830260567816 0.032853529241227225 -0.04330514108139521 0.05358986779127571 0.04731642293489675 -0.016726978133926526 -0.09998048845651872 -0.005675075021447984 0.1475784182548523 0.09460698068141937 0.03896066173911095 -0.017075324431061745 -0.08724192529916763 -0.08660203218460083 0.09186489135026932 -0.013966535218060017 0.06904286891222 0.026353955268859863 0.06908241659402847 0.08106385171413422 0.055695969611406326 -0.06512028723955154 0.016711363568902016 0.02598518691956997 0.09931597113609314 0.06812040507793427 0.08514978736639023 -0.032643940299749374 0.015458940528333187 -0.021520229056477547 -0.07397855073213577 -0.17032073438167572 -0.005973653867840767 0.10560419410467148 0.02603650651872158 0.14075034856796265 -0.01662897877395153 0.09569872915744781 0.04635022208094597 -0.03447500988841057 -0.007739100605249405 -0.02562510222196579 0.13279296457767487 -0.00045029172906652093 0.06579500436782837 -0.0866769552230835 -0.048663124442100525 0.03466581925749779 0.07286235690116882 -0.135257750749588 0.06118118762969971 -0.021963398903608322 -0.04990753158926964 0.10355237871408463 -0.021838713437318802 -0.008406723849475384 0.05303492024540901 0.09321480989456177 0.11628911644220352 -0.019515518099069595 -0.06625088304281235 0.09143985062837601 0.042870551347732544 0.06925781071186066 0.017474116757512093 -0.03441651538014412 0.015025815926492214 -0.08491885662078857 0.020764781162142754 0.03472897782921791 -0.0006180533673614264 0.10130251944065094 -0.07549452781677246 0.017934760078787804 -0.07104186713695526 -0.04649396985769272 -0.025658655911684036 0.03214909881353378 0.0038646631874144077 0.1346680372953415 0.00015571776020806283 -0.0788811594247818 -0.011496012099087238 0.03659292683005333 0.010414314456284046 0.12492141127586365 0.07756882160902023 -0.03942332789301872 -0.09675619006156921 0.011347278021275997 -0.10029017180204391 -0.05062738060951233 -0.014787149615585804 0.06837469339370728 0.062021784484386444 0.058135986328125 -0.0678696259856224 -0.017849348485469818 0.05064024403691292 0.11411215364933014 0.01885565184056759 0.06574797630310059 -0.02114795334637165 0.008669550530612469 -0.022075148299336433 0.028229568153619766 -0.10575280338525772 -0.1348661333322525 0.015436892522673492 0.02885156273554543 0.02512933778718632 0.041162316896945016 0.06089751085969596 -0.007441361707280234 0.11826272865332081 0.03048834884949008 0.018582602290903496 -0.07273580940134743 0.10230788123736931 0.005452433546888315 0.11478742888387126 0.021017323313718517 -0.09040530301007652 -0.029798656899492897 -0.1005794395863378 -0.048201212512907834 0.0065486282622917585 0.03467580736836742 0.013871928209072182 0.03515121277597809 0.03565271154032804 0.04069345355443062 -0.029255993428531146 0.02965916283172217 0.0028539776609747625 -0.01088503969057497 -0.035833187363308705 -0.13250059400120798 -0.02294697186801045 -0.03774045255587964 0.052841004727036275 -0.0032786296953115266 5.476616376896121e-05 -0.001311196956730109 0.03168337669838506 0.09304027892135966 0.09158615417395138 -0.0028196171433078373 -0.01926436678167869 -0.11312244527799546 -0.05786388019036962 0.020323460372575337 -0.059028081021402716 0.06978618689929213 0.03346127315225293 -0.058162472651128436 -0.17834613288653492 -0.05591167691395286 0.05226747944170767 0.02940392710757426 0.04456849087255868 -0.12096597571686668 0.0006679685759900094 -0.029698247821806877 -0.08400326693388778 -0.013075665776786895 0.052696089491174894 0.07997355436480405 -0.044961396075613835 0.012949118093695809 0.02852279901321978 -0.09971780247911516 -0.1173855275079226 -0.06407057367680678 0.0040097606764072985 -0.1367043670120998 0.053941651261580785 0.08189624810738551 0.004606380871688832 -0.1044932362081659 -0.02986659889392872 0.03418376912431608 -0.1633190122896344 -0.027672448311723667 -0.21341290954756986 -0.010323439698946824 -0.03634948958949353 0.022201168503736473 0.08475687363706559 0.09608795440166117 -0.03371518995335772 -0.00826345771761893 0.06746058949219184 -0.042750446963388804 -0.020181207320666167 -0.015759544740658084 -0.07022166400211532 0.02400891991312842 0.05070284750252123 -0.04286235409734637 -0.019100403411901803 0.0001788611252977619 0.006716896291842837 0.00950338089549303 -0.10196119537369348 -0.017153721422466895 -0.00995789102300403 0.10070007769211829 -0.10224021971225739 0.040491316467523575 0.0103757968172431 0.03817177563905716 0.04744395613670349 0.01570071280002594 -0.03698258101940155 -0.13606369495391846 0.00976408738642931 0.06727153062820435 0.04026443138718605 0.028470072895288467 -0.08653990924358368 -0.09303335845470428 0.059474628418684006 -0.02651611715555191 -0.05584293231368065 -0.04582252353429794 -0.01789143867790699 -0.04081562161445618 0.07484936714172363 -0.004559732507914305 -0.0729454979300499 0.03772679716348648 -0.03925516828894615 -0.0540342815220356 -0.05962207540869713 -0.04410159960389137 -0.09125952422618866 0.0386505126953125 0.14282813668251038 0.08721984177827835 0.03618137538433075 0.08069008588790894 0.009285686537623405 0.0065996721386909485 0.05341032147407532 0.04908592626452446 0.015393560752272606 -0.14710308611392975 -0.015940513461828232 0.08721214532852173 -0.023823730647563934 -0.020755615085363388 0.0901307538151741 -0.03308339789509773 -0.08384082466363907 0.023499874398112297 -0.010442947037518024 0.09347814321517944 -0.028886333107948303 -0.06123889237642288 0.03938526660203934 -0.021387815475463867 -0.01732458546757698 -0.1009201779961586 -0.03705407679080963 -0.03647715970873833 0.031329210847616196 0.06225260719656944 0.039024241268634796 -0.01914229989051819 0.017041873186826706 0.10048533976078033 0.010753965005278587 0.021431051194667816 0.05735698342323303 -0.05936752259731293 0.020666128024458885 -0.03017733432352543 -0.12787877023220062 -0.1600647121667862 -0.05344003066420555 0.010130771435797215 0.10756021738052368 0.0476495660841465 0.04543176665902138 0.0007094201282598078 0.04639376699924469 0.11202359944581985 0.03524426743388176 -0.05786282941699028 -0.04331628233194351 0.03379953280091286 0.031635068356990814 -0.039251621812582016 0.08159985393285751 0.053124941885471344 -0.037990882992744446 0.09429404884576797 -0.0601118765771389 -0.021724792197346687 0.007045886944979429 0.02037716656923294 0.044117365032434464 0.05921163409948349 0.0035036522895097733 0.04960362985730171 -0.013878900557756424 0.03097691759467125 0.1600101739168167 -0.05749814212322235 0.007333958987146616 -0.029435202479362488 0.04025809466838837 -0.10978511720895767 -0.0185680091381073 0.0031032965052872896 -0.13338163495063782 0.11035602539777756 -0.10508035868406296 0.07148341089487076 0.09810014814138412 0.002829949138686061 0.01898052915930748 0.04740720987319946 0.01682715117931366 -0.10532619804143906 -0.12787556648254395 0.011759583838284016 0.01301746815443039 -0.00798847246915102 -0.0062870667316019535 -0.017886023968458176 0.051886044442653656 0.10042180120944977 0.045893192291259766 -0.050267625600099564 -0.02065691351890564 -0.045966535806655884 -0.1281828135251999 -0.06533109396696091 -0.0562526099383831 0.046337977051734924 -0.026655828580260277 -0.0029837405309081078 0.17778749763965607 0.0627342164516449 0.0440121591091156 -0.07219596952199936 -0.02713700942695141 0.07380057126283646 0.10601997375488281 -0.049038343131542206 0.006725427228957415 -0.01526105497032404 -0.0597061850130558 -0.012526961043477058 0.09760751575231552 -0.01074895914644003 -0.0020140507258474827 -0.1481303721666336 0.09242729842662811 0.06325914710760117 -0.025721218436956406 0.09467541426420212 0.04256052151322365 0.010492723435163498 0.0578179769217968 0.014265325851738453 0.006550673861056566 0.014820574782788754 -0.08171221613883972 0.003260847181081772 -0.03874817118048668 0.11849609017372131 -0.03372778370976448 -0.004770520143210888 0.026805439963936806 -0.07723432034254074 0.036477286368608475 -0.008294678293168545 -0.033375922590494156 -0.08715540915727615 -0.05926569551229477 -0.005337321665138006 0.016828175634145737 -0.05400603264570236 0.011568012647330761 0.09215956926345825 0.001878916984423995 -0.002862309105694294 -0.06935573369264603 -0.03182700648903847 -0.015185898169875145 0.037049200385808945 -0.05536564439535141 -0.027003098279237747 0.127699077129364 -0.1185949370265007 -0.004318013321608305 0.01107693836092949 0.00268213776871562 -0.040802404284477234 0.04086323827505112 0.11332473158836365 -0.041617464274168015 0.0244645606726408 0.07775463908910751 -0.05308085307478905 -0.06594238188214777 0.07782591509791718 -0.15815742914931266 -0.01017520888504447 0.021503024441748973 -0.022346799522943717 -0.004366339166176873 0.031602908609914215 0.006380110392790499 -0.004045724767597936 -0.05775161528410347 0.12100975227995565 -0.03355362684825353 0.008833050518628038 -0.1194346450471087 -0.023798753418346058 -0.002983107800191814 0.11401722120896365 0.03447090155096001 0.057586536891255855 -0.046983342977860526 -0.07926250211409562 0.031738016122308865 -0.07873077026113554 -0.01929750740329479 -0.08740545993280968 0.05968511456841538 -0.03938418443344915 -0.0717787195671387 -0.03653100433760594 -0.08320680300509971 0.10424523254813 0.030589721470520862 0.09975252574201647 -0.06705463621944895 -0.07276233933683135 0.10968673325407918 -0.09974272499011015 0.042079944555397646 0.02052913300371365 0.033260594562394684 -0.06260391912655458 -0.036702562081790124 -0.030558530125487073 0.10990218445276144 -0.040616896063296055 0.03407391452532089 -0.04001625891618084 0.00746780499226318 -0.09159022882465093 -0.02439249333587372 -0.03852804591104936 0.04692675090578723 -0.0653298320701797 -0.0012112183885247198 -0.05928013986019648 0.0369939163338066 -0.12406642425883463 0.015426379674819411 -0.03570034360756612 0.09126626890579052 0.008621602727265695 0.05705601888487768 0.07922587187708025 0.10558417910875655 -0.04105145471800104 -0.01850997419654847 0.007937667985822055 0.07692293790159897 0.054591330336270755 -0.036028012278024955 -0.02923621535785336 0.0015840047355732258 0.07637935435217615 0.06361379668117934 -0.009292123466826736 0.028601111760791973 -0.026165313630717925 -0.010536865920517642 -0.14001192578690067 0.05914389415830009 -0.02994087868658879 -0.06544886693153774 -0.005524485813068203 0.048070959586380434 0.07456974087824395 0.0166782430930866 0.042686401088204456 -0.059829131488286925 -0.0009363909953454394 0.04738038968931377 0.002511527997557879 0.035992786407670764 0.02853078057748985 0.002629848417660194 -0.059212659539512845 -0.007062990498212572 0.09220270373723674 -0.1022500036701884 0.03510165809934545 -0.12315883487462997 0.017931245267391205 0.04912959039211273 -0.015243131667375565 -0.058141253888607025 -0.05098877102136612 -0.029567858204245567 -0.007340680807828903 -0.05079004168510437 0.20565545558929443 0.030253179371356964 -0.0004972529131919146 -0.059019677340984344 -0.04553931951522827 -0.07425930351018906 0.004399349447339773 -0.09663817286491394 0.016777915880084038 -0.044971831142902374 0.11840645223855972 0.022670116275548935 -0.02305787429213524 0.021834122017025948 0.02538580447435379 -0.17263245582580566 0.09370414912700653 -0.031257230788469315 -0.12723766267299652 0.035009048879146576 -0.01668006181716919 0.05689682811498642 0.03794330358505249 0.11929642409086227 0.14590120315551758 0.04324015974998474 -0.03983842581510544 0.028584452345967293 -0.004052816890180111 0.05923297256231308 -0.035812314599752426 -0.04098264127969742 0.016960661858320236 -0.02368510141968727 -0.1116907149553299 0.07752037048339844 -0.08528263866901398 0.09806313365697861 -0.006660437677055597 0.052981823682785034 -0.040556736290454865 -0.1820424199104309 -0.07812998443841934 -0.11563977599143982 0.045338328927755356 -0.005661272443830967 0.007009804714471102 -0.06035906821489334 -0.022225191816687584 -0.07953368127346039 -0.020052822306752205 -0.0869322344660759 0.10819335281848907 -0.07697266340255737 -0.05689219385385513 -0.07637185603380203 -0.009084561839699745 0.08588999509811401 -0.07851778715848923 0.009820777922868729 -0.06150417774915695 0.07718075066804886 0.03986220434308052 0.060117606073617935 -0.016622265800833702 0.10402827709913254 0.04794469475746155 -0.0016132323071360588 0.021577343344688416 -0.01799190789461136 0.10420575737953186 -0.0258412417024374 0.1235758513212204 0.026927299797534943 -0.1334311068058014 -0.008690969087183475 -0.03547392040491104 -0.013158923014998436 -0.05142594128847122 0.19760361313819885 0.011526423506438732 -0.1184929609298706 -0.060208044946193695 0.10195467621088028 -0.06710676103830338 0.08478225022554398 0.045062556862831116 0.006091997027397156 0.04654376953840256 -0.018700657412409782 0.10235658288002014 -0.05112446463741102 0.07152097060178958 0.011038663081733903 0.006374126176166799 -0.07722849614376134 0.022095043620862998 -0.02539259085563798 0.02884947500957522 -0.05671304727733811 0.07703372604312406 0.13332918675590766 0.028905562404786204 0.015938223927355638 -0.11444937187518461 -0.021099225310239233 0.10133325723855509 0.10843632777283761 -0.11793029259362693 -0.07909086070353195 0.13103857533660787 -0.07939446225655901 -0.009934353702889942 0.02742117937881226 0.11663259330408948 -0.04041657577516772 -0.017929281383063773 0.10102570018573391 -0.06365854150840689 -0.05198069186206384 0.05233851502714751 0.012139856530524849 -0.031066771228391535 -0.025245596099448216 -0.027834737753833605 -0.04414034542328487 0.014357843854698073 0.06404670864699172 -0.0221309192663871 -0.01032971308371395 -0.029947372318078272 -0.04588263198249756 -0.056933325696437824 0.04722651069933096 0.08536412333300565 -0.07858723923767671 -0.07133577146237528 0.02634958258667066 -0.049939774866527245 -0.033017099223106736 -0.013823580884147094 -0.01770136792707994 -0.02970679497918355 -0.026283308078440107 -0.02751601105572288 -0.0006599602486550678 -0.05181363551679179 -0.040393116432396986 -0.06340266348637309 -0.045265427607551145 0.07853936967739682 0.06330069415121418 -0.15321420653694304 -0.03425310719980364 0.027997016066167654 -0.06038325556647803 0.07915897338503323 0.07785813715644749 -0.006165837064029193 0.07130187419399366 -0.07972128708743807 -0.04572562415025772 -0.12544775756499185 -0.04457745528274583 0.053893173665496466 -0.061423962579310605 0.0648390875183498 -0.031086229227511242 0.034525280874759166 -0.01584052803971736 0.05029576534244592 -0.03766118775734267 0.012235459444757974 0.04230610831800647 0.05552981668168624 -0.037608631046500446 -0.06710868441213579 0.0767654168303116 -0.10548871625784266 0.17062556149915298 -0.020050002469822022 0.023273384477351906 0.056782898547896817 0.14536380776687663 0.09259296121610461 -0.019017897497864696 0.010189335528645599 -0.013703660719361027 0.06672664987838348 -0.03813460186910153 0.0059668098372113254 -0.07728245109319687 0.12677113711833954 -0.07279661297798157 0.075266033411026 0.11344137787818909 -0.014511427842080593 -0.015202534385025501 0.01727908104658127 0.029482919722795486 0.037374451756477356 0.06974607706069946 -0.049486517906188965 0.10626356303691864 -0.05287487432360649 -0.07817330956459045 0.1274113953113556 -0.006342112086713314 -0.03850670903921127 0.010895864106714725 0.050651323050260544 -0.046141091734170914 0.0020626422483474016 0.0807492658495903 -0.049579519778490067 0.04198518395423889 -0.0885167047381401 -0.005570096895098686 0.007520390208810568 0.029776165261864662 -0.11373811960220337 -0.11088870465755463 -0.15993478894233704 -0.05527835711836815 0.014824610203504562 0.05327637866139412 0.051849547773599625 -0.0237201526761055 -0.04743976145982742 -0.021186023950576782 -0.12200038135051727 0.052384499460458755 -0.034393154084682465 0.10007201135158539 -0.07996764779090881 0.1896052360534668 0.07306046783924103 -0.07379921525716782 0.015805086120963097 0.1677967756986618 -0.016590017825365067 0.015847276896238327 0.09549597650766373 0.05255785956978798 0.07628466188907623 0.07263253629207611 -0.044028788805007935 0.007044025231152773 0.04787929728627205 -0.019315913319587708 -0.019872432574629784 -0.07287520170211792 -0.016719914972782135 -0.03589632734656334 -0.12504225969314575 0.03858611732721329 0.04161877930164337 0.04071592167019844 0.019051799550652504 -0.0033615899737924337 -0.06736801564693451 0.08428071439266205 0.00048727693501859903 -0.12268781661987305 -0.06206246837973595 -0.047411203384399414 0.057500943541526794 -0.010630701668560505 -0.055966731160879135 -0.0099279023706913 -0.06753244996070862 0.06675934791564941 0.021108338609337807 -0.19531860947608948 -0.058372482657432556 -5.495117511600256e-05 0.09683648496866226 -0.030172670260071754 -0.017986005172133446 0.04794768989086151 -0.06157651171088219 -0.07145892828702927 -0.06653240323066711 0.011934417299926281 0.04914844408631325 -0.12108226865530014 0.03972519561648369 0.01323774829506874 0.053796663880348206 0.030704347416758537 0.10230616480112076 0.09106680005788803 -0.04247863218188286 -0.022893298417329788 0.01157295424491167 0.025670016184449196 0.05789940059185028 0.006116391159594059 -0.06150390952825546 -0.09516723453998566 0.0933142825961113 -0.07128540426492691 -0.10152896493673325 0.04353910684585571 0.021993566304445267 0.03341705724596977 0.061406709253787994 -0.009000110439956188 -0.0037642575334757566 -0.08809089660644531 -0.010171785019338131 -0.052172377705574036 0.03268095850944519 -0.058148160576820374 0.010055909864604473 0.03658374398946762 -0.012828030623495579 -0.027041057124733925 -0.021910881623625755 0.09663734585046768 -0.019528750330209732 -0.004166207741945982 0.10423886030912399 -0.11544613540172577 0.010757526382803917 -0.031059080734848976 -0.03703457489609718 -0.031651198863983154 -0.033951882272958755 0.04472228139638901 -0.07862482964992523 0.12136199325323105 -0.02641458623111248 -0.179132342338562 0.04023680463433266 -0.0033886481542140245 -0.04489867016673088 -0.016904117539525032 0.02818714827299118 0.007871462032198906 -0.14552432298660278 0.03595865145325661 -0.001353794359602034 -0.01570901647210121 -0.15829525887966156 0.07400066405534744 -0.018043644726276398 -0.11235253512859344 -0.17499126493930817 0.010391725227236748 0.026484979316592216 -0.019178619608283043 0.05773090198636055 -0.03713199496269226 -0.010390638373792171 -0.05320078134536743 -0.011071344837546349 0.06159935146570206 -0.003858080832287669 -0.010795101523399353 -0.02516581118106842 0.09951760619878769 0.07523634284734726 -0.012538428418338299 -0.03372342139482498 0.04679182171821594 -0.03258102759718895 -0.03511069715023041 0.007558384444564581 -0.08629459887742996 -0.10699503868818283 0.049968719482421875 -0.06661765277385712 0.056782860308885574 -0.06328705698251724 -0.002377068158239126 -0.010969324968755245 0.011262938380241394 0.06369999796152115 -0.038954902440309525 0.029180990532040596 -0.03401254490017891 -0.13196322321891785 0.060222916305065155 -0.09000402688980103 0.0434316024184227 0.023242726922035217 -0.018937064334750175 -0.027091145515441895 0.004950982052832842 -0.014054196886718273 -0.05991091008243581 0.0408138696604554 0.07207335669673653 0.04886107223072651 -0.05878251068526093 0.004220056744598191 0.09570575329727514 0.003762717597244975 0.091394017283535 -0.04051295716366469 0.044810456584618186 -0.010596711801335612 -0.04193398536447083 0.05715032549695836 -0.030364282300072702 -0.061642711187385346 -0.014510459857700494 0.027032259243119146 -0.1048637490683321 -0.0222263187908058 -0.053074686239730905 -0.08000941840674426 -0.03948173879485442 -0.014205288283196716 0.03585372778349555 -0.045624538853680625 0.1371310217350553 -0.00012635381542943638 -0.007019421514580233 0.023162300478781067 -0.053914455301858705 0.00038344993363714666 0.06494516990182791 -0.04793642802938754 0.029383612521006956 0.0849346751402447 -0.10412466346857832 -0.04997900186273518 0.07735273332418241 -0.0243872419864986 -0.036273665548809814 -0.10510727386291337 0.019830124931526704 -0.02115444795576511 -0.010018877976477304 -0.13707394175254628 -0.07504066724595225 -0.12028458464442003 0.036942654560627106 -0.02609955449503408 -0.023344322631367532 0.02996314066960862 -0.021089497702465706 -0.015065371868494602 0.09674638816185592 0.0910745948809566 -0.07620717625233026 -0.0006247910717237327 -0.10164931916665525 0.004907623257002284 -0.0388987126587548 0.004438616488951045 -0.04768398812423908 -0.026339388702034238 -0.07996041590492159 0.013151602915404664 -0.12432114438558574 -0.04962595852361935 0.04190214336505544 -0.02222455455539042 0.0725858364345276 0.004702047713306419 0.07624448749017568 0.0011025144389210644 0.035926985746580445 -0.06232095153107057 0.012482137379335342 0.02773988230009034 0.019059934098167128 0.020474638547288777 0.011324597200816185 0.11138067712592216 0.010002098229462667 -0.008114156572097153 0.01978670778717241 -0.005971902462328681 0.04321307689421041 0.03201711621014977 -0.06617072051531517 -0.04653973467156736 0.025268223369491548 0.10097973752542039 0.04231601209803983 0.047966801340130996 0.023384791395789417 0.048562203570725375 -0.04930296810786916 -0.02395137542154474 -0.13068059634209103 0.06504140196559068 -0.02231825329363346 0.002832005964592099 0.0045722899958491325 0.03204073756933212 -0.026451217010617256 0.023312553763389587 -0.06433439999818802 -0.06855576485395432 0.16968245804309845 0.07257900387048721 -0.05060598999261856 0.08895520865917206 0.032291229814291 -0.029746491461992264 -0.014795150607824326 0.005853880196809769 0.08178677409887314 0.05829932913184166 -0.12189453840255737 0.06118543818593025 0.02443538047373295 -0.1381826251745224 -0.009675509296357632 -0.06185995787382126 -0.2310156524181366 -0.036629583686590195 0.01538834162056446 -0.020147278904914856 -0.007303406484425068 -0.014268777333199978 0.06176910549402237 -0.012109659612178802 0.002447971608489752 -0.13478651642799377 0.005577291361987591 0.025188028812408447 -0.06677605956792831 -0.062235888093709946 -0.037982579320669174 -0.024795355275273323 -0.11154885590076447 -0.0940367579460144 -0.03820907697081566 -0.14717385172843933 0.030094658955931664 0.0011398528004065156 0.008641301654279232 -0.007987484335899353 -0.060544274747371674 0.13881713151931763 -0.012398600578308105 -0.10667897760868073 0.04588627442717552 -0.07802943140268326 -0.06589990109205246 -0.016380999237298965 -0.10447410494089127 0.10949455946683884 -0.025186384096741676 -0.09716407209634781 -0.015445413999259472 -0.05581605061888695 -0.016002720221877098 -0.0035353314597159624 0.003349837614223361 -0.05418644845485687 0.015292157419025898 -0.10482648015022278 -0.02111407369375229 -0.030580855906009674 0.0485931858420372 0.0035319107118993998 0.0016394357662647963 0.05155466869473457 -0.0067176660522818565 0.0586051344871521 0.05597149580717087 0.0180472731590271 0.053002264350652695 0.025638680905103683 0.046563662588596344 -0.005205686669796705 0.06562970578670502 -7.694619853282347e-05 0.04877437278628349 0.049202051013708115 0.07082311064004898 0.019629085436463356 0.056573204696178436 0.05748229846358299 -0.003977014683187008 0.10952675342559814 0.011892229318618774 -0.023687368258833885 -0.04420176148414612 -0.10576867312192917 -0.02351275645196438 0.05670575052499771 0.07719718664884567 -0.10358499735593796 -0.057052254833990484 -0.014129727573140693 0.05349002499090704 -0.02641916447837319 0.08172968058081165 -0.04331025233344421 -0.032472280044941466 0.0020553073933019094 0.11076374767027942 -0.025511707519429484 0.04974558798811291 0.00846451992174673 -0.08157520093140286 0.07019822760276426 0.015457571239009026 -0.09326228467525426 0.03954345665429417 0.0331369736307161 -0.0023796065719557205 0.09115243605468454 0.015026533280565123 0.041213087612993686 0.013960046705203951 0.07750743630749754 0.01590276333057648 -0.07275298014882178 -0.1376075490259659 -0.07334856223923844 0.007532430714453381 -0.06577680348958727 0.055301686344169945 -0.004589281099829095 -0.032099131437240684 -0.016124990298078488 -0.13023460230200218 -0.03623388422828269 -0.0968458054186971 -0.001244641907816216 0.11105710871291147 -0.049149441641960556 0.07007255526997931 -0.13047530813695693 -0.08199660014964764 -0.027031242815777942 -0.05660007137756501 -0.019008811587833917 -0.09490276081940584 -0.09751294985124986 -0.07098716067756762 -0.0837974374148322 -0.0019964359967149427 0.015339977971892012 -0.011595220939809896 0.02844040936008853 0.03506339735913077 -0.04555598114219799 -0.016346735963967452 0.07426972333945561 -0.09117951555148808 -0.042969534958667704 0.06953473238146203 0.04108720235185441 0.06848894152760963 -0.024449339080612552 0.010143308893999444 -0.053130007204325945 -0.04262886814596505 0.06408599223670962 -0.0805842836478758 -0.006098770989286189 0.15761929536991506 -0.04983091753386667 0.048600504907019296 0.11563563022434103 0.025551516873295484 -0.028342161891793744 0.05565120497512052 0.0016251189575400573 -0.09261615204126138 0.030860977546916506 0.03136187353237433 0.022957413520526933 0.1254216426365375 -0.05626396000384504 -0.08697095049658174 0.055251420265249956 0.0023491257846396125 -0.03125223421134658 0.12265107107790915 0.12596861301543655 -0.04005965652758996 -0.17727745964510355 0.05942472761484218 0.05150675444923234 -0.0067359064383418045 0.04986658602581213 0.09329651028348847 0.013850274197669672 -0.04318216484744362 0.03550959988635894 0.008755428716540337 -0.10772955417633057 0.08229882270097733 0.009772838093340397 -0.06338309496641159 0.024754712358117104 0.02135242149233818 -0.01868584379553795 -0.021725192666053772 -0.01666143536567688 -0.061936620622873306 0.14208658039569855 0.12717533111572266 -0.07118500024080276 0.08759049326181412 -0.0034038720186799765 0.019254295155405998 -0.046476636081933975 0.061369676142930984 0.05397482588887215 -0.10052800178527832 -0.11245115846395493 -0.04034407064318657 0.061975933611392975 0.01713448017835617 -0.08540035784244537 0.0845240131020546 0.002875854494050145 0.18183490633964539 0.1097818985581398 -0.11866413801908493 -0.05919122323393822 0.06665244698524475 -0.015106151811778545 -0.009465256705880165 0.004216791596263647 -0.13967135548591614 -0.07820741087198257 0.02666577510535717 -0.0693286880850792 0.026653649285435677 -0.03294231370091438 0.015896135941147804 -0.06845460832118988 -0.08128609508275986 -0.1152133047580719 0.10176827758550644 -0.05926154553890228 -0.00039535947144031525 -0.0039010262116789818 -0.07490324974060059 0.02903827466070652 -0.04473186656832695 -0.05127917230129242 0.04901237413287163 -0.030993588268756866 0.07394430041313171 0.00750568974763155 0.003542085411027074 0.015758242458105087 -0.0518597848713398 0.03803588077425957 0.1190708726644516 0.008275777101516724 0.020240096375346184 -0.10449209064245224 0.054709434509277344 -0.021018680185079575 0.0776556059718132 0.04459662735462189 -0.10436907410621643 0.10233591496944427 0.042937714606523514 0.07106629014015198 -0.0861058384180069 0.027403054758906364 0.0008901205146685243 -0.06330998241901398 0.18176302313804626 0.04594803228974342 0.011479990556836128 -0.02795146219432354 -0.022038059309124947 -0.10547094792127609 0.08422669023275375 -0.0434531569480896 -0.0012051835656166077 0.00021104489860590547 -0.06032412499189377 0.02398078702390194 0.004252911079674959 -0.024824175983667374 0.04372614994645119 -0.07584870606660843 -0.03699250891804695 -0.12855806946754456 -0.08470480889081955 -0.07645941525697708 0.0037544399965554476 -0.04420841112732887 -0.07009755820035934 -0.04343818128108978 -0.04404451698064804 -0.16045843064785004 -0.01917273923754692 -0.02928061969578266 0.034389104694128036 0.002855948405340314 -0.012458384968340397 -0.016095926985144615 0.003809035290032625 0.06219838187098503 0.04783123359084129 -0.056431595236063004 -0.00810805894434452 -0.08774010837078094 -0.0029539901297539473 -0.01226512435823679 -0.1182524561882019 0.019270464777946472 0.0213346928358078 -0.055133454501628876 0.059303879737854004 -0.030796272680163383 0.013928079977631569 -0.035880960524082184 -0.03032737970352173 -0.06381906569004059 -0.0855402871966362 -0.06622426956892014 0.03618285432457924 -0.08322276920080185 0.041415147483348846 0.08798625320196152 0.08964982628822327 -0.03327183797955513 -0.04360929876565933 -0.018625712022185326 0.07696757465600967 0.08634888380765915 -0.05535629764199257 0.018986154347658157 -0.045800548046827316 0.018056223168969154 0.003620181931182742 -0.015218716114759445 -0.003590925596654415 -0.08435659110546112 -0.02252807654440403 0.01865704357624054 -0.02567756548523903 -0.06671348214149475 -0.02734195441007614 -0.07434207201004028 -0.04665428772568703 0.03661792725324631 0.0269041545689106 0.13628646731376648 0.0253665242344141 -0.038431402295827866 0.17316977679729462 0.08754987269639969 0.0486929751932621 0.04096388444304466 0.041060030460357666 -0.09167613834142685 0.07920774072408676 -0.11569248139858246 -0.02859817072749138 0.10779916495084763 -0.15461887419223785 -0.07154926657676697 0.16872437298297882 -0.029198789969086647 0.013861621730029583 0.10217200219631195 0.017401745542883873 -0.02583072893321514 -0.0021332805044949055 -0.0765530914068222 -0.14259065687656403 0.0876961499452591 0.05152334272861481 -0.027579208835959435 0.00877651572227478 -0.07872533053159714 0.07803806662559509 0.0327051542699337 -0.06203003227710724 0.03263373672962189 -0.0570121668279171 0.025652388110756874 0.04171328619122505 -0.1010529175400734 -0.0990310087800026 -0.10576783120632172 0.026127606630325317 0.03812708333134651 0.1433095782995224 0.07080519944429398 0.09457119847650884 -0.031108488525632985 -0.007923063655970244 0.08606115555355177 -0.0009593238454535543 0.048415202203271925 -0.06713747147245147 -0.11561919755768017 0.1030010567117252 0.026527146969907423 -0.013968550582190915 -0.030515339731350365 -0.08986338527592566 0.04095547468826371 0.008893510557333817 0.0095303019172152 0.08676586187451686 0.03340676680963631 0.10741551095056484 0.08994768280458804 -0.030464734273936405 0.13093579199439168 0.04755646966706181 0.05099080134800549 -0.026714611084637168 0.004376969927921552 0.07695403495148896 0.050212669261595434 -0.07483295188152277 -0.0876567510277567 -0.03197265828990133 -0.071945833970022 0.06658964368781793 0.03612016262138224 -0.0867241380395373 0.03971125242244376 0.0024109306554715394 -0.052024615097288236 0.018937326896008515 0.022416200860817685 -0.019048461961025383 0.008630342466412325 0.06089795498999489 -0.046863635783062206 -0.04549398528284395 0.05786999507110549 -0.012750424357827618 0.10928646624361393 -0.02140294994490255 -0.08508210380435505 0.045827191653653745 0.04386129537476002 -0.04800065949365193 0.10130746868611296 0.06505577622422175 0.016567649726811844 -0.016957677637422255 0.13693327101529928 0.015995075857986985 0.005681815068525811 0.06183267016503946 0.08574518118720707 0.07738568999606234 -0.007509914033149225 0.04251539570532823 0.0017438512923653809 0.07707575112406606 -0.013420958718165975 0.010049821781025495 -0.0648316499463757 -0.027056734129678708 -0.034791852590947685 0.003906668911191701 -0.027160471386227764 0.027279391149585382 -0.01367898585649453 -0.01417275830360477 0.08323997281697955 -0.038436268733729385 0.019063010712850603 -0.01834623659889475 -0.06857216727978244 0.044510157607466704 0.04838818248908997 -0.002734261945752477 0.03592537817696721 -0.0263011716886543 0.07320433602567963 0.03016575098266212 -0.015708650500650994 0.00320794822303334 -0.0050103173182959185 -0.03401244542964105 0.11505043579429508 -0.04010123589925277 -0.0744688796873721 0.0004939288133009566 -0.01218506253497609 0.0006355962907364346 0.058171308104750664 -0.13286150991916656 -0.045590296387672424 0.03414706513285637 0.08223136514425278 0.03935740143060684 -0.07693534344434738 0.017451126128435135 -0.044757019728422165 0.025240615010261536 -0.004815044812858105 -0.01383226364850998 0.06512068957090378 0.01729664020240307 -0.06845971941947937 0.033801425248384476 -0.06482582539319992 -0.038402289152145386 -0.00898260623216629 0.06369978189468384 -0.1482493281364441 -0.02849571965634823 0.011645552702248096 -0.03559630736708641 -0.034154634922742844 -0.006544360890984535 0.10383152961730957 -0.05739723891019821 -0.04994194582104683 -0.011867302469909191 0.01978852041065693 -0.08572643250226974 -0.035341616719961166 0.06776309758424759 -0.10775455087423325 0.026641178876161575 0.0369991697371006 -0.007691803388297558 -0.0364808514714241 -0.09189200401306152 0.015776460990309715 -0.03994082286953926 -0.0006571271806024015 -0.06346175074577332 -0.05130857229232788 0.0045128315687179565 0.04187634587287903 -0.017239036038517952 0.04344404116272926 -0.0038751880638301373 0.05606357753276825 0.004848015494644642 0.07993694394826889 0.027820996940135956 0.07207297533750534 0.07624781876802444 0.0031163515523076057 0.0049737244844436646 -0.027308814227581024 0.0475015826523304 0.06259522587060928 0.0074756755493581295 0.09182935953140259 -0.001467218273319304 0.027569174766540527 0.04467760771512985 -0.03789793699979782 0.09292641282081604 0.07204124331474304 -0.020397089421749115 0.03917153924703598 -0.11251159757375717 -0.07778196781873703 0.0328514389693737 0.04556922987103462 -0.06470902264118195 0.02418123558163643 0.02486194297671318 0.042699091136455536 -0.08968919515609741 0.0016740786377340555 -0.047216854989528656 0.0497504360973835 0.06524696946144104 -0.024626631289720535 -0.031084880232810974 -0.005441383458673954 0.1458430141210556 -0.00011484109563753009 0.1444917768239975 0.08460181206464767 -0.09479139745235443 0.01433118712157011 0.08471979200839996 -0.044041428714990616 -0.012894971296191216 -0.05288901552557945 0.05968694016337395 -0.07759124040603638 0.07534068822860718 0.0024021524004638195 -0.055231609567482104 -0.015767907567154484 0.02321076681873614 -0.027685719776810013 -0.09319434303894229 -0.04155967566778653 -0.04233325145900219 0.030738861299407165 0.07064859614755299 -0.07929848350386552 0.011382426138251791 0.20019906764293946 -0.06055007826770384 -0.029570814086462335 -0.13201924397582285 -0.11870278129877103 -0.05135867755023088 0.13037847057550503 -0.0023299265520403357 0.06163918346404165 0.10724936295420363 -0.07737589895186861 -0.007413720128429224 -0.017451990855731413 -0.008083638233533821 -0.11770800551770273 -0.03186336789962806 -0.039229038483546794 -0.08145063200157504 -0.04975452539727677 0.005410982902425056 -0.10787510705155401 -0.002198790580776348 -0.03599249712893288 0.0031766913919653943 0.027280500713439453 -0.023998281868262056 0.06929959465087916 0.005951232520959004 -0.030364653454437552 -0.00017356373187095108 -0.03343619395338867 -0.024066439622164724 -0.09872231735379798 0.061777949913117865 -0.14327163191333786 4.346870053923082e-06 -0.049657476458298024 0.0015668819363548216 -0.018679549264655582 0.03818923687665958 -0.09370677855224675 0.008905124487081558 0.025940883865112462 0.011690066548699857 -0.07585645138137709 -0.1222389449506856 0.055270577262384116 0.03306018093889425 0.009153906917353896 -0.11279409807563753 0.02747646305123356 -0.11219489530457541 -0.026084598466718078 0.031648820689660184 -0.12267647001781819 -0.08711831871266712 0.009560074017399833 -0.02841998068723623 0.01880476280813669 0.00398321079408392 0.08735903028754383 -0.017598823329007685 0.046206180834482 -0.04941836211674329 -0.0840174634887364 0.008952351715696003 0.0020168283470425215 -0.03443411922107415 0.023948580819659053 -0.10252054768372339 0.019300537859765553 -0.02625775061997491 0.05187121398661382 0.05061523000655902 -0.06486104274812216 0.15658246089387542 0.07876580586171492 0.002118850541444995 -0.03543722176696851 0.08054172136873836 -0.08682158031002697 0.035547033513096515 -0.004850573749363181 -0.014397640484486877 -0.0871382298758125 0.057327619847454186 0.00518873567161786 -1.6756696156343984e-05 0.040825670256779356 0.07315284013748169 -0.14773988723754883 -0.062346912920475006 -0.06749161332845688 -0.05955219641327858 0.016204115003347397 0.007078654132783413 0.028659960255026817 -0.017089059576392174 -0.10769003629684448 0.017512718215584755 0.07992115616798401 -0.03788406029343605 0.09670983254909515 -0.0024872315116226673 -0.026565393432974815 0.0332043431699276 -0.1770426481962204 0.04957208409905434 0.021514084190130234 -0.04565989226102829 0.0025132503360509872 -0.016449596732854843 0.07371530681848526 0.015971999615430832 -0.09264499694108963 -0.1143484115600586 0.00045965792378410697 -0.09447377175092697 -0.06849223375320435 -0.0833280012011528 0.024245180189609528 -0.060892343521118164 -0.06537432223558426 -0.010345058515667915 -0.011836505495011806 0.010060420259833336 -0.042256567627191544 0.02156272903084755 0.029263949021697044 0.005322157870978117 -0.046946022659540176 0.13616245985031128 -0.11874158680438995 0.040211569517850876 -0.0018682440277189016 -0.060470763593912125 -0.03706367313861847 -0.08283421397209167 0.1469574123620987 -0.017582634463906288 0.03763430193066597 -0.05726414918899536 0.004677348304539919 -0.07352342456579208 -0.01254548691213131 0.030004028230905533 0.027193453162908554 0.03752856329083443 -0.00020416731422301382 0.026314780116081238 0.1220259964466095 -0.013026094995439053 0.019683370366692543 -0.11569725722074509 -0.020345892757177353 0.17168357968330383 0.0929294154047966 0.050208043307065964 0.07164989411830902 0.07376012206077576 0.10161758959293365 -0.0035744556225836277 0.10938708484172821 0.09124794602394104 0.08316066861152649 -0.058415625244379044 -0.127411887049675 0.03028090111911297 0.03600594028830528 -0.03026769682765007 0.11603886634111404 0.0148669658228755 0.02497156895697117 0.01290291827172041 0.1317286193370819 -0.14968878030776978 0.039047714322805405 -0.0329294316470623 -0.007559566758573055 0.047392409294843674 0.06296190619468689 -0.06685718148946762 0.021046405658125877 0.018935799598693848 0.05320841819047928 -0.013083238154649734 0.012673365883529186 0.010311197489500046 -0.10098143666982651 -0.14158344268798828 0.04772890731692314 0.05607515200972557 -0.042844973504543304 0.011488135904073715 -0.0343153178691864 0.1213853657245636 0.015387735329568386 -0.015069844201207161 0.02046576701104641 -0.08861862868070602 -0.032946426421403885 0.0930713340640068 0.03757980838418007 0.07651463896036148 0.04566628113389015 -0.02078690379858017 -0.1697283685207367 0.011931704357266426 -0.0033955478575080633 0.05087258666753769 0.05134457349777222 -0.13282324373722076 0.07910137623548508 0.08656094968318939 0.047965917736291885 0.04839107394218445 -0.002480779541656375 0.08974789828062057 -0.049855925142765045 -0.021992946043610573 0.12614935636520386 0.08960694819688797 -0.026144811883568764 0.1013975664973259 -0.025139397010207176 0.06057332083582878 0.05072389915585518 -0.10484528541564941 -0.011744300834834576 0.028999045491218567 -0.048248883336782455 0.0002779212954919785 0.0716957151889801 -0.07657493650913239 -0.03356949985027313 -0.05938667431473732 -0.008896198123693466 -0.06987235695123672 0.17974433302879333 0.04609040543437004 -0.08779547363519669 0.12841543555259705 0.08502405136823654 -0.10189374536275864 0.035516347736120224 -0.06355030834674835 -0.11726203560829163 -0.06036520004272461 0.05450207367539406 0.084402896463871 0.09388820827007294 0.03790276125073433 0.048995502293109894 -0.16107675433158875 -0.13979874551296234 -0.0818813145160675 0.06429580599069595 -0.1819401979446411 0.037244658917188644 -0.03857353329658508 -0.155016228556633 0.0023045658599585295 0.09236650913953781 -0.03246888518333435 0.04169444739818573 0.025173107162117958 -0.024652160704135895 0.07229870557785034 -0.03919430822134018 -0.02950066700577736 -0.001211434486322105 0.002681395970284939 0.06503989547491074 0.09242662042379379 0.02822691947221756 0.046161018311977386 -0.0394071526825428 0.10763091593980789 -0.0593901164829731 0.03273981809616089 -0.043878134340047836 -0.05328156426548958 -0.051209744065999985 -0.050436001271009445 0.003822311293333769 -0.11013274639844894 -0.03807923570275307 0.0743093192577362 0.05017242208123207 0.09788176541207391 -0.08076706604093739 0.07357383306337296 -0.0819169793440324 -0.00887173323230905 -0.08068052025703065 0.029451907994246906 -0.17125359287198522 -0.032841971863919475 -0.11798774035158135 0.08056968536303472 0.005530412324128761 -0.08791403673563201 -0.14656377205575993 -0.0502093179790536 0.06874566559261927 0.04714033065001054 0.0036947281463130346 -0.05624366600764384 -0.028524740790622446 -0.02992252151346146 0.04577748714737322 0.04463895288586843 0.04166172394223006 0.06876217710611415 -0.05308212582929123 -0.021758267057305436 0.010678469003887175 0.06159713502229623 -0.04689858245979232 0.07527499161666011 -0.07893834715880026 -0.00972864007947759 -0.03650224116101553 0.08726609611094172 -0.14500267338285613 -0.05059067273242055 -0.015097844736307407 0.019598858466421374 0.06917622918089424 -0.10838697799738303 -0.04517798324226033 -0.02895112420026566 -0.11085842385866841 0.012921283996763469 -0.009944846316803266 -0.030591565475277933 -0.011697975279658863 0.06563041323550751 -0.004615808380223693 0.10640220710307613 -0.044080782250704935 -0.006600846253244011 -0.026963053890102402 0.055848577741051904 -0.10711862625391978 0.0059427536415685225 0.12054766997773925 -0.14823495848564724 -0.04948291472946065 -0.1298633861917169 -0.0030054903268508784 -0.019656363771555548 -0.08512601111597666 0.02602952884439439 -0.05475477081108048 -0.11750799159415622 -0.00017726676043223468 0.04375002946412507 0.0817739957586251 0.12240452791714508 0.0629264185614369 0.01013885475073731 0.08022585657031456 0.024348016390385814 -0.18199049766970476 0.06831906640541718 0.07495320875412988 -0.05481420535976695 -0.0062496284017086595 0.0008464309315583869 0.03056396308078327 -0.00900866789463256 0.03201673108605532 0.1271942223638586 -0.06609860169631517 -0.016472915443287425 -0.043474449668735385 0.04419013061610797 0.01882367675569601 -0.029087845997493828 -0.03601170832647215 0.06600239656527694 0.03779042486989406 -0.01598119517585827 -0.08773978156117045 -0.049973191591535224 -0.03698771714608814 0.0072540161217909006 0.08546480880261885 -0.04142078384757042 0.08131532371044159 0.0980430543422699 -0.038898713886737823 -0.0016204460989683867 0.056329838931560516 -0.0013752460945397615 -0.04069173336029053 0.05040401220321655 -0.012261226773262024 0.14034442603588104 0.07456254214048386 0.04897816851735115 0.027084821835160255 -0.07360287755727768 -0.06600865721702576 0.0007402855553664267 0.06268042325973511 -0.03640979528427124 0.0003733827907126397 -0.030011028051376343 0.022603707388043404 -0.07767587155103683 0.07357596606016159 -0.01652057282626629 -0.02203892543911934 0.07952398806810379 -0.08356254547834396 0.014750231057405472 0.09050649404525757 -0.009344825521111488 0.03971277177333832 0.024203453212976456 -0.01264901366084814 0.053821414709091187 0.024954771623015404 0.028639087453484535 -0.06322561949491501 0.03349932283163071 -0.023803558200597763 0.07282395660877228 0.06334728747606277 -0.01615147478878498 0.12019030004739761 -0.046932101249694824 -0.05281231924891472 0.09019070118665695 0.027570078149437904 -0.10904840379953384 -0.10061655938625336 -0.0341787226498127 -0.1021590456366539 0.013023991137742996 0.001554697984829545 0.09043433517217636 -0.023889251053333282 0.054001227021217346 -0.11719505488872528 -0.0354795902967453 0.016539553180336952 -0.045660510659217834 -0.05299091711640358 -0.03552231937646866 -0.004414066672325134 0.04090305045247078 -0.07224620878696442 0.022486355155706406 0.03778046742081642 -0.11696512252092361 -0.06432237476110458 0.008929136209189892 0.051409054547548294 -0.0095102209597826 -0.00459479633718729 0.022960711270570755 0.017563089728355408 0.055919159203767776 0.021415119990706444 0.13656069338321686 -0.05695198103785515 -0.039451878517866135 -0.09406011551618576 0.01849212870001793 0.021950552240014076 -0.0674850344657898 -0.01337030902504921 0.004056558012962341 0.14300128817558289 -0.020628629252314568 0.03562932461500168 0.010542754083871841 0.12861643731594086 -0.0482109934091568 -0.026828784495592117 -0.005702799651771784 -0.06541675329208374 -0.0006237169145606458 -0.07813344895839691 0.05024087056517601 0.07423520088195801 0.006467217534481898 -0.0853887532918746 0.09721534696194585 -0.037408989517847775 -0.09186826368733565 0.04165658555735292 0.06562188339514978 0.03496944155880463 -0.008384945227977463 -0.06854823869659775 -0.04956739695228772 0.13279239947259086 -0.007877165945465534 -0.11891552147330074 -0.09000774344770836 -0.0613125357754558 -0.02789739294723578 -0.01726458597255429 -0.045147884727173855 -0.06414739600386161 -0.012233589263214776 0.005032277189641087 -0.041394082839997424 0.04984840383992961 -0.05052478132551281 0.049188928005280116 -0.019674861246460798 -0.024725541129747258 -0.07097032481968765 -0.05055019934108027 0.01329155456929961 -0.0025660941545208094 0.015844779778570437 0.00868323772351543 0.00899123742430651 -0.0547799402627613 0.08135474180183568 0.05367326335139634 0.035811906860863 -0.0015829822407428804 -0.05391288729495843 -0.21305742514747986 0.019687512943213567 -0.056033251002612555 -0.028897126552942225 -0.0874690121078853 -0.10332310435404332 -0.03187736961220868 -0.005778162434690549 -0.03865690417271359 0.10815763790868602 0.03960384776830573 0.10722008575392901 0.01051131382807176 0.03284100755240182 0.0034643100340599085 -0.09637890513001862 0.005091210388060026 -0.01957865197151399 0.05478875256811231 -0.07405731403439035 0.13440448143794395 0.0028949647989641785 -0.04751898774369852 -0.06137139585274213 0.06731946248673006 0.013952968254669634 0.07933917177497728 -0.026580016537770954 -0.03549843482355925 -0.009919853779727516 0.01992317753688784 0.08628352991264111 0.009761530348582667 -0.050996747961300944 -0.009490026362594375 -0.01116334628012088 -0.0745684547887496 -0.05032305752649414 0.09674344494321313 0.014717383045232395 0.04258494664142635 0.015063900031724118 -0.03325314687138 0.05954740526702378 -0.15080903751365804 0.03767618594415252 -0.06190765521072157 0.06920222338222494 -0.07222587461411546 -0.012635973891292777 -0.09997334221034906 0.06705439894626693 -0.0005700706256223457 0.1271476590519533 0.04008777080275421 -0.05544673338482853 0.027326764614213767 0.020576260233169684 -0.004900213395212589 -0.014619042165577412 -0.11633681505918503 0.12340065836906433 -0.05138397216796875 -0.03331565856933594 0.07331715524196625 0.008131241425871849 -0.005031651817262173 0.01982504315674305 -0.0016805941704660654 -0.048127178102731705 0.1839333176612854 0.01545630767941475 0.020092442631721497 -0.019809100776910782 -0.013310841284692287 -0.02987891249358654 0.044196419417858124 -0.016312748193740845 -0.08903556317090988 -0.023964107036590576 0.01335106696933508 0.08576547354459763 -0.10010554641485214 -0.010281344875693321 -0.006360823754221201 -0.00899540539830923 -0.0662245824933052 0.1420411318540573 0.06298503279685974 -0.14733752608299255 -0.022246288135647774 0.05538927763700485 0.03423251211643219 0.09121411293745041 0.08408009260892868 0.2375374287366867 -0.10802011936903 0.06000031158328056 -0.014993234537541866 -0.01398877240717411 -0.011997558176517487 -0.13465388119220734 -0.043985553085803986 -0.0034207773860543966 0.03585856407880783 0.1903829574584961 0.044501788914203644 -0.009342360310256481 0.05608377978205681 0.11712533980607986 -0.019041098654270172 -0.023644277825951576 -0.030388878658413887 0.01213039644062519 0.1686374545097351 0.06343792378902435 0.03150640055537224 0.017154939472675323 -0.07917473465204239 -0.015270856209099293 -0.05365382507443428 -0.013827224262058735 -0.041683629155159 0.028379235416650772 -0.05455050244927406 0.03909721225500107 -0.09462941437959671 -0.028171425685286522 0.021464036777615547 -0.011476938612759113 -0.05827750638127327 -0.035886380821466446 -0.04749679937958717 -0.0641920268535614 -0.06384807080030441 -0.03257337957620621 -0.12112180888652802 0.11359535157680511 0.10721969604492188 0.024673333391547203 -0.012704141438007355 -0.06301648914813995 -0.037497736513614655 -0.03162163496017456 0.010792042128741741 -0.05806973949074745 0.016935665160417557 0.005241136532276869 0.05356106534600258 -0.01507232803851366 0.00010536959598539397 -0.023081302642822266 0.04764501750469208 0.0013238131068646908 -0.005325371865183115 0.0045479475520551205 -0.07278813421726227 0.09024707227945328 0.015275668352842331 0.028472354635596275 -0.0619690828025341 -0.0500909686088562 -0.023352760821580887 0.12787187099456787 0.07881634682416916 -0.018019847571849823 -0.025210130959749222 0.03058202937245369 0.09430296719074249 0.08987848460674286 0.06738466024398804 0.07342555373907089 -0.05355211719870567 0.048155829310417175 -0.018431387841701508 0.06719905883073807 -0.08270154893398285 -0.08889107406139374 0.07319863140583038 -0.012749485671520233 -0.0705903097987175 0.010660622268915176 0.029629988595843315 -0.025867782533168793 -0.01618865318596363 -0.031338561326265335 0.08410979807376862 0.03926270827651024 -0.0029912341851741076 0.0009129724348895252 -0.01680688187479973 0.03878171741962433 0.07177767902612686 0.046803783625364304 -0.03394036740064621 -0.033770520240068436 -0.038888271898031235 0.1192999854683876 0.05843748152256012 -0.04845922067761421 -0.16099414229393005 -0.09129848331212997 0.04429130256175995 -0.009007473476231098 -0.07347016036510468 0.03839204087853432 0.06029906123876572 -0.03818929195404053 0.02153128571808338 0.004147957544773817 -0.032323699444532394 -0.09371733665466309 0.013389038853347301 0.01736743561923504 -0.03623928502202034 -0.013207757845520973 0.14988039433956146 0.007303399499505758 -0.020574958994984627 -0.08155728131532669 0.00036002908018417656 -0.027056239545345306 0.031169673427939415 0.062431372702121735 -0.029391610994935036 -0.00205399701371789 0.019451454281806946 -0.021332750096917152 0.08347602188587189 0.0297152791172266 0.04618050530552864 0.008880674839019775 0.015361751429736614 0.003692787140607834 -0.036272309720516205 -0.05009540170431137 0.07564965635538101 -0.008572181686758995 0.016292612999677658 -0.05242636054754257 0.18247860670089722 -0.0060095638036727905 -0.038134247064590454 -0.02913501113653183 -0.029927432537078857 -0.029618479311466217 0.02156648598611355 -0.07455026358366013 -0.005952866282314062 0.06646664440631866 0.08157279342412949 -0.057462505996227264 -0.025676999241113663 0.0012199690099805593 0.030406104400753975 -0.006201283540576696 -0.003433411242440343 0.07559846341609955 0.023331046104431152 -0.027224989969414123 -0.05424225106379741 -0.04528633229655637 -0.1417286281390837 0.0722444980701604 -0.0023993142667347 -0.01500389835781899 0.0510963565016724 -0.02181367246507653 0.014148591498412381 -0.09863278685267861 0.044466307335124126 -0.015514822437714921 0.010329168304873359 -0.11750586276664347 0.09271998931791031 0.09385531057505317 0.0022435124577521617 -0.12486714300730663 -0.011375630897935769 0.016981023714228948 -0.07136634098849766 0.055599688152334625 -0.05233421482734788 -0.004586396523155782 0.1443408093851131 -0.06265387536285746 6.602756728933295e-05 -0.06451877943830285 -0.11049145748591968 -0.020708452289445397 -0.07861486243559804 -0.09631347038343287 0.003674801507830004 0.008950256559729232 0.038096943134770085 0.020263112253445882 -0.009642061242507438 0.04110265882750158 0.01758880588953438 0.01105831563255402 -0.26861348149093617 0.03373209672963335 0.0026537270334217266 0.04040637313797599 0.0228196779060738 0.0319964076849457 -0.07704016630955604 0.030643647563979224 0.04882638897028314 0.011495416017638085 0.08912070798645697 0.10820208007241855 0.016917175260537376 -0.04634281428732783 -0.11144629963217706 0.05095728972725156 -0.1051972127613803 0.0014147135438548465 0.037555061265133215 -0.043770461804343505 -0.02730641159124754 0.006461199968541126 0.03635070155528441 0.08523293613944351 0.09210692061066161 0.01566807731722046 -0.10964515998192403 0.1261710932864951 0.05481359686675376 0.04043758860198142 -0.005162964525453152 -0.07981649630341918 -0.020042954138230245 0.04086101417651499 0.05907826932336172 -0.008312195806998227 -0.05352444082132232 0.015939904971949272 0.0342301184249718 0.0904265299134956 0.052978286137856406 0.08244256137914123 0.005253557803782887 -0.041089622942281905 -0.04915028429798409 0.09735416471879875 0.005606285348825953 0.09136935486055606 -0.008761179072108877 -0.0086381211525445 -0.002575037628777572 0.034271959212728444 0.11975838347317119 -0.014286600114727077 -0.08997071819080056 0.013132521612201863 0.02426559110774693 -0.0033871456881696765 0.0034280328416738705 -0.05536310747265816 -0.02446039207279682 -0.10518234223127365 0.036547452211380005 0.05042465031147003 -0.08072119951248169 0.039591941982507706 -0.10562685132026672 -0.09649739414453506 0.04472815617918968 0.1089036837220192 -0.04077741131186485 -0.04119393229484558 -0.13849662244319916 -0.016850342974066734 0.02980722300708294 0.043087318539619446 0.031185949221253395 0.03166637569665909 -0.07205714285373688 0.07874789088964462 0.09938736259937286 -0.10778674483299255 0.09950032085180283 -0.06458459794521332 0.014549080282449722 0.06026608869433403 0.010187404230237007 0.012242872267961502 0.06645034998655319 -0.0802912712097168 0.00997127965092659 -0.1247665286064148 -0.00986297894269228 -0.049558475613594055 0.13554012775421143 6.224746903171763e-05 -0.08819657564163208 -0.0324387326836586 -0.010716208256781101 0.014700409956276417 -0.0022532714065164328 0.13418258726596832 -0.07718817889690399 -0.041541844606399536 -0.017127810046076775 0.049988601356744766 0.02002829499542713 0.002526129363104701 -0.11548426002264023 0.005350441671907902 0.09434233605861664 0.1360016018152237 0.14214347302913666 -0.020184718072414398 0.062242668122053146 0.05200707167387009 -0.0773286521434784 0.14059226214885712 -0.011985069140791893 0.1063058003783226 0.0339660719037056 0.04450928792357445 -0.019115597009658813 -0.017226941883563995 -0.04354824125766754 -0.07093672454357147 -0.09734285622835159 -0.09927079826593399 -0.060869745910167694 -0.045639101415872574 0.04198627546429634 -0.0029087401926517487 0.06423967331647873 0.08341193944215775 -0.04958471655845642 -0.056433070451021194 -0.008323874324560165 0.16644509136676788 -0.025253942236304283 -0.029499446973204613 0.08305297046899796 0.07669961452484131 0.030748119577765465 -0.012608778662979603 -0.11497201025485992 -0.06946112960577011 -0.06920997053384781 -0.050275299698114395 -0.04853469133377075 -0.010797516442835331 0.02951076254248619 -0.0581151507794857 0.011212264187633991 0.01655631698668003 -0.07094623893499374 -0.04663488268852234 0.06565773487091064 -0.0319402813911438 0.13126474618911743 -0.04918205358954666 0.09040132562275753 -0.17159337616311712 0.0885174678717261 -0.05848904202161937 -0.13474486332802213 0.12417961613120107 0.06039003817095215 -0.04202028303471022 0.016623060518720215 -0.04617583656698189 -0.13187669582791156 -0.031212125004179057 0.17776466311625566 -0.06872532341480099 0.2778568937689507 -0.11506967748243929 -0.12399753564457258 0.014724988751725586 -0.4695600520163339 0.012477706767279157 0.12485918962227 0.07694005499059926 -0.22403676782892398 -0.009917529749172439 0.017757952770837124 -0.047130280502675856 0.20927022974360737 -0.17925450167209905 -0.12425585241709627 -0.03723798801503055 -0.03500526851346303 0.03417627689447286 -0.08902624709765174 0.10991610344541941 0.0498342428573752 -0.061570710634144335 -0.08787698501181981 0.05044312422424886 -0.06388685760465927 -0.041360925989106886 0.39771548157850045 0.060712688641544145 -0.06049815525973937 0.07043896105950302 0.10100653514243794 -0.01788196976179006 -0.09791216457969097 0.3537797335077952 0.30117970419709195 -0.1374078395524118 -0.14356400010567405 -0.1564833308959472 0.07331225123288018 0.22765143944169206 0.1330055867023597 0.0797026857396179 -0.02868250571614541 0.17894220895746094 -0.11674317476227916 0.012211789676925407 0.04843912886165476 -0.11207543145965201 -0.007636973754439658 0.07843405336310684 -0.026170118053048846 0.02205921185011213 -0.1418607129831384 0.07736119917465445 0.16703035172156638 0.38288803009257105 -0.09846365439106088 -0.028429595692629494 -0.09510121525469924 -0.0634585721319198 0.17873908919386755 -0.00808523212861996 0.05746163116935974 0.3546737920237022 0.05876206198261255 0.2618261845660359 -0.039585125341394356 -0.2165058816016472 -0.06008568332797251 0.3644881054212496 -0.11565791320281009 -0.20066324619342427 0.014760250343529947 -0.14964634983861735 -0.0853502783507738 -0.035568129997013496 -0.016969081625312202 0.012480176800043468 0.23858033965058703 -0.00805790035044008 0.06500654544537009 -0.038850923855170305 -0.12508611718066254 0.027562386836646316 -0.2679431175491285 -0.1401650756597519 0.010867414996027946 0.08536277711391449 0.034252364188432693 -0.03037743829190731 0.008077854290604591 -0.045359544456005096 0.022600606083869934 0.06303340941667557 0.11690428107976913 -0.02710464783012867 0.03854973614215851 0.06397859007120132 0.029510926455259323 0.002949631307274103 0.02074485458433628 -0.1336815059185028 -0.052657872438430786 -0.010254831984639168 -0.0452444851398468 0.04594836384057999 -0.0859995037317276 -0.056587014347314835 -0.12326853722333908 -0.07596487551927567 -0.079203762114048 -0.0974944531917572 -0.10528187453746796 0.009879762306809425 0.002359917853027582 0.03537025675177574 0.020848391577601433 0.03871753066778183 -0.09373758733272552 -0.022324249148368835 0.10138548910617828 -0.02318638749420643 0.017352871596813202 0.00458647683262825 0.06282282620668411 -0.026357559487223625 0.008913064375519753 -0.020003322511911392 -0.038321129977703094 0.03539746254682541 -0.07720072567462921 -0.04210700839757919 0.03974013775587082 -0.13854102790355682 -0.06530138850212097 0.06449044495820999 -0.10596000403165817 0.1136731281876564 -0.007797702681273222 -0.1210767850279808 -0.008347857743501663 -0.13391366600990295 -0.09015880525112152 -0.018342390656471252 -0.04106048122048378 0.05758460983633995 0.13153891265392303 0.07609833776950836 -0.018624404445290565 0.06285125762224197 -0.010974557138979435 -0.07368649542331696 -0.05000784620642662 -0.005658445414155722 0.010177258402109146 -0.053412433713674545 -0.10208725184202194 0.10106147825717926 0.092918261885643 -0.02442207746207714 -0.06927334517240524 0.030299756675958633 -0.01885453797876835 -0.13528582453727722 0.0393310971558094 0.025832397863268852 -0.03861108049750328 0.04957875981926918 0.05948648974299431 -0.04610347002744675 0.06470713764429092 -0.01011250913143158 0.03180889040231705 -0.0038192267529666424 0.09279272705316544 -0.10503895580768585 0.008404199033975601 0.1079377681016922 -0.0479295514523983 -0.15060503780841827 0.05240624025464058 0.03876066207885742 0.07699054479598999 -0.03953664377331734 -0.025929603725671768 -0.0028482824563980103 0.08982652425765991 0.012035290710628033 -0.016873886808753014 0.05252774804830551 -0.1111886203289032 -0.016474450007081032 0.03973657265305519 0.043880388140678406 0.03221699595451355 -0.0319356843829155 -0.050658613443374634 -0.07418014109134674 0.048641737550497055 -0.029660571366548538 -0.019813744351267815 -0.00690800603479147 -0.06474459171295166 -0.015271839685738087 0.034484587609767914 -0.016748519614338875 -0.019847247749567032 -0.000845006201416254 -0.04748329520225525 -0.06315889954566956 0.09294776618480682 0.05115469545125961 -0.07008367031812668 0.12645357847213745 -0.05585378035902977 0.08038578182458878 -0.08756440132856369 -0.0881441980600357 -0.10671252012252808 0.0480356439948082 0.018571170046925545 -0.08175357431173325 -0.1183052808046341 0.10252135246992111 0.07633288949728012 -0.0028148042038083076 0.007245181128382683 0.04233948513865471 -0.07289645075798035 0.007409955374896526 -0.09432537108659744 -0.015567770227789879 -0.053359080106019974 -0.11216851323843002 0.0026267273351550102 -0.021192608401179314 -0.026262495666742325 -0.03047216683626175 -0.005985436029732227 0.06933143734931946 0.13809671998023987 0.11629205197095871 -0.026440173387527466 0.09831732511520386 -0.013040527701377869 -0.084991954267025 0.047025758773088455 0.0031592505984008312 -0.03768148645758629 -0.04129299521446228 -0.07308532297611237 -0.015775375068187714 -0.06731916218996048 0.08919630944728851 -0.07065706700086594 -0.010956826619803905 -0.011323021724820137 0.0006389095215126872 -0.09769057482481003 -0.03120807744562626 0.03787389397621155 -0.05850726366043091 0.04878164827823639 -0.05802564695477486 -0.17471551895141602 0.048191435635089874 0.08259990066289902 0.09828873723745346 0.026719072833657265 -0.03694084659218788 -0.013928631320595741 0.06527068465948105 0.09741874039173126 -0.0401560440659523 -0.015157699584960938 0.0060729882679879665 -0.03298609331250191 0.1207832619547844 0.07350779324769974 0.01698402874171734 0.035073451697826385 -0.03958530351519585 0.0022690193727612495 0.06241177022457123 -0.06581101566553116 0.13161548673551898 -0.06519962714655177 -0.06220504446324036 -0.05370424782832335 -0.10824607147866226 0.0667491718204208 -0.10390975054444743 0.15880671475903613 0.09960546067178451 -0.029013047616713337 0.04500369509379314 -0.1309854371157536 0.07857219576872856 0.019031907810093472 0.1341305987142755 0.16562017238968724 -0.15514512559043034 -0.019076229927303977 0.05842841597817024 -0.06971012596593881 0.013413740816215524 0.02384296958810952 0.14835389225747797 -0.0775472801429575 -0.020159494437623073 -0.006890049969206549 -0.06566133511786301 -0.026452740211369723 -0.012299610815600064 0.0021379076787309825 -0.08200858569458697 -0.027623345061347334 -0.06659544047567054 -0.04023593162871269 -0.058268764071872 0.07162317885293859 0.18175099246144985 -0.06512018232427255 -0.06671809337969997 -0.04222434419846101 -0.12803331124981554 0.23889644089884154 -0.03345505255911099 0.11498390537482096 0.06627532042666524 0.12731228623376736 -0.05654727730703886 -0.03957519800873679 0.029948092729179088 0.03984823484628596 -0.00495720613840084 0.12419127983529059 0.024413251096352333 0.007779561605859008 0.26825367775426967 0.08192922030088515 0.07062466380553727 -0.07428650532750433 -0.039343921316169796 0.01903677753699436 -0.03137775548249235 0.14700424630103495 0.05865663208162689 0.057040798935609704 -0.02162085871680445 0.010840478076792637 0.12291888682564521 -0.07915154062529145 0.04027322907674095 0.13424410516077137 0.15813587517764285 0.04617630380345205 -0.015992696293082434 -0.07313457820335909 -0.11205436006794822 -0.06947382761835892 -0.0018688139430666436 0.16904118475670357 -0.006141725017033722 0.07269283014496229 -0.07275413088740482 -0.05242388133583013 -0.046257468015021265 -0.005239612765268366 0.23446075048083131 0.14453599436395823 0.2210061052708478 -0.021461319033819294 0.04767357868215838 -0.03264867711171434 -0.11132552795556828 -0.10236411527815303 -0.12001241092222868 -0.008602063186904034 0.043310118153303656 -0.03974201563753509 -0.013487555295453115 -0.06532062446372848 0.0074345918269978295 -0.11505553281989186 0.07852537930011749 0.10335900634527206 0.08748720586299896 0.046461038291454315 0.02928115800023079 -0.08165466040372849 0.016741827130317688 0.07202359288930893 0.05870233103632927 0.0811699777841568 0.060343317687511444 0.010291676968336105 0.04318152740597725 0.07664279639720917 0.007651463616639376 -0.0030248865950852633 0.1564456820487976 0.01618858054280281 0.07327296584844589 0.06634403765201569 -0.163339763879776 -0.054548755288124084 -0.0271892286837101 0.02030227705836296 0.05334443971514702 -0.02606245130300522 -0.03591298684477806 0.0005553006776608527 -0.016928769648075104 0.006190990097820759 0.054710399359464645 0.05780962482094765 0.042968910187482834 0.11541128158569336 -0.10707778483629227 -0.011941072531044483 0.09605314582586288 -0.03868325799703598 0.03695586323738098 0.12769478559494019 -0.01298696082085371 0.040383480489254 0.02039121836423874 0.05640675500035286 -0.02194475382566452 0.027831649407744408 0.033878833055496216 0.10122258961200714 -0.05089104175567627 0.008834519423544407 -0.06782036274671555 -0.05314774438738823 0.06386489421129227 0.07887181639671326 0.02186727523803711 0.10741022229194641 -0.023893006145954132 -0.0422622412443161 0.018799133598804474 -0.06646014750003815 0.012872421182692051 -0.0519469678401947 -0.12527090311050415 0.005960040260106325 0.03427039459347725 -0.08480524271726608 0.013614882715046406 -0.04591049626469612 0.11318673938512802 -0.024552086368203163 -0.03611740469932556 -0.037331223487854004 0.09051695466041565 0.11819403618574142 0.08878439664840698 -0.08812113106250763 -0.025803081691265106 0.01687389612197876 0.05700516700744629 0.00337042985484004 0.06331925839185715 -0.10069047659635544 -0.0383894108235836 0.09133701771497726 0.06964387744665146 0.0407426692545414 -0.044935453683137894 0.060331523418426514 0.04259693622589111 -0.07306229323148727 -0.07062370330095291 -0.03007798083126545 0.07106300443410873 0.01985163427889347 -0.01583719626069069 -0.10622941702604294 -0.05142833665013313 0.051565542817115784 -0.041636839509010315 0.02483556978404522 -0.15449911712891154 -0.14315177470556045 -0.0026031735956881367 0.00010837375088673987 -0.04851738273184518 -0.03116477161010306 0.0032485904410555475 -0.014644287889694463 0.04945322817466208 0.00414774055879557 -0.06569882979250613 0.12867538031429868 0.04733872542532291 0.07295438465677426 -0.12000800040392953 0.003573449715163755 0.10117996796007861 0.03862112533263388 -0.10251590260685732 -0.1862669164142371 -0.07022329119553691 -0.017073589888384956 0.041956554291036036 -0.03514341162267699 0.06761025841255937 0.09158255413122 0.08071339715887056 0.01624239735858493 0.12051826252141605 -0.021109654853130114 0.020677503241538154 -0.015504182600733508 -0.0011270841626575263 -0.030441683572210238 0.1190960314509638 0.058903492254909665 0.03974761903547764 0.03866410503725014 0.04343183772424103 -0.0349712741252677 0.010414053457992262 -0.08000444886800427 -0.0034381744500394406 0.05041474607316683 -0.0549385621427338 0.09161892108611364 -0.1228787435153421 -0.007318442994222381 -0.02542003036737628 -0.042273292154669746 -0.10688029881509713 0.037660708512826456 -0.04646374093013529 0.0990359083005434 0.09326631621050861 -0.00785348500836684 0.01521154379286994 -0.02360956409740093 0.019212445526688604 -0.09383265642843575 0.03802290108153118 0.03015315586094895 -0.1594888642084014 0.03776469523875846 -0.13299151907780415 -0.04130243673268525 0.009224906924566614 -0.015071060415652475 -0.05889654883590703 0.19931517343914787 0.10240867723040421 -0.0991791198959052 -0.10776543697884908 -0.0626306410578758 -0.03104786014182228 -0.014431204605088736 -0.06252619064840303 0.04453308262822887 -0.11849646787547928 0.054615352195166895 0.0011153218048244084 0.042625559184384564 -0.07877385839218638 -0.0728126677781671 -0.0747219362895217 0.07670844632862316 -0.2016558292920794 -0.04545062712671542 -0.03655130024377974 -0.05091890844980858 -0.06449426531354287 -0.05770421968884908 0.027089064794208806 -0.05158132341510756 -0.1813183605664253 -0.07369633092711521 0.07029070090181702 -0.024277344483314457 0.019171062929104477 -0.03347907330655172 0.1290573626756668 0.041923727840185165 0.05247919261455536 0.0867784395813942 0.0004427235689945519 -0.0050055040046572685 -0.017442138865590096 0.03356081247329712 0.0900777131319046 0.020101778209209442 0.04527222365140915 -0.017710242420434952 0.06039824336767197 -0.04038490355014801 0.032410673797130585 0.0864156037569046 0.09522301703691483 -0.1057497039437294 0.07405851036310196 -0.07102170586585999 -0.0019689055625349283 0.09391839802265167 -0.034251619130373 0.01884448528289795 -0.004217610228806734 0.03059164620935917 0.03548072278499603 -0.0464799702167511 0.1693316251039505 0.11304914206266403 -0.08460406213998795 0.031165942549705505 0.12058933079242706 -0.03375759348273277 0.033935751765966415 0.035523246973752975 0.04960225895047188 0.056000299751758575 0.07242820411920547 -0.06646128743886948 -0.0657157376408577 0.028653565794229507 0.01708677038550377 0.015969814732670784 0.011962082237005234 -0.015523185022175312 0.018976520746946335 -0.060124754905700684 -0.027815965935587883 -0.02827218361198902 -0.023846497759222984 -0.03173693269491196 0.0406462661921978 0.023820990696549416 -0.044632937759160995 0.01648727059364319 -0.03096073307096958 0.10449504852294922 -0.03463274985551834 0.15479996800422668 0.004795140586793423 0.08198761940002441 -0.008711752481758595 -0.0014848295832052827 -0.07247301191091537 -0.042136434465646744 -0.15020470321178436 0.08848334103822708 -0.018204862251877785 -0.02979973517358303 -0.0015303322579711676 0.0798054113984108 -0.009440102614462376 0.013571266084909439 0.08573324233293533 -0.028899457305669785 0.03651805594563484 0.032543670386075974 -0.0399530865252018 0.10425224900245667 -0.11578140407800674 0.010183800011873245 -0.05378443002700806 -0.04774443805217743 -0.007742830086499453 0.03306639939546585 0.06862331181764603 0.03883374482393265 0.12062124162912369 -0.03177383169531822 0.05432898551225662 -0.011893507093191147 -0.10577823966741562 0.07430212199687958 0.13637839257717133 -0.038767218589782715 0.09619434177875519 0.03196267411112785 -0.012440268881618977 -0.03892967104911804 -0.05235591158270836 0.00497394846752286 -0.031425949186086655 0.024148473516106606 0.09262105077505112 -0.059315912425518036 -0.03896545246243477 -0.04403833672404289 -0.07448261231184006 0.05332685634493828 -0.062052950263023376 -0.05222247913479805 0.05033860355615616 -0.021318161860108376 -0.02954346500337124 -0.06495731323957443 -0.022304804995656013 -0.08647892624139786 -0.020183805376291275 0.020617742091417313 0.08007549494504929 0.03904322162270546 -0.05264542996883392 -0.0018226528773084283 -0.09359625726938248 -0.021098030731081963 0.11292433738708496 -0.03712564334273338 0.07058225572109222 -0.021150462329387665 0.04075665771961212 0.000500173307955265 -0.14941368997097015 7.251872739288956e-05 0.06871336698532104 -0.06442901492118835 -0.03817598521709442 0.048716604709625244 0.07633443176746368 0.024041181430220604 0.06749402731657028 0.020678546279668808 -0.056750137358903885 -0.01944323442876339 -0.03309917449951172 0.04331302270293236 -0.03311225771903992 0.02453877031803131 0.032605696469545364 0.05625147745013237 0.03925054520368576 0.04486819729208946 0.04489317536354065 -0.004225119482725859 -0.04588143900036812 0.04464750364422798 0.02248360402882099 -0.06354829668998718 0.07725314795970917 -0.031198035925626755 0.016561759635806084 0.06908214837312698 0.038478344678878784 0.1711636483669281 -0.10500955581665039 -0.02557108923792839 -0.1074376255273819 -0.022565418854355812 0.05933092534542084 -0.10009823739528656 0.07747039943933487 0.005111175589263439 -0.04329971224069595 0.09385288506746292 -0.02242032252252102 0.02471933886408806 -0.04458574950695038 0.1238170638680458 0.04861964285373688 -0.13836997747421265 -0.01763957180082798 0.03971188887953758 -0.03748360648751259 0.10171708464622498 0.056787896901369095 -0.03433538228273392 0.009691362269222736 -0.06175122410058975 0.06003335863351822 -0.01264064759016037 -0.03687873110175133 -0.1172502189874649 -0.0826353132724762 0.03762459009885788 0.07118760049343109 -0.04120492562651634 0.031103944405913353 -0.0558425709605217 