0.07748799687444971 -0.17230064401680661 0.030143177503260652 -0.08289937499897898 0.08555670033304472 0.07959912026271926 -0.036027848612625105 0.006183691750052179 -0.10774358750116622 0.026867559574967316 -0.013913847781483505 0.04504271252996626 -0.09992129236888188 -0.022327704493809365 -0.06602437031663133 -0.04724180812186104 -0.07270787692833092 -0.15119353371959493 0.026782617783222763 0.16428635789700538 -0.010302364251849373 -0.06986708541859843 -0.014418349784336343 0.009446924465356894 -0.021579107286102354 -0.0660672605165198 -0.08490568311588294 -0.06446417111168806 -0.014258091232724873 -0.03483208001773599 -0.00418918659457531 -0.0015388406998050582 -0.028002427834017823 0.12046035808178662 0.005265623579069288 0.052339338309974684 0.057783644855422214 -0.020075832986211836 0.017678109320124147 -0.13078822548435148 -0.016251662491243286 0.1481624232779429 -0.09650811161060986 0.13304672380350013 -0.11128125168057405 -0.017040572231918967 -0.09198055198571863 -0.029180459613355723 -0.0807927767270466 0.021594891503474198 0.03713394162850952 -0.05411943640757108 -0.06867268499109717 -0.04308378728548405 0.2214307311504268 -0.02237550569481718 -0.035927245322502493 0.15244100552144024 -0.022126098350380475 -0.09695353953045413 -0.10893765285002603 0.11291066887108635 0.041360400427885496 -0.015655530839185295 0.08378607026797483 0.20829347430299916 0.1608152005280063 0.04522419997158624 -0.05430388532412882 -0.015161217628326451 -0.03087497770063682 -0.1447160686781521 0.003924254412267242 0.1402088490900929 0.06236681639904202 0.09033630304060931 -0.0375386754818615 -0.20458922889232412 -0.025767975228846742 0.1788974027821554 -0.018040174135761488 0.02144833052599475 0.004473725669490707 -0.15861536023753628 0.0653835689535742 -0.0314511573154025 -0.028251873982791394 -0.001293366000713198 0.03325231887899533 0.15232655125746744 -0.04363781321668105 -0.028195144247246725 -0.11281924424704158 -0.047476910388105066 -0.12829044736203798 -0.1323736171302771 -0.10126358685435462 0.029560135188276083 0.04803883138980554 -0.13822496999819084 0.0007517901249229908 0.027652794495224953 -0.11081796884536743 -0.03521937504410744 0.06582694500684738 -0.03734523057937622 -0.07571398466825485 0.04366671293973923 0.06941881030797958 0.05383110046386719 0.01635957881808281 0.06543157994747162 0.04627024009823799 0.0818777084350586 0.07968896627426147 0.09739222377538681 0.02402438037097454 -0.0658852607011795 0.0442911721765995 0.030110564082860947 -0.012513291090726852 -0.12811487913131714 -0.09481392055749893 -0.059102851897478104 -0.12686005234718323 -0.12220502644777298 -0.04372335970401764 0.007913787849247456 0.013517758809030056 0.013911625370383263 0.022510455921292305 0.02467282861471176 -0.04189416393637657 -0.02665036916732788 0.047228116542100906 -0.09243758767843246 -0.16067913174629211 -0.10197801887989044 0.021745558828115463 -0.0601942241191864 -0.05672096088528633 0.02847026102244854 -0.047434065490961075 -0.05571718513965607 0.0092972032725811 0.08902144432067871 -0.10715370625257492 0.007339998614042997 0.04774503409862518 -0.11242874711751938 0.0687183141708374 -0.059812549501657486 -0.09971725940704346 -0.0634918063879013 -0.031089816242456436 -0.07117559760808945 -0.06703028082847595 -0.07804254442453384 0.03801305592060089 -0.016673121601343155 -0.0014482202241197228 0.04152045026421547 -0.03420637920498848 0.04187774285674095 -0.10825637727975845 -0.12561583518981934 -0.12334252893924713 -0.02852906472980976 -0.0043324995785951614 0.08744243532419205 -0.015797417610883713 -0.08681438118219376 -0.06999173760414124 -0.06497868150472641 0.04792899638414383 0.009941032156348228 -0.11335872113704681 0.047150395810604095 0.035533152520656586 0.044779952615499496 0.051918622106313705 -0.02150190994143486 -0.09223485738039017 -0.0054872771725058556 0.011583622545003891 -0.04415180906653404 -0.01683986559510231 -0.03378486633300781 -0.07319779694080353 0.05347451567649841 0.04010464996099472 0.016323771327733994 0.008198374882340431 0.03280824050307274 0.008090119808912277 -0.023676034063100815 0.054369766265153885 0.01573454588651657 -0.11033285409212112 -0.08936790376901627 -0.09518788754940033 0.04757378250360489 -0.013273967429995537 0.004408266860991716 -0.019559336826205254 -0.09592722356319427 -0.024709494784474373 0.041599709540605545 -0.011066600680351257 0.04422779381275177 -0.06060829013586044 -0.010158560238778591 0.09107782691717148 -0.09255649894475937 0.014687640592455864 -0.015911582857370377 0.10220392793416977 0.134014293551445 0.004876948427408934 -0.029238158836960793 -0.13198590278625488 0.036460280418395996 0.01081572100520134 -0.03936197608709335 -0.023306621238589287 0.020657146349549294 -0.07785701751708984 0.002688582055270672 -0.007855290547013283 0.09281660616397858 -0.00023526485892944038 0.09856148064136505 0.06134700030088425 -0.041602324694395065 -0.02962678112089634 -0.060084469616413116 -0.13296695053577423 0.009573865681886673 0.044304557144641876 -0.10174981504678726 -0.019234273582696915 0.07839362323284149 0.13698957860469818 -0.05425821989774704 -0.01473310962319374 -0.008788574486970901 -0.08146315068006516 -0.002148538827896118 0.1445617824792862 -0.08990447223186493 -0.03555380180478096 -0.0798419937491417 0.002745731035247445 -0.035330429673194885 -0.05732293799519539 0.037835508584976196 0.006760868709534407 0.050680071115493774 -0.11315944790840149 -0.09627599269151688 0.05226690322160721 0.07724631577730179 0.05846969038248062 0.0614238940179348 -0.07553893327713013 -0.011733582243323326 0.046786438673734665 0.04613058641552925 -0.00818201620131731 -0.05373232811689377 0.0006162707577459514 0.04451117664575577 0.0049097128212451935 0.003088408149778843 -0.0336800180375576 -0.0738682672381401 0.017529230564832687 0.047482721507549286 0.09878134727478027 0.08705314248800278 -0.001975700259208679 -0.02558824233710766 0.05512302741408348 -0.09022920578718185 -0.0051256506703794 0.03517491742968559 0.06358177959918976 -0.12728509306907654 -0.06217826157808304 0.05531655624508858 0.09658926725387573 0.04169611632823944 -0.013521568849682808 -0.02940293401479721 -0.07489105314016342 -0.09197095781564713 0.059027478098869324 -0.07403998076915741 0.05842474475502968 -0.025440897792577744 0.000872624986262469 0.026676768427936055 0.181351386705583 -0.034471221262502974 -0.044530886965073145 -0.0590163131256842 -0.11771613618640145 -0.048070296737843465 0.004829971614013019 0.028147156983042782 0.008398937937437326 -0.03237105103230517 0.005100642906142573 -0.12678662039198021 0.006438348220922515 0.006604131304356127 0.06010927944824517 0.10306620817496838 0.03806782510792323 0.13643151542689183 0.036416401618680413 -0.05823640609974074 -0.06322609692578446 0.04721099290926536 -0.027770452373018454 0.1280785497988789 -0.018164249265473782 0.00019083712327277308 0.009412821940134207 -0.1239955495739086 0.05426260629216018 0.010179879526626023 0.025608376147983832 0.017509899156791735 0.09706426777575468 0.031198452192981594 0.10036663819399023 0.13422212745800458 -0.011838619729041247 0.0330852637774116 0.03654342580525198 0.015716469009817602 -0.013035734461462141 0.044914561691685284 0.01651785368445042 -0.03797234943732312 -0.00723810055850063 0.14652960940503967 0.06914633225538191 -0.025819030608989962 -0.06250487673814191 0.027124227681385806 0.005794795687036323 -0.14074230086751385 -0.028457552276517778 -0.009044400884851719 0.03818973793098291 0.06174680383644784 0.015891439772904945 -0.02223006688524264 0.04211684552101814 0.10853909778264606 0.0019428141111473504 -0.05119817930092984 0.04580132900955391 -0.0014833766782252572 -0.03718470026077973 0.04055203734524703 0.0056511374301627445 0.02131956732391912 0.060905849197506134 -0.05544875492947255 0.026560586499830032 0.16158398582933836 -0.0010098729344432985 -0.0020397397497794664 0.025838548727110097 0.06565603535717181 -0.10634756885500732 0.0160339201904125 0.05980459305638646 0.026643677421707913 -0.009251627106763026 -0.012829116326292217 -0.059318127924359955 -0.17834458867905273 0.10687352940578858 -0.07152157691312411 -0.11518826339658544 0.058646158197187624 0.051562816903529325 -0.0052735963435020655 0.038016567284069776 0.0332511159367899 0.03941135234954348 0.036205651792795404 0.01570615763125744 0.013332938586450887 0.0005795420600114908 -0.1255390595611989 -0.001527542481198907 -0.03072506934404373 -0.02200380526483059 -0.10584240406751633 -0.014838696457445621 -0.07215001434087753 0.022882426157593727 -0.004538750275969505 -0.09005708247423172 0.1404653638601303 -0.018614301458001137 -0.011381655931472778 -0.04839194193482399 -0.03318391367793083 -0.074986532330513 -0.0888357013463974 0.05015586316585541 0.07445499300956726 -0.09279217571020126 0.025723710656166077 -0.13539795577526093 -0.03790709003806114 -0.012460300698876381 0.06977792829275131 -0.006769664119929075 -0.008320849388837814 -0.04153291508555412 -0.09475909173488617 0.019612984731793404 -0.04752030596137047 0.05879836156964302 0.05012400075793266 0.12240125238895416 -0.05496634542942047 0.06366080790758133 0.03828245773911476 0.05289144441485405 -0.058158840984106064 0.06695340573787689 0.06370680779218674 0.15278266370296478 -0.11240839958190918 0.05609501898288727 0.0693855956196785 -0.09877000004053116 -0.00407046964392066 0.00469691539183259 0.11096689105033875 0.03198125585913658 -0.036410629749298096 0.01931367814540863 0.032410021871328354 0.014809706248342991 -0.05102488771080971 0.05121506005525589 -0.09691859781742096 0.07474468648433685 -0.056437715888023376 0.05282953381538391 0.1545153260231018 0.027259545400738716 0.012328043580055237 -0.05105340853333473 0.017163310199975967 -0.053769927471876144 0.11889413744211197 0.04810056835412979 -0.0010657887905836105 -0.08342965692281723 0.06506697088479996 0.056777264922857285 0.024259932339191437 -0.010761132463812828 0.10412397235631943 -0.051335230469703674 0.06822274625301361 0.03962042182683945 -0.07098937034606934 -0.10559822618961334 0.05330285057425499 0.015873556956648827 -0.07375186681747437 0.023780696094036102 0.10529074817895889 -0.07591437548398972 0.05077067390084267 0.03502674028277397 0.007274146191775799 0.052030690014362335 -0.07240142673254013 0.06752243638038635 -0.08619615435600281 -0.002879280364140868 0.11371142417192459 0.0004519457870628685 -0.06503903865814209 0.010582542978227139 0.027668248862028122 -0.07940009981393814 0.03362186625599861 0.0532040236829734 -0.019596570102861647 0.052876399115563195 -0.0024962013900197886 0.045400727360855424 0.055393678460153986 0.02441738290418074 0.06283441509820761 0.0681541371826749 0.05693116622639637 -0.05298206641231018 0.0021100630351402446 0.016999522335897296 -0.016241507943888057 0.018531038021083423 0.011227658772361405 -0.05642144968489862 0.06190788751908143 0.01635087216162318 -0.03902542118672722 0.04337052522436574 0.04887862219337367 -0.05063881361721972 0.03069651159576426 0.043660778302038676 0.034782492305258414 0.021391175334394236 0.07045473712522216 -0.08754593907013883 -0.15384434771458522 -0.04130977804716854 0.12736505452578284 -0.1812213928332846 0.017728481282678378 0.07001988042658958 -0.010422245683630262 -0.04445374252493655 -0.10337208640505778 0.046035655631926554 0.03299920230517556 0.08852917881792832 -0.14243291330198 0.01145944215370092 0.03059807155996428 0.09714436302491851 0.019262762557915224 0.014908485955010507 0.03474355135730101 -0.013457372816859485 0.004258860868993272 -0.05008682810489583 0.01572479548636335 -0.035982275246600665 -0.01123142774143927 -0.04366669903166359 -0.0022152514467031403 0.02971956160045572 0.028525495576593837 -0.017812258812740258 0.1869068661465255 0.011355886103953664 -0.08698149258612589 0.11285056827767032 -0.030848905042894354 0.0545290335480011 0.007580043337711849 -0.07234451007288077 -0.0422182543692229 -0.006577605292416779 0.08086311898145067 0.04837682624177738 -0.13131923560604677 0.015358663753501211 -0.0024385882333258723 -0.04320616027988183 0.07289043887835728 -0.03746762935995657 -0.15496101837952653 -0.008537077723322696 0.016309915501691828 0.024018487382377305 -0.03676500009818846 0.03579988458453098 0.01670064654239262 -0.01506416481450181 0.012096794173525412 0.0009022181648514867 0.007736863184213906 0.09650921915576739 0.025019213838120873 -0.012581486367458108 0.034100409874270425 -0.021692371387437313 -0.04789513076220744 0.03380947694987196 -0.03413775298361101 0.019673851304287594 -0.12229788923859337 0.0791598827463033 -0.03251170715335633 0.09275033324956894 0.04191982373595238 0.05459248647093773 0.021406564861536026 -0.06432412564754486 0.04607589170336723 0.04107462614774704 0.07433751970529556 -0.02654591016471386 0.08253416419029236 0.06022217869758606 -0.019883979111909866 0.03984871134161949 0.1322745978832245 0.08501698076725006 -0.018085816875100136 0.11275573074817657 -0.08301696926355362 0.004554487764835358 -0.0436745323240757 0.05431278795003891 -0.022998463362455368 -0.11157619953155518 -0.012544790282845497 -0.0787179172039032 -0.07740388810634613 -0.09349989891052246 0.008715500123798847 0.008527672849595547 0.011544927954673767 -0.02510042116045952 -0.03255605325102806 -0.07761787623167038 -0.028205152601003647 0.03651752695441246 -0.06856665015220642 0.03894748538732529 -0.053496960550546646 -0.015525122173130512 0.034618061035871506 0.03905905410647392 0.047359321266412735 0.053740017116069794 0.0644000992178917 -0.06812227517366409 -0.053048111498355865 -0.00017225586634594947 0.016514936462044716 0.01790970005095005 -0.06216679885983467 -0.07079236954450607 -0.05099938437342644 0.035926587879657745 -0.022400761023163795 -0.11751231551170349 0.13919436931610107 -0.0005615291302092373 -0.05037334933876991 0.08100853115320206 0.03214167803525925 -0.0310006532818079 -0.06630194932222366 0.04156466946005821 0.07475762814283371 -0.0179801806807518 0.041269879788160324 -0.04110267758369446 0.08260481059551239 0.0017695188289508224 0.11816197633743286 0.07124977558851242 -0.03440217301249504 -0.041307367384433746 -0.08678720891475677 -0.015107960440218449 0.009802385233342648 0.012994321994483471 0.024583371356129646 -0.07822306454181671 0.0932910218834877 0.06429481506347656 -0.011917060241103172 -0.018106995150446892 -0.028367208316922188 0.0727815330028534 0.0005980110727250576 0.05449414998292923 0.04240712895989418 0.040616076439619064 0.15049639344215393 0.038772162050008774 -0.03260442242026329 0.06668301671743393 -0.04913594201207161 -0.035169120877981186 0.08183982968330383 -0.04439270868897438 0.06549768149852753 0.10471693426370621 -0.04853593930602074 -0.07390056550502777 -0.09735353291034698 0.08061936497688293 0.10879409313201904 -0.007189141120761633 -0.0024204931687563658 0.06897934526205063 0.035832878202199936 0.09748581051826477 -0.014993483200669289 0.025537054985761642 0.06361652165651321 0.04954278841614723 0.055521681904792786 0.10473935306072235 -0.0035911519080400467 0.048346586525440216 -0.060011766850948334 0.0398048534989357 -0.029208136722445488 0.09565968066453934 -0.04579707235097885 0.08647517114877701 -0.08389066159725189 0.037255965173244476 0.1087542399764061 0.07794932276010513 0.02789195440709591 0.008997633121907711 0.11470310389995575 -0.09559415280818939 -0.09285981208086014 -0.04151206463575363 -0.05049800127744675 0.11582952737808228 0.0676950141787529 0.016998399049043655 0.05242547765374184 -0.05805747210979462 0.10056227445602417 -0.051879700273275375 -0.006132748443633318 -0.026705384254455566 -0.025936374440789223 -0.10004293918609619 -0.030201546847820282 0.06621205806732178 -0.02188088931143284 0.06749255955219269 -0.0037994019221514463 -0.01885271444916725 0.0403609536588192 0.04268079251050949 -0.02725556120276451 -0.005007452797144651 -0.01755155436694622 0.039145663380622864 -0.09052624553442001 0.027843967080116272 -0.07530006766319275 -0.0030717668123543262 -0.06345894187688828 -0.09590449929237366 -0.04823372885584831 -0.03904791921377182 0.015037897042930126 0.053746115416288376 0.027488037943840027 0.01949324831366539 -0.07296979427337646 -0.02484309673309326 -0.07079362124204636 -0.06083786115050316 0.0037851897068321705 -0.07005281746387482 -0.04163885861635208 -0.1473015695810318 -0.06717672944068909 -0.06418813019990921 -0.01954004168510437 -0.07938352972269058 -0.015784304589033127 0.11195267736911774 -0.02266305312514305 0.0006267004064284265 0.022434663027524948 0.10286484658718109 0.05451159551739693 0.016899293288588524 0.08744549006223679 -0.012417446821928024 0.036883316934108734 0.04861088842153549 0.07662196457386017 0.04837283492088318 -0.12437815219163895 -0.13637788593769073 0.008774413727223873 0.062213119119405746 0.037474893033504486 0.0915419586568096 0.03639705673754436 -0.04751214073734354 -0.013599132575550335 -0.14094310074816244 0.1474033879771401 -0.052558022641052596 -0.04087307107362746 -0.06284479683231425 0.017098211866178634 0.04746203839330512 0.02472991805745798 -0.001764151354723026 -0.020353451929497276 -0.07558191774812281 0.04974566785775824 0.013983468170768199 -0.059269886870211695 -0.05282936407778993 -0.04052689377116208 0.0667015404842191 -0.05158325452435731 -0.009337794728494926 0.0357386027332411 0.08443880544352683 -0.10963877147367708 -0.057541366325079696 0.056793082760566965 0.0846021818385659 -0.03231143438276525 0.05711709005010845 -0.027230873334454425 -0.06985268725132543 0.04372059309168185 -0.07731788788081774 0.1219502074239114 -0.011280072188993233 -0.005473466617597474 0.07328009500430784 -0.050867033327796865 0.09195377712923161 -0.0400973749501024 -0.09986290171052666 0.04933778804612252 0.009572091672939615 -0.12820871696561958 0.016280213582628707 -0.03221242123953222 0.03143234105588874 0.023807893167523728 -0.13281564105889715 0.07523495219784034 -0.040471889605621696 -0.018944225475769853 0.011453164436993145 -0.09270035580019259 0.06084753551897521 0.07214719389043348 -0.010254981344837318 0.019057521736537603 0.01997097053319778 0.006049975112232504 0.01640142283708128 -0.043773728139281154 -0.05688605309899522 0.009736504437477228 0.04228914949275543 0.052137218045254625 0.0612287955715685 -0.07403318272907171 0.018166406979084747 0.05679172255043286 -0.04531135031518197 -0.03164748640574026 0.060323839255093416 -0.11753735505309451 0.014077802740001468 0.015602706865874288 0.05892613005986138 0.07314367123012766 -0.11576428606359988 0.09813876956504383 -0.010972512634498256 0.0685280805166131 0.16083126079712096 -0.05840038966476324 -0.13866217605986095 -0.0003401465035665068 -0.003335371090261105 0.12446112116910486 0.0393117581212673 0.06336201435252177 0.006090966520485676 0.059775751001217244 -0.026330388111498394 0.06865519709332908 -0.07051159788757859 0.02717244927109204 0.0035540782709874773 -0.02689620932457385 0.04670263081789017 -0.020474158227443695 0.03866070136427879 0.01239373255521059 -0.07419906556606293 -0.017556603997945786 0.034041356295347214 0.10804010182619095 -0.014031436294317245 -0.0520758181810379 0.08172401785850525 -0.15001477301120758 0.005968913901597261 0.06486689299345016 0.033526159822940826 0.0013106046244502068 0.0569026842713356 -0.024377726018428802 -0.11766741424798965 -0.08555629849433899 0.021110404282808304 -0.03501562774181366 0.0387968085706234 -0.040997859090566635 -0.17077690362930298 0.06956768035888672 0.007531269919127226 0.0683462917804718 0.06787347793579102 0.025933103635907173 -0.05579172819852829 0.03296242654323578 -0.005568919703364372 0.08377089351415634 -0.02372414618730545 0.046604570001363754 0.03680998831987381 -0.03212150186300278 0.016521796584129333 -0.013213635422289371 0.056314509361982346 -0.03128841146826744 -0.04327607527375221 0.02574990876019001 -0.018303539603948593 0.02482355572283268 -0.02124035730957985 0.0665704607963562 -0.08585100620985031 -0.04845002293586731 -0.07664339244365692 -0.0658431276679039 0.12996135652065277 0.09819798916578293 -0.04842563346028328 -0.013148252852261066 0.09308621287345886 -0.09407031536102295 0.0879012867808342 0.022178828716278076 0.029570206999778748 -0.04029959812760353 -0.08859014511108398 -0.0715460255742073 0.050804827362298965 0.0484330952167511 -0.012782596051692963 -0.013616278767585754 0.02874251827597618 0.01848033256828785 0.02294427715241909 -0.0435224287211895 -0.03249384090304375 0.011828894726932049 0.041846077889204025 0.014675570651888847 -0.035028159618377686 0.08138333261013031 0.04132414609193802 0.011276179924607277 -0.034278351813554764 -0.01370760053396225 -0.043164223432540894 -0.11254731565713882 0.03298505023121834 0.029603127390146255 0.04315817356109619 0.12669922411441803 0.023786772042512894 0.027442047372460365 0.006138862110674381 0.11617188900709152 0.054092004895210266 -0.04577003791928291 0.025071177631616592 -0.07084518671035767 -0.04832541197538376 -0.043429940938949585 -0.008946544490754604 -0.002691451460123062 -0.024075109662623433 -0.0690452931283009 -0.030068179480905597 -0.039432487584073916 0.07263749450666525 0.021405440184768174 -0.033837429721700084 -0.025430821867165485 -0.031012196026591478 0.0419334179182797 -0.0885999559530266 -0.015987724236895363 0.035903734493359665 -0.04776000575972734 -0.010069775317858024 0.07892089124896727 -0.06433574839274438 -0.0345672421351507 -0.08222130485867665 -0.11174552254675849 0.061881032526735026 -0.00928442344544938 -0.0442107117877066 0.035003830541410576 0.05023598923465115 -0.05673616574886442 -0.07456830091005517 0.04827224737648859 0.09446106635717014 0.0923482985460855 0.03973976736110205 -0.0068825809658875844 -0.0306429571096342 0.10550085913782288 0.0017205905463128467 0.07910406829838773 -0.015952991681208034 -0.10191558577158502 0.021505808808629717 -0.054459477555411404 0.06544605664028276 -0.0867562898191645 0.08803048479226758 -0.10714365950482284 0.0584835057996399 -0.10326872845226485 -0.13812658832388158 0.003020467800505266 -0.00042270870248383276 -0.04537260537130854 -0.03168910036807591 0.13013091434861823 0.018512479898927407 -0.02025283792901302 -0.03388201772159537 0.023366743110695625 -0.07520450941699829 0.07898904606775703 -0.18674150165348327 0.022140573274955038 0.059378734478554004 0.052825154964109104 -0.048177312224235234 -0.0018314082572070632 -0.0073936025645801665 0.030004169476841452 -0.0718455392739326 -0.019044124547684636 0.03894138267271901 -0.015450159606275802 0.038082907817633516 -0.19999585071704584 -0.004011477738512432 0.022378041568061405 -0.07152836120820702 0.059084433000219955 -0.04594686512692585 0.02213404963149979 -0.06104717268264114 -0.13053621416923122 -0.042515280455877755 -0.03564573269146269 0.0066626553773905675 -0.038125343681073405 -0.10770895204728954 0.017960972991681156 -0.02304452999179476 -0.059110685142039224 0.06533219607403001 0.09773569823303634 -0.12509504465194068 0.003650127539994741 -0.2161217126891525 -0.13908035914699737 -0.029787868097758494 -0.017175523336335367 -0.06564243102711555 -0.04831435694215146 0.021592594541642002 -0.02617970911615508 -0.029825102537870407 -0.0248495452105999 0.07033880054950714 -0.09400608390569687 -0.006119279190897942 -0.01064644381403923 -0.09006408601999283 0.13736285269260406 0.003030891763046384 -0.11293303966522217 -0.05313766747713089 -0.16886377334594727 0.09452574700117111 -0.017606116831302643 -0.05318892002105713 -0.022980334237217903 0.04246026277542114 0.019492045044898987 -0.036511871963739395 0.027830397710204124 -0.03966710716485977 0.026142733171582222 -0.005971776787191629 0.01337841060012579 -0.01068411860615015 0.05479389801621437 0.07332201302051544 0.029720816761255264 -0.035438112914562225 0.04803591966629028 -0.018060114234685898 -0.05493244156241417 -0.015109492465853691 0.12495572865009308 0.07226814329624176 0.006016201339662075 0.027027545496821404 -0.042103804647922516 -0.020203279331326485 -0.04739270731806755 0.06449733674526215 -0.07170266658067703 0.05714030563831329 -0.00217254925519228 -0.11907702684402466 0.08910899609327316 0.011934406124055386 -0.01655150018632412 -0.011324970051646233 -0.02602553181350231 0.028826870024204254 -0.06553048640489578 -0.12226401269435883 -0.008947983384132385 0.016356902197003365 0.026763996109366417 -0.09669668227434158 0.05233849957585335 0.1831844300031662 -0.018032396212220192 -0.06024511158466339 0.04981944337487221 0.0643238052725792 -0.06297890096902847 0.0929679423570633 0.050012845546007156 0.050591301172971725 -0.006442188750952482 -0.005906473379582167 -0.08598938584327698 0.015679974108934402 -0.06669893860816956 0.0715000182390213 0.0401681512594223 -0.07735639065504074 0.07026103883981705 0.006142328958958387 -0.08772038668394089 0.032005082815885544 -0.049874380230903625 -0.03149067237973213 -0.08340529352426529 -0.03433019667863846 -0.10157188028097153 -0.01476370170712471 0.09998925775289536 0.0023289467208087444 0.02096407487988472 0.007000243756920099 -0.10455796122550964 0.08782657980918884 0.033964574337005615 -0.019376767799258232 -0.08423910290002823 -0.01857193000614643 0.007979610934853554 -0.008765201084315777 0.013673014007508755 -0.03366817161440849 0.039417121559381485 -0.08635872602462769 -0.026000894606113434 0.044916581362485886 -0.03674628958106041 -0.03482848405838013 0.05413414537906647 0.07839392870664597 -0.05000367760658264 0.0062224771827459335 0.003993979189544916 -0.09553051739931107 -0.0800577700138092 0.06495761126279831 0.024896608665585518 0.10898323357105255 0.03373328223824501 0.03153626248240471 -0.012610440142452717 -0.11761607229709625 -0.04242998734116554 0.1038392037153244 -0.01430386584252119 0.03125165030360222 0.07059943675994873 0.07589513808488846 -0.1401728391647339 0.03396816551685333 0.05879830941557884 0.014267991296947002 -0.062124092131853104 0.02956243045628071 -0.012042749673128128 -0.08615639060735703 0.04806394502520561 -0.024619871750473976 0.031144503504037857 -0.14557823538780212 0.00028013830888085067 -0.03973127901554108 -0.054544538259506226 -0.14062131941318512 0.0042135645635426044 -0.10378935188055038 -0.04041380435228348 -0.059776872396469116 0.04331023618578911 0.025925274938344955 0.051501769572496414 0.08274787664413452 0.03729064390063286 0.01405414380133152 -0.04016529768705368 -0.027121713384985924 -0.04951808229088783 -0.04680679738521576 -0.029846321791410446 0.057735852897167206 0.11037730425596237 -0.0374053455889225 -0.022116050124168396 -0.021587030962109566 -0.12490333616733551 -0.02996419556438923 0.05671966075897217 0.09176839888095856 0.017721563577651978 0.04806172847747803 0.03900551423430443 -0.042972154915332794 0.06032693758606911 -0.027286726981401443 0.052928026765584946 -0.01624426804482937 -0.11069655418395996 0.04221034049987793 -0.023787934333086014 -0.07914738357067108 -0.03901040926575661 -0.14762456715106964 -0.028008144348859787 0.14855395257472992 0.02729712426662445 0.017284883186221123 -0.029103020206093788 0.03182954713702202 -0.14995978772640228 -0.017276562750339508 0.09914121776819229 -0.044972967356443405 0.057631783187389374 -0.10236793011426926 -0.07670516520738602 0.016456307843327522 -0.015119458548724651 -0.10842347890138626 0.0327768549323082 -0.01933765597641468 0.05171721801161766 -0.10625381767749786 0.045178644359111786 0.06673099721375149 -0.03401922306007395 0.025613324937814545 -0.1114886093217421 -0.11579547294000622 -0.01228483793003138 -0.0580102966973073 -0.07672473867816654 0.08529757485661636 0.06734122156512766 -0.04616286098523054 -0.02664582990439679 0.0387545445770216 0.09022477817511215 -0.01898852483782728 0.001007960902909605 -0.10850141968431809 0.04037135502212645 0.008351814707861525 0.005993106792704239 -0.0012366788582378724 -0.06911402773262702 -0.07795388756479915 -0.07033449764162612 -0.14004243303153618 0.08474199175007757 0.07041847062377746 0.04664493917428142 -0.01742781022856943 0.02024431356371842 0.02380002811124908 0.18812311130275217 0.08877230934996208 0.15225712589722334 -0.048330761817638006 0.037153527355981535 -0.007194285099083397 0.06642237639790678 0.015125227410355912 -0.08874087018991239 0.10693215514441151 -0.08758369658255384 -0.023785915734506884 0.055442844153165305 -0.015194098799851133 -0.006278556061366644 0.00715681194029318 0.03214649551975686 0.007929147263067341 -0.05147308612377522 0.03318189950083494 -0.04934976653218933 -0.03204707635039975 -0.07388263313319762 -0.049255209181533054 0.030760029852591072 -0.03578550319703103 -0.14611425264975583 0.11111383943222745 -0.03492772897361206 0.0280813761167947 -0.12812200259251788 -0.08719563679890441 0.04657854390164423 0.02850179014988745 0.03859267091541311 0.027212036390797938 -0.12865781940252594 6.181560672057905e-05 0.07277747883375524 -0.10350173651303073 -0.09996959700612201 0.005580432488620742 -0.03357134886718735 0.0038106130993228273 -0.031165888717949643 -0.0032371749688819 0.024112301298869116 -0.010440667754609416 0.03576441056245895 0.08814808938697186 0.046976579170161153 0.046580568341128774 0.020595111244611893 0.038684668064902436 0.031127921121596284 -0.03598608154105286 -0.1167345727301262 0.025711961947303703 -0.02598139716226256 0.14216286206792236 -0.028386811403432896 -0.007904830093361757 -0.06372380884885111 0.103293413235352 0.02886765412968748 -0.061828885753692484 0.006776443320644556 0.014765599666351058 -0.08897928718300477 0.005143831949681044 -0.023389726877212524 0.005260305479168892 -0.06584682315587997 0.027825994417071342 0.05607995763421059 -0.03753764554858208 0.07778526097536087 0.08139920979738235 -0.09993068128824234 -0.16028755903244019 0.10492286086082458 0.07313168793916702 0.02789035253226757 0.04656464606523514 -0.09006177634000778 -0.0747964158654213 -0.009493608959019184 0.05495894327759743 -0.06649146229028702 0.0024849327746778727 0.01786188781261444 -0.09883702546358109 -0.041792914271354675 0.09367900341749191 -0.13167007267475128 -0.014439433813095093 -0.006332865916192532 -0.03681492805480957 -0.03740421682596207 -0.04626869037747383 -0.13135340809822083 0.014062358997762203 0.033462319523096085 -0.11674927175045013 -0.004637176636606455 0.055771149694919586 0.07200916856527328 0.12401601672172546 0.018711090087890625 0.006222928874194622 -0.017781401053071022 0.058774642646312714 -0.006586060393601656 0.19267506897449493 -0.032979514449834824 0.004008157644420862 -0.0610305517911911 -0.031939759850502014 -0.04087604209780693 0.0681842789053917 0.04602501168847084 0.09862491488456726 -0.034572534263134 -0.01449006050825119 0.008037878200411797 0.09050358831882477 0.06988420337438583 0.07387863099575043 0.06638175249099731 0.07354828715324402 0.01887793093919754 -0.011209934949874878 0.011890584602952003 0.10605628043413162 -0.04316374659538269 -0.023362325504422188 0.030560564249753952 -0.04261630401015282 -0.013012737035751343 -0.06013459712266922 -0.054713036864995956 0.059174392372369766 -0.04661921411752701 -0.10754156112670898 0.050689611583948135 -0.025875091552734375 0.0006355537916533649 0.0050786519423127174 -0.06337880343198776 -0.009683174081146717 -0.03777860477566719 -0.16794133186340332 -0.04302443563938141 0.0014840570511296391 0.0025631349999457598 0.002355508739128709 0.07150405645370483 -0.06342420727014542 0.08460953831672668 -0.04270196333527565 0.10396964848041534 -0.11512027680873871 -0.06395015865564346 0.03898143768310547 -0.037931058555841446 0.01366881001740694 0.08183027803897858 -0.01766815409064293 0.1124744787812233 0.14357345437974914 0.08519086997155643 0.0390368980941298 0.010608959490946231 -0.0902776309396991 0.10702375697545748 -0.047362432239445904 -0.05354664921976276 0.07568953716990294 0.03647354889354903 0.03672814287539981 0.10022562772263187 0.04841243696220421 -0.10110406799524164 0.09684145458072746 0.07461548620775672 0.03759043479500322 0.02236984969658169 0.06719832778409401 -0.019073814464208097 -0.06189936867975012 0.012911858939038639 -0.0165303503740437 0.014734791250740432 -0.026011433533280087 -0.0013913253389170074 -0.006081132617726172 0.02277498894996011 -0.03998581937468361 0.13091798463284046 -0.11098293580635772 0.004447074098100252 -0.029739212246387547 0.05721576210797406 -0.007533104848197443 -0.11304551738985495 -0.04934905239860976 0.028019339022263827 -0.046326855211867676 -0.08403791776466696 0.081369941801191 -0.020777261081912215 0.05428731255158747 0.01887348320519317 -0.0874563429837002 0.027515673899323658 0.0012533357598321596 0.00885217358687762 -0.06971152773216836 0.13950111424264672 -0.03460875851658935 0.008238416355414523 -0.08390536693903884 0.031975292101281846 -0.1342191997493196 -0.10193110695629028 -0.13836584577878736 -0.07325343380278257 0.030618388042939728 -0.04084018680890254 0.08520784826711156 -0.05813211234209241 -0.006076273543623005 0.10864752246822006 -0.000906442471018342 -0.0025175579176718345 -0.0433605904400006 0.013452018419177892 0.07244079365630443 -0.0562777190355559 0.0030817169966656263 -0.07841905425649892 -0.059910308042933236 0.0166984281906463 0.06204639925557174 -0.051530660937646564 0.021149466323634042 0.01837493314484249 -0.07306878070303333 0.028596837021399268 -0.06404215331820948 -0.0348596165890645 -0.1753244272987537 -0.10064744945412236 -0.016160170388201226 0.02856307376364906 -0.12663944661881466 -0.0716416907263306 -0.083241403543381 -0.024125545988309294 -0.03832035349821643 -0.058271743349837785 -0.015599752888871544 -0.015797271956068764 -0.050185903461373665 0.0009080278183671569 0.0018514515912530288 -0.03345119903745797 -0.12689480631822234 0.03476487843639423 -0.0006730113527737558 0.05617550015449524 0.0062080267816782 -0.04276621714234352 -0.04205992817878723 -0.07282119989395142 -0.09100861847400665 -0.1353694200515747 0.013919400051236153 0.08613260835409164 -0.07623915374279022 0.027380844578146935 -0.10455124080181122 0.007133377715945244 -0.07978679984807968 -0.004066176246851683 -0.08947556465864182 0.062126826494932175 -0.028813475742936134 0.046010006219148636 -0.0007517100893892348 0.08207903802394867 -0.10735135525465012 -0.0036749530117958784 0.00983797200024128 -0.05357714369893074 -0.020780665799975395 -0.06847351044416428 -0.05415553227066994 0.021297594532370567 -0.11733635514974594 0.022584225982427597 -0.0552869513630867 0.04561261832714081 0.031098540872335434 -0.014679542742669582 0.042122919112443924 0.02449462004005909 0.09768322855234146 -0.048650894314050674 0.0626329705119133 -0.033862724900245667 -0.004339543636888266 -0.006310527678579092 -0.04841705039143562 -0.16563363373279572 -0.02258923277258873 -0.012345585972070694 -0.061543118208646774 0.08373373001813889 -0.08802562952041626 -0.003920459188520908 0.005228237248957157 0.051435016095638275 0.023379508405923843 0.03937729820609093 0.0037958745379000902 0.04873053729534149 0.025040214881300926 0.02495727129280567 -0.019672032445669174 -0.06574876606464386 0.0691262036561966 -0.022778155282139778 0.0029841188807040453 0.15694478154182434 0.02049640566110611 -0.0472792387008667 -0.07520201057195663 -0.05387316644191742 -0.14110197126865387 0.054240141063928604 0.020446645095944405 0.047215066850185394 0.12674030661582947 -0.06567259132862091 -0.032186564058065414 -0.09839192032814026 -0.03565463051199913 0.011151289567351341 0.09106484055519104 -0.052495960146188736 0.05758117884397507 -0.011613762006163597 -0.0950198546051979 0.04504063352942467 0.04863051325082779 -0.034720271825790405 0.010403486900031567 -0.09809824079275131 -0.16749413311481476 0.07413317263126373 -0.04464499652385712 0.13929957151412964 -0.023157581686973572 0.007262357976287603 -0.08409800380468369 0.18383295834064484 0.07199510186910629 -0.01621856912970543 0.02825135551393032 -0.052431292831897736 0.03844992443919182 -0.0004663345171138644 0.04406072944402695 0.021743861958384514 0.002794574713334441 0.053655095398426056 -0.016391044482588768 -0.08025877922773361 0.018468806520104408 -0.077003613114357 -0.07115689665079117 0.0022080056369304657 -0.045416682958602905 0.0093892402946949 0.037969063967466354 -0.051027197390794754 0.03274378180503845 0.05536980554461479 -0.059902142733335495 0.04000450670719147 -0.05429131165146828 0.026728082448244095 -0.06808129698038101 -0.041568901389837265 -0.043315913528203964 -0.03563469275832176 -0.009364155121147633 -0.014786568470299244 -0.0011068664025515318 0.026462381705641747 -0.028015170246362686 -0.05485004559159279 0.023337947204709053 -0.0018052300438284874 0.0744340717792511 -0.09245219826698303 0.02836463414132595 -0.05282985791563988 0.007461290806531906 0.1294340193271637 0.028477763757109642 0.05106170475482941 0.040717851370573044 -0.02363211289048195 0.04102291539311409 0.04036759212613106 -0.09535682946443558 0.11312667280435562 0.12844215333461761 -0.0007418672321364284 -0.011240910738706589 0.034046806395053864 0.05991555005311966 0.03237316757440567 0.004252894781529903 0.04333462938666344 0.007775459438562393 -0.01430005207657814 0.028091829270124435 0.09735426306724548 0.04924080893397331 0.10884290933609009 -0.01564185321331024 0.03142063692212105 0.08706678450107574 -0.012120510451495647 -0.012089621275663376 0.07410857826471329 -0.016873739659786224 0.08459848910570145 0.026572205126285553 -0.05308784171938896 -0.022745540365576744 0.01063836645334959 0.011599910445511341 0.006514734122902155 0.005473927594721317 -0.03061515837907791 0.05961562320590019 -0.15363340079784393 -0.03229488804936409 0.03432997316122055 0.012529940344393253 -0.12480092793703079 0.10612735897302628 -0.2099570631980896 0.012933183461427689 -0.055380821228027344 -0.01329432986676693 -0.0022721048444509506 0.060601502656936646 -0.12138456851243973 -0.07574915885925293 0.004842488095164299 0.01956283487379551 0.002515556523576379 0.018827637657523155 0.011260275729000568 0.040350727664256444 -0.03578050434643666 -0.026302097557801055 -0.012892695683884273 0.11680259297786474 -0.006503298139882596 -0.03812804889400058 -0.008090924183524964 0.03189406694089325 -0.008081325901561022 0.0017860652759845404 0.11813696510697541 -0.10582901196034153 0.004561399667528049 -0.03973734125728201 -0.10316988459462981 -3.5343957216309814e-05 0.01646879140643131 -0.07472618185043527 0.05529806070212501 0.0706576233683179 -0.026981132639699243 0.07367400276451533 0.02583146643575163 0.1299645040763655 0.03454847557659559 0.03317253269692384 0.052839538238296124 -0.0714554258987281 -0.08539404465468405 0.03769871153208029 0.05449125956649774 -0.0491717730382037 0.014915777473844927 -0.0063255505107418794 -0.10605659238517395 -0.006963042410367308 -0.1257106316951688 -0.08321618288690398 -0.0976614305768528 0.02720980983740392 -0.13002448469156802 0.1168866403865851 -0.011671482935347402 -0.07905654062222194 0.04332941420076415 0.00218197777746994 -0.03811090520610251 0.05907058735962433 -0.012888134901230405 -0.10762961784433951 -0.10166308234398498 -0.015560958502219082 -0.11821410610670695 -0.024139995984551334 -0.013200061851880057 0.009198364595953362 -0.08137803381148927 -0.08727283286927642 -0.007906271933007353 0.03030760113989506 0.007478692482143464 -0.11797692391392897 0.031028411064957677 -0.008413901503691989 0.01358506186979711 0.028944056993567627 0.03406526041388487 0.03305795825196133 -0.07511060025334851 -0.02857608633533465 -0.014064679014112898 0.015068988181156585 -0.008321498615688856 -0.0046259702796266925 -0.003959983596359432 -0.06732538447844343 -0.004114962332260504 -0.011724721746984235 0.05678446902738029 -0.02145809610234763 -0.018483274410559063 0.023277952549674467 0.043188969053874 -0.03428941458358835 -0.05803318604971305 -0.03781788085733057 0.025786960598572193 0.03364224576066857 -0.03407717818507928 0.0150198132700442 -0.0005752778700394855 0.0664393419910591 -0.06984482420709219 -0.07215327383205382 0.014806324495165118 0.07665876148619558 -0.026105214316675885 0.026800318373001803 -0.07004375602002486 0.044233258813619614 0.11846964061260223 -0.01815956085920334 0.09148924797773361 0.0395594947040081 -0.01644630916416645 -0.001045970362611115 0.08456365019083023 0.02220083400607109 -0.046441249549388885 0.04795895516872406 -0.0037773035001009703 0.061377182602882385 0.07129457592964172 -0.04696822166442871 -0.05307740718126297 0.019443629309535027 -0.0036052633076906204 0.0971115380525589 0.027437960729002953 -0.06793994456529617 0.007419812027364969 0.01331418938934803 -0.07318677008152008 -0.0038622862193733454 0.0406070314347744 0.07999538630247116 0.1254516839981079 -0.023564951494336128 0.04159622639417648 -0.027003321796655655 0.01707758940756321 -0.007029107306152582 -0.026675766333937645 0.05197851359844208 0.025324277579784393 0.12616613507270813 0.02829074114561081 -0.09948120266199112 -0.09092039614915848 -0.05069470405578613 -0.033005695790052414 -0.03671681880950928 0.06140109524130821 0.04515085369348526 -0.02458466775715351 -0.0052124676294624805 -0.07772614806890488 -0.07532590627670288 0.03238191455602646 0.10394874960184097 0.03638151288032532 0.055934131145477295 -0.037401847541332245 0.02729407697916031 -0.01991124264895916 -0.08702249079942703 0.03408009186387062 0.059415243566036224 0.028090275824069977 0.1433679312467575 -0.036830026656389236 0.004274279810488224 0.03920898213982582 0.06452881544828415 0.051564522087574005 -0.02153962105512619 -0.041503455489873886 0.025977889075875282 0.09420601278543472 0.026604672893881798 -0.06263313442468643 -0.07788297533988953 -0.004788392223417759 -0.03491605445742607 -0.020923346281051636 -0.09586070477962494 -0.018724167719483376 0.07695186138153076 -0.03599581867456436 -0.005711309611797333 -0.0018621917115524411 0.058431874960660934 0.0859200656414032 -0.05684235692024231 0.08373706042766571 -0.028530336916446686 -0.002652775961905718 0.10846135765314102 -0.010259226895868778 -0.08181876689195633 0.06752242892980576 0.048932887613773346 0.030501050874590874 -0.001417327206581831 0.028689894825220108 0.00972080510109663 -0.050358012318611145 0.0675981193780899 0.025918589904904366 -0.004338346227990983 0.08916511164586266 0.007365328897487265 0.0779453196060879 0.014835772440612245 0.0667207098159158 0.04954995220795932 -0.10966644557048252 -0.02295372294992215 0.013458905226839546 -0.0350972352550873 0.023967995666723963 -0.03540942371041711 0.058038169099001655 -0.06224449042732818 0.11020837858271947 0.014555426160539136 -0.041962286775525014 -0.035651017450278946 -0.11974137761437689 0.04047812646750407 0.08574888986178648 0.08301041893737313 -0.12677007826711584 0.06976747991049802 0.06102638411695322 -0.14261461256204142 -0.07752412364294074 0.11863155486043578 -0.03052502754450441 -0.07446639446546682 -0.08269431399123003 0.0031257198804527956 0.009111670333213685 -0.02660782647222341 -0.03706270360410659 -0.028800632583294936 0.04950527260079095 0.049999183444320375 -0.006113877274076408 0.04564150985403547 0.025054972356765015 -0.023778882938746873 0.08679813817026126 0.044505933788035835 0.029749812306806473 0.039145977605849015 -0.049729430679727744 0.04174910443319916 -0.028340601491227826 0.002332788546155349 0.015728472175802876 0.011227229916208703 0.05759593411094712 0.1191361031792675 -0.03777858156124094 -0.06626940899680288 -0.05989193539277173 -0.014561365080650037 0.0004900736489778316 0.050806537698812125 0.0383304957044043 0.04075115548449306 0.09580394171917231 -0.11513303779029589 -0.10234750600625998 0.029031492429675773 0.007254059157665129 0.06671409219163814 -0.04024821415175165 0.043565085667784005 -0.056979198846012706 -0.040704956759082686 0.04786727728218632 -0.04203927949365071 -0.025165558978841235 -0.012347728247339417 0.11726679326504469 -0.04027834251583158 0.0017835147852553166 -0.03502058360937982 -0.0057390610240851065 -0.08678170213569798 0.002873576262929562 -0.03865413297975917 0.017513691768598835 -0.10548961355914076 -0.05930596544796899 -0.06895804301147873 0.07688975288365912 0.06529276135662275 -0.08378585249093591 0.11751770180323284 -0.012287637209299894 0.07773887311442454 -0.008112146349471433 -0.10611500996859717 -0.005989979284392311 0.05836810532823794 -0.019790528691077124 -0.003941016271710396 -0.032687555998563766 4.7748104407219216e-05 -0.024231743067502975 0.05610755458474159 -3.363580981385894e-05 -0.07226623594760895 0.0485849604010582 0.09473349153995514 -0.14648966491222382 -0.04564080759882927 0.048962101340293884 -0.1193094402551651 -0.037130776792764664 0.08965137600898743 -0.01832520216703415 0.04728298261761665 0.06619726866483688 0.0050447615794837475 0.029844190925359726 0.04214896261692047 -0.005300137680023909 -0.0007696177926845849 -0.022244498133659363 -0.056340012699365616 0.019789092242717743 0.0533742755651474 -0.008703342638909817 0.006705182604491711 0.06337898969650269 -0.08095624297857285 0.00551786320284009 -0.020236298441886902 0.05638016015291214 0.0324380099773407 -0.05391676723957062 -0.054966315627098083 0.0609494224190712 -0.043189723044633865 -0.0383634977042675 -0.05165066197514534 0.05027958005666733 0.11082810908555984 -0.013675626367330551 0.07024075090885162 -0.028654640540480614 0.018525660037994385 0.011986368335783482 0.06952248513698578 0.010866072960197926 -0.03118540160357952 -0.023435262963175774 0.0227142833173275 0.1668781042098999 -0.045546263456344604 -0.1116689145565033 -0.017577439546585083 0.08915849030017853 0.05359263718128204 -0.003167995484545827 -0.015309453941881657 0.07795771956443787 -0.02804725617170334 -0.08225341141223907 0.11292566359043121 0.0428258553147316 0.027504002675414085 -0.03688123822212219 0.02598964236676693 0.008463294245302677 0.039637982845306396 0.03138654679059982 0.03084607422351837 -0.12733101844787598 0.03458419442176819 0.09630903601646423 0.05947527661919594 0.021205512806773186 0.023357104510068893 0.07227279990911484 0.11322879046201706 -0.030276013538241386 -0.14027898013591766 -0.004242341499775648 0.017688825726509094 -0.04008447006344795 0.14916692674160004 0.014921744354069233 0.04268970713019371 0.14361543953418732 -0.12145967781543732 -0.007065889425575733 0.01858001947402954 0.014342126436531544 0.004051554016768932 -0.08437523990869522 -0.04040423780679703 -0.06079830229282379 0.012091790325939655 -0.0456434041261673 -0.08924967795610428 0.04013168811798096 -0.08856875449419022 0.013453423045575619 0.10537873208522797 -0.004768787417560816 -0.008365658111870289 -0.042374275624752045 0.018595999106764793 -0.0486295260488987 -0.0748501569032669 -0.12859441339969635 -0.009225507266819477 -0.00751854432746768 0.09750928729772568 -0.040945302695035934 -0.08299316465854645 -0.03433830663561821 0.1536041647195816 -0.02056802436709404 -0.06538844108581543 0.0168856643140316 -0.019309598952531815 -0.0644008070230484 0.021239176392555237 -0.0659177377820015 -0.07530096173286438 -0.05705365166068077 -0.03755946084856987 0.05974961444735527 -0.0339244119822979 0.05395721271634102 -0.025525545701384544 -0.095179483294487 0.060606542974710464 0.015411579050123692 0.05096154659986496 0.021404027938842773 -0.040128666907548904 -0.025933589786291122 -0.06409641355276108 -0.0745045468211174 -0.06219117343425751 -0.030909355729818344 0.03759591653943062 0.01575544662773609 0.03513085097074509 -0.05787961557507515 0.04404326528310776 -0.07316290587186813 -0.08968541771173477 0.022783925756812096 -0.10471293330192566 0.05705802142620087 0.049567364156246185 0.13442234694957733 0.09159685671329498 0.03480687364935875 -0.02090052142739296 0.024803221225738525 -0.03119415044784546 -0.12107618153095245 -0.11602642387151718 0.00024722114903852344 -0.0008168918429873884 0.04498310387134552 -0.0038369980175048113 -0.027677910402417183 -0.08353964984416962 -0.03120523691177368 -0.0335315503180027 -0.00880278181284666 -0.08026207238435745 0.09060398489236832 0.020742537453770638 -0.0036612371914088726 0.013289579190313816 0.05757197365164757 0.01631796360015869 -0.041671983897686005 0.0642460510134697 0.012698634527623653 0.043365806341171265 0.08879740536212921 -0.09439688920974731 -0.1395372450351715 -0.09773509204387665 -0.1011200100183487 0.09407707303762436 0.005442135035991669 -0.12612420320510864 -0.0016957439947873354 0.015681954100728035 0.029782092198729515 0.0769462138414383 0.02861989662051201 0.04096408560872078 0.06258661299943924 0.03068462200462818 -0.08861316740512848 -0.08263827262106331 -0.08708980105743976 0.11089442945578065 0.053201906144461214 -0.12236901690835811 -0.0027387939613775164 -0.02949978922794477 0.022940757510117826 -0.03835845441362986 -0.04925685267136423 -0.0012378680570433187 -0.129448566840482 -0.08101242143497746 -0.03756976272091332 0.10654587141649646 -0.013916156515788628 -0.043585755391501106 -0.007749145988742254 0.07267317032200797 -0.005503057370193865 0.020943615189241236 0.031191437289381355 0.012087173571365193 -0.0439644718386211 -0.041805996855863586 -0.03368224082996488 0.008102947005762126 0.05363879136231693 -0.03124867091250718 -0.03797860379212438 -0.02042144248822181 0.1108363395901431 0.04264182675813313 0.0030209190903108915 -0.015902206146933072 0.07467893864397677 -0.0932427510275238 0.10758803256386831 -0.03683221925303647 -0.14974410349709827 0.07652232621032475 0.012581358852490681 0.10714740281176173 0.07425169473437564 0.025631204477414765 0.03328323216493851 0.03613245602679986 0.006709968458058275 -0.01622692564044754 0.052796200383678 -0.024369936431586817 -0.14838853434795196 0.08827323351138118 -0.09247807135799628 -0.06636273957473253 -0.10812617505967977 -0.03102202113371985 -0.020189970929203424 -0.05507693422908224 0.11352037595479714 0.07592007814198878 -0.09671243198592168 0.1296012240865277 -0.011204621542795263 0.050399073025855244 0.04858852872692852 -0.037670051223710296 -0.053993579801810326 0.019117042630990136 0.05525791505285517 -0.10278113413374332 -0.015174028180096498 -0.02552077007543783 0.018779467839376576 -0.12493721620986371 -0.016005977456639946 -0.037179414517107705 -0.08255519339114958 0.07380327264112277 0.01362209854684187 -0.007696964217896076 0.013481653692855105 0.03270926434034627 -0.0010702062288461267 0.15827787076005517 0.027103860206434214 -0.036620459514983494 0.07596586572887788 0.024573183815306026 -0.06174449593848026 -0.008418686065505368 -0.05491059160880033 0.011871851784506128 -0.08212775233651522 -0.02230138773848197 0.023716248310874415 0.06790724071214502 -0.03965883517367944 -0.0012171399307658675 -0.03138438868227189 0.021901264786720276 -0.023849789053201675 0.028125470504164696 0.04437076672911644 0.08100627362728119 -0.036324869841337204 -0.15103691816329956 -0.04750727862119675 -0.05738244578242302 0.04789501056075096 0.008143000304698944 -0.09019045531749725 -0.03830110654234886 -0.03822214901447296 0.12064603716135025 -0.08262266963720322 0.02483961172401905 0.037106551229953766 -0.00428925734013319 -0.13837477564811707 -0.025079725310206413 0.05023616552352905 -0.004179659765213728 -0.06424955278635025 0.0005319351912476122 0.029862871393561363 -0.09956701844930649 -0.0631890594959259 0.06619768589735031 0.06524679809808731 -0.011050045490264893 -0.014083638787269592 0.16614533960819244 0.07586274296045303 -0.06871315836906433 0.0498923659324646 -0.05435696616768837 -0.0370013602077961 -0.11179442703723907 0.05216650664806366 -0.06864499300718307 0.011171487160027027 -0.14670893549919128 0.0797276645898819 -0.0600847527384758 -0.038796842098236084 0.07122547179460526 -0.10245972126722336 -0.034736473113298416 -0.04993509501218796 -0.09104657918214798 0.0014476240612566471 -0.03975747898221016 -0.016987040638923645 -0.031622957438230515 -0.0753316804766655 -0.017705386504530907 0.002955913543701172 -0.008568094111979008 0.08334949612617493 0.044137969613075256 0.05041327700018883 -0.027831509709358215 -0.07674422115087509 0.01824508234858513 0.12462793290615082 0.14498136937618256 0.029188571497797966 -0.20278286933898926 -0.022773882374167442 -0.023941490799188614 -0.03700593486428261 0.07069088518619537 -0.09062216430902481 0.030834456905722618 -0.020398303866386414 -0.039853718131780624 -0.0025903102941811085 0.02537388913333416 0.061519600450992584 -0.09343084692955017 0.10969508439302444 0.009011930786073208 -0.09713627398014069 0.006623102817684412 0.05465302616357803 -0.04207529500126839 -0.09314282238483429 0.04865152761340141 0.12426966428756714 -0.0615299828350544 -0.010419742204248905 0.0582369901239872 -0.028624162077903748 -0.09598708152770996 0.052567627280950546 0.052632782608270645 0.07707706838846207 0.02643752284348011 0.08814158290624619 -0.10472474334952994 0.10350042544606465 0.11848847665732833 -0.1247248048701497 0.019606867729007573 0.08419760681173115 0.06995378083230891 0.06793035505448143 -0.0853523164427655 -0.055450985427767725 0.01594074069503681 0.01811304681769748 0.020074592374188547 -0.04180982814725285 0.0244209308174802 0.047313900608341446 -0.023600437034870143 -0.014329654263374342 0.039828343173847695 -0.03826526530362757 -0.011316856128587956 0.09333273263942428 -0.07378952001648358 -0.007781821849716844 0.0657096186823056 -0.0596213182517348 0.010735907546774205 -0.042502969765313134 0.01225610451693545 0.03067132275563952 -0.02087212285331688 0.16880353875025464 -0.05913731415583471 0.006644552238713052 -0.03899345009676124 -0.11633299071493378 -0.002871369250451521 -0.006515527105324728 -0.031241142351055916 0.03737195022811077 0.15629847303748973 -0.03849031619798015 -0.033539735726558564 -0.03939964232181914 -0.05013419154476731 0.005225918791692338 -0.15992501349462407 -0.0346693172460849 0.02792510915923324 0.009667292534440014 0.06930732802851465 -0.01827749332248646 -0.0013581859749003894 0.04711957251437425 0.006573225016549852 -0.07390215660550163 0.0378752256285844 0.0026941200707343224 -0.02881494001198803 0.08603067255912038 -0.05744992147714609 -0.011203206800571262 0.051274653036132836 0.03163605702566813 -0.09199281130289713 -0.08908007374057496 -0.12496099234249916 0.05191191232249852 0.03908457079142315 -0.06372859522832158 -0.0002839766317625533 -0.08423908630128135 -0.044388952714633015 0.02834439773923716 0.022046017277007703 -0.046903186791070535 -0.08838653746630723 -0.05034175581864881 -0.10229019188774277 -0.09241347532958562 -0.03222778172368422 0.0819319814964295 -0.057820594790242 0.014045269433467554 -0.13827147320161762 0.039855429765170945 0.09516890877354121 -0.013363599325986051 -0.05447919317825142 0.10958057549320009 0.03690804069500265 0.01745947307344925 -0.025309387177849977 0.03884396587734834 -0.03779141015935743 -0.06918679479470788 0.020231027659702354 -0.054078433752964075 0.009103701854538428 -0.007120990626530773 0.025518612936139107 -0.013559958897531033 0.015086527913808823 -0.06080063059926033 0.08714841306209564 0.12031889706850052 -0.016881396993994713 0.004394245333969593 -0.10683763772249222 -0.035621706396341324 -0.014039567671716213 0.028444208204746246 -0.04525966942310333 -0.08838365226984024 -0.00456601707264781 -0.04055570438504219 0.08781638741493225 -0.005856767296791077 -0.07411656528711319 -0.044918183237314224 0.030722690746188164 -0.09724146127700806 -0.0693030059337616 0.023448247462511063 0.056322548538446426 0.02076379396021366 0.11236840486526489 -0.0036186545621603727 -0.06559395790100098 -0.06413666158914566 -0.025653960183262825 0.13645155727863312 0.07771410793066025 -0.05197060480713844 -0.01900329254567623 0.11181969940662384 -0.03821283578872681 0.02048632875084877 0.08284568786621094 0.00042943679727613926 -0.02722841128706932 -0.0887405201792717 0.05540590360760689 0.0420907624065876 0.042337242513895035 -0.04327889531850815 -0.03033684380352497 -0.10169615596532822 0.02028023637831211 -0.003769926493987441 0.018837882205843925 -0.024190936237573624 -0.10497661679983139 0.07961391657590866 -0.10985827445983887 0.06649152934551239 0.004487770143896341 -0.03689257428050041 0.06708203256130219 0.09963098168373108 -0.04070273041725159 -0.11588932573795319 0.06630823016166687 0.07357924431562424 0.03281818702816963 -0.03255908563733101 -0.0184397641569376 -0.12690894305706024 -0.015263472683727741 0.06339114904403687 0.14660030603408813 0.04542370140552521 -0.14001867175102234 -0.04026070237159729 -0.015805121511220932 -0.028369115665555 -0.09614099562168121 -0.07485155761241913 0.018480783328413963 0.0577353872358799 -0.11101287603378296 -0.06286375969648361 0.1112908124923706 0.07439874112606049 -0.009797121398150921 0.020397163927555084 0.031065598130226135 -0.001585356891155243 -0.05935010686516762 -0.02418898232281208 0.13867615163326263 -0.07954588532447815 0.022615808993577957 -0.0005384027026593685 0.084609754383564 0.036733824759721756 0.03704065456986427 -0.01604795828461647 -0.0627802163362503 0.10936356335878372 0.03823024779558182 -0.10526236891746521 -0.1000610888004303 -0.0012668459676206112 0.010795584879815578 -0.04723355174064636 -0.0744294673204422 0.016829494386911392 0.0032584178261458874 0.10450945794582367 -0.07044603675603867 0.03114275075495243 -0.03353177383542061 -0.045792970806360245 -0.12801092863082886 0.01294798031449318 -0.12667518854141235 -0.031101971864700317 0.061907537281513214 0.005291433073580265 -0.021445894613862038 -0.011338228359818459 -0.06211733818054199 0.026701249182224274 -0.013321257196366787 0.010250934399664402 -0.0777362734079361 0.09692466259002686 -0.004926706664264202 -0.0029833917506039143 -0.058061592280864716 -0.07536424696445465 -0.09983706474304199 -0.018858527764678 -0.1373251974582672 0.039828039705753326 -0.03423946350812912 -0.03396599367260933 -0.07756098359823227 0.006234264466911554 -0.015337035991251469 0.0617256760597229 0.07636445015668869 0.012311169877648354 0.038343846797943115 -0.11898937821388245 0.043542325496673584 -0.005613165441900492 -0.006836583372205496 0.031961869448423386 0.0026107525918632746 0.06890586018562317 0.02442786656320095 0.05191145837306976 0.008531823754310608 -0.004991728346794844 -0.08919290453195572 -0.050161562860012054 0.014623061753809452 0.034859947860240936 0.06182936951518059 -0.030900923535227776 0.12709301710128784 0.0053923409432172775 0.00189441186375916 0.09207380563020706 -0.00835526641458273 0.07884626090526581 -0.05904446542263031 0.10436611622571945 -0.025410020723938942 0.05656679719686508 0.1358102411031723 -0.012784489430487156 -0.049858421087265015 0.008796467445790768 0.027783341705799103 0.018781453371047974 0.07867509871721268 0.012380525469779968 -0.007327604573220015 -0.02744917757809162 0.013438694179058075 0.03729035705327988 0.015200191177427769 0.02816152013838291 -0.009231011383235455 0.06742198765277863 -0.06116108596324921 0.15776793658733368 -0.003433821490034461 -0.012505980208516121 0.08227059990167618 -0.054453250020742416 -0.05236798897385597 -0.13356490433216095 0.07681650668382645 0.03519883379340172 0.12601235508918762 -0.0340617410838604 -0.09120254960979146 0.1307799168241043 0.021680777596313816 0.15059766545965234 0.037672362978032434 -0.017053109047752125 0.06148630515328442 -0.003875148798036038 0.017010068242323748 0.08873770345324458 -0.041613703564894126 -0.06392325373900502 0.058872281276576996 0.056338330135260836 0.013762627322995267 0.0938150724743803 -0.021133318736240136 -0.051535654487893254 0.04324625591331011 0.061120090612473914 0.019821113426005944 0.02452383952610737 -0.014898128738412014 0.009276547467971867 -0.028027197087714225 -0.0238996534466213 0.11534455097406401 0.027716349514825888 -0.03608158426441362 -0.07884564757092556 0.0016061982735662284 -0.07266054726641127 -0.018008319189261938 0.009365934201430934 0.010446321619101855 -0.06326942945255315 0.0020001623227308848 -0.08463520961338807 -0.05958087517298722 -0.10261952858010821 0.027524198013562862 -0.04356750139315008 0.025335826844609628 -0.015836999960512108 -0.05368104562038547 0.026322537300274448 0.0007279025353008166 0.024506691920982204 -0.05435980950189732 0.08169864659774742 -0.05749986874047293 0.0979021185877997 -0.040379393307309 0.05066700636718543 -0.05370969398542864 0.05415294087208095 0.0007147448704328013 0.07626174154387429 0.09912338958103749 -0.06563996728662103 -0.012060825537782765 0.012850380817545998 -0.1423778078622441 -0.018098379020050116 0.012850797866650757 -0.007872838509703474 -0.11020146573964362 0.009633376635265598 0.0043054997871761185 0.03438428616917735 -0.016041254127210514 -0.0072649727593452045 0.09838370388394907 -0.032133006849048934 -0.005653257101362131 0.052162752447050514 0.09626040208689578 -0.029247022860737944 0.08860242209275469 0.04567096741470376 -0.05720746363243363 0.10757001039174195 0.005904527060794372 0.02393167772644127 0.034890328584967475 0.03194483401431784 -0.0704830735547821 0.06254080815529821 -0.011340636827797785 0.11356848404501836 -0.0029996626506332436 0.10684021770981884 0.042189638481714684 0.007972643550344858 -0.030567897349529496 0.0059164622266106555 -0.09184146744892568 0.09689496407953975 0.13093296855561187 0.020049085681062347 0.09409864991903305 -0.09388343244791031 0.012420820072293282 0.07278688251972198 0.011165937408804893 0.09018687158823013 0.07938015460968018 0.02566356398165226 -0.0998687744140625 0.0059832422994077206 0.11457499116659164 -0.02550606057047844 0.01740846410393715 0.06415392458438873 0.05428612232208252 0.1140097975730896 -0.021619528532028198 0.041592326015233994 0.1271049678325653 0.03587695211172104 0.02810351364314556 -0.0140031473711133 0.05343085899949074 0.0640837624669075 -0.051708102226257324 0.07457540929317474 -0.07338200509548187 0.03644256293773651 -0.15445877611637115 0.09313295036554337 -0.05984703078866005 -0.013325951993465424 -0.05952908843755722 0.0351426936686039 -0.12970466911792755 -0.007265512365847826 0.06805150210857391 0.038673531264066696 0.002177364658564329 0.014795467257499695 0.06317131221294403 -0.03498077765107155 -0.1688559502363205 0.01040259562432766 0.003998872358351946 0.00201276782900095 -0.08876794576644897 0.0020198244601488113 -0.04034110903739929 0.013528313487768173 -0.09522771090269089 0.1333414614200592 -0.08869767934083939 -0.11072807013988495 0.04195375367999077 0.046453218907117844 0.08611162006855011 -0.019390514120459557 -0.013563564047217369 -0.09975254535675049 0.06362377107143402 0.05552643910050392 -0.05395423248410225 0.025287583470344543 -0.005831209477037191 -0.08276349306106567 0.02357545495033264 -0.060370177030563354 -0.13460014760494232 -0.09326879680156708 0.1049710363149643 -0.014093196019530296 -0.026450086385011673 -0.019988147541880608 0.07239782810211182 -0.11206699162721634 0.08320604264736176 0.0709356814622879 -0.04294147342443466 0.013409852050244808 0.04055583477020264 0.15046808123588562 -0.041757985949516296 0.02546139806509018 -0.08953149616718292 -0.005336894188076258 0.043881919234991074 0.029841214418411255 -0.08482155203819275 -0.020924989134073257 -0.0580318383872509 0.08089325577020645 0.14895068109035492 -0.029707511886954308 -0.012997272424399853 0.03796869516372681 -0.038647349923849106 -0.013358376920223236 0.013282672502100468 0.06109253317117691 0.05588191037080253 -0.05329901776495718 0.0325946167452366 -0.10866757683244184 -0.029267395490446785 -0.00887075698491619 -0.111370428249981 -0.07845297433224085 -0.1740160847945003 -0.024970978025587724 0.08105846911357988 -0.019885123365420504 -0.08210258731652591 0.13320037034022023 -0.04290003619775631 0.15840887817432547 0.04941232608111676 -0.039663332816432355 0.06846174188953649 -0.03894396934454036 -0.03964923076282048 0.053894006149935635 -0.03189907669149495 0.08670728216538802 0.07103290724068141 -0.06908428627980183 0.13115985905688465 0.026606064599257358 -0.10565024748739471 0.051276937561414895 -0.07366936759111932 0.04183441152601029 -0.07716866404261088 -0.05571816439342825 0.062124550111456005 0.1084777648251235 -0.028710126208261116 -0.04261430486134302 0.15331145937968327 -0.05714070603292258 0.015095586025549885 -0.15303375651204112 0.058359852749815026 -0.025616673910328416 0.04079504929834628 -0.004316119777675674 0.06475301885582058 0.09699658453730806 -0.05655015386624931 0.02424899766772216 0.095477191551306 -0.012291432631023497 0.02346844192980268 0.05770763939364675 -0.014603284885109513 0.032970955812014195 0.041362220200866745 -0.012281731961551778 0.04883979169183042 0.0070997290391736 -0.03749547592976557 -0.04036905008070251 0.009406708267801552 0.002150162344968047 -0.10176241104560374 -0.004120716376832596 -0.1434740394406212 -0.10463750293607857 0.03218487394156564 0.07273186162302947 0.008091246017398246 -0.054224600119169755 0.061253887482026426 0.0673023662607725 -0.05901863692132913 -0.042028952085327934 0.01760474743352221 0.034440027212637975 -0.03944697666087164 -0.017092079650243158 0.005155422164632637 0.06326928564944256 0.10068601650983827 -0.08782872274700548 -0.06777330235983413 -0.03336088372157889 -0.0018411204180720994 0.052111489797958196 -0.0653457079073145 0.05834886631431359 0.015986692933190463 0.024950248323794173 -0.07859483048943788 -0.008300749144434433 -0.05786428479060002 -0.04431623499838086 0.10990109776115185 -0.003100417667734524 0.04953269763503907 0.09755122157674284 0.016138263046741486 0.1065647304058075 -0.009802136570215225 -0.022298362106084824 0.05871004983782768 0.044618356972932816 -0.055065155029296875 0.0470082126557827 -0.036946579813957214 -0.015317189507186413 -0.008051014505326748 0.0036259505432099104 0.027331164106726646 -0.044385164976119995 0.07661087065935135 -0.03105463646352291 0.06577421724796295 0.13396276533603668 0.027932731434702873 0.09629959613084793 -0.038668032735586166 -0.06630907207727432 0.09134228527545929 -0.018509715795516968 0.05881763622164726 -0.06718835234642029 -0.006602950859814882 -0.10039693117141724 -0.04218192398548126 -0.014206375926733017 0.06277347356081009 0.03497389331459999 0.011848937720060349 0.10059807449579239 0.014806315302848816 0.03276199847459793 -0.07731592655181885 0.0028554019518196583 0.07083994895219803 0.009643360041081905 -0.0006680490332655609 -0.02215453051030636 0.020812757313251495 -0.0493532232940197 -0.015504485927522182 0.06589411199092865 -0.035428449511528015 -0.07499612122774124 0.015623070299625397 0.19226759672164917 -0.12100444734096527 0.040584977716207504 -0.014703343622386456 0.09742563962936401 -0.012610633857548237 0.12007048726081848 -0.029612261801958084 -0.05343606695532799 -0.03189665079116821 0.08348754793405533 0.14482714235782623 0.02273136004805565 -0.04868189990520477 0.08270525187253952 0.08874326199293137 0.09291305392980576 0.019775278866291046 -0.02275725267827511 0.0030189785175025463 -0.003136623417958617 -0.05523400008678436 -0.12436890602111816 0.0028990490827709436 0.058157484978437424 -0.01288683619350195 -0.09661627560853958 -0.06991799175739288 0.12502314150333405 -0.05182261765003204 0.009231431409716606 0.05877511948347092 0.019847219809889793 0.014225909486413002 0.005311759654432535 0.032225243747234344 -0.035675227642059326 0.059548165649175644 0.03662889078259468 -0.01249784231185913 0.10126305371522903 -0.04023768752813339 0.05876890942454338 0.05101916193962097 0.009084800258278847 0.03419652208685875 0.006705492734909058 -0.012587512843310833 0.008955107070505619 -0.007860077545046806 0.04082367196679115 0.11365927755832672 0.07488412410020828 0.09421660006046295 0.005044268444180489 0.05209093168377876 -0.06699848175048828 -0.011424972675740719 0.04008200392127037 -0.1394081562757492 0.03789682686328888 0.010608269833028316 0.06858931481838226 0.0473378449678421 -0.015869811177253723 -0.03535854071378708 -0.03683274984359741 -0.05191905423998833 0.05699650198221207 -0.006901050917804241 0.024011852219700813 -0.010199572890996933 0.0578397773206234 0.13243690133094788 -0.027729922905564308 -0.056810248643159866 -0.039368901401758194 -0.04958163574337959 -0.02112332358956337 -0.03696410357952118 -0.13487210869789124 0.08279614895582199 -0.00864375289529562 0.09838400036096573 -0.0723450556397438 -0.04699009284377098 0.017083846032619476 -0.03743066266179085 0.07270843535661697 -0.02538745105266571 -0.037404581904411316 0.011819049715995789 0.0790906772017479 -0.07636528462171555 -0.09962716698646545 0.05103926733136177 0.06863504648208618 0.01030148658901453 -0.020124228671193123 0.11561603099107742 -0.011169575154781342 -0.020644139498472214 0.09002789855003357 0.0519094243645668 0.012981163337826729 -0.02504448965191841 0.049884963780641556 -0.03633629530668259 -0.046634115278720856 0.12851499021053314 -0.081814706325531 -0.0291090440005064 0.030053963884711266 0.039637163281440735 0.005533688701689243 0.08466783910989761 0.013379869051277637 0.06996383517980576 0.006436387542635202 0.014813250862061977 -0.003693960839882493 0.0033889818005263805 0.05808664858341217 0.0010607527801766992 -0.13943727314472198 -0.03726998344063759 0.04762554168701172 0.05758160725235939 0.002989458153024316 -0.03286581113934517 -0.08210935443639755 0.10106080025434494 0.02422044612467289 0.05715755745768547 0.028245363384485245 0.012769236229360104 -0.09995689988136292 0.027830353006720543 0.041970882564783096 0.09186795353889465 -0.04122817888855934 0.10397268086671829 -0.04034074768424034 -0.0035618608817458153 -0.032683711498975754 -0.04881848394870758 0.003111816244199872 -0.08191930502653122 -0.01380726508796215 0.044808268547058105 -0.13622382283210754 0.008493599049759548 0.15030769717765993 0.04235967046779829 0.04600548175217268 0.11516704677992348 -0.013074294639570131 0.01648069478178089 0.04796969580672995 0.05928585059242828 -0.10619449513845561 -0.062254430138034354 0.01204903040089428 0.005572705302490912 -0.031306082443248874 -0.051505719410446994 0.18522918302525415 -0.06255387161954139 -0.0048115805857882445 -0.11439744462623441 0.03703602329674874 0.06900674087534162 -0.07692293647702184 -0.056052614279687656 -0.0063013917846818455 -0.07741786999736903 0.026783925635469913 -0.014854599083571238 0.10495225567725483 0.03512446858221769 -0.09217283385792964 -0.05548451207495218 -0.009519679684140307 0.05020280536373183 -0.022764122914807675 0.004027875942040046 0.042762748244360986 0.11166511984824755 -0.02240057574863263 0.0003071571542254825 -0.10802434620632069 0.016125132946165712 -0.07243284980901955 0.13477908951820466 -0.003287540505385788 -0.05550726697144675 0.0025358507887431663 0.025122884768923423 0.058092937102164004 -0.02270399668067993 0.059882285395857576 -0.05240159593314425 0.05920240424140917 -0.06224837598507137 -0.027950403555684258 0.00823214645328298 0.03942973192648373 -0.03939059954582598 -0.04722881640771901 -0.12639423228750948 -0.02973301315497796 0.06072439421952267 0.08116853219569892 0.055423950034294345 -0.13083954195190137 0.026375563385762642 0.060536788150790215 -0.09110414296981284 -0.08393098392444254 -0.04327339928762136 -0.03923837700733279 0.07392403246865585 0.044901069650564084 -0.019067553806740564 -0.01746262148840521 -0.04447023705383827 -0.061195928029068106 0.0214047317016641 0.01573129470950683 0.03450396599407804 0.1132604723021527 0.056048875734371374 -0.06703969006413302 -0.036984314112530434 -0.04124364899837461 -0.028154508190515654 0.10994140573574462 -0.009869300704424393 -0.0037776220155158963 -0.08153232652965965 0.08257881972726223 -0.007392012636314537 0.06035594178212533 -0.04761507699776058 -0.05683657708016775 -0.08854717376667944 0.017418289476133365 -0.04516509924333686 -0.047510420057693646 -0.10653149174514247 0.05874671626659363 -0.013383050449192524 -0.03332032635807991 0.02308398298919201 -0.008968016132712364 -0.002791125327348709 -0.050651177763938904 0.0010342421010136604 -0.10158145427703857 -0.041971661150455475 0.11307444423437119 -0.07906939834356308 -0.08343036472797394 0.008375239558517933 0.013714033178985119 0.08210950344800949 0.06194434314966202 0.06349378079175949 0.13384723663330078 -0.042103689163923264 0.0676199346780777 0.008713261224329472 -0.05268080532550812 -0.012710340321063995 0.09033311903476715 0.04554648697376251 0.022648032754659653 0.12961266934871674 -0.12114547938108444 -0.07087833434343338 -0.06646009534597397 -0.04694295674562454 -0.008168812841176987 -0.11204807460308075 -0.013291114941239357 0.034614939242601395 -0.003011884866282344 0.0690077468752861 0.0032442864030599594 -0.08181572705507278 -0.045010656118392944 0.03706373646855354 0.08282001316547394 -0.03151823580265045 0.04582079499959946 0.05834193527698517 -0.060505468398332596 0.04222067818045616 0.07214521616697311 0.006606752052903175 -0.06620259582996368 -0.048436593264341354 -0.06595444679260254 0.053657591342926025 0.03389226645231247 0.017947617918252945 0.08358286321163177 0.0004176149086561054 -0.055159155279397964 -0.033922500908374786 -0.05860201269388199 0.1044187843799591 -0.004380654077976942 -0.0644785687327385 -0.05131276696920395 -0.0751340389251709 -0.007607027888298035 -0.052001167088747025 -0.03737407177686691 -0.05324271693825722 0.02218281663954258 -0.009588874876499176 0.03836807608604431 0.0027393402997404337 -0.06302253901958466 -0.10028309375047684 -0.029498528689146042 0.0422242097556591 -0.0929531678557396 0.062014173716306686 0.053531844168901443 -0.07847130298614502 0.01358870416879654 0.02798421122133732 -0.055386655032634735 -0.155180886387825 0.10892241448163986 0.06695764511823654 -0.04663335904479027 -0.052461519837379456 -0.07796774804592133 -0.06215342879295349 -0.05981290712952614 -0.055285949259996414 -0.002849491313099861 0.05173519626259804 0.019703205674886703 0.04270933195948601 0.011774790473282337 -0.039331573992967606 -0.053680770099163055 0.016936523929122753 -0.09900266856198399 0.05311261170508167 0.1077934624162432 -0.009630793252445584 0.013337399209231642 -0.09238010515630903 -0.111104518462995 -0.034471013163332585 -0.010016698961207956 -0.05112579541320614 0.0735543058699613 0.01023251437610304 0.07555548571358914 -0.12664649396265304 0.21515993918554113 -0.07949957845359294 0.07050512788270338 0.05185676438847432 0.014363639177677159 -0.13906662040928747 -0.027787943114595186 0.07451123563537607 0.10111124987467715 0.11347144193169792 0.03278248614271318 -0.10356828605147675 -0.031086572961689055 -0.11516742596410394 -0.06626931627481311 0.020641991453007213 0.03567739575259741 -0.04162089070256594 -0.14365829787544307 -0.06934654006776923 -0.02035289306414793 -0.026036160755158345 -0.02258928825967169 -0.05731963792712279 -0.07460667668578959 0.030121859001712988 -0.08565173125768843 -0.07961873403897356 0.05957009130801815 0.09187716516971092 -0.03367784588326832 -0.0810293478958788 0.03733384173360693 -0.004607269820943983 0.05546797062618158 -0.006235386868205423 0.06208095247799973 -0.008030847814521017 -0.008241330478606543 0.0668286767838219 -0.08407199182075399 -0.03679738845282028 -0.07432537162385303 0.10100248060188105 0.07379693738671732 0.07751812236255803 0.08907236164520363 0.08347267058803312 -0.07075692979314606 -0.0972809641767376 0.0031245237400692573 -0.040297026439652474 -0.19005452413936677 0.11987678747238797 -0.005246510713721637 0.09346452052992307 -0.13114574658170297 -0.04479161686295736 0.12333663373635388 0.016176907340051165 0.07624224116932272 0.08614787709694653 -0.016666786801133985 -0.04760298119052474 0.002023699720921193 0.11509348037723413 0.06176839866106371 -0.020690661890747534 -0.019677849795329435 -0.01691167083053234 -0.0516870283583839 -0.04611265370293512 -0.014253426095484585 0.007023734885912595 0.026011373513058256 0.05250787192311792 -0.09443010724249563 -0.03532702837531652 -0.05390913426124826 0.02241789724673031 -0.10198191102527943 0.10734948622512139 0.01131621058900691 0.1039781814159346 -0.05594190637516548 0.14654289186000824 0.007765482645481825 0.03873157128691673 0.02377927675843239 0.03010282851755619 0.15617427229881287 -0.015127839520573616 -0.08956862986087799 -0.0201673936098814 -0.022936414927244186 -0.03666289523243904 0.08822223544120789 0.11953587830066681 0.05297686904668808 0.03114679642021656 0.012974911369383335 -0.04064944013953209 -0.07498752325773239 -0.017616156488656998 0.014126265421509743 0.016645781695842743 -0.09500084072351456 -0.028270242735743523 0.05273580178618431 0.018364902585744858 -0.029935410246253014 -0.058307863771915436 0.021030668169260025 -0.0222725011408329 0.020699715241789818 -0.03859533742070198 0.029096119105815887 -0.008320599794387817 0.013406856916844845 0.024438876658678055 0.005869713146239519 -0.04630795493721962 -0.045885201543569565 -0.03397563472390175 -0.036070894449949265 0.09303414821624756 0.07085981220006943 0.046132661402225494 -0.04598761349916458 -0.1627856194972992 0.001753352116793394 0.058652132749557495 -0.0107372822239995 0.02953898161649704 -0.016931505873799324 0.09535764157772064 0.033296290785074234 -0.09227323532104492 -0.07675019651651382 -0.0034919895697385073 0.016831044107675552 -0.016027528792619705 0.04160403087735176 0.03606394678354263 -0.03989745303988457 -0.056093111634254456 -0.030896218493580818 0.0915164202451706 0.0385652519762516 0.04933829605579376 0.042108986526727676 0.05593768134713173 -0.16088706254959106 -0.05137699469923973 -0.16409778594970703 0.03929128497838974 -0.04877170920372009 -0.06202342361211777 0.04690517485141754 -0.01827067881822586 -0.027727700769901276 0.04680480808019638 0.025699349120259285 0.06186500936746597 0.04267023876309395 0.05413677543401718 0.08913510292768478 -0.008940168656408787 -0.026125436648726463 0.024699818342924118 -0.05849960818886757 0.035861846059560776 0.10695990920066833 -0.02001146227121353 -0.0799066424369812 -0.014628245495259762 -0.06229371204972267 -0.009726331569254398 -0.004930465016514063 0.06288624554872513 0.06743355840444565 0.06909146159887314 0.10986156016588211 -0.029765767976641655 0.022160420194268227 -0.04586917906999588 0.032597292214632034 0.029437370598316193 0.008047925308346748 -0.028924094513058662 0.13281667232513428 0.0803113728761673 -0.05511372536420822 0.07699677348136902 -0.19479812681674957 0.051243022084236145 -0.035387445241212845 -0.09829023480415344 -0.00019621591491159052 0.06587070971727371 -0.003755602752789855 0.0743269994854927 -0.0055195651948452 -0.059087831526994705 -0.02174156717956066 -0.056115299463272095 -0.05894384905695915 0.1821705400943756 0.0045036193914711475 0.02366713434457779 -0.10611497610807419 0.005616250913590193 0.010185507126152515 -0.0538799986243248 0.016517531126737595 0.05162983760237694 0.02717435359954834 -0.010373464785516262 -0.08003973960876465 0.128488227725029 -0.09912051260471344 0.017953669652342796 0.013240392319858074 0.07601448893547058 0.009943866170942783 0.1607339233160019 0.15670736134052277 0.07335338741540909 0.0467570498585701 -0.005651175510138273 -0.09477893263101578 0.0007089079590514302 0.0749652087688446 0.04760218784213066 0.05621926859021187 -0.03798520937561989 0.05525493994355202 -0.0013085012324154377 -0.06263259798288345 0.04102373123168945 -0.02679978497326374 -0.07294358313083649 0.017425039783120155 -0.11418970674276352 -0.03544577583670616 0.03644948452711105 0.11055076867341995 -0.01300116442143917 -0.005201637279242277 0.03546130284667015 0.014865726232528687 0.04775739461183548 0.0193044301122427 -0.031087616458535194 0.02193710207939148 0.0580190010368824 0.07025511562824249 0.06168220564723015 -0.05213761329650879 0.0004342177417129278 -0.00805552676320076 0.02526598423719406 0.010428526438772678 0.011569753289222717 0.006279343273490667 0.08886540681123734 0.015175186097621918 0.03807993233203888 0.15791334211826324 -0.032062504440546036 -0.001550178974866867 -0.08467379957437515 -0.05035753548145294 0.004703039303421974 0.06613519042730331 -0.02906970866024494 -0.09346872568130493 0.008425242267549038 -0.0745525136590004 0.029917865991592407 0.06500156223773956 -0.04616355150938034 -0.1848621368408203 0.049208864569664 -0.020202839747071266 0.04470400029651704 -0.15364764057484714 -0.0982319556862648 0.08080119101975054 -0.026320165395453548 -0.08225385096678506 0.042107598090542785 -0.03134829113934364 0.1053511180018465 -0.03243404084371186 0.031811405223316366 -0.11855855418271977 -0.09714173762322778 0.03481990494274544 0.039020005425233685 0.03328680632377392 -0.010422859450679684 -0.08767166464512068 0.03143516608406656 0.10190586689177024 0.11206338425305072 -0.08093412261064517 0.017156187171222553 -0.13298452406611716 -0.05328419704121906 0.13956480409915833 0.12475936112114411 0.001564761184186279 -0.027455198595330133 0.08105209837947246 0.03809883773906252 0.11871190962411214 -0.030959951546514455 -0.1239073475807731 -0.05027283608554085 0.006309454378280076 -0.11021133996310847 -0.0956487163900305 0.03112924851624679 0.017010760596312527 0.09280018339287353 -0.06140188080857104 -0.0689602792604589 -0.02536970294024988 -0.004503590628051897 0.008558939923900347 -0.03311969474929209 0.013514971127454423 0.0909976096029925 0.03208545334410571 -0.03337529821135647 0.014400424201832946 -0.08405294868343699 0.04949319908128137 -0.00288794499038399 0.00810012507037975 -0.040502916332712614 -0.006857858954798198 0.0981675923943222 0.02497055479853556 0.07630784621052637 -0.11415611372203467 -0.1326306439002381 0.10173067659771297 0.10676710681468234 -0.03987028188639723 -0.06366631690771006 0.01409518258348169 0.16178134892241244 -0.030690078266761785 -0.028889071353494746 -0.01956370431515762 -0.01623695784549094 0.08806593463194974 0.10599495805593924 -0.0008539989671819536 0.05900174818216423 -0.003970561190681891 0.07291525842702229 -0.07479981213699148 -0.018466461785594936 -0.02753981290277979 -0.07166847402567449 -0.1276510134409958 0.02410626342428452 0.03070910656875822 -0.009963346933961769 0.05094546720272132 0.03185690929458212 -0.11653849323334867 0.03792149676705401 -0.02183203347806252 -0.15060899710383413 0.05663901909318776 -0.004692949703132247 -0.02002380942414637 0.0999611000506081 -0.015049923519849809 0.0395614962261584 0.011930112640435558 0.05291593447327614 -0.017327196896076202 -0.07000768184661865 0.03690825030207634 0.07030525803565979 -0.014432231895625591 -0.1272677481174469 0.13053679466247559 -0.0075267404317855835 0.0030754071194678545 -0.02198852226138115 -0.010249155573546886 0.001861197641119361 -0.06787338852882385 0.015253404155373573 -0.03798052668571472 0.11153765022754669 -0.010128872469067574 0.04023859649896622 0.20699821412563324 0.12564954161643982 -0.0168318934738636 -0.07627175748348236 0.13811112940311432 -0.0032246089540421963 0.07274263352155685 -0.0525490902364254 -0.022145891562104225 -0.024305293336510658 -0.05312328785657883 0.059771519154310226 -0.07680771499872208 -0.06073931232094765 -0.06166497617959976 0.05463168025016785 -0.09100177884101868 0.08678339421749115 -0.016072971746325493 0.032504767179489136 -0.06928662210702896 -0.08647309988737106 -0.02045411430299282 -0.06684891879558563 0.029613647609949112 -0.039998944848775864 0.10742419213056564 -0.021400364115834236 0.04499176889657974 0.043117277324199677 -0.08205973356962204 0.04049801826477051 0.0987606793642044 -0.020462753251194954 -0.010044869035482407 0.1228620707988739 0.155157670378685 -0.023624829947948456 0.04497620463371277 -0.002840364119037986 -0.003925465978682041 -0.005470466800034046 0.05680283159017563 -0.01756712794303894 -0.05770878493785858 0.014255939051508904 -0.04343264177441597 -0.1824278086423874 -0.04765031486749649 -0.059532370418310165 -0.10364580899477005 -0.03345131874084473 0.023839563131332397 0.01701667159795761 0.0680168867111206 -0.02604268677532673 -0.0991852879524231 -0.023685647174715996 0.01177742425352335 -0.030095521360635757 0.07479299604892731 0.04189962521195412 -0.1672046184539795 -0.10270567238330841 -0.11605590581893921 -0.024644847959280014 -0.0033103639725595713 0.09875152260065079 -0.10034768283367157 -0.03986527398228645 0.06124424561858177 0.06426840275526047 -0.006907174363732338 0.038888249546289444 0.05261003598570824 0.010970640927553177 0.01724332571029663 0.07373852282762527 -0.06709539890289307 0.012690722942352295 0.1543942093849182 -0.11465644633021671 -0.09262840993132414 0.35517875313576824 0.052748588791403726 0.15771446917515847 0.3161467745744529 0.0575479689840518 0.0099434157405513 0.06657500050231975 0.05927711076394371 -0.017662970903774316 0.050372583985054335 -0.07369365337154761 0.029806510139276095 0.013473746233375359 -0.18391540349604057 -0.050673519699391184 0.07455917548360491 -0.04932882022627776 0.3359310982773325 0.11578743471309666 -0.09530192263956787 0.056407668541312767 0.019093261758940588 -0.11528457139773583 0.0941717452209372 0.11141717048135079 0.05165714791946679 0.03626006043283164 -0.018158032593429713 0.11517875678316218 -0.01437586931575888 -0.13708108800333527 -0.07603468430476396 -0.005717723289045048 -0.046605399464686975 -0.0028379368436454977 -0.11631120056392734 -0.02655894695715146 0.08509255682960634 -0.15071464345020558 0.3223214771741211 -0.008899866600436809 0.12848701806804733 0.252918538711133 0.09912489674312287 0.008642767443085054 0.04024214014349649 0.07330603665921284 -0.28198408518749274 -0.01126508652117394 -0.1559817990809839 0.01601593103563835 0.14566958938507515 -0.03587286804558507 -0.036341318337498346 0.07733413239086606 -0.06395470790914859 0.06083684473171079 -0.1137916027146231 0.06201399650130649 -0.2357860282014518 0.035147754559346746 -0.09736743486499634 0.2818741197584267 0.392739164284596 0.05636505375905894 -0.011353646292802147 -0.3997906905502134 0.06468450654885191 0.03266018505794261 0.24142207297494858 -0.014866105013696706 0.009796479720775072 -0.1512656641580141 -0.0477356598591741 -0.019006842470914123 0.05607798065623972 0.07824979129123426 0.2057152511214382 0.06644455934475998 -0.15240824435403028 -0.1067023975425441 -0.005805807388682622 -0.02934620374605706 0.002266681118876981 0.11791524807108325 -0.08784139653390068 0.029082964695956184 0.2083183089911703 -0.18581745165907326 0.05420618156070722 0.07700122775104215 -0.13880377263850133 -0.02274047132379601 0.01689796611051598 0.013159955976378285 -0.07103753363032148 -0.22607456314217658 -0.10221339209128759 -0.019616559147834778 -0.040432170033454895 0.0482720285654068 -0.11756489425897598 0.11162290722131729 0.013886251486837864 0.07068932056427002 0.03043796494603157 -0.04822392761707306 -0.01089506410062313 -0.13975486159324646 -0.1739978939294815 -0.005834679119288921 -0.09993983060121536 0.11621188372373581 -0.04691563919186592 -0.020847763866186142 -0.02849305421113968 -0.03921721875667572 0.049202967435121536 -0.012820861302316189 -0.04152807220816612 -0.027707410976290703 -0.11308170109987259 0.04242514818906784 0.03289825841784477 -0.04281057417392731 -0.041856177151203156 0.0005480552790686488 0.0705580934882164 0.06130523607134819 0.1065303161740303 0.03338279947638512 -0.07183670252561569 -0.04710517078638077 -0.1470595896244049 -0.08779140561819077 0.06415536254644394 0.03594229742884636 0.010639612562954426 -0.01430494710803032 0.055112868547439575 0.061158858239650726 0.09980523586273193 0.008702021092176437 0.13271544873714447 0.00447347667068243 0.00912430603057146 -0.12049529701471329 -0.011767670512199402 -0.062006693333387375 -0.0350252240896225 0.0857042595744133 -0.10623189061880112 -0.032951898872852325 0.027891695499420166 0.07000140845775604 0.09536071866750717 -0.0019122211961075664 0.00893216859549284 0.10004382580518723 -0.08662199974060059 -0.10962240397930145 -0.027938680723309517 0.039870765060186386 -0.04532373696565628 0.021587349474430084 -0.07517175376415253 -0.06603456288576126 -0.006900438107550144 0.0885796993970871 -0.06254873424768448 -0.0791039988398552 -0.020390601828694344 0.029495755210518837 -0.07116396725177765 -0.20014405250549316 -0.08524824678897858 0.1566476821899414 0.026998715475201607 0.0030298708006739616 0.010209123603999615 0.13306152820587158 0.1292753368616104 0.08832887560129166 0.09558218717575073 0.01272589061409235 0.05830037221312523 0.08616392314434052 0.02496437355875969 -0.02412986010313034 0.097391277551651 0.08936896175146103 0.07988661527633667 -0.031068654730916023 -0.04414297640323639 -0.06498443335294724 -0.02427213452756405 0.03652346134185791 -0.04336679354310036 -0.016378657892346382 0.08075730502605438 -0.09162280708551407 0.04596731811761856 0.13207359611988068 -0.016768446192145348 0.04527219012379646 0.04135705158114433 -0.0728096291422844 0.18164105713367462 0.020422574132680893 0.013483051210641861 -0.010977040976285934 -0.10262323915958405 0.0985112115740776 0.006291676312685013 -0.024029236286878586 -0.0169916283339262 0.07074573636054993 0.038379035890102386 0.1187426820397377 -0.021832190454006195 0.017972495406866074 -0.11593078076839447 -0.13633517920970917 -0.0022843487095087767 0.06482964009046555 0.0862182229757309 -0.022535469383001328 0.03312605991959572 0.008334779180586338 0.07863638550043106 0.06762339919805527 0.047190796583890915 -0.05691859498620033 -0.07020676136016846 -0.015448076650500298 0.018840044736862183 0.1018555760383606 -0.06120537966489792 0.019606370478868484 -0.1404639631509781 -0.0045165629126131535 -0.06755609810352325 -0.05260777473449707 -0.03793226182460785 -0.027545182034373283 0.030176814645528793 0.104192815721035 0.044710736721754074 -0.05988504737615585 0.01161243673413992 0.0317966490983963 0.055675335228443146 0.02399972267448902 0.023533523082733154 0.0032320828177034855 -0.16469229757785797 -0.03104209341108799 0.0058980658650398254 0.08522001653909683 0.09949593245983124 -0.020692966878414154 -0.013422398827970028 0.10448119044303894 -0.04236503317952156 -0.031374815851449966 0.015370162203907967 -0.02800373174250126 -0.038312774151563644 -0.10331947356462479 -0.010150598362088203 -0.14666275680065155 -0.018942371010780334 0.13189288973808289 0.045467477291822433 0.0844787061214447 -0.031046105548739433 0.04715621471405029 0.016772769391536713 -0.016138380393385887 0.04863237589597702 -0.030745597556233406 0.03516494482755661 -0.02446124330163002 -0.023676369339227676 -0.001195527845993638 0.005454323720186949 -0.032929472625255585 -0.04469550400972366 0.08173341304063797 -0.09316462278366089 -0.01848088763654232 -0.04189213737845421 0.027207789942622185 -0.010608457028865814 0.08485448360443115 -0.06539677828550339 0.00862730760127306 0.019473735243082047 0.02525795091208627 -0.031337571723008543 0.09917613835456723 -0.10614223759493656 0.22523410945325428 -0.07498657729534143 -0.01838868072436906 0.08753984148168313 0.01459691770890549 0.04825691744989861 -0.054324815122519285 0.009143861616675079 0.004329085780615448 -0.03183576121281624 0.06825302684052445 -0.025127812491164015 0.0031610610288423826 0.0655853601961328 -0.07662629859969027 0.12749951070083493 -0.07801192520830055 -0.015854937053882374 -0.06227780577799806 0.08151390700187554 -0.029699697266152465 0.035032815257271775 0.027302282181266343 -0.10720996358199952 0.04476083680511969 -0.03724350552082016 0.15389648819230287 -0.09592894691833107 -0.014195307845549367 0.09353383557841702 0.06294449846650446 0.20748357650727894 0.023249868688762245 -0.042504164527242434 -0.10709975853299245 -0.20272821300633273 -0.0011829840674546558 -0.031925614361256155 -0.011027122538841557 -0.17541466908821057 0.043058682462518906 0.05752170974091035 -0.014321596268240078 0.060920128181241776 0.0990216548544975 -0.05198371940519398 -0.06119642927979344 -0.010158492650083057 0.07391969655087269 0.00014466253124420406 -0.10224505551102063 -0.08047626642340824 -0.022431356196957995 0.0361164955988394 -0.04656669200768536 -0.09712991564061123 0.009945886314486526 -0.00510677929407607 0.05596545740389406 -0.006717365005421946 0.07977863194044972 0.14628425254717617 0.09781707174887878 0.03502000767555834 -0.17655537938876537 0.13961709269457942 0.06304212659635333 0.18372011037953953 0.2353527083943872 0.1843505594907801 0.04906995252018838 -0.05975742126928472 -0.01125476561399099 0.007845566962270581 0.2034222671212152 0.029673073040828297 -0.1406280205852458 0.027891325821990196 -0.04394415302188821 -0.07064112533253473 -0.09864141427591741 0.09077395057121099 0.04933268091966912 0.019729860161471997 -0.014694390952355715 0.1643974120531886 -0.1010938235720221 -0.06705704169372845 0.10596565039998342 -0.08195055238342418 -0.11621234039032996 -0.07225848111807845 0.02211112594791787 0.03342554100231765 0.03970247491913634 0.023862453380183408 0.051154009997844696 -0.03983491659164429 -0.0104683144018054 -0.008642680011689663 -0.07522182166576385 0.021343383938074112 -0.03232759237289429 0.022329023107886314 -0.04074002802371979 0.05657314881682396 -0.03840991482138634 -0.016177251935005188 -0.09760735183954239 -0.03916019946336746 0.014220571145415306 -0.03535468131303787 -0.00877426564693451 -0.058891553431749344 -0.13937683403491974 0.021235350519418716 -0.16395804286003113 0.070151686668396 0.07061922550201416 0.15342694520950317 -0.11513641476631165 -0.030811961740255356 0.06614962965250015 0.04386008903384209 -0.01525849662721157 -0.1296166330575943 -0.04272777587175369 -0.1472633332014084 -0.16032977402210236 -0.04715684428811073 0.04601159319281578 0.010521480813622475 0.03302519768476486 -0.06816630810499191 0.023160194978117943 0.07445327937602997 -0.08182448893785477 0.12176098674535751 0.03881299868226051 0.051660116761922836 0.07625521719455719 0.07002182304859161 0.04797651991248131 0.005800515413284302 -0.10506550222635269 0.020149830728769302 0.008703499101102352 -0.06540630757808685 -0.022744586691260338 -0.08141574263572693 0.0756726861000061 -0.09455910325050354 0.028938064351677895 0.04400607943534851 -0.022032300010323524 -0.01619219034910202 -0.13817133009433746 0.034235402941703796 -0.05231376737356186 -0.0642356351017952 0.019374916329979897 -0.042180147022008896 0.04838387668132782 -0.06432493776082993 -0.001986530376598239 0.03631489723920822 -0.0011683296179398894 -0.011367508210241795 -0.11992951482534409 -0.062104567885398865 -0.028711045160889626 -0.0005823547835461795 -0.14299432933330536 0.08620396256446838 -0.04670621082186699 0.07149384170770645 -0.005127378739416599 -0.0035383286885917187 -0.06633440405130386 0.05144616588950157 -0.09547892212867737 0.027767768129706383 -0.03904440626502037 0.0749063789844513 -0.04823382943868637 -0.0344172827899456 -0.024595173075795174 -0.04601341858506203 0.07472152262926102 0.11481843143701553 0.04353073239326477 0.005342267453670502 0.05294543504714966 -0.029419420287013054 0.008398771286010742 0.1049344539642334 -0.016040310432656187 0.007021857086096466 0.02037358835822083 0.17115763338711065 -0.05663238832032584 0.09516711773313913 -0.026388703699131693 -0.07988374648057638 0.01146211792443171 0.0787852049421441 0.050946241832560274 -0.0033493390001275627 0.003989741055583902 0.08456431258603368 -0.04102232296604262 -0.025775756790404135 0.07500133352829008 -0.11883367039262213 -0.10772867856374875 0.02674494876941183 0.0416120685379809 0.0036061330880633874 1.4685200946593416e-05 0.014173352072854977 -0.10165815845798144 -0.05647131543077638 0.022416116928788865 -0.035888824266724434 -0.01444285224675611 -0.12043738090679838 0.06748426419145044 0.0447812958335382 0.044938799373991374 0.05660951991844207 0.007337570197744651 -0.08140051546574081 -0.06006672652090112 0.05114278155112472 -0.00429783199017225 -0.1500029824132816 -0.018649132726517737 -0.04008682519536367 0.10099694732006914 -0.109476155048215 0.08083050066289414 -0.05799137564289543 -0.022243488939354225 -0.13498826003141914 -0.023668204835071028 0.018735035315030974 -0.08363041763353055 0.059960038085050904 -0.009582831224636303 0.09205305342473195 0.03566745330144678 0.010218720453927735 -0.03450553294784594 -0.054921387199579445 -0.013222249610726655 0.027433505777812395 0.19423481646315938 -0.13554074178228384 -0.002526156465820634 -0.04766263330716584 0.12706785061021483 0.018454108943355554 0.017047852318990645 -0.005245212217174225 -0.011236607147495456 0.012243838821391094 -0.06748560598854694 -0.08155114519908044 -0.11531691436350537 0.05852906896258208 -0.06893909082841816 0.009132915172111086 -0.0020238372220466607 -0.02535844213209673 0.05964580832480875 0.04497552406662657 -0.016032218912399473 -0.10462644709570065 0.07893094082707947 0.10406985949513733 -0.03675917790375576 0.08374723694710351 0.06103836415073983 -0.09204265169053401 -0.033677077213638044 0.09846232407422555 -0.06063178851967936 -0.0055230308600745575 -0.013888379771539842 -0.0027231400195895606 -0.07350134604420158 0.029020901341200875 -0.03281457943160742 -0.03734295854442757 -0.030965779637867195 0.05437634834629464 -0.09511458873748779 0.07329732924699783 0.0023613651283085346 0.04708082973957062 -0.048326462507247925 -0.0968296006321907 -0.024702567607164383 -0.07807812094688416 0.06843644380569458 0.09271733462810516 -0.1708495169878006 0.07379523664712906 0.04753834009170532 -0.01999594084918499 0.012284529395401478 0.017261167988181114 0.03135029971599579 -0.06366263329982758 -0.11223909258842468 0.15307772159576416 0.07663462311029434 0.11718828231096268 -0.05476224049925804 0.06846801191568375 0.04324617236852646 0.062240298837423325 -0.08388487249612808 0.03189580887556076 0.04938148334622383 0.05149757117033005 0.09971953183412552 0.07349346578121185 0.037722352892160416 -0.010830073617398739 0.12138883769512177 -0.0653829425573349 0.04246465116739273 -0.10172624886035919 0.10218043625354767 0.018090492114424706 -0.03385685756802559 -0.03224040940403938 0.08148734271526337 0.10315319895744324 -0.0561252124607563 0.044782236218452454 0.04805964604020119 -0.073096863925457 -0.05795164033770561 0.04921983554959297 -0.03223104402422905 -0.12363878637552261 -0.00524746673181653 -0.019952068105340004 0.008274483494460583 0.018919920548796654 -0.019570782780647278 -0.0738956406712532 -0.017591411247849464 0.016747990623116493 0.05685994401574135 -0.06415200978517532 0.09127744287252426 -0.033038120716810226 0.10898253321647644 0.07587915658950806 -0.04266379773616791 -0.04744679480791092 -0.04341290518641472 0.06881242990493774 -0.03199494257569313 -0.0586322657763958 0.09368903189897537 0.11264117062091827 0.009951155632734299 0.06270410865545273 0.034292060881853104 0.10329965502023697 -0.09797344356775284 -0.0229145810008049 -0.029975447803735733 0.06443886458873749 -0.14436842501163483 0.015699652954936028 -0.07263365387916565 0.07990527153015137 0.00041726537165232003 0.0036329389549791813 -0.14795376360416412 -0.028775088489055634 0.0743911936879158 -0.015164335258305073 -0.06436750292778015 -0.013096890412271023 0.04718879237771034 0.06393817812204361 0.06120949611067772 -0.051683247089385986 0.040161214768886566 0.04929289594292641 -0.05863535404205322 -0.014232944697141647 -0.07842976599931717 -0.009988589212298393 0.08326560258865356 0.09581181406974792 -0.07064853608608246 -0.05550976097583771 -0.03899310529232025 0.033868417143821716 -0.020878270268440247 -0.012614418752491474 -0.05129069462418556 -0.05008632689714432 -0.005688928067684174 -0.0027521741576492786 -0.10397500544786453 0.003551076166331768 -0.04069499298930168 0.05835431441664696 -0.014897296205163002 -0.09413989633321762 0.019951362162828445 0.02077578753232956 0.07003242522478104 -0.08727185428142548 -0.013892273418605328 0.04547243192791939 0.03358868509531021 0.016788454726338387 0.010354816913604736 -0.02818942628800869 0.047289296984672546 0.05125204101204872 0.004938506055623293 -0.04323427006602287 -0.0147469537332654 0.15030808746814728 0.09240409731864929 -0.04276101663708687 -0.07779452204704285 -0.046668004244565964 0.019294550642371178 -0.0744246169924736 0.044029198586940765 0.031854160130023956 0.08202037960290909 0.10306800901889801 -0.06999702006578445 0.07548115402460098 0.040546007454395294 -0.11938135325908661 0.012424291111528873 -0.012082740664482117 0.009420656599104404 0.005182888358831406 -0.007640012074261904 0.03351562097668648 0.027821293100714684 0.008759425021708012 -0.012870953418314457 0.03882358595728874 0.0023856209591031075 -0.09627015888690948 0.02813396230340004 -0.016134897246956825 -0.13448551297187805 0.03128596767783165 0.077472023665905 0.03136851266026497 0.03991256654262543 -0.03351424261927605 -0.07292696088552475 0.014982233755290508 -0.004024318885058165 -0.01064927689731121 -0.016272343695163727 0.007198559585958719 0.13132552802562714 -0.03573278710246086 0.10005761682987213 -0.13028261065483093 -0.03073335625231266 0.03595142811536789 0.023804277181625366 -0.04052451625466347 0.008937862701714039 0.0788654312491417 0.07141082733869553 0.01598830334842205 0.05795413628220558 0.06796937435865402 -0.07725050300359726 0.16247792541980743 -0.03256377577781677 0.07051346451044083 -0.05159788206219673 0.016113240271806717 -0.010256879031658173 0.1167636513710022 0.001216777757185831 0.05422573097034156 