0.09748910344088181 -0.010862185599069542 0.1012856742617175 -0.01182090173100983 0.027205514020862867 0.0050767657261764345 -0.024609956225238063 0.008184727409593976 0.00099922766620084 -0.04519577785851513 -9.162791780452893e-05 -0.04943968148490391 0.026657490292293463 -0.07986873976234166 0.00835542530106002 -0.12435993983310606 0.042996447471501324 -0.019347089275119966 0.05496683516009106 -0.13379939277455316 -0.004748729946453267 0.05297469113539083 0.008724431258903561 -0.014514139752785213 -0.030687884548809302 0.07927214800310109 0.060680407641091866 0.057309160715522486 0.02399138445444238 -0.04394102850655486 -0.02193535982407745 -0.011619332341083193 -0.056032139835645 0.005372015144703409 0.040914403739999404 -0.11620202200003941 -0.11347172611820815 -0.05670502791343007 0.07530409207860506 0.03613022461655414 -0.12802241486938862 -0.0959430060995272 -0.06964110122622706 0.02124436564836046 0.04930276454612524 0.09462530262850496 -0.0612619754521621 -0.03815398693026427 -0.07253470122148817 -0.05919950375889301 -0.09071040059582118 -0.011923983583165024 0.07127315809049353 -0.15468132302996537 -0.10844350117797232 0.13786889272562788 0.07634733412983312 -0.014473372335308645 -0.12180948194383977 -0.13670309897633326 0.06949090552456352 -0.015693198022445887 0.06805073193790001 -0.11509818781178732 -0.00197516860492858 -0.08034309046969511 0.08151342166510551 0.057659383804455296 0.0765092324459242 -0.016209127174427105 -0.08527086982225156 -0.08711618812016221 0.011463809022180742 -0.03503252110904546 0.1008926224808361 0.017703466698450174 0.05683674402065097 0.05831397530185721 0.06778439005436146 -0.07505242379975362 0.034971334820140206 -0.0011991995266404992 -0.023335160484022444 0.0007370926997506442 -0.020613965913140457 -0.11078180224501787 0.04906581386004274 -0.06819696818793063 -0.05404828359890772 -0.011978859909858568 -0.0157866397919322 0.0690579766521624 -0.02316601025754807 0.01321857819607239 -0.03567682711044596 0.005815541332115777 0.06944055579436964 0.0016696742767777378 -0.12823456625156235 -0.024267143328195403 0.03672158345580101 -0.022427432239055634 0.07025070488452911 0.01919638179242611 0.037525538355112076 -0.050190094858407974 -0.0623214989900589 -0.04325631633400917 0.17294825613498688 -0.009677800349891186 0.06091921031475067 0.06372882425785065 -0.08791963756084442 0.016846178099513054 -0.006263403687626123 -0.05412577465176582 -0.09285882860422134 0.01962248794734478 0.04170406982302666 0.053646527230739594 0.053810592740774155 -0.009542692452669144 -0.01460377685725689 -0.023070652037858963 0.022513605654239655 0.06003187969326973 0.1431252807378769 -0.03665126860141754 -0.03899073973298073 -0.002945100190117955 -0.1163719967007637 -0.08745653927326202 -0.010051803663372993 0.0634208470582962 0.01779613457620144 -0.08439616858959198 0.028426360338926315 -0.014839301817119122 -0.10132119804620743 -0.03536788374185562 0.0402839258313179 -0.023377563804388046 -0.012082313187420368 -0.14681558310985565 -0.06562215089797974 -0.09806974232196808 -0.010432866401970387 -0.05579875037074089 -0.05661105737090111 0.02076086588203907 -0.040412548929452896 -0.06139148026704788 -0.0516471192240715 0.11176588386297226 -0.08723151683807373 -0.06250419467687607 -0.001095583545975387 0.008914884179830551 0.06388053297996521 -0.09137211740016937 -0.01453035045415163 0.013749446719884872 0.1048317551612854 -0.009378299117088318 0.06460195034742355 0.11899072676897049 0.002561048371717334 0.014135078527033329 -0.14301584661006927 0.09436184912919998 0.007333314977586269 -0.09557696431875229 0.062258530408144 -0.11288511008024216 -0.006593628786504269 -0.15176334977149963 0.009326418861746788 0.10194673389196396 0.07080159336328506 -0.022926269099116325 0.01423989050090313 0.055118363350629807 0.014753171242773533 0.009371334686875343 -0.02578389272093773 -0.047281429171562195 0.07718045264482498 -0.05811416730284691 -0.08284223079681396 0.012491880916059017 0.04449078440666199 -0.09935200959444046 0.012496082112193108 -0.09112940728664398 -0.11156919598579407 -0.024245934560894966 0.006475922651588917 -0.008077175356447697 0.01201182696968317 0.039061836898326874 0.04190840199589729 -0.05832784250378609 0.08712930232286453 0.04935987666249275 -0.07680961489677429 -0.019475726410746574 0.006697719916701317 0.02058514580130577 -0.06949879229068756 0.0036026956513524055 0.06473694741725922 -0.013917800039052963 0.07799558341503143 0.10217231512069702 0.002146229613572359 0.05488098785281181 0.09393727034330368 -0.08509384095668793 -0.05849618837237358 0.09886468946933746 0.0457339808344841 0.09199502319097519 0.029900744557380676 0.02467210590839386 0.019440053030848503 0.017183443531394005 0.126106858253479 0.06925109773874283 0.1000748947262764 0.017007391899824142 0.0280783511698246 -0.04585492983460426 0.1350599080324173 0.08813236653804779 0.0036431371700018644 -0.06434009224176407 0.05803818255662918 -0.04706553369760513 -0.033036693930625916 0.0010429270332679152 0.13077707588672638 -0.01037096232175827 -0.0003502345643937588 -0.033939000219106674 0.11748847365379333 0.025021785870194435 0.03172183409333229 -0.01910616084933281 -0.14728860557079315 0.05338397994637489 -0.13714025914669037 0.05211760103702545 -0.02164003625512123 -0.015913773328065872 0.11300430446863174 -0.1252172291278839 -0.0072283027693629265 0.002355230739340186 0.059017159044742584 -0.08235375583171844 0.013817757368087769 0.004473946522921324 0.10495591163635254 -0.03874286636710167 -0.0510602667927742 0.012095846235752106 0.02633986994624138 0.08499513566493988 0.013265005312860012 -0.09871021658182144 0.031558144837617874 0.02723533846437931 -0.0929882600903511 -0.14538255333900452 0.05715295299887657 0.08687650412321091 -0.08813516795635223 0.13593821227550507 0.10078523308038712 0.1063685417175293 0.03282156586647034 0.040735676884651184 -0.09846862405538559 0.03249413147568703 0.05490211397409439 -0.04362093657255173 -0.10993398725986481 -0.02549527771770954 -0.06815651059150696 0.09832433611154556 -0.049117811024188995 0.03003528341650963 -0.14460940659046173 0.0598100945353508 0.16902340948581696 0.04454490542411804 0.048352357000112534 0.04997706413269043 -0.011787173338234425 -0.001208893838338554 -0.029279489125634096 0.09338342096447343 -0.07815321567919624 -0.00881029967750219 -0.0003033587702477472 -0.04580550177982576 0.011873798044037341 0.12098032980661237 -0.17867153204445266 0.09482736794704688 0.13313961380655392 0.01604660177489584 0.005536910377852036 0.023008498172765273 0.04297881847712091 0.010540280167649192 -0.05546515345081094 0.020462860359135547 -0.0660160977804253 -0.022698166810837184 0.0390593406534456 -0.0007983839741534288 0.008014247687542764 -0.006439173025800728 0.045773728527792046 0.05259669974130528 -0.06770207466624831 0.040570978469688775 -0.0490793152005339 -0.08962518737230626 0.038454100277298724 0.048926187951411244 0.02614650023521128 -0.08548034512971478 -0.05753463699397001 0.008149226234947097 0.003929426410445088 -0.039919663163562165 -0.05677892264744883 -0.010444730866988803 -0.018101861186819848 -0.0914967377077662 -0.04239945706116031 0.16727896269072595 -0.030318104727241547 -0.036362552313279804 -0.033140591488989915 0.016208848651592684 0.06792914290798756 -0.15887689054540372 0.08133541810610108 -0.061552322161866055 -0.019510343502779186 -0.03740773971358835 0.07412606932129522 0.015546956895442861 -0.009509005955411215 -0.0953333091583192 0.16378451622749265 -0.030995960437163742 0.024421252143396625 -0.05068959796948302 0.0031716847083254076 -0.16422983518052184 0.058475004581555454 -0.004230551940061895 0.055562096981961726 0.021816410340253074 0.0251370237210462 0.013285837352622443 -0.005597629764079616 -0.08523486714865097 0.05557096613523151 -0.021653302942879416 -0.09398472688253703 -0.10596989545516082 -0.057063076440592296 0.03758671336005193 -0.07354814492084609 -0.010240196012295203 0.0715203354273184 0.03589737124172889 0.11144675095399585 0.03834933872214341 0.057554083487599196 -0.036486402996599276 0.09832541884125091 -0.0737476610726891 0.02738514155547344 -0.03716407375613431 -0.034629045676078635 0.020691919076718884 0.014080987009850924 0.1296499327835425 -0.09397434879699419 -0.04032401039484235 -0.011278298666067835 0.06106640283392952 -0.028527987836794416 0.0034546988661870457 0.02690642885863781 -0.03768711909651756 -0.03171978518366814 -0.07560298591852188 -0.04995807260274887 0.04279670864343643 -0.02245340310037136 0.11838274449110031 -0.04986758902668953 0.02221517264842987 0.046097807586193085 -0.07857225835323334 0.04295127093791962 0.16712579131126404 -0.003976915031671524 0.012136146426200867 0.03834851086139679 0.029863324016332626 -0.04099076986312866 -0.0228435005992651 0.059217408299446106 0.06852920353412628 0.08653084188699722 -0.04259738326072693 0.008193885907530785 -0.08472023159265518 -0.0024281407240778208 -0.0923750102519989 0.028315670788288116 0.056217633187770844 0.025462666526436806 -0.006038261111825705 0.04101415351033211 -0.043085094541311264 -0.007053512614220381 -0.016577841714024544 0.054919131100177765 0.09162204712629318 0.011365626007318497 -0.012085674330592155 -0.05734389275312424 0.015079493634402752 0.07753195613622665 -0.06369497627019882 -0.11025052517652512 0.007232098374515772 -0.031094122678041458 -0.005531917326152325 0.04528278112411499 0.05523813143372536 -0.016783583909273148 -0.08757734298706055 0.1134202852845192 0.042041245847940445 -0.043725673109292984 0.08853675425052643 -0.016543913632631302 0.12354224920272827 -0.030798031017184258 -0.09038568288087845 -0.054415155202150345 -0.019336434081196785 -0.16775131225585938 0.019700912758708 -0.017269840463995934 0.008965914137661457 0.06361757963895798 -0.04984031617641449 0.1783841997385025 -0.047994464635849 0.008513863198459148 0.06441541016101837 0.06198471412062645 0.08664439618587494 -0.13609205186367035 -0.03365516662597656 -0.02748427540063858 0.041740115731954575 0.06866481155157089 -0.003230286529287696 0.005962385330349207 0.04442526772618294 -0.10302098840475082 0.0333181768655777 0.13316042721271515 0.02527785114943981 -0.012409655377268791 -0.002753307344391942 0.02349705994129181 -0.02856782078742981 0.1398863047361374 0.0488770417869091 -0.005919534247368574 0.04640012979507446 -0.037644002586603165 -0.10508382320404053 -0.054700303822755814 0.06397628784179688 0.031697966158390045 0.02519621141254902 0.03281231169142489 -0.09111119685320347 0.04874243948327016 0.006035268879923047 0.059263493707555084 0.0001399770974910426 0.05521374438399812 -0.07955443131019223 -0.11201827417604696 -0.07569382959407919 0.047182743285147224 -0.05316919448493287 0.013368398583057498 -0.051442005893568246 -0.017775529577867304 0.05340456124592912 -0.03110240283692085 -0.09511522572777842 -0.016485627051578113 -0.049020017918194964 0.04283248742173387 0.004310761733902973 -0.043823152564940994 -0.08870280831885426 -0.1346622102328418 -0.08134018158170504 0.12417608058126718 0.04244316997647001 0.042708264110777286 -0.02946284384174511 -0.012049691432054596 -0.05455364617881899 0.07655311542052468 0.02389024857308069 -0.020722331521950427 -0.04822220558060795 -0.097461191415715 0.13121283680763 -0.019554251857641588 -0.049376357530684985 0.027394252661542853 0.07866458802794539 0.04232826887882508 -0.054763136363511246 0.00735606303166704 0.017857095456866076 -0.08343510843599077 -0.008714592854152414 -0.058461761967880846 -0.04714107513871633 0.07040882419474281 -0.03556850845617495 0.11166807049387162 0.04001279295698807 -0.10076384169727552 0.10504551919135074 0.012690042629328812 0.059484776786947594 0.04662769009575595 0.01300395441938311 -0.007828559211132706 -0.02070097662764997 0.027518380241254227 -0.05620811880667109 0.08236856855868127 -0.06927208820307923 -0.07833174190725567 -0.062241076860867404 0.01775395021537904 0.03150749051693532 -0.09305453957115005 0.08859958177980046 0.11007650118300112 -0.10926880514722757 -0.12016998247788446 0.026587092973178572 -0.03390731911181445 0.060710782191054156 0.056884023480589865 -0.00497768894106007 0.030854851714551695 0.006260436427820768 -0.017102644668641486 0.05948587811849912 0.0720440375091672 0.04837941680362951 -0.08521026948779457 0.0608696992035545 0.05875337239783218 0.020994761385082116 -0.011259065651555796 -0.06212736739916347 0.05416152971102977 -0.08893137928449948 0.012901338354459098 0.011552443589412896 -0.02702380973457553 0.007850369237908475 -0.05146139151371321 -0.07841813423796855 -0.03983445093035698 -0.04698594659566879 -0.0674043521285057 0.02345060557126999 -0.003960528876632452 0.03840930759906769 0.08789564669132233 -0.017337527126073837 -0.037671636790037155 0.09559915214776993 -0.030866943299770355 0.0014854364562779665 0.029110483825206757 0.05650151148438454 -0.05304529145359993 0.08729927241802216 0.039090078324079514 -0.022115299478173256 -0.011352394707500935 0.0678388848900795 -0.03548530861735344 0.06137952208518982 -0.025096304714679718 0.01240598876029253 -0.024869613349437714 0.0162219125777483 0.11044003814458847 -0.0424080453813076 -0.14218740165233612 0.028787225484848022 -0.02766839601099491 0.03203557804226875 0.022921765223145485 0.035580113530159 -0.06628309935331345 -0.1376989334821701 0.022317804396152496 -0.07074405997991562 -0.03493781015276909 0.07703396677970886 -8.685540524311364e-05 -0.06928709149360657 0.03620516136288643 0.0029042509850114584 -0.06331440806388855 0.039193153381347656 0.024083096534013748 -0.0009003852028399706 -0.07266251742839813 0.07860859483480453 0.012195439077913761 0.04778537526726723 0.04276749864220619 -0.01498902402818203 -0.02736014872789383 -0.021578257903456688 -0.03687142953276634 0.06635785102844238 -0.03932635113596916 -0.06778116524219513 -0.011531823314726353 -0.19118329882621765 -0.0559520460665226 0.05701201409101486 -0.018072841688990593 0.05669526755809784 0.06514763832092285 0.09107661247253418 -0.11458100378513336 0.05146220698952675 0.0185577142983675 -0.013887261971831322 0.157965287566185 0.020464539527893066 -0.0028102141804993153 -0.0635036900639534 -0.058033932000398636 0.0009289346053265035 -0.10516292601823807 -0.01656087301671505 0.040586505085229874 0.09955494850873947 0.07025429606437683 0.033231645822525024 -0.07529750466346741 -0.007512702140957117 -0.026752667501568794 0.08070073276758194 -0.029227087274193764 0.049164775758981705 0.08147218078374863 -0.05774018168449402 -0.06967075169086456 0.06669379025697708 -0.04516255483031273 0.006370351649820805 0.032831620424985886 0.0679430291056633 -0.06553047150373459 0.07230447232723236 -0.00568638788536191 0.04090055823326111 0.0997999981045723 -0.04253601282835007 0.06932108104228973 0.086512491106987 -0.0291731059551239 -0.03544560819864273 0.00858322437852621 0.06763790547847748 0.09590240567922592 0.031150808557868004 0.05522637069225311 0.061752572655677795 0.11910026520490646 -0.011977288872003555 -0.038681384176015854 -0.011428833939135075 0.055636245757341385 -0.023957833647727966 -0.06561541557312012 -0.020548341795802116 -0.05919892340898514 -0.01777469925582409 -0.09725571423768997 -0.06843888759613037 0.006288590375334024 -0.03855965659022331 -0.016239140182733536 -0.0507931262254715 0.04289247840642929 -0.008644992485642433 -0.05777929350733757 -0.011775561608374119 -0.08707837015390396 0.07149770855903625 0.027510402724146843 -0.05908432975411415 0.11623196303844452 0.02175988256931305 -0.025896457955241203 0.04945787787437439 -0.01659623347222805 -0.06780262291431427 0.06341352313756943 -0.02279241383075714 0.05346830561757088 -0.04788891226053238 0.0796978697180748 -0.0627894178032875 0.018416186794638634 0.12275640666484833 0.06531874090433121 0.06066249683499336 0.02708972617983818 -0.013506174087524414 -0.030068352818489075 -0.059127822518348694 -0.037884294986724854 -0.11286603659391403 -0.03357734903693199 0.0032426209654659033 0.046564508229494095 -0.017476778477430344 -0.004273141734302044 -0.027396004647016525 -0.0802716612815857 -0.01922212727367878 0.0013410325627774 0.02632697857916355 0.04359780251979828 0.09384246170520782 0.1293862760066986 0.043433766812086105 0.00725323474034667 0.019711922854185104 0.060438718646764755 0.02375221811234951 -0.03138231858611107 0.021598558872938156 0.03944607824087143 -0.08726537227630615 -0.041413601487874985 0.025958504527807236 0.048407528549432755 0.010202924720942974 0.016758723184466362 0.02375893108546734 -0.05263639986515045 0.02450147271156311 0.04644555598497391 0.013904592953622341 -0.03677305579185486 -0.021580209955573082 0.01496394444257021 -0.005865725222975016 0.08431438356637955 -0.08555014431476593 -0.014511803165078163 0.050119392573833466 -0.029383196071275052 -0.08589443704879399 0.054326769307994134 0.06839762324875198 -0.014894513978620197 -0.09482355993408437 0.027085998490852824 -0.004588301924409765 0.044556314745553924 -0.017076915314524467 0.02409802278251457 0.05614389323151589 -0.03241256113027079 -0.061861942502353495 -0.08592083326618372 0.0758162649036973 0.04337540774849876 -0.08747106444715849 -0.07808361095142813 -0.027998842440628544 -0.05094944519247266 0.0746998571613268 0.007453886901230418 -0.016959270996226353 -0.03648757937601317 0.018501829106904136 0.2170954757687158 -0.022936422968041884 -0.05606308575873665 -0.014706439217880039 0.0667387141725735 -0.060156191617958495 0.012125565245534098 -0.1116119591859133 0.06570639937756542 -0.11170515462092266 0.12453585572111141 0.09103270398383694 -0.005415718442129742 -0.019361381902702708 0.02953093462596283 -0.09204414274686117 0.05888334515629268 0.033858162087234134 -0.007963463740472312 -0.08129546396042929 -0.05475004074437406 0.07532582857675599 0.0917916852661014 0.06711141292747835 -0.10263707248926186 0.016430365181389243 -0.005797705388245776 0.013868705347448636 -0.012973410945594788 -0.007187414638651559 -0.0621602709767733 0.025499830227674384 0.08853061623210483 0.024534623762890156 -0.00975756375486354 0.019424823762791543 -0.05281067692529701 -0.0673321453590552 -0.12120891698604086 0.053460376108308554 0.04037169613901907 -0.023830581670638538 -0.0684279755067382 -0.0663397781035609 -0.11269516709942674 0.04342713036610597 -0.0003678454433749213 0.000326933308019656 0.05250210606787683 0.06284029937603618 0.024841106361110275 -0.0724889682145235 0.043704426636702556 -0.027985086700946165 0.022847899084020847 0.02175069491979684 -0.18287258082669003 0.06556141208907051 0.08506340816023221 0.029282052104992195 -0.05329142830235806 0.10872037900244634 -0.05646983108407174 0.006877683973749935 0.015590829269684784 -0.0342695243700398 0.017238349572003875 -0.037573600283497356 0.11477263235655165 0.06605926125815155 -0.03545410352593811 0.09021039633397337 0.12505938496053942 -0.018777915531270638 0.1434543877840042 -0.010411056689918041 0.016675444319844246 -0.13754749298095703 -0.1132083460688591 0.010448787361383438 0.013237877748906612 -0.07654210925102234 -0.12884703278541565 -0.08719523251056671 -0.014318090863525867 0.09895546734333038 0.09657827764749527 0.0837719738483429 -0.045365069061517715 0.05489690601825714 -0.015160027891397476 -0.062043048441410065 0.050791896879673004 -0.09372302889823914 0.021914005279541016 0.04086075350642204 -0.013365180231630802 0.04549387842416763 0.04275961220264435 -0.021797193214297295 0.0077272867783904076 0.0038150728214532137 -0.07069902867078781 0.043157175183296204 0.0075723640620708466 -0.06523839384317398 0.006012556608766317 -0.06968731433153152 -0.006966309621930122 -0.0076461839489638805 -0.04030196741223335 0.019705340266227722 0.09761443734169006 -0.004435466602444649 -0.059688154608011246 0.03939899057149887 -0.04202284663915634 -0.025310682132840157 0.05322013050317764 0.019275689497590065 0.012237759307026863 -0.02532426081597805 -0.13315145671367645 -0.10311978310346603 -0.09073495119810104 0.036141086369752884 0.07500243186950684 0.049799371510744095 0.02789994888007641 0.07448793947696686 0.029711680486798286 0.03643530607223511 -0.17491964995861053 -0.0942888930439949 -0.05481085181236267 -0.00043863028986379504 0.07081588357686996 0.07914413511753082 -0.056846071034669876 0.08885113149881363 -0.07293575257062912 -0.11095733940601349 -0.06266847997903824 -0.05956435203552246 0.008868642151355743 -0.07302894443273544 0.1984252631664276 0.03338480368256569 0.035688504576683044 -0.005188464652746916 0.0340653657913208 -0.034424521028995514 0.0657120868563652 0.011751512065529823 0.0502505823969841 0.017171118408441544 0.03424764797091484 -0.11583174020051956 -0.023368466645479202 -0.10663636028766632 -0.1097349300980568 -0.015992913395166397 0.006239316426217556 0.01593003235757351 -0.04274096339941025 0.028232254087924957 0.0823461189866066 0.04143877699971199 0.030980033800005913 -0.006906565744429827 -0.11957908421754837 0.1679130643606186 -1.4162094885250553e-05 -0.12968230247497559 0.1949427009873569 0.043925040596202794 -0.016495208622852038 0.0021549396675991806 -0.08482215819724788 0.005686444470741119 0.019322300892028195 -0.10315530882999498 0.012514736394984733 0.04694906135361119 -0.06219647153567133 -0.03708688306801162 0.10964916794022449 0.04090071497321224 0.026808861346282794 0.026422473286438687 -0.018327510974580224 0.017955802123590166 0.034687155146051966 -0.010029168629256487 0.07383874219192792 -0.0260587867255659 0.019171238530096363 0.12969649857622725 0.022637804487237383 -0.051817231244590416 0.14014021414386707 -0.05395593588234575 0.06012256493513886 0.020981099557043678 -0.016873424524921625 -0.050349880152253605 -0.07893397128824783 0.08447057172330717 -0.07672364414112051 -0.035288333205312605 -0.0408061619791234 0.05958853449006445 0.09158843851177619 -0.08060720300550969 0.00443694844650048 -0.07854713935384816 0.0392119650278671 0.03246736620729386 -0.009218143321366706 -0.04917133202166946 0.03312316949111905 0.1480891918893067 -0.02301831516531966 0.0035775318438109652 -0.08527381582588728 -0.021955619156894115 -0.05172220695888487 -0.09747647459229676 -0.13405075689308718 0.01285691348432064 -0.07867454792038867 -0.03578368275195624 -0.09710870105466544 0.019806056039601606 -0.02284615132359705 0.06326982418931286 0.002657481650552463 -0.025228114958425276 0.001410562526609146 0.03896729122097046 0.026763641306453003 0.11120375790001884 -0.11161039709418871 -0.03625986354125138 0.01600649470858822 0.011360119372935308 0.07651157246030589 -0.012108712846825133 0.016455230960193218 -0.08890448207180016 -0.03334312694285759 0.03843736199176547 -0.018871524837769646 -0.02422302934007907 -0.14420769192566527 0.008191702093544036 -0.02714629827823564 0.11011217894572117 0.01060520902638031 -0.024035758354159678 -0.05281898238893302 0.0076900357330449785 0.039056369030777596 -0.046497748906478516 0.034092164279813965 -0.021606859912031474 -0.0779002553547111 -0.03733628318514205 -0.11398891936742499 0.005124812221515522 -0.06440896507482353 -0.05270528762662025 0.041966530567464896 0.022939126744554974 -0.008822206407785416 0.0008761698845773935 0.07426914572715759 -0.07512499392032623 0.04342000558972359 0.12873411178588867 0.001928148209117353 -0.043176475912332535 0.001149121206253767 -0.1062532514333725 -0.04966510832309723 -0.030919011682271957 -0.03307364508509636 -0.05385567620396614 -0.00475690234452486 -0.13187147676944733 0.047117505222558975 -0.07722420990467072 0.002571187214925885 0.14489658176898956 -0.019506335258483887 0.02974996529519558 -0.04863549396395683 0.05592536926269531 -0.1167602613568306 -0.09638136625289917 0.0325826033949852 0.047453511506319046 -0.018894275650382042 0.012032602913677692 0.02847718819975853 0.024963246658444405 0.10446466505527496 0.004349083174020052 -0.014352740719914436 -0.04105101153254509 -0.07981995493173599 0.06492752581834793 -0.016971774399280548 -0.010151189751923084 -0.0805785059928894 -0.0014189615612849593 -0.08052752166986465 0.05881349742412567 0.07099024206399918 -0.03891865536570549 0.04333919286727905 0.02848208323121071 0.012551998719573021 0.029285786673426628 0.009891810826957226 0.025029707700014114 -0.04374172165989876 0.06392449140548706 -0.03194564953446388 -0.1332453042268753 0.005701804533600807 -0.0033464201260358095 0.022800523787736893 -0.002099083038046956 0.002640368649736047 -0.07528898119926453 -0.05017463490366936 -0.0905640572309494 -0.016354244202375412 -0.0810508131980896 -0.060361795127391815 0.10702534765005112 -0.14699721336364746 0.06771481782197952 0.08641789853572845 -0.0720193013548851 -0.03699088096618652 0.038505468517541885 0.01206142921000719 -0.09010878950357437 0.08329043537378311 0.08582097291946411 -0.006865283474326134 0.059629328548908234 -0.06119072064757347 -0.008986836299300194 -0.019964633509516716 0.04279650002717972 0.07140053063631058 -0.05347374826669693 -0.04978638142347336 -0.007191348355263472 -0.013081575743854046 -0.00630967365577817 0.04931347072124481 -0.13809427618980408 -0.014238840900361538 -0.04927839711308479 0.0007767555071040988 -0.0039694118313491344 -0.03248484805226326 0.02946448139846325 -0.04949570074677467 0.13830316066741943 -0.021607261151075363 -0.044270265847444534 -0.027397584170103073 0.013124670833349228 0.03121142089366913 -0.07600434869527817 0.04010242223739624 0.05534074455499649 0.043081674724817276 0.02350996620953083 -0.08978094160556793 -0.01661686599254608 0.02080308273434639 -0.0008715270669199526 0.2114671915769577 0.020396720618009567 0.15887360274791718 0.14441469311714172 0.13331589102745056 0.21821622550487518 0.059976931661367416 -0.009556946344673634 0.11839085072278976 0.035242173820734024 0.08041215687990189 -0.02698317915201187 -0.07516203075647354 0.06809064000844955 -0.09235168248414993 0.00871948804706335 -0.10653816163539886 0.039003558456897736 0.08656717091798782 -0.07737502455711365 -0.008010335266590118 0.041905730962753296 0.118931844830513 -0.13090179860591888 0.0031519646290689707 0.01842029020190239 -0.035121385008096695 -0.08677100390195847 0.043690573424100876 0.004664367064833641 -0.08322558552026749 0.0020123114809393883 0.027280151844024658 0.019332880154252052 0.0005668136291205883 0.043700993061065674 0.037266407161951065 -0.06379973143339157 0.07172197848558426 0.03482109680771828 -0.020843159407377243 0.052932579070329666 0.04703662544488907 -0.06908467411994934 0.10062400996685028 0.0577973797917366 -0.08021476864814758 0.025221554562449455 -0.01971646212041378 0.06562352925539017 0.08776941895484924 0.013998553156852722 0.08640036731958389 -0.030682608485221863 0.08684597164392471 -0.08805346488952637 -0.0009064866462722421 -0.07280100882053375 0.11761893332004547 -0.028917063027620316 -0.09337881952524185 -0.10782258212566376 -0.022159453481435776 0.04587366804480553 -0.09485142678022385 -0.001395059167407453 0.015910610556602478 0.10015332698822021 0.0514860562980175 0.05863281711935997 0.10567393153905869 -0.07146500051021576 -0.010954613797366619 0.0601121261715889 0.1024342030286789 -0.04826537147164345 -0.06857998669147491 -0.06132802739739418 0.010165992192924023 -0.1063384860754013 0.03251201659440994 -0.03445211052894592 0.024493249133229256 0.030045056715607643 0.005965746473520994 0.05669645965099335 -0.03399883463765223 0.07543126016258624 0.009307279869582876 -0.03467694959467439 0.05844348596008531 0.034406771127326326 0.021558797236065585 0.030655970088167447 0.03638535490949319 0.07184428671281001 -0.016348998924323413 0.06762807406339241 -0.0802397677835014 -0.08328523548139107 -0.049028115908449695 -0.002749946734997245 0.044558858003889146 0.007999887180195385 0.08971397731754424 -0.0695534955843271 0.09687824391477849 -0.11328787260918373 -0.07856233834851964 -0.07365485687082801 0.07723267211907067 0.05637608866589156 0.07675523164283776 0.06211073873872131 -0.07246804293665077 -0.17288486756422883 0.01912056502028366 -0.07093347417983915 -0.048968849889874586 -0.06417431881377217 -0.005427062916094328 -0.01982967994397461 -0.13667945166973677 -0.09961599433707088 -0.04549441899681193 -0.14790305109991242 0.03240504920928827 0.03860227483420946 -0.010829380791371553 0.01660970538862227 0.04800283724876657 0.1682227969783343 0.1634069680390697 -0.03263884307876972 -0.0608744507976007 0.06833077087428474 -0.018459708121148537 0.023998198220412794 0.0874410401340259 -0.019541480472330734 0.03328171104924412 0.053284224496316465 -0.02324506158046771 -0.043230989898817344 0.11471372275096858 0.0514019090236508 0.04480094615915334 0.10716806115773299 0.008864853181540018 0.03059961523595585 -0.11140725948340106 -0.17859887676477337 -0.04597904312141 -0.032770752565650485 -0.04360179123548086 -0.03902184021530655 4.791283932173348e-06 0.03663776993394821 -0.07365941306220343 0.0881647589967543 0.026238152089595797 -0.030000155218633178 0.02435363298724828 0.09541723069472734 -0.08176476502410031 -0.03652954268030041 0.022321203426593245 -0.011497699947915307 0.03638941637775209 -0.021713496175912103 -0.03965179811961674 0.020737363564901985 0.01863286757983599 -0.02001279122757445 -0.029643975710938304 -0.002557498911393354 0.02041116005052933 -0.10681161159090756 0.05635271773939359 0.11694757916442639 -0.04540858511966604 0.11300177231286265 0.01836304246444161 0.07067043060671456 -0.10133404679822686 -0.04502586422185858 0.1025402694940567 0.14343459904193878 -0.028685376048088074 0.09981861710548401 -0.061738401651382446 0.003779689548537135 0.012825602665543556 0.008735816925764084 0.0034356932155787945 0.0972338393330574 0.11400235444307327 0.04111310467123985 -0.029244493693113327 -0.017703093588352203 0.08618970215320587 0.03431599214673042 -0.017513301223516464 0.06350570917129517 -0.06754520535469055 -0.09384271502494812 0.08029163628816605 0.03587695211172104 0.0794268399477005 -0.038796331733465195 0.04754125326871872 0.06244412437081337 0.0038282866589725018 -0.005871044471859932 0.005548358894884586 -0.0789361521601677 -0.05582553148269653 -0.05657308176159859 0.07293272018432617 0.11807380616664886 -0.08155013620853424 0.1005018875002861 -0.05019037798047066 -0.032893165946006775 0.11708710342645645 -0.07012351602315903 0.03220642730593681 -0.03324219211935997 0.07089520990848541 -0.04320083558559418 -0.12184754759073257 0.07778031378984451 0.14231230318546295 0.01555588562041521 0.034678660333156586 0.04287915304303169 0.12590160965919495 0.001204017549753189 0.091672383248806 -0.14597167074680328 0.025693180039525032 -0.10048005729913712 0.03316532075405121 0.08742696046829224 -0.06675194948911667 -0.041400246322155 -0.046237535774707794 -0.004613933619111776 0.014529144391417503 0.012972692027688026 0.07437155395746231 0.06601784378290176 -0.06431315839290619 0.05361492186784744 -0.08029939979314804 -0.07212115824222565 0.021231576800346375 0.009731520898640156 -0.04990037903189659 0.002664237981662154 -0.09974696487188339 -0.12968474626541138 0.038855116814374924 0.0006727498257532716 -0.004063195548951626 -0.062201350927352905 0.02326727658510208 0.02575705386698246 -0.04293641448020935 0.11133555322885513 0.10007108747959137 -0.0077872066758573055 -0.06264171004295349 -0.0029487665742635727 0.022952061146497726 -0.03065861389040947 0.004454263485968113 0.1452457457780838 0.06863576918840408 -0.045767493546009064 0.01583448052406311 -0.09743422269821167 0.13237865269184113 -0.04827919974923134 -0.010914765298366547 -0.013081186451017857 -0.04492653364075305 -0.03866269262481717 0.15717565428140273 0.07418230338698623 -0.02637125559728718 -0.07258138590149137 0.0007730233838152017 -0.13939723000098944 0.01474809995886509 0.03157455073229015 -0.009864247670360789 -0.06414071001401261 0.01029559226780507 -0.09242729525905219 -0.03278828223205953 -0.010701468873032164 -0.03033408215868133 -0.00048775606298882043 -0.12344065724957003 -0.09573186915588014 -0.2092289294708192 -0.1126409114384262 0.019778991876717885 -0.043916142670762895 -0.126483460191196 -0.05192915507150229 0.025752084657843954 0.012564731222324182 0.05303582748369304 0.00036511958777028536 -0.056861086298457986 0.059431532550632236 -0.020239652180941127 -0.05088606879044571 -0.05179196620931928 0.09221244001586869 0.02389995396561154 0.0660909650933553 0.13624481746458533 -0.02313798284922895 0.059544275112052694 -0.042139920305322966 -0.021046087308555676 -0.09629330304445916 -0.047407712062630926 -0.04651398806350685 1.865454616725838e-05 0.0011584381707434985 -0.011909875237880839 -0.009756728504993489 0.01460070203716557 -0.07456479832133156 0.017055317047074265 0.06617903529539075 0.028267168116220105 -0.08373624579150846 -0.04956155657497174 -0.002376406945324705 0.12639340353887005 0.03994927539437397 -0.06196085638469538 0.024112545680069476 0.032528432875295395 0.041917644855768786 -0.09017827542099398 -0.10086583311879643 0.024566616723011806 -0.04719564363040408 -0.04179462411185972 0.04236249330035109 -0.11831703088553645 -0.03135458227175178 -0.11896822484405926 -0.016859419767041185 -0.0049117937345431635 -0.1386752044791687 -0.09348721876795416 -0.04124032482289385 0.09202284365527041 -0.035171962486656515 0.07490154927200778 0.13815034463474038 -0.07889137332575416 -0.05899117506325921 0.1469305128740606 0.005535524424562371 -0.031045512817537403 0.024264663722854792 -0.022115606819155944 -0.026581950761674453 0.08578259102564059 0.023865723135689645 -0.01818975032385987 0.05585552792708521 0.03345583100724422 -0.04257618816077373 0.036605439615584004 -0.04069319432705886 -0.0353019315403081 0.042189531550262054 0.09404612332582474 0.06231459602713585 0.09978628158569336 -0.08257659524679184 0.04604223743081093 -0.04962681233882904 -0.042552001774311066 -0.07040861994028091 0.020890742540359497 0.013297028839588165 -0.010598650202155113 -0.021350812166929245 0.05969848483800888 0.0566815584897995 -0.024873537942767143 -0.042624663561582565 0.04416532441973686 -0.057685818523168564 0.05647699162364006 0.12876752018928528 0.06470412015914917 -0.06289438158273697 -0.004617942497134209 -0.02001141384243965 -0.0673098936676979 -0.01245194487273693 0.10239255428314209 -0.02457795850932598 -0.08647920936346054 -0.009298254735767841 -0.004747249186038971 0.016527846455574036 0.03142954036593437 -0.07336699217557907 -0.006278729997575283 -0.010864296928048134 -0.08196132630109787 -0.08338525146245956 -0.015670353546738625 -0.0492614209651947 0.12668295204639435 0.06179601699113846 0.01600772701203823 0.010864708572626114 -0.11436909437179565 -0.06869018077850342 0.022268738597631454 -0.04767325147986412 -0.09064162522554398 0.027478810399770737 -0.06398501247167587 0.007778244558721781 -0.0374150313436985 0.1240416020154953 0.019921820610761642 -0.06079091504216194 -0.020058918744325638 0.019518999382853508 0.11177445203065872 0.009918518364429474 -0.034400247037410736 0.1173609271645546 0.08542734384536743 -0.03866253420710564 0.01743445359170437 -0.14746403694152832 0.025251463055610657 -0.025166355073451996 -0.03371270000934601 -0.012368040159344673 -0.06960128247737885 0.09687549620866776 0.008799497038125992 0.005367122124880552 0.07218001782894135 0.04649918153882027 0.140891432762146 -0.09918025881052017 0.07730358839035034 0.08695906400680542 -9.870313078863546e-05 0.041089292615652084 0.029815206304192543 0.06598049402236938 0.04996434226632118 -0.021342791616916656 0.034646324813365936 0.028068233281373978 0.06321171671152115 -0.05403178930282593 -0.03731086477637291 -0.016576403751969337 -0.06850213557481766 0.06390689313411713 0.010745350271463394 0.0383378341794014 0.1417146623134613 -0.022231044247746468 0.01787841133773327 0.05365213379263878 -0.15125147998332977 -0.06084796413779259 0.03366272151470184 0.04006996378302574 0.08569251745939255 0.020596953108906746 -0.019676288589835167 0.06151176989078522 -0.08399441093206406 0.0533476360142231 -0.011391882784664631 0.009654025547206402 -0.02071458473801613 -0.059575341641902924 0.012854068540036678 0.04128819704055786 -0.01163981482386589 0.0802244171500206 -0.05898752808570862 -0.08895783126354218 -0.10801102966070175 0.014414330944418907 -0.07368804514408112 0.021170660853385925 0.0392775759100914 0.01696736365556717 -0.0194475706666708 0.09915599972009659 -0.0410681888461113 -0.013752334751188755 -0.11164981126785278 0.05270577222108841 -0.01896956004202366 -0.10451211035251617 -0.02701405994594097 0.11211099475622177 0.018513236194849014 0.09268971532583237 0.030025888234376907 0.03122049942612648 0.05464886128902435 0.0032859458588063717 -0.008815876208245754 0.023712297901511192 0.011615865863859653 0.039952464401721954 -0.042051997035741806 -0.003110195742920041 0.05509856715798378 0.09871554374694824 -0.018837790936231613 0.08270485699176788 -0.031710315495729446 0.03833058848977089 0.044031236320734024 -0.046467140316963196 -0.07140480726957321 0.02101297862827778 -0.02257589064538479 0.0036879833787679672 -0.04417319968342781 -0.05425718054175377 -0.07842500507831573 -0.12569963932037354 -0.0901690274477005 -0.05081986263394356 0.10046795010566711 -0.028855931013822556 -0.026352714747190475 0.029133198782801628 0.09844130277633667 -0.016468528658151627 0.02671746350824833 -0.022839456796646118 0.08391301333904266 -0.03042525053024292 0.015582912601530552 0.07072208821773529 0.12996900081634521 -0.08193401992321014 -0.0999399796128273 0.030299972742795944 0.06899148225784302 -0.009604042395949364 -0.04153035208582878 0.01454325020313263 -0.01240693312138319 0.09727715700864792 -0.04567471519112587 -0.03886894881725311 -0.036852072924375534 0.054745763540267944 -0.05880414694547653 -0.010777145624160767 0.01389265526086092 0.029220174998044968 -0.11040332913398743 0.01101851835846901 -0.07228028774261475 0.048259247094392776 -0.012173831500524333 -0.05531544736988311 0.11128857451842825 0.037396006953620206 0.022546411371492436 -0.011061103713679576 0.08282699372770802 -0.005918653180632191 -0.05099107232757204 -0.05130565625156659 0.0164189863257364 -0.048154471184682926 0.07188511320711993 -0.013401938613695945 -0.088520580108729 -0.05986169123908593 -0.021313349739466008 0.1548503392827468 -0.08171325731500634 0.040205558531754386 0.0805146320076187 -0.061840438822580515 -0.04181441645856728 -0.11111364419780213 0.020793469795945433 -0.05591482859685693 -0.05721419753083522 -0.0006788017918668719 0.04719864744451575 0.07058424059571058 -0.03642640876272773 -0.013326932539132983 -0.06262958335686164 -0.04773444495104108 -0.06257093529283607 -0.035584343871608505 -0.003965606172948548 -0.06530734661993666 0.08873435140245858 -0.004095161974074736 0.026331293834693868 -0.015465113957839964 -0.05757841171091318 0.014140538802779639 0.04184406930625713 -0.021641050432982714 -0.0026975768193585816 0.041751534438753936 -0.13124953137697695 0.11844574762770914 -0.08926996599208724 -0.029686124164036768 0.017560892268094735 -0.0074612519696462395 -0.045981663668462576 -0.021734748371658175 0.03690618588285707 0.026910383494284845 -0.10529966927956544 -0.030231340183856675 0.10175853374328249 0.10000534935471209 -0.009062478952862002 -0.029864032040806548 0.02254200749958209 -0.025899066851215752 0.008807761608758992 0.06241524237982585 0.05624850960423585 0.02125082207458881 0.09762575742570193 -0.057714274200862004 0.06697426475273854 0.014985373276920864 -0.008294798659456981 -0.06461896381186955 0.014646725279059018 -0.016910190286135263 -0.03700562209931836 -0.0313383784099405 -0.03443278527057672 0.06346427760185479 -0.08696181354597667 -0.07876856801731628 -0.024400310952894612 -0.02772628011684705 -0.01181508624623921 0.05239917136699368 0.006932362079937221 -0.06894339110796188 -0.006225175662020752 -0.011695244578514856 0.028869899020625173 0.05352652916462522 -0.11418568503885783 -0.09159909220856988 0.041272644754423236 -0.0041584415569241 -0.031972742392646546 -0.10256533927534588 -0.011289060115814209 -0.034252509474754333 -0.061264995485544205 -0.0696578398346901 0.04529953747987747 0.05245696380734444 -0.045084502547979355 -0.03546414524316788 0.0822744145989418 -0.08300305902957916 -0.014838401228189468 -0.04891141876578331 -0.035990241914987564 -0.023440949618816376 0.07306228578090668 -0.07641064375638962 0.02610202506184578 0.044574934989213943 -0.035454344004392624 0.0780424177646637 0.01069603394716978 0.09251463413238525 -0.02690807543694973 0.09732525050640106 0.04869280382990837 -0.010905247181653976 -0.055035728961229324 0.019641047343611717 0.10113630443811417 -0.013639005832374096 0.08601151406764984 -0.03281587362289429 -0.01580764539539814 0.01756453514099121 0.04105677083134651 0.10054502636194229 -0.034713264554739 -0.018458887934684753 0.02243318222463131 -0.015483986586332321 -0.021459994837641716 0.03942012041807175 -0.10038581490516663 0.014710483141243458 0.03375726193189621 0.076908178627491 0.06571905314922333 -0.007216115482151508 -0.04930613562464714 0.021168405190110207 -0.04748489335179329 0.035572417080402374 -0.09830659627914429 -0.06621002405881882 -0.03855115920305252 0.005046809557825327 -0.03858136013150215 -0.15363119542598724 0.03232739120721817 -0.02168148010969162 0.053163062781095505 0.06723114103078842 0.06440721452236176 -0.022655965760350227 -0.009421341121196747 -0.007564990781247616 0.0397007130086422 -0.10371815413236618 0.009882308542728424 -0.04847471043467522 -0.007623464334756136 -0.014951000921428204 0.04875405505299568 -0.128778874874115 -0.046069927513599396 -0.03542562574148178 -0.003941826056689024 -0.01643836684525013 -0.011297762393951416 -1.862873978097923e-05 -0.019396726042032242 0.06663987785577774 0.03234530985355377 0.009359252639114857 -0.058709029108285904 0.06388869136571884 0.03561154752969742 -0.0508120059967041 -0.02102939784526825 0.042694758623838425 -0.05077684670686722 -0.15892727673053741 -0.07754668593406677 0.007746618706732988 -0.04775099456310272 -0.025615012273192406 -0.031430553644895554 -0.08092585951089859 -0.10235358029603958 -0.05354761332273483 0.03690892784966092 -0.07801834421826008 0.041513306643612295 -0.12759199331267024 -0.05867936131706945 -0.01757143336146554 0.1369903460472924 -0.07798155767975429 0.07241810151459215 -0.037499756387789136 0.11437758442032682 0.07612098918874281 -0.0072023542726577395 0.02682381705752245 0.004457514156728109 0.036550256053148496 0.1141756353218266 0.05120918197534455 0.06321671031666752 0.07357912253900384 0.09725087505224989 -0.01493989686552578 0.01747274092237844 0.09742976275415804 -0.019643933673840222 0.04545951926917089 0.09244082017765241 0.007720678267358946 -0.018153043964809153 0.09396360973093042 -0.09973922525114172 -0.021147600132143007 0.06051493384313249 0.10765539487362567 -0.007886059747533253 0.05730545919590488 0.05431011916686374 0.04582025081725872 -0.03691240581433965 -0.14750169405390356 -0.005586630663328503 0.11574520002345591 -0.03159421436046981 0.09759700767991507 -0.06479938569740394 0.018950600241234992 0.028279971622580686 0.03547113736615753 -0.049667537178432496 -0.0827808772660016 -0.000861461739645329 0.06323133155611124 -0.007312081899917973 -0.04442950350274645 0.05923098306049992 0.019178526218409382 -0.01793268522695017 -0.03357612182010621 0.08832859262536535 0.12218341776556267 -0.002950290388088058 -0.12033658305861412 -0.021445299397141755 -0.10213704812478863 0.05207775316530937 -0.1357978984762093 -0.025364855596421917 -0.08077586127136385 0.01427160553018996 -0.01592974014503947 0.012449807368707991 -0.010884657843023539 -0.024176923330965445 -0.1075848188167385 -0.047823850732478856 0.013608053836221217 0.11042619799740329 -0.010240403767851588 -0.030683050588910087 -0.020178095483240892 0.08032596815147765 0.10994548169046281 -0.01705939894103483 0.015252933557704977 -0.03528161631123634 0.02656153177685914 0.039716436001491426 -0.0750700111531601 -0.03589560177953603 0.14598981998488683 0.03756381023525095 0.030987605981376495 -0.02629536651720362 -0.00408204751600099 -0.04151960796876719 0.05531676080910102 0.08187033608618444 -0.06545643419650499 0.08280149850978082 0.02733743120151891 0.022398918867111206 0.023222515359520912 0.03196036070585251 -0.12002155184745789 0.116838738322258 0.08205964416265488 -0.024883020669221878 -0.08965575695037842 -0.03379476070404053 0.0669764056801796 -0.10368598252534866 0.1649947315454483 -0.05496378242969513 -0.06495693325996399 0.013784173876047134 -0.03412292152643204 0.006149744614958763 0.05129675567150116 0.07454364001750946 -0.07152339071035385 -0.12622535228729248 -0.026452794671058655 -0.0287883672863245 0.005377596244215965 0.05253614857792854 0.06754487007856369 0.048429831862449646 0.02756248228251934 -0.04374158754944801 -0.11661326140165329 -0.09548845887184143 -0.0640740916132927 0.0946325957775116 -0.03356443718075752 -0.0457419790327549 0.0622854046523571 -0.04870462045073509 -0.012219355441629887 0.022572370246052742 0.05555770546197891 -0.08278997242450714 0.0501294769346714 -0.026290953159332275 -0.08950985223054886 -0.048299383372068405 0.052130211144685745 0.1133246049284935 0.04527615010738373 0.03966906666755676 -0.051232147961854935 0.09473644942045212 -0.04707508534193039 0.040152471512556076 -0.030415987595915794 0.06722159683704376 -0.0744304433465004 0.049824412912130356 0.013663943856954575 -0.04900214076042175 -0.05515221133828163 -0.03489788994193077 -0.060167234390974045 0.06812195479869843 0.07892412692308426 -0.03612164780497551 -0.07022546231746674 0.05575352534651756 0.041339777410030365 0.04631493613123894 0.04433911666274071 0.08390378952026367 -0.16185970604419708 0.06314242631196976 -0.0031269965693354607 0.07918909937143326 0.10956379026174545 -0.08713990449905396 0.026114292442798615 0.013129490427672863 -0.07555505633354187 -0.018832558766007423 -0.013372097164392471 0.09109015017747879 -0.05929796025156975 0.15753577649593353 0.006156500428915024 -0.1007462739944458 0.13900095224380493 -0.12517677247524261 -0.03791775926947594 0.08404047042131424 -0.007067377213388681 0.06278229504823685 0.01747143641114235 -0.03871997073292732 -0.07324819266796112 0.05839540436863899 -0.04064279422163963 -0.03835253790020943 -0.005449345801025629 0.04048144072294235 0.07657212764024734 0.03335633501410484 -0.08375904709100723 -0.044982559978961945 0.07000137120485306 -0.007684509269893169 -0.07396113127470016 -0.106841541826725 0.12596271932125092 -0.07320165634155273 0.022347278892993927 -0.0692862942814827 -0.0036842338740825653 -0.054989248514175415 -0.05606419965624809 -0.022634325549006462 -0.06700366735458374 -0.034176889806985855 -0.10369066894054413 0.05411020293831825 -0.006528180558234453 -0.10319706052541733 -0.009600190445780754 0.025976216420531273 -0.09465888142585754 -0.0163407139480114 -0.06786075979471207 -0.09381308406591415 -0.055916376411914825 0.009008307009935379 0.011039046570658684 -0.030007900670170784 -0.04313376173377037 0.014463258907198906 0.006447361782193184 -0.005048336461186409 -0.01974027417600155 0.035668615251779556 0.023557107895612717 -0.016400685533881187 -0.09263411909341812 0.04765412211418152 0.020648688077926636 -0.013531661592423916 0.030607018619775772 0.018121689558029175 0.11469584703445435 -0.004250106867402792 0.04397840425372124 0.007737712003290653 -0.013352906331419945 -0.014228574000298977 -0.0922369435429573 0.01708396151661873 -0.011450632475316525 -0.12256485223770142 -0.0698566734790802 0.045178819447755814 -0.032535262405872345 -0.05055423453450203 -0.008374864235520363 -0.06961791217327118 0.08554711192846298 -0.05739106237888336 -0.023578006774187088 0.12519429624080658 0.06363780796527863 -0.00019174757471773773 0.04842696338891983 -0.10878170281648636 0.006075883284211159 0.022410934790968895 0.017194395884871483 0.10448776185512543 -0.10464546084403992 0.048237841576337814 0.059349074959754944 0.03816856071352959 -0.09669846296310425 -0.10381057858467102 -0.00596704613417387 -0.025790149345993996 -0.06326676160097122 -0.14392615854740143 0.029498402029275894 -0.02461211383342743 -0.020508907735347748 -0.11215054988861084 0.02883065678179264 0.049323782324790955 -0.03263019770383835 0.0755004957318306 -0.06136802211403847 -0.07528866082429886 0.0677555724978447 0.0025863596238195896 -0.12598483264446259 -0.11885255575180054 0.035686999559402466 -0.08017870000018616 -0.013671890404258988 -0.0913276347209636 0.0018832241836107052 0.1253074856253385 0.03471044369027083 -0.014975213808772097 -0.015722377806847945 0.08281952623330784 0.026976880936380437 0.058883240512489575 -0.09301345570463412 -0.07727559439981323 0.003960682280881156 -0.15620663240710278 -0.057843620231126706 -0.1992845693866283 -0.11743542446513527 0.01905359514194142 0.11225752543567775 -0.046215548561668957 0.004201473543010684 -0.039136673706554215 0.018497033833406635 -0.08459635174772458 0.09528731172978723 0.08091937180274811 -0.03215911125868576 0.07952801688032975 -0.006260127121303141 -0.03204150115342506 0.03301587006692338 0.05595109235364386 0.06273993369441377 -0.009692168527089044 -0.06362943097283913 -0.011306093411845587 0.01758777109525392 -0.010682327716805995 0.10038185317744845 -0.06080700347039564 0.09232202764552075 0.04571607394119903 -0.03779428621323823 -0.04129352837701124 -0.0831513036387925 0.04088902935558269 0.0703574275400185 0.0025829493245601654 -0.14053643848247663 -0.002532672212742762 -0.02350008468485847 0.0445557624472628 0.0496422536184796 -0.0392052215654405 0.04005429120637263 -0.018279839601832663 0.051580136968048446 0.025378154155613494 -0.006909068507393569 0.05306993797984238 0.09720109003508116 0.05055170091343109 -0.029878046918635996 -0.038966285965195205 -0.03431961680631759 0.0028012182839795567 0.15858032068177275 0.026751931362096217 0.025819857388120798 -0.09823903533356095 -0.04188791561027288 -0.049669554231627965 -0.058331107808816646 0.025125322282305355 -0.06396118019718106 -0.05764889894580701 0.015307140510600234 -0.06204674300562162 -0.10197192036258265 0.057413678087738375 0.005183209133284617 -0.038737913942301895 -0.0814421213814357 0.0019930252679201815 0.03161238833098243 0.0014612977587523633 0.07841552264659679 0.08864856611709956 -0.04627400402973758 -0.03923940511093093 0.0443457654147852 -0.0378171608483146 0.0970006962728118 -0.0950539271700871 -0.03805883188607416 -0.04296886055930161 0.1121895537956328 -0.06660305697942281 -0.033423306708304255 0.008308286778628826 -0.06689047068357468 -0.08696401119232178 -0.018270764499902725 -0.017014624550938606 0.050247516483068466 0.0704127699136734 -0.019732708111405373 -0.025275493040680885 -0.04640597850084305 0.0931500792503357 -0.09662792831659317 -0.03191576153039932 -0.027626989409327507 -0.04082990810275078 0.01214497722685337 -0.021881230175495148 0.05576680228114128 0.08583797514438629 -0.023115351796150208 0.07606850564479828 -0.026109011843800545 0.051298562437295914 0.07543480396270752 -0.016372667625546455 -0.044728100299835205 -0.014748532325029373 0.0802326649427414 0.03153231739997864 -0.07445674389600754 -0.00012436603719834238 -0.10290790349245071 -0.07556161284446716 0.07741939276456833 0.003157998202368617 0.0973597913980484 0.014750114642083645 0.02456316538155079 0.10252582281827927 -0.014341085217893124 -0.09984081238508224 0.0013130414299666882 0.043497972190380096 -0.0814969539642334 -0.0036176734138280153 0.06546355038881302 -0.052811555564403534 -0.028221962973475456 0.06802605837583542 -0.05181821808218956 -0.028026770800352097 0.04913860559463501 -0.09515917301177979 -0.018055975437164307 -0.02529117278754711 0.0431751124560833 -0.02614913135766983 -0.012449189089238644 0.0036500405985862017 -0.016160255298018456 0.007571259047836065 0.021115757524967194 -0.014906375668942928 -0.05037828907370567 0.05436369776725769 0.00307769444771111 -0.014849377796053886 -0.04220762476325035 0.001930553582496941 -0.06736348569393158 -0.09416791051626205 0.049539707601070404 -0.025832124054431915 -0.0763203427195549 0.09527376294136047 -0.075086310505867 -0.010022100992500782 -0.07947839051485062 0.1670934408903122 -0.14393849670886993 -0.10647822916507721 -0.0014209436485543847 0.04227742925286293 0.026241378858685493 0.09320526570081711 0.1065184623003006 0.10793004930019379 0.057194989174604416 -0.06469817459583282 0.0037147344555705786 0.03674464672803879 -0.045401349663734436 0.07866384088993073 0.09670243412256241 -0.011249869130551815 -0.1051875650882721 0.02559778280556202 -0.027943700551986694 -0.0301838219165802 -0.04410284757614136 0.08566023859679708 -0.06262682659124322 0.054540314339552934 0.06667730829598706 -0.004832745659427267 0.023122101301418754 -0.012453232681438388 0.03445876702223844 0.03503253913478086 0.02778178814886811 -0.07673702016944424 -0.019425903218208425 0.06411205722759254 0.08363601596362337 -0.04199798660210071 -0.0767095292373353 -0.05644446982303954 0.0055424765957506165 0.050765324709101736 0.012864462473276708 0.002814799061748002 -0.0003057408625405202 -0.09072817310502156 0.07886776860146133 0.056275026551363044 -0.07791816496650274 0.05714281193101651 0.028614631321021763 -0.02089945052278207 -0.06913820657967891 0.012057684650658663 0.07067203641950731 -0.027013773278162245 0.02010586141991414 0.09468344851461886 0.04508924267424619 -0.05738230095939809 -0.04520461325071653 0.02038622452498032 0.058269883793338514 0.1223613965958632 -0.08754067866287527 0.06313530660988016 0.026305613121862928 0.03188771624653131 -0.09873626150690916 -0.015262774931198394 0.041782219854028115 0.0454191565408769 -0.04669871874655713 0.015433133772305797 0.046289538273892095 -0.024921547760513585 -0.03584421635664168 -0.032977014685003136 -0.013504239769158252 0.02980395068490706 0.028738295167951587 -0.03077608121884773 -0.11513813468738832 0.0859148591552637 -0.08199823669499429 0.06563489003294169 0.029792574031666262 0.12149198560107864 0.08825240121855109 -0.036286586529659146 -0.08281014888132648 0.07535261579852502 0.014760750348373788 -0.01758176111056299 0.04901096372312355 0.04704524265040257 -0.06160110806642606 -0.08420664816938604 -0.05532198409216917 -0.00123227927096743 -0.06737998418367615 0.0670845002315404 0.010900286069473164 0.019615882937574634 0.07501603338840059 -0.010059037676129602 -0.08003607793936733 0.08622980198349482 0.07101888337992766 0.07146750197992277 -0.06546813940625704 -0.02670881658660329 -0.052732352051042375 -0.008409036272036482 0.012176660298372307 -0.04578956616212204 -0.09356274637280454 -0.004791110893110149 0.021897671064101246 -0.09609443431417468 -0.10421960600792468 -0.09724915927590039 0.10669895761079766 -0.0055851805955171585 0.010608457028865814 -0.005488262511789799 0.02358304336667061 0.0862124115228653 -0.024204537272453308 0.009912501089274883 -0.04273281618952751 -0.02365117333829403 -0.11697791516780853 0.011206656694412231 -0.01810590922832489 0.01213662140071392 0.06765686720609665 -0.030357029289007187 -0.04556526616215706 0.007009341847151518 -0.02476479485630989 -0.009629071690142155 -0.006028827279806137 0.1052500531077385 -0.000380676327040419 -0.13802246749401093 0.020233754068613052 0.08892951905727386 0.08336292207241058 -0.10019659996032715 0.052997272461652756 0.04146458953619003 0.020243145525455475 -0.065279021859169 0.08896879106760025 0.11870472133159637 0.017199255526065826 -0.06945434212684631 -0.03730165213346481 -0.05931619182229042 0.04357689991593361 -0.02732999436557293 0.10640524327754974 -0.016214748844504356 0.008073494769632816 0.11286655068397522 -0.029973842203617096 -0.07821181416511536 -0.15758119523525238 -0.02876041829586029 0.059492770582437515 -0.12183952331542969 -0.01641227863729 0.052804943174123764 0.009935432113707066 -0.11228741705417633 -0.12267978489398956 0.06067861244082451 0.05815821886062622 0.13840389251708984 0.05954940244555473 -0.0013666189042851329 0.11721736192703247 0.08445049077272415 -0.032382313162088394 0.032987453043460846 -0.0349443256855011 -0.0254829078912735 -0.0643584355711937 -0.041321638971567154 -0.013635272160172462 0.0517299622297287 -0.0036948020569980145 0.10928738117218018 -0.03869150951504707 -0.14084164798259735 -0.0388723686337471 -0.04139311611652374 -0.17689411342144012 0.00802632886916399 0.04810386151075363 0.06259690225124359 -0.04832881689071655 0.07757695764303207 0.1781439185142517 -0.04745170474052429 0.030057499185204506 -0.057242926210165024 0.040576644241809845 -0.08034680783748627 0.046537768095731735 0.02669910527765751 0.04188656061887741 0.08185794204473495 0.07618732750415802 0.06417486816644669 -0.1106555238366127 -0.09336355328559875 0.0018298912327736616 -0.08252503722906113 0.09976329654455185 0.018745092675089836 0.07621406763792038 0.04606602340936661 0.09863655269145966 -0.03338976949453354 -0.039982520043849945 0.025614408776164055 0.045590080320835114 0.23770643770694733 -0.00926654227077961 0.027224170044064522 0.024403469637036324 0.023824118077754974 0.062400467693805695 -0.07798822969198227 0.08449984341859818 0.018447598442435265 0.043368175625801086 0.06658358126878738 -0.02869477868080139 0.08967957645654678 0.008134612813591957 0.1386902928352356 -0.05279875919222832 0.021064646542072296 0.02683488093316555 0.036668505519628525 0.10136393457651138 0.07780095934867859 -0.08235824108123779 0.015265319496393204 -0.015151632018387318 -0.04736839234828949 -0.07692074775695801 0.09575236588716507 -0.01268836297094822 0.11348108947277069 -0.007637701462954283 -0.05944114923477173 -0.14111198484897614 -0.04287081956863403 0.10989440977573395 -0.0354820117354393 -0.024092381820082664 0.004983786027878523 -0.022341245785355568 0.0010968348942697048 -0.01748523861169815 0.003912119194865227 0.0688132494688034 -0.013043055310845375 -0.01270612608641386 -0.031015977263450623 -0.100555419921875 -0.0839441567659378 -0.07589404284954071 0.019204948097467422 -0.04412895813584328 -0.09712769836187363 0.022314686328172684 0.062135759741067886 -0.04530365765094757 0.04293731227517128 0.09420996904373169 0.11274594813585281 -0.0436137393116951 0.08273839205503464 -0.10712370276451111 0.10242863744497299 0.0552402026951313 0.02255867049098015 0.07041394710540771 0.023980269208550453 -0.04137823358178139 -0.16406361758708954 0.04974149540066719 0.01538926176726818 -0.04799303039908409 0.161754310131073 0.1236005499958992 0.12440269440412521 -0.06752682477235794 -0.12254341691732407 0.059747304767370224 0.009992771781980991 -0.0017823996022343636 -0.08885765820741653 -0.017119109630584717 -0.007935283705592155 -0.026224410161376 -0.04895917698740959 0.09592436254024506 -0.00994728971272707 0.08318445086479187 -0.030623791739344597 0.09102625399827957 0.08394216001033783 0.02211044915020466 -0.07630627602338791 0.11468125134706497 -0.0008493814384564757 -0.08760210871696472 0.013565040834282826 0.02265524583041515 -0.0756860460613899 0.03812360985448443 -0.17907418570469202 0.02637430677742132 -0.013979218801580266 0.039238911280430416 0.05273988645672844 0.0591739268247411 -0.02758626581537538 0.03128343997269736 -0.005811190165687053 0.04747768138208931 0.02413517535918898 0.07676015972883982 0.06304795022252965 0.1487658308404267 -0.06705114213503069 -0.14230025154274997 0.04297634329184006 -0.011330448322650686 0.0018163812540777657 0.001923571272194014 0.033240151476712394 0.02422959992113881 0.08654899862906609 0.0517659106412773 -0.01297469200457121 -0.05571871338618288 -0.07039746780711097 -0.08854838785884302 0.059289888973506386 0.006685411715564491 -0.11676881325593433 0.05585523301164026 0.0959841041271799 -0.03799830109025791 0.004321546834327129 0.039135407367033595 0.06947729121371454 -0.040817389045238496 -0.07075541975835738 -0.1375542969146068 -0.030861670129141688 -0.004434689921916138 0.007215015868586031 0.049545884685730686 -0.07124719960706469 -0.062074639257043894 0.03782436553890737 0.05521510572794828 -0.03212780008118116 0.03879525925671883 0.07746585121043384 0.052979977214215004 -0.0067178883734312494 0.07943118567289613 -0.049665303457757014 0.043712153516974314 0.0041630719074792835 -0.05331892244238274 -0.03135870715337632 -0.021465600131923175 -0.0029421179124778283 0.09660359229486512 -0.04119431790609784 -0.06894489639806405 0.00857456509486256 -0.04035021563805732 0.13448558412388834 0.17224156578289743 -0.03806452680996514 0.013860781164382356 0.04115300736526183 0.01883768773095368 0.0241414117189931 0.023407177353207978 -0.04257219752341341 -0.03393856544738669 -0.02372882780211694 0.027352501511954168 0.08134676787186015 -0.03938386029133194 -0.045087235465745557 0.05047191488780863 0.05528974351764725 -0.03379165607513132 -0.09238260494252885 -0.058915096113589395 -0.04848574058857965 -0.030385056919818496 0.04008637974528098 -0.04604619876590933 -0.041493670419378285 0.006911524475468965 -0.1157891333728811 0.05397164304768966 0.057646776509601164 -0.05540289120603306 0.0007309980574063957 0.014517763629555702 -0.04236394912004471 0.08778921514749527 -0.04900618642568588 -0.09737181663513184 0.07280048727989197 0.07780733704566956 0.004147434141486883 0.04197676479816437 -0.04444719851016998 -0.13306139409542084 0.019017355516552925 0.05104229226708412 -0.043348345905542374 -0.006594902370125055 -0.061904970556497574 0.04716230556368828 -0.04761626198887825 0.060308318585157394 0.023588484153151512 -0.08206569403409958 -0.06749186664819717 -0.028374090790748596 -0.03695813566446304 0.0421244241297245 0.015273225493729115 0.0008336947648786008 0.17494286596775055 -0.01588815450668335 -0.06197472661733627 0.005563749466091394 0.017151812091469765 -0.07034581154584885 -0.1489451378583908 -0.07114791125059128 0.013060497120022774 -0.06265847384929657 -0.025671470910310745 0.045634008944034576 0.040182456374168396 0.10881233960390091 -0.03257304057478905 -0.001364683615975082 -0.003235267475247383 0.10700123012065887 -0.07727822661399841 -0.13247355818748474 0.10581263154745102 0.05323338136076927 0.058635007590055466 0.068906769156456 0.06355606764554977 0.03536782041192055 -0.04283799231052399 0.01395436841994524 0.07512068748474121 0.07548142224550247 0.045745041221380234 0.02380184456706047 -0.02504047378897667 -0.11832550168037415 0.1262543797492981 -0.008346962742507458 0.07236132025718689 0.13850368559360504 -0.043056633323431015 0.0999588817358017 0.01946304552257061 -0.03627092018723488 -0.0200464129447937 -0.007826900109648705 -0.06593947857618332 0.06347011029720306 -0.059011172503232956 0.053722038865089417 0.03785741701722145 0.09260507673025131 0.021642135456204414 -0.004814263433218002 -0.025534626096487045 -0.029849940910935402 0.039260026067495346 0.06370176374912262 0.08592216670513153 -0.05166011303663254 -0.06919363141059875 0.03442937135696411 -0.05102817341685295 -0.028928369283676147 0.10012584179639816 0.03722740337252617 0.00020443933317437768 -0.11479955166578293 0.05878946930170059 0.13995110988616943 -0.020472053438425064 -0.06436256319284439 0.06700483709573746 -0.04229939356446266 0.040270071591776944 -0.04763585893872417 0.10698566512775738 0.0015138650947445684 0.03734916659893371 -0.0140114028571955 -0.07982218230540197 0.03713888545964625 0.030099213528233897 -0.032142762405383295 0.0018670674520405207 -0.009311429412082278 -0.05771339533758639 -0.019998816342558928 -0.022483332508912445 -0.050468013036929056 -0.056698650165720066 -0.10201259305079008 0.07161583973123932 -0.04372400464119624 -0.11087887643865607 0.020297277918729706 0.06502858878560609 0.05877753614197469 0.0055700530069303835 -0.039619961534920194 0.04181937255331636 -0.09386318759031648 0.021402885170148742 -0.01972132101734372 -0.0512779813578579 -0.009319132244205249 -0.10145900610059354 -0.015896286332153824 -0.05439927385782434 -0.06460330637463223 -0.06565526080389393 -0.08114797972742223 0.059329985322740295 0.02337515638977281 0.06933509581160208 -0.0067114729984867685 -0.054606677465484546 0.033958674210119576 -0.059216871468654925 0.04697800167155969 -0.00014247242520020522 -0.008991874323538485 0.016668684654079186 0.009459499029769834 0.03308715148604972 -0.09766764693248402 0.019667530080530207 0.014573032231575312 -0.046940266185501796 -0.06305926857092707 0.0006844285182909718 -0.08160273653229094 -0.013987823423801372 0.03232872704365662 -0.008559791602763886 0.03771622513899806 -0.00869349372758816 0.05169771575001079 0.008516798080883512 -0.03033197852452472 -0.038164768144967685 0.031089500707118044 0.09534964120626674 0.03700582994606408 0.13693085792578177 -0.06432762020688242 0.1671655180985018 0.06972281142732098 0.00881796181053264 0.018047731110276247 0.0219875107488121 -0.06048121245031408 -0.027160889778187106 0.012287914653645989 -0.013993922746548867 0.09087327104936037 0.03579337564082332 0.01561878060461881 0.10430737566782486 0.05620835045234644 0.005441490377311649 -0.07897710317230358 -0.0553058421864659 0.05488600955756867 0.023584872291224773 -0.01002423970567324 0.1397467163049423 0.08131219841601867 0.032719085352535614 -0.07220192958401901 0.029709849678579973 0.003138584678129157 0.021931045530072964 -0.05314456495842182 0.06685346364974976 0.017835121601819992 0.12321723252534866 0.01955421455204487 0.10382687300443649 -0.0935734212398529 0.00758812390267849 -0.06797218322753906 -0.08934805542230606 0.020316002890467644 -0.05753263458609581 0.05869192257523537 0.011053238064050674 0.06771086901426315 0.06562357395887375 0.002196185290813446 0.06014671176671982 -0.0026934510096907616 -0.03460842743515968 -0.12855775654315948 0.014643149450421333 0.020571859553456306 0.05274542048573494 0.013447122648358345 0.007755892816931009 0.07451658695936203 -0.0938757136464119 0.043092068284749985 -0.12503047287464142 -0.10534240305423737 0.07196380198001862 -0.08076706528663635 -0.1672358214855194 0.04633598029613495 0.05797562375664711 0.016539398580789566 -0.1032448410987854 0.023599067702889442 0.03478769585490227 -0.02103910781443119 -0.06173129752278328 -0.0018177501624450088 0.10533548891544342 -0.015623850747942924 0.01112245861440897 0.14628668129444122 0.002006490482017398 0.014143832959234715 -0.045983489602804184 0.2072039693593979 0.0641733929514885 0.028202567249536514 0.009718399494886398 0.0460800938308239 -0.017807703465223312 -0.03892279043793678 -0.0005266314838081598 0.04649161547422409 -0.007297940086573362 0.03434610366821289 0.08370784670114517 0.039104312658309937 0.0061188493855297565 -0.03286007419228554 -0.13684538006782532 0.04978666082024574 -0.01865224540233612 -0.005298771429806948 -0.04160887375473976 0.010196787305176258 0.05806853994727135 0.0627712681889534 -0.03178280219435692 0.07751138508319855 0.05730316415429115 0.08930185437202454 0.031255483627319336 0.022195488214492798 -0.10374564677476883 -0.07181290537118912 0.1256539672613144 0.10742411762475967 0.07422563433647156 -0.15314723551273346 0.06452164798974991 -0.07297806441783905 0.10634415596723557 -0.06031559780240059 -0.03344915807247162 0.04195331782102585 0.03418750315904617 -0.030677516013383865 -0.01842472329735756 0.04308203607797623 0.08458571881055832 -0.029532160609960556 0.026605119928717613 0.017381291836500168 -0.02697737142443657 0.05833134055137634 0.05002975091338158 0.10376030206680298 0.07484877854585648 -0.05771121010184288 -0.03996574506163597 0.06629520654678345 0.05578146502375603 0.03288569301366806 0.10981723666191101 0.029243430122733116 -0.09979676455259323 0.05567193031311035 -0.02347899228334427 0.05473991855978966 0.008735998533666134 -0.0396110825240612 -0.006676249671727419 0.07892830669879913 0.06480681151151657 0.09068386256694794 -0.08384207636117935 -0.14248232543468475 -0.11414341628551483 0.009627115912735462 0.04321766644716263 -0.11663488298654556 -0.07298526912927628 -0.1139446422457695 0.08680605888366699 -0.026266902685165405 0.15915526449680328 0.11265017092227936 0.02594357170164585 -0.016480151563882828 0.03859445080161095 0.011936495080590248 0.009158044122159481 -0.02239627204835415 -0.042617011815309525 -0.0703090950846672 0.06904726475477219 0.05123429372906685 0.02341100573539734 0.027360806241631508 -0.014767007902264595 -0.016061929985880852 0.06613197922706604 -0.008212961256504059 0.017745519056916237 0.045702286064624786 0.10179073363542557 -0.07493655383586884 -0.03230411186814308 -0.06286254525184631 -0.06569463014602661 0.13134539127349854 -0.07575486600399017 0.06360042840242386 -0.07141035050153732 0.09381581842899323 0.11884377896785736 -0.011629428714513779 0.03194427117705345 0.004341917112469673 0.0034606177359819412 0.0256238654255867 0.02102499268949032 0.03765418380498886 0.11560297757387161 -0.07149776071310043 0.046122148633003235 -0.028104523196816444 -0.18737846612930298 0.043749939650297165 0.011625245213508606 -0.07699937373399734 -0.017693717032670975 -0.043614957481622696 -0.1214526817202568 0.07519533485174179 0.07319989800453186 -0.08858417719602585 0.04697704687714577 -0.015258656814694405 0.00882412027567625 -0.0004188910243101418 0.0960865244269371 0.05883442237973213 -0.008993725292384624 0.15358176827430725 -0.07805053144693375 0.09861666709184647 -0.020205780863761902 0.020983658730983734 0.022336777299642563 -0.08024661988019943 0.04005729407072067 0.0013914430746808648 0.08686715364456177 -0.03842071443796158 -0.02756572913127697 0.029757444435936843 -0.01165920469359404 -0.028249317179435723 0.14626222852166332 0.040374660630214 0.006562575840900617 0.007822539604473723 -0.02925881731690023 0.05182324314210553 0.052069087178848714 0.06380808630013449 0.014842334736989865 -0.06520727421449776 0.06145107578674579 0.024922880914398135 -0.06216107015816516 -0.11176865389844011 -0.03860619513697703 -0.0512042102412987 0.03684145779219215 0.08660136110038616 -0.1292340933367675 0.10672680885686044 -0.008022079512765967 -0.04263083082193372 0.03818459200369904 -0.048051696069949426 0.03859723385992664 0.028284686834554477 0.011410754522880465 0.13811736449638648 0.041999051806339366 -0.09151258916877215 0.027878304100711165 0.007945585072989227 0.011290626927807489 -0.04009806442585412 0.001983071380112277 0.09105144755223278 0.025218022063017417 -0.08420539169007403 0.06902859229177179 -0.019330769345958506 -0.05100257327357256 -0.023357516599439375 -0.04032370739313618 0.06403414531716389 -0.03901148489571447 0.019922776451955202 -0.07519995789900752 0.15915647944484446 -0.0016547967702926828 0.10531742894982354 -0.006426200293804549 -0.009019408586401708 0.02123646328490023 -0.029486671042655864 0.004280067963633653 0.029232462739679367 -0.09570650173163323 -0.030048808723912156 0.0874683638793443 -0.033427512183903024 0.0490185822194856 0.08234352113195172 0.04858131502243881 -0.14278885545336625 0.06653941294168382 -0.14736578791335747 -0.10535109762780852 0.024253414571742453 -0.03453681815240044 0.001939320413947528 0.05639993789631407 -0.0088272689725565 -0.00905771537172171 -0.02707460592268778 0.06432039686944388 0.014262581161039938 0.006445493085395293 0.11256270687862067 0.01907661987655337 0.025033470019528808 -0.024195330611509955 -0.15776339281457777 0.024269952948852012 -0.0026411203912470324 -0.023302338362027986 -0.052113523251596426 -0.13862917135833364 0.025611084276929548 -0.03738514883219774 0.140033617967616 -0.07465035502826993 -0.05995712786662815 -0.10660320861399634 0.1298806294017164 0.0054815450294650675 -0.007758570129958254 -0.064662404358387 -0.10521688312292099 0.003982686437666416 -0.014282477088272572 0.05037343502044678 -0.003869082313030958 -0.017230939120054245 0.06867761164903641 -0.14484475553035736 -0.024798041209578514 0.11917328834533691 0.08297914266586304 0.06260861456394196 0.05809931457042694 -0.000179910464794375 0.09303836524486542 -0.04993991553783417 -0.09914272278547287 -0.1005435362458229 0.13433821499347687 0.027215514332056046 -0.004964340943843126 0.01659143902361393 0.10131548345088959 -0.018306106328964233 -0.003806551918387413 -0.02119576372206211 -0.025252310559153557 -0.005263162311166525 0.05929440259933472 0.006837536580860615 -0.000781706185080111 0.05222523957490921 0.0013224469730630517 -0.14206582307815552 -0.025688111782073975 -0.020527075976133347 0.06441260129213333 -0.00916525349020958 -0.08334822207689285 0.04013282060623169 0.04362165182828903 -0.11141744256019592 0.02809870056807995 0.04883568361401558 -0.021501783281564713 0.037593916058540344 -0.004105227999389172 0.005170315504074097 0.06199801713228226 0.12847602367401123 0.03843284025788307 -0.02010665088891983 -0.030906040221452713 -0.09595756232738495 -0.010463714599609375 0.10373122245073318 0.02162899076938629 0.026747580617666245 -0.11760538071393967 0.016829172149300575 -0.038324616849422455 0.13396021723747253 0.06116421893239021 0.03036068193614483 0.028492838144302368 0.0824408158659935 0.06327497214078903 -0.05089915171265602 -0.056131478399038315 -0.00893960241228342 -0.013229426927864552 0.024733252823352814 0.0577058419585228 0.03270668536424637 0.05476241558790207 -0.027566274628043175 0.044202230870723724 0.052293166518211365 0.061716511845588684 0.08755244314670563 -0.0030483619775623083 -0.033968668431043625 0.07034744322299957 -0.045401908457279205 -0.062015045434236526 -0.010444162413477898 0.02700268104672432 -0.02177336998283863 -0.029058612883090973 0.0669807642698288 -0.0035573404747992754 0.01120082475244999 -0.07349929958581924 -0.044132500886917114 0.022728994488716125 0.05582520738244057 -0.0717817097902298 -0.08670338243246078 0.02304595708847046 -0.08128456346146634 -0.05655693428763707 -0.00683547876197842 -0.008290269839825028 -0.012513323071921816 0.005438766079885479 -0.11930505794758312 -0.09609098294984285 -0.08683790631038128 0.030505759533228673 0.04338471648520486 0.04727493609762629 0.0014992516029139087 -0.008013289540456695 -0.06206037759225555 9.077442832887525e-05 -0.04194254330243858 -0.08277442381302462 -0.1233437632334338 0.10553819018991584 0.05580412216519748 0.10540848297241445 -0.16132700889081059 -0.12402686757198526 -0.049462703456058826 0.09435662595253146 0.07234441337031774 0.051749042438944855 0.024429869472831798 -0.023836685679242322 -0.03851436878174578 -0.008303476685890664 0.0028585224288662325 -0.03605792188854847 -0.005323104977845605 -0.036014121226792054 0.04282097799238006 0.01827197470767314 0.11232415347193764 -0.06191077449958672 0.039828448890028435 -0.02961564589667819 -0.02048415406246911 -0.05766442358731322 -0.020765179158812364 -0.10111546839762527 -0.019891566328296747 0.012869244234085355 0.06768235205717127 -0.02860318123895054 -0.07268882346299552 0.03116842120037924 -0.022094803640293485 0.0760788697305433 -0.029594038629821483 -0.04316023591859306 0.0874369510875114 0.14547595692699655 0.05562016890900313 0.02455548289780151 0.012455867847740028 0.1458497904596926 0.0027876696351059873 0.02107509517388565 -0.07454473515442053 -0.09343329259436214 -0.032735697728092185 -0.030500509320257607 -0.04892346692000308 -0.0437570490684897 0.0674396521022032 0.04411233891692072 0.05732733056614653 -0.1024072601450074 -0.05828661064557651 0.019046139667812895 0.03310477509702783 -0.06320300101192564 0.06660761587326827 -0.0543131581475837 0.05508810383698456 0.026157592359296423 0.022154332533697557 -0.05134638340118872 0.09304229521264762 0.0464477820144746 -0.03314328409523882 0.10385543740083521 0.03884750757304938 -0.013086397866433345 0.010674137766126525 -0.03798767287071979 -0.085055457348452 -0.0023959675621642654 0.13257435585869953 0.07690597676421872 0.10162263271612516 0.030878691881178453 0.023981028482369507 0.07032509867622691 0.05283340439200401 0.025525039061903954 -0.008770192973315716 0.00739471148699522 0.008823772892355919 0.07505464553833008 0.04196285083889961 0.04117387533187866 -0.02632010728120804 -0.038948092609643936 -0.07469414919614792 0.10518689453601837 -0.05796688795089722 0.02165110409259796 0.05330189689993858 -0.02618064358830452 -0.12189693003892899 -0.15338309109210968 0.021804438903927803 -0.130827859044075 -0.027752632275223732 0.1364855170249939 -0.012594131752848625 -0.05067150667309761 -0.09182145446538925 -0.018655695021152496 0.11038611084222794 -0.13293951749801636 -0.0014358266489580274 -0.03511200472712517 -0.061997924000024796 0.05802192911505699 0.0392877571284771 -0.009777691215276718 -0.07245451956987381 0.004781629424542189 -0.015531940385699272 -0.11345840990543365 -0.015765482559800148 -0.11980568617582321 -0.05008523538708687 -0.04309733957052231 -0.06368685513734818 0.015719594433903694 -0.07328911125659943 0.03952939063310623 0.022001000121235847 -0.04414299130439758 0.008228952996432781 0.07489242404699326 0.01508581917732954 -0.06490243971347809 0.0584435760974884 -0.12437702715396881 0.05021337419748306 -0.03612327203154564 -0.004989477340131998 -0.08415267616510391 0.03257053717970848 -0.04847163334488869 0.14333169162273407 0.06028536334633827 -0.06992693245410919 0.07827115803956985 0.03684350848197937 -0.12717624008655548 -0.04618170112371445 -0.10719256103038788 -0.10318518429994583 0.015161335468292236 0.033113885670900345 0.08832952380180359 -0.04907429590821266 0.03739580884575844 -0.030003005638718605 0.07120445370674133 -0.04965026304125786 0.04381351172924042 0.046786628663539886 -0.11047011613845825 -0.039218805730342865 -0.0024929794017225504 -0.06712543964385986 0.012272086925804615 -0.03811802342534065 0.06654643267393112 0.0010291032958775759 -0.09261319786310196 0.06788399815559387 0.05753909423947334 -0.02322499081492424 0.04787439852952957 0.011164008639752865 0.0074633825570344925 0.0508144237101078 -0.07344269752502441 -0.0888894647359848 -0.05874691903591156 0.09325376152992249 -0.018681133165955544 0.1077546551823616 -0.10818174481391907 -0.045366425067186356 0.05790698528289795 -0.017726467922329903 0.010861918330192566 0.0771220326423645 0.02021207846701145 -0.15128132700920105 -0.09078916907310486 -0.002745682606473565 -0.017207982018589973 0.027397405356168747 0.04885852336883545 0.02930293045938015 -0.019340690225362778 -0.0609358549118042 0.05214609578251839 -0.06303583085536957 -0.03103644587099552 -0.028009697794914246 0.0473577044904232 0.021736476570367813 0.05099456012248993 -0.06282445788383484 0.0317387692630291 0.01876721903681755 -0.09675877541303635 0.013257545419037342 0.04903827980160713 -0.050492629408836365 -0.1277519315481186 -0.04729103669524193 -0.07181192189455032 -0.013282755389809608 0.008922366425395012 -0.013509584590792656 0.00590552156791091 -0.0683155208826065 -0.08519919216632843 -0.06600075960159302 0.017680391669273376 0.012183544225990772 -0.024805380031466484 0.013629544526338577 0.030663345009088516 0.03576785698533058 0.10074728727340698 -0.05677095428109169 -0.04151025041937828 0.032152578234672546 -0.02124139852821827 -0.0041800132021307945 0.07192625850439072 -0.11320125311613083 -0.056278426200151443 0.02811986580491066 -0.03289302811026573 0.025358030572533607 0.05643269047141075 0.011328495107591152 0.008727481588721275 -0.04997185617685318 -0.06945165991783142 0.004683768376708031 0.03147884085774422 -0.14787214994430542 0.1317821890115738 -0.012929744087159634 -0.08006350696086884 0.14278613030910492 -0.097036212682724 -0.019362814724445343 0.02839433215558529 -0.10887885838747025 -0.052816301584243774 -0.05580391362309456 -0.0397891104221344 0.04776225611567497 -0.03725851699709892 0.04197738319635391 0.02584618516266346 0.06384551525115967 0.04279141500592232 0.03224489465355873 0.007809631060808897 -0.09635516256093979 0.030086902901530266 0.0007353026885539293 -0.03494265303015709 -0.07058724761009216 -0.06620543450117111 0.10711780190467834 -0.03520990163087845 0.05417362600564957 -0.059742312878370285 -7.10966851329431e-05 -0.10497476160526276 0.018892399966716766 0.009411127306520939 0.006821103827337271 -0.11313497562450867 0.0194902103875047 -0.06395530050971052 -0.05463124305704356 0.027232435859215868 -0.1870538280568105 0.023316523829055774 0.03322297990164399 0.07408035504512762 0.022519412319215032 0.1530943800601365 0.06556189977887994 0.032750361358774766 0.0987653616154481 0.11177707014374287 0.05441582857473641 -0.01842045855478453 -0.06092206928838048 0.09222452728374854 0.0855319818038865 -0.04929709010899747 0.03989506734414357 -0.06586831470377247 -0.012314586742073448 0.014910548755858443 0.008503883788915631 -0.01935930428154042 -0.0193740252439278 0.0019786825954865453 0.03504705372537803 0.015523027180334964 0.1399759065131875 0.02133973569484132 -0.011774155839735614 -0.09268509332879553 0.015366509708904524 -0.025434239555107784 0.02299658456312227 -0.08004857109761125 0.011350485922438758 0.01809038271826675 -0.11053003409719278 -0.04962790378306732 0.023130020526396223 0.01528948706210247 -0.0376378555514419 0.06794511815917267 -0.03830356048128433 0.06354774813761581 -0.032290096309688314 -0.07078598655102003 0.07786744038715888 0.03606132177823199 0.07466842261813601 0.06464418215345374 0.058012146681103494 0.09673305379245177 -0.06896102956547431 -0.06808818422569979 -0.004479483610945584 -0.04153245569185813 -0.01626139414113854 -0.0016446304205231506 -0.10805844790261532 -0.035352898784175746 0.04898450553292431 -0.02110562035167207 -0.07481552172077817 -0.007364262636612737 0.12585934141424046 -0.012060110133763069 0.02231930809353903 -0.02268520235377309 0.030096822743668834 0.0395697628976089 -0.02407320965091319 0.046495304401613785 -0.07497569277301765 -0.047184744103128826 0.0068425399913522615 -0.06742069143616175 -0.05982109587558116 0.03449222611222339 0.025980836763123905 0.0196667573417091 -0.02857431494265877 -0.07388528502347473 0.022177235689223505 -0.03689461705829836 0.00013351844756915568 0.04946687404021017 -0.04237071274141039 -0.027309018019860135 -0.01464656984891517 0.08737524452098049 0.1274118465619735 -0.06707223959603106 -0.13665719950613353 -0.03412718600615099 0.09354538470506668 0.0319858193397522 -0.08657213300466537 0.08186788111925125 0.04516234248876572 0.014219689182937145 -0.03368885815143585 -0.10196740925312042 0.03553733602166176 -0.011896873824298382 -0.14953453838825226 0.06259547919034958 -0.07624290883541107 -0.05934223532676697 0.08769368380308151 -0.04916629195213318 -0.06995811313390732 -0.02126457169651985 0.00426981458440423 0.018251650035381317 -0.017101451754570007 -0.047646742314100266 0.13420706987380981 0.06233499199151993 0.003485951805487275 -0.025816651061177254 -0.052724819630384445 0.055479440838098526 0.025441933423280716 0.056814298033714294 -0.012063559144735336 -0.014378686435520649 0.04172607511281967 -0.07447394728660583 -0.021676786243915558 -0.011361773125827312 -0.03758969157934189 0.07491908967494965 -0.10181178897619247 0.03850720450282097 0.08380568027496338 -0.032789479941129684 0.011765089817345142 0.0839613825082779 -0.08061449229717255 0.04406239464879036 -0.03746895492076874 0.006274551153182983 -0.027827994897961617 0.09293936938047409 -0.05434827879071236 -0.015996692702174187 0.02620239369571209 0.023545533418655396 -0.06466573476791382 -0.07697229087352753 -0.036260996013879776 -0.08744698762893677 0.045274291187524796 0.01650121621787548 0.005613195709884167 -0.049345675855875015 -0.02880885638296604 -0.04994786158204079 -0.005054616369307041 -0.03476257622241974 -0.023312298581004143 -0.10797683894634247 0.16493898630142212 -0.0512935072183609 0.10108759254217148 -0.12437956035137177 0.053333405405282974 0.016558947041630745 -0.08178899437189102 0.0927419438958168 0.10050811618566513 -0.012005447410047054 -0.05726771056652069 0.04099532216787338 -0.11912493407726288 0.09748479723930359 0.01731373555958271 0.05648323893547058 -0.1273452341556549 -0.008975696749985218 0.0679650530219078 0.04470724239945412 0.0527222603559494 0.023385437205433846 0.021286161616444588 -0.004985135979950428 -0.1286061853170395 -0.04530889540910721 -0.021894460543990135 -0.049999382346868515 -0.04075232893228531 -0.0826692283153534 -0.007474323734641075 -0.0010747166816145182 -0.0388441250865103 -0.004698210080099013 0.0688216714126246 0.1360880394468579 -0.07848965855681286 0.11690443836321057 -0.05718189692006863 0.10302818372187277 -0.08033229648637516 -0.14130190632709896 -0.0019303869369162968 -0.13960892977270972 -0.009941134476963499 -0.01026604085380415 0.009230049895971398 -0.02302803356388101 0.11622967544484723 0.05190709708870343 0.03431091098405467 -0.09170497276979599 -0.08696658428403456 0.26843901856994473 0.006531919824529798 0.09257290648295322 0.0859769785898799 0.07587464365835633 -0.21007742698078158 0.3710923037421412 -0.12725710490391995 0.03817124301313451 0.07576743150675411 -0.12152582675821433 0.16197308493977797 -0.018056223956972765 -0.059305194096642894 -0.03139944208611773 -0.10268679405393524 -0.023011306161587922 -0.04087449433477596 0.0007922560909424918 -0.03211224431900833 0.003071222319093776 0.03782696471585276 -0.12403787924198609 -0.018046637314284124 -0.06826017680696131 -0.014254804062213937 -0.10063297116656698 -0.014325418744585096 -0.01964330592105847 -0.07838147028227754 -0.03341479014556162 0.12300505674301612 -0.11142170066330102 -0.035577852486728144 0.3028556162385284 0.039764395328905924 0.0009030232310992424 -0.11446969326902935 -0.09404354896930443 0.16705213500236832 -0.08689228559881966 0.08318365524478731 0.06719866957094425 -0.0505250778601378 -0.030439015379582726 0.16713540922878922 0.007807688473252842 0.0032802169249981808 -0.09639504508784559 -0.10968294060713084 -0.0643828551806852 0.02078145887298788 -0.07344421358479367 0.20040473267540035 0.09833080559180102 -0.06144217968111878 0.07852768329244142 -0.12774881485108164 -0.06738431086298807 0.05252572960592176 0.033545552672031444 0.008338376310223586 0.0753039921848108 -0.04512745408998044 -0.15772282430998102 -0.03763399333611864 -0.004543068595764594 0.09972382044676666 0.08532490004150017 -0.13574684933009667 0.0501385470140657 0.20404509222129777 0.02782438016954263 -0.015006073010542383 0.012432171106703487 -0.002931974013315678 0.3055565760649889 0.13868870328686517 -0.02115881315518308 0.11660072952508926 -0.033149633556604385 -0.05964228883385658 0.207138329744339 0.08144080638885498 0.008337896317243576 0.031455233693122864 -0.01883583515882492 -0.03283032774925232 0.08695640414953232 -0.026427853852510452 0.042974408715963364 0.011300396174192429 0.03919962793588638 -0.025331193581223488 -0.024697624146938324 0.045206550508737564 0.06023899093270302 0.00628169160336256 0.06294412165880203 -0.0481843575835228 0.018757285550236702 -0.02937333844602108 0.014993877150118351 0.03529490903019905 -0.16495434939861298 0.00015374655777122825 -0.027358409017324448 0.06387072801589966 0.04813510179519653 0.05452297627925873 -0.0961407795548439 0.0166762862354517 -0.019747350364923477 0.0432058610022068 0.08873967826366425 -0.04187129810452461 0.04347410798072815 0.04124120995402336 -0.019712936133146286 0.08247362822294235 -0.01614510826766491 0.0027123885229229927 -0.04088003933429718 0.028959421440958977 -0.08393681794404984 0.038839299231767654 -0.025557532906532288 -0.009811053983867168 0.06309443712234497 0.036673031747341156 0.1353379338979721 0.10248339921236038 0.08636873960494995 -0.004211478400975466 -0.11389482021331787 0.02738293446600437 0.0699385553598404 0.07357965409755707 -0.048608873039484024 -0.00972673762589693 0.041756439954042435 0.07958194613456726 -0.08698718249797821 0.0797458365559578 0.021586840972304344 -0.11254972964525223 0.03668130189180374 -0.05749734491109848 0.02972526103258133 0.08701184391975403 0.08494530618190765 0.0692080482840538 -0.026575813069939613 -0.07733632624149323 0.019902490079402924 -0.06110179424285889 -0.1265958696603775 0.11391586065292358 0.04426870495080948 0.10056693851947784 -0.027384765446186066 -0.03804227337241173 0.06704910099506378 0.06799408048391342 -0.05790279060602188 -0.1191926822066307 -0.04565427079796791 0.04823257029056549 0.07491658627986908 -0.04786290228366852 -0.019009007140994072 0.11260304600000381 0.06445371359586716 0.07805506139993668 0.06859179586172104 -0.010247694328427315 -0.033676858991384506 -0.08231435716152191 -0.11362913250923157 -0.10418783873319626 -0.04878346249461174 0.06133259832859039 0.06863489001989365 -0.13875168561935425 0.10826616734266281 0.012821877375245094 0.12955242395401 0.14484143257141113 -0.06788937002420425 -0.01653525047004223 0.011970125138759613 0.055178508162498474 0.00971978809684515 0.021367903798818588 0.12084155529737473 -0.02956821210682392 0.02865671180188656 -0.05472704768180847 -0.09171231836080551 0.06710260361433029 0.0012038851855322719 0.04259822890162468 0.011757245287299156 -0.08931748569011688 -0.06911366432905197 -0.034859493374824524 -0.04232525825500488 0.15041927993297577 0.15428976714611053 0.04982152581214905 -0.014966451562941074 0.0011890027672052383 -0.06052715331315994 0.01443264726549387 0.0589599646627903 0.04041247442364693 -0.0589367039501667 -0.06422910839319229 0.006258571520447731 -0.02340869978070259 -0.10442207753658295 0.09717442840337753 0.10944239050149918 -0.01751263625919819 -0.09723075479269028 -0.06943822652101517 -0.002536315470933914 0.10314449667930603 0.09435834735631943 0.02426694519817829 0.10751698166131973 -0.03376325964927673 0.008513381704688072 -0.04384191706776619 0.0403936542570591 0.030896637588739395 -0.058294594287872314 -0.0666792243719101 -0.06583784520626068 0.0027771429158747196 0.03643522039055824 -0.06631600111722946 0.023380393162369728 0.0524466410279274 -0.030062250792980194 0.07688964903354645 -0.0010498014744371176 -0.04792341962456703 -0.031338855624198914 -0.008306696079671383 -0.12535977363586426 -0.08159888535737991 0.05167480185627937 -0.015612299554049969 0.021035214886069298 0.08071862906217575 -0.072747603058815 -0.04432108998298645 -0.014198096469044685 -0.009262771345674992 -0.08615850657224655 -0.0028477839659899473 -0.03480139002203941 -0.03930681571364403 0.06944677233695984 0.12350443750619888 0.03199666738510132 0.0830555111169815 -0.08120695501565933 -0.02153100073337555 -0.04615029692649841 -0.05286496877670288 0.02286364510655403 0.09784887731075287 0.0779079794883728 -0.12810786068439484 0.010465152561664581 -0.10623519867658615 0.0005124897579662502 0.08552886490444446 0.08849481415155061 0.04716155835476424 0.059550886879047235 -0.06879108986994627 -0.010906232248637527 0.007399972233414423 0.04031967106101185 0.02747927711054182 0.056729127310355364 0.011265410458996074 0.04086034914698848 0.0658495029498955 -0.03169622395415577 -0.02103431317467317 0.020268391547967852 0.023758325961457997 -0.009638681902531029 0.03379845181814519 0.04464953825356136 0.0188472670775815 0.07391275675620862 0.11262179252085122 -0.08743131674224139 0.0731609297319584 -0.04887475532101744 -0.04737032795681016 0.11485483682697153 -0.04623935350789561 -0.06723473623420681 -0.048718388047441774 0.009594013379154978 0.027589121004151444 -0.08276592582786692 -0.18015144538127206 0.18772820821932912 -0.11325392175232712 -0.13128988226154378 0.004031624793641889 -0.168161147204555 0.027668279772753837 0.05287849954373974 -0.030223839832522848 0.04146238091111183 0.03344096349776895 0.07275842634113372 -0.054548784379640204 0.06046728770192966 0.053497603951618684 -0.07536233066059064 0.05285803204322676 -0.15933647605802195 0.023531482647407224 -0.007662616315985416 -0.13041551145429964 0.2829536208759469 0.173488492395807 0.045217277731419266 -0.053658616342931134 0.01759916418231457 0.15374637008276174 -0.061508956645547286 0.0022786699422575147 -0.09625164370957627 -0.04102453195602358 0.016204613738581827 -0.02079084287933233 0.08978619535062138 -0.07721849079590477 -0.06418103584874116 0.0013695810904902808 0.04630417366044272 -0.008353708717679266 -0.035437665249055034 0.13163439118991271 0.10484664998275775 0.06319819842177915 -0.00899626052288523 -0.10189267643674142 -0.053647373897689775 0.013893823567104587 0.14494464232699078 -0.0714661135830797 0.0433181743899743 0.1144343121789471 0.00041026031981570535 -0.006478574386803581 0.015007984638751809 -0.20233634110689003 -0.11458430245706641 -0.1168630692439565 -0.1657640478711604 0.06804728165636606 0.03630416530593234 0.058619422946007284 0.04330991491265612 0.010465662921707523 0.06613074413835783 0.13655192733252478 -0.062453749674200414 -0.0310751274228096 -0.00305262696929276 -0.005472419783473015 0.014689275063574314 0.07293005287647247 0.053047843277454376 0.015505832619965076 -0.07617384940385818 -0.02867533266544342 -0.06273257732391357 0.01107114739716053 -0.11800992488861084 -0.030870888382196426 -0.0431765615940094 -0.023235833272337914 0.08160044997930527 0.04549126699566841 -0.0984455943107605 -0.042286280542612076 0.16682912409305573 -0.050552111119031906 0.01565343327820301 0.06628958135843277 0.005852781236171722 -0.03274628520011902 -0.09667371958494186 0.055665887892246246 0.06415661424398422 -0.03853292018175125 -0.028276214376091957 -0.008556099608540535 -0.04052425175905228 -0.08076687902212143 -0.009744839742779732 -0.041646018624305725 -0.06146731227636337 0.005501891020685434 0.04161469638347626 0.016530834138393402 0.07209179550409317 0.02768479287624359 0.0003604506782721728 -0.05145534127950668 -0.011716634035110474 -0.008574728854000568 -0.049529366195201874 0.025943554937839508 0.053864408284425735 -0.08932624757289886 -0.0562589131295681 -0.06207377836108208 -0.009004877880215645 -0.003011666936799884 -0.05495256185531616 -0.07008371502161026 -0.04490853101015091 0.028586434200406075 0.026750663295388222 0.08625642955303192 0.09101588279008865 0.043318379670381546 0.018721213564276695 -0.09692002832889557 0.018970051780343056 -0.059411413967609406 -0.055188801139593124 -0.06973700225353241 -0.13369335234165192 0.10557470470666885 -0.08321839570999146 -0.035686321556568146 0.05344204977154732 -0.04243629425764084 0.01833461970090866 -0.009956258349120617 0.085120789706707 -0.014299293048679829 -0.021725770086050034 -0.0031031733378767967 -0.17468881607055664 -0.03499249741435051 0.015636619180440903 -0.09078241884708405 -0.04127303138375282 0.06084628030657768 -0.08820514380931854 -0.04376044124364853 -0.041678570210933685 0.05427030846476555 0.12074431777000427 0.06793877482414246 0.02033264748752117 -0.07790994644165039 -0.03633172810077667 -0.12248966097831726 0.05429268255829811 0.011698846705257893 -0.0020004792604595423 0.0909511148929596 -0.07573319971561432 -0.0834956713178695 0.015638963728664735 0.13964209822191828 0.0038742254807148132 0.0038212603238350893 -0.025374282656522598 -0.11300751103166216 0.016284249393300712 0.10892011476785426 -0.1131344270676396 0.06664401162069207 -0.08649380955562333 0.021484714724277747 0.09545011010194732 -0.048822858143322136 -0.007236550513191231 0.00460678109977049 0.08612260643118025 -0.02198069691342305 0.01009822566312558 0.011541088370970431 0.10863739533154194 -0.01701671675943532 -0.18234533632248442 0.019030003804924988 -0.05502488047093279 -0.07267395821377634 -0.029659282364782578 -0.09182268412254894 0.027129021450479216 0.0072178086605539605 0.013998817792947264 0.038024294011730554 0.07963875947529189 0.07406213530493952 0.027163414057088168 -0.04695982333282305 0.020351208262676043 -0.03428116807730266 -0.0226648816346181 0.009437801605971274 0.052082781270633705 -0.09846065889385154 -0.0017675584029212662 -0.02125893033437056 -0.040718813943642934 0.07486073692681587 -0.0001457718467375484 -0.01194770288093925 -0.06362050632032484 -0.10518418260545476 0.050781519723917784 0.052931300592836 0.036990729011788084 0.0312663911764478 0.10861229484648939 -0.019859480799888085 -0.025065640478157215 0.01596508081731238 0.053428909963644015 0.05024642639782127 0.1722290882591462 0.0329388413292505 0.09175694668728353 -0.04658254655767522 -0.07312981568256904 -0.03176127172083623 -0.037677553608283565 0.05038885377563971 -0.06785356463034728 -0.010796646868912763 0.15621298038195708 0.048813613257871466 0.09967456796008635 -0.09747874069223121 0.05922844369694426 0.0007009194158280952 0.03516756091082219 -0.07821424648997809 -0.027003527127690708 -0.020337454655058755 0.0004876097604383311 0.04914518874057921 0.06916945835794701 -0.026318425943427842 -0.17368722394051708 0.10386125547731268 -0.03206587389237036 -0.11141996524911546 0.027947925236223487 0.04522902697338696 0.04197661615280888 0.05312603774466018 -0.028693455584308462 -0.04387007197259907 0.01845283737839683 -0.12550891931775895 0.08911972201008445 -0.04290047495560462 0.0356932197622084 -0.0037806418258696795 0.040632251650094986 0.014817300252616405 -0.019034529104828835 -0.11161261051893234 0.028101451694965363 -0.04733951389789581 -0.12176456302404404 -0.0072341421619057655 -0.02340620569884777 0.09675900638103485 -0.13165976107120514 0.048991892486810684 0.04109153524041176 0.02426512911915779 -0.047103337943553925 -0.09175286442041397 -0.06483400613069534 -0.0780862420797348 0.04906722530722618 0.008984137326478958 0.03883867710828781 0.00044003763468936086 -0.15499301254749298 0.05851152911782265 -0.05878767743706703 0.08409339189529419 -0.05165151506662369 0.04353712871670723 -0.022304613143205643 0.08288870006799698 0.11363080143928528 -0.03345118463039398 -0.08030964434146881 -0.025799816474318504 0.019531991332769394 -0.023630110546946526 0.003285308601334691 0.04066229611635208 -0.005925724748522043 -0.0007401708862744272 -0.001722828485071659 -0.017956841737031937 -0.06141413375735283 -0.13497021794319153 -0.023185094818472862 -0.023134533315896988 -0.040011338889598846 -0.029742782935500145 0.07178156822919846 0.04840223491191864 0.09154487401247025 0.02209455333650112 -0.09158603101968765 -0.0021406530868262053 -0.043747372925281525 0.017891427502036095 -0.11732898652553558 0.032823510468006134 -0.0778597816824913 -0.07638876885175705 0.057107727974653244 0.17783041298389435 -0.06712998449802399 -0.08497091382741928 0.08764218538999557 0.10459472239017487 -0.11917547136545181 -0.06574369966983795 -0.04957839474081993 0.03899411857128143 -0.04756850376725197 0.07920759171247482 0.048825107514858246 0.06598230451345444 0.0748763158917427 -0.01984063722193241 -0.06374379247426987 0.0350336916744709 -0.07685263454914093 -0.007162279915064573 0.08128482103347778 0.008185283280909061 0.004661158658564091 0.14914779365062714 0.041777096688747406 0.01370143610984087 -0.04202248156070709 0.08084185421466827 0.024231931194663048 -0.003259204560890794 -0.11248448491096497 -0.051863040775060654 0.11227012425661087 0.21241982281208038 -0.008823311887681484 -0.025168484076857567 0.07089034467935562 0.10064885765314102 -0.04296166077256203 -0.02978316694498062 -0.08601582795381546 -0.07661371678113937 -0.07526250183582306 0.07567250728607178 0.03245212510228157 0.056386347860097885 -0.07197452336549759 0.007292768452316523 0.018882201984524727 0.008050934411585331 -0.042829565703868866 -0.00567229650914669 -0.021332617849111557 -0.04957639053463936 0.011727193370461464 0.09610467404127121 -0.07150213420391083 0.06259660422801971 -0.09111306816339493 0.010661610402166843 -0.012638052925467491 -0.0822332352399826 0.056021954864263535 -0.04622409865260124 -0.13789448142051697 0.03937447443604469 0.07337358593940735 -0.04144767299294472 -0.026715746149420738 -0.015387357212603092 -0.051564574241638184 0.023165453225374222 -0.06068744510412216 0.1436285525560379 -0.018096059560775757 -0.02631109394133091 0.022223256528377533 -0.009394359774887562 -0.0003366929304320365 0.0009350822656415403 0.025047902017831802 0.05659008026123047 0.058201905339956284 -0.052777547389268875 -0.041320886462926865 -0.10054220259189606 0.009089508093893528 -0.012711219489574432 -0.06356824189424515 -0.01664252206683159 -0.11594323068857193 -0.08601746708154678 -0.009029049426317215 0.08325140178203583 0.15580184757709503 0.05891011282801628 0.0011131385108456016 -0.011358681134879589 -0.13222111761569977 0.11341177672147751 -0.01664615608751774 -0.061753787100315094 0.03430675342679024 0.022349203005433083 -0.0004255707608535886 -0.12057165801525116 0.05861186608672142 -0.04518115520477295 0.055047959089279175 -0.04728785157203674 -0.047565896064043045 -0.06851863861083984 0.09667368233203888 0.010668941773474216 -0.10432430356740952 -0.002619729610159993 -0.021145842969417572 0.07078991830348969 0.07422284781932831 0.030567875131964684 0.06242554262280464 0.0007441853522323072 0.05087542533874512 0.04523080959916115 -0.14864923059940338 -0.019289864227175713 -0.009941855445504189 0.057953041046857834 -0.14771915972232819 0.028965575620532036 0.059819016605615616 -0.07041310518980026 -0.05522420257329941 -0.035629481077194214 0.014365403912961483 -0.04677891358733177 0.038001447916030884 -0.01071386318653822 0.05208296701312065 0.09589960748646861 0.04468428511537936 0.01278196720712657 -0.014388892797541079 -0.014931107496426997 0.07015743483887472 