-0.014508498226123196 0.006985770145680767 -0.020400439749858054 0.024929964133440504 -0.08944774014918525 -0.008626515116090803 -0.11485858990540862 0.021403295163954204 -0.027410283623059865 -0.024767536461954547 0.008041713358090573 -0.03020589895891464 0.009989869622542696 -0.0014954171004046756 -0.03407370313948756 -0.0679192124954072 0.026102207425495853 -0.24699209761796484 0.14339037158290724 -0.0923373831687995 -0.023874019203202642 -0.0002700881340324266 -0.05883567359619894 0.07696405753723518 0.0039342544252463 0.007981872423655162 -0.0774814599669258 -0.024219508269038133 0.08925465151312914 -0.04107999549928524 -0.07300523169756395 0.004732938341351091 0.0026274360056668476 0.1492508394978899 -0.118233559343765 -0.01501822922501793 -0.11074336833128147 0.06319273611540958 0.005491765045794561 0.04562780403270725 0.0019876420126203414 0.07779882609058962 -0.09097451796296899 -0.12505409092014358 -0.07176957196999939 0.15331654530345437 0.08467995212602439 -0.0274578802932377 0.004035613705131506 -0.0035389426648578274 0.04495094624166983 -0.2079796603877709 -0.07094973841930749 -0.040051649009356455 -0.13092677431625915 0.023448302214083675 0.08065896478832775 0.0028360773724968417 0.005412627596667672 -0.08865250623568931 -0.0402709303517746 -0.02812899992060421 -0.04195806691298198 -0.033959038530633125 0.19465663043539938 0.030668702037222616 0.02925918782667008 0.012830309615131439 -0.012709495017647822 -0.007794476675818741 0.0674345132364375 0.04481405451350371 -0.0754701765015166 0.09209833300733224 -0.06520853598536713 -0.06664727355189157 0.08837854246633228 0.0453868608107567 -0.017002013481446563 -0.07859306926851518 -0.09367338868497958 0.03068625005968898 0.0568311791730518 0.017336821785735815 -0.10326144013214635 0.1308637502076179 0.1320750983486505 -0.051996825700123 0.1484042025051098 -0.11942696466346135 0.0027024908257434707 -0.01952791317932555 0.029911431153565295 0.09573466815456992 -0.03704750522846143 -0.026489133133164602 -0.1650993765255751 0.007760198564105723 0.03532980703548704 0.05379377746033206 0.012389148585498333 -0.07545074075460434 0.02253762260079384 -0.11142958700656891 -0.0029770731925964355 -0.11332999914884567 0.019699953496456146 -0.07628192007541656 0.15803162753582 -0.01843595691025257 0.0530955046415329 -0.08313779532909393 0.08170782029628754 0.01616777293384075 -0.06001786142587662 -0.11781254410743713 0.0874137356877327 0.013915217481553555 -0.0309166107326746 0.07136546075344086 0.06844179332256317 0.0714109018445015 -0.01585090160369873 0.14657364785671234 -0.04835709556937218 0.008777671493589878 -0.03331366926431656 0.03285422548651695 0.034210413694381714 -0.02252810448408127 -0.06752263009548187 -0.024844380095601082 0.0892833024263382 0.030363822355866432 0.07123061269521713 0.050178006291389465 -0.03820852190256119 0.04087381809949875 -0.03134772181510925 -0.08211380243301392 -0.17459580302238464 0.10908649116754532 0.03960784152150154 0.11699432879686356 -0.005450155586004257 -0.0453021414577961 0.023159459233283997 -0.009320717304944992 -0.16755741834640503 0.062564417719841 0.09040439128875732 0.045783016830682755 0.03141620755195618 -0.014660930261015892 -0.02955739200115204 0.07631510496139526 0.027783803641796112 0.041794393211603165 -0.011489497497677803 0.02571282722055912 -0.07453560829162598 0.023825963959097862 -0.026558777317404747 0.11994221061468124 0.021099252626299858 0.04890153557062149 -0.0011590061476454139 0.01626131497323513 -0.06649436801671982 -0.0648854449391365 -0.059980977326631546 0.12454651296138763 -0.019199568778276443 0.01861681044101715 -0.00015380175318568945 -0.06383129954338074 0.04797165468335152 -0.004296713974326849 -0.13071481883525848 0.04398487135767937 -0.07764852046966553 -0.08054813742637634 0.03606071695685387 0.03449343144893646 0.021635793149471283 0.001645314390771091 -0.08786392211914062 -0.07320871204137802 -0.12019232660531998 -0.024945147335529327 0.03816605359315872 -0.1007041186094284 -0.03755669295787811 -0.06828668713569641 -0.04578985646367073 -0.010683558881282806 0.013246595859527588 0.06865859776735306 0.0040706149302423 -0.0716898962855339 -0.04692346602678299 -0.11571505665779114 0.07329049706459045 -0.010746241547167301 -0.1238860934972763 -0.018315596505999565 -0.007669363170862198 0.13082130253314972 -0.05426127836108208 0.07114528864622116 0.10832062363624573 0.014864650554955006 0.07742630690336227 0.05634170025587082 -0.0069245845079422 0.008349383249878883 -0.04567220062017441 0.019070202484726906 -0.010505790822207928 -0.10502154380083084 -0.03913123533129692 0.03261081501841545 -0.09252117574214935 0.0019420760218054056 0.09652529656887054 0.0842972919344902 0.0022477314341813326 0.04379018396139145 -0.06216685101389885 0.05346975103020668 -0.029745876789093018 0.026657644659280777 0.008356574922800064 0.1846470981836319 0.003910673316568136 0.014151548035442829 0.03103736788034439 0.09563256055116653 0.17345643043518066 0.02908214181661606 0.04106294736266136 0.011228467337787151 -0.051309604197740555 0.05057590454816818 0.04718217998743057 0.06637012958526611 -0.0539390966296196 0.015501952730119228 0.03718344867229462 0.02259853482246399 0.012546454556286335 -0.09647191315889359 -0.04845681041479111 0.100771963596344 0.054428670555353165 0.015169740654528141 0.01326575968414545 -0.002133668167516589 -0.03082132153213024 -0.10942934453487396 0.006810278166085482 0.0352167971432209 -0.01127125509083271 -0.1463281661272049 -0.008458239957690239 0.07285001873970032 -0.015816830098628998 -0.024244090542197227 -0.01513997744768858 -0.021586425602436066 0.0149575499817729 -0.004389466252177954 -0.02952094003558159 0.05893786624073982 0.06925782561302185 -0.003848447697237134 0.030684782192111015 -0.028736811131238937 0.05271700397133827 -0.08198293298482895 0.12582217156887054 -0.035443615168333054 -0.04405568167567253 0.030841490253806114 -0.049884553998708725 -0.03746490553021431 -0.048169899731874466 0.017590809613466263 0.026487985625863075 -0.02157820761203766 -0.027401618659496307 0.02637675032019615 0.06847717612981796 -0.03849352151155472 -0.1554262787103653 0.005463092587888241 0.028025105595588684 -0.11931485682725906 -0.012285875156521797 -0.007856002077460289 -0.10311018900876645 -0.0345131892876455 -0.0675887611532748 0.022659476040281318 -0.15876159158423006 0.0423478572315275 -0.1348852707255232 0.06070889009901658 -0.05461778509466232 0.05284029946481226 -0.10941350463333174 0.051422716667061635 -0.14054798750666345 -0.09589008708607366 0.003655271923410248 -0.016170095172584675 0.11440494355855124 -0.08014733226006532 0.15674539517294225 0.05577594379700985 -0.15140797271448592 -0.006571796735038785 0.00043125002574406334 -0.014567288948583123 -0.06508201019591339 -0.004752743155190707 -0.067334679852755 0.14943090705456838 0.03324955744476326 0.032560707190297425 0.1514464588551003 -0.0042080939116617335 0.11010977636712302 -0.10328069734041015 0.054150942687332136 -0.09190692312587916 -0.07705184612226836 -0.034147380260965025 -0.030633065512275504 -0.05657190641649457 -0.09447432291628687 -0.031106466840436435 0.09693055916546958 -0.0558149063894283 0.03165902181510044 0.004276482438353288 0.029884890756811645 0.043903838788531456 -0.020572553386226808 -0.004733769820290362 -0.023983775264392392 -0.04290362262947915 -0.004075694122473955 -0.05242721823712727 -0.00013940882049451786 0.05925988775246369 0.058993633422771904 -0.08788370809270628 -0.07315837857870802 -0.09333364532034719 -0.07151850778567817 0.052850367495530584 -0.03612328334397865 0.09108596104616151 0.11935062743886155 -0.13634675334209584 0.06481564289994339 -0.007314569046830449 0.03184354178078774 0.043493857637920956 -0.05577731353111111 -0.08608318133088264 0.006987351253294658 0.07279907125589717 -0.04395239941776142 -0.1000233155632437 -0.11172706543782752 0.0897448680987334 0.12028492409541564 0.02951539466633844 0.032935096930053524 -0.01832057102564645 0.08013903939868436 -0.02805649449694634 0.020301081413148816 0.05052906082443385 0.08116648380070446 -0.10771977213143234 0.04030048298943996 0.02498009950889967 -0.051306556079280606 -0.11597900637718903 -0.02242333448573666 -0.007916974618851004 0.054994202347449235 0.04065630236302805 0.12042012221613514 -0.05851852897631083 -0.06896321096300392 0.10542512401949665 -0.06280834227800369 0.04180506616830826 -0.04102922976016998 -0.14101465046405792 0.004518056754022837 -0.012031244114041328 0.009120590053498745 -0.10361988097429276 0.08768171072006226 -0.026001639664173126 -0.05161132663488388 0.06324674934148788 -0.0024497818667441607 -0.0014232525136321783 0.027690300717949867 -0.020361270755529404 0.09827170521020889 0.12684065103530884 -0.015212303958833218 0.08453231304883957 0.025258028879761696 0.08195669203996658 -0.010136322118341923 -0.002503038849681616 0.048809681087732315 -0.004570030141621828 0.10371024906635284 0.07568936049938202 0.016058819368481636 0.03429480642080307 -0.048623811453580856 -0.07773655652999878 -0.018752744421362877 0.1310223639011383 0.002446770900860429 0.08029472827911377 0.004283313639461994 0.12292969971895218 -0.11637762188911438 0.0010416919831186533 -0.003551790490746498 -0.02025407738983631 0.016648609191179276 -0.05098256841301918 -0.09387136995792389 -0.045160531997680664 0.05858331173658371 -0.125832200050354 -0.049963224679231644 -0.047847166657447815 -0.02051965892314911 0.08569907397031784 -0.07998597621917725 0.08438257873058319 -0.055577121675014496 0.010041650384664536 -0.09791824221611023 -0.10432741045951843 -0.10169778764247894 0.04509064555168152 -0.09955502301454544 -0.0040169102139770985 -0.06912431865930557 -0.07517535239458084 -0.13054180145263672 0.08100272715091705 0.022350860759615898 0.05028272420167923 -0.02261890284717083 0.10967809706926346 -0.019943926483392715 0.10303621739149094 -0.045451004058122635 0.0078006768599152565 -0.06702868640422821 -0.07657122611999512 -0.05877238139510155 -0.13160617649555206 -0.020117629319429398 -0.028743017464876175 -0.10750705748796463 0.09197259694337845 0.08868858218193054 0.023951655253767967 -0.02666114829480648 0.08851417899131775 -0.017139097675681114 -0.08031512796878815 0.06928043812513351 0.07985106110572815 -0.10487077385187149 0.04779566079378128 -0.08066533505916595 -0.043217018246650696 0.021587317809462547 -0.08441316336393356 -0.03170209750533104 0.010221889242529869 0.03833938017487526 -0.01844799518585205 -0.02830319703633868 0.023835652179726614 -0.0030683806095932525 -0.010139253290687879 -0.04132614747789468 -0.09698284081456619 -0.013862768024537203 0.10116383791011423 0.0565318708772617 -0.02579214788112347 0.11575710039486656 0.029266150278620267 -0.024342410939093624 0.08390243092412245 0.006473795324669857 0.011866401108564396 -0.0373688208142892 -0.014235181183644172 0.03097078920069052 0.029434341828513087 0.11242041238011379 -0.03260744604255526 -0.011448775951185828 -0.044436871919557405 -0.1058899514729935 0.07558527665581379 0.022958059116260678 -0.06727848101708456 -0.029711133699253853 -0.0033960807395595955 -0.032122112041029306 -0.07795065228893462 -0.016599066890324532 -0.11806425147706823 -0.08895869914460773 -0.01052952898238874 -0.0016510464354942207 -0.1849812119662015 -0.019424521031548396 0.06767659653243852 -0.013775865597383944 0.021322053094668468 -0.0317671252985234 -0.07991365027163905 0.012504669786494033 -0.05718914372394916 -0.06124542876022915 0.09955367990234124 -0.05108417746913452 -0.08173256183000563 0.021023897794718513 0.008839217152572437 -0.08200637045146428 0.015897914991252572 0.06634090565963842 -0.08578042691601995 -0.03392865566416247 0.006796374309250344 -0.004146177869228758 -0.046229372463626905 0.013821920157387526 -0.016560456519217084 0.045644109483268136 0.0009880853521421625 0.04045010183521264 0.033046960977087994 -0.02617227140456482 0.022843862553810875 -0.023311843844918977 0.07122049159571814 -0.20924976826489786 -0.018251504361046264 -0.11828029469136059 -0.0039699845688055905 0.026251406994264707 -0.03362635718115391 -0.0020433990893853576 0.09503917896839367 -0.07628240523768756 0.07460668845715529 -0.12783973637925394 -0.0051202086824118035 0.029432950675213645 -0.019378197238756906 0.10373002495327562 0.07875910592206574 -0.016130383349692974 -0.002737501775023337 -0.060040617385692226 -0.050691135900390004 -0.0263568221910426 -0.01237303273126538 0.0014093245925381934 -0.0463424094421732 -0.0016610735389659707 0.13679328300939841 -0.11785958247971827 -0.09235170759499525 -0.06937958088309985 -0.004975208529357248 0.0147818922996521 -0.008098375983536243 0.01921507716178894 0.017258843407034874 0.05683217570185661 0.030454399064183235 -0.08733504265546799 -0.024224963039159775 -0.1031816303730011 0.013881451450288296 0.10585842281579971 -0.08974562585353851 0.0507790744304657 -0.17439773678779602 -0.006274819374084473 0.10505346953868866 0.0029344018548727036 0.049964942038059235 -0.056756652891635895 -0.020992077887058258 -0.004714260809123516 0.010609522461891174 0.04153094440698624 0.026038864627480507 -0.006549158599227667 0.04129611700773239 -0.03453715890645981 0.06716881692409515 0.08131340146064758 0.010897506959736347 0.006633244454860687 -0.010406816378235817 -0.07358481734991074 -0.14959082007408142 -0.03833989053964615 -0.048654139041900635 0.022060558199882507 -0.009424530901014805 0.06520749628543854 0.08622841536998749 0.018028663471341133 0.0015736229252070189 0.026838401332497597 0.03409619629383087 0.02439918927848339 -0.10264791548252106 0.022898131981492043 0.023740557953715324 0.05129007250070572 0.002081112004816532 0.0858667865395546 -0.03317282721400261 0.0044543626718223095 0.017601964995265007 -0.0028745669405907393 0.0523335337638855 -0.09355980902910233 -0.07830306142568588 -0.036371078342199326 0.024743355810642242 0.029062943533062935 0.04478379338979721 -0.01167476549744606 -0.0715738981962204 0.10333479940891266 -0.03469732776284218 0.02265402302145958 0.0028467727825045586 0.037255413830280304 -0.010829275473952293 -0.06226157397031784 -0.13806551694869995 0.03555510193109512 -0.03756814822554588 0.059077080339193344 -0.02018076553940773 0.04764846712350845 0.0385696180164814 -0.1411815732717514 -0.0014781518839299679 0.01907668076455593 0.055327337235212326 -0.08902405202388763 -0.0022943164221942425 -0.12706854939460754 0.018203867599368095 0.08599766343832016 -0.04908688738942146 0.04295433685183525 -0.0011001379461959004 0.1332116425037384 0.08746303617954254 0.07677236944437027 -0.03832355514168739 -0.03290431946516037 0.04958583787083626 -0.003818550379946828 -0.00030281359795480967 0.04139554128050804 0.10378692299127579 -0.054289910942316055 0.1185849979519844 0.06762012094259262 0.034253619611263275 -0.00048730665002949536 -0.015788748860359192 0.06922928243875504 -0.001680707442574203 0.040062323212623596 -0.0037229082081466913 0.12403623759746552 -0.010314786806702614 0.07811184227466583 -0.011859356425702572 -0.0033749525900930166 0.03237363323569298 -0.09858434647321701 -0.045117709785699844 -0.10732445865869522 -0.027900870889425278 -0.04613443836569786 -0.01953224278986454 0.04947073385119438 0.019978610798716545 0.06796956062316895 0.05174851417541504 0.058519259095191956 0.008245451375842094 -0.051047567278146744 0.11958163976669312 0.00701573072001338 0.07108656316995621 0.022821715101599693 -0.047524940222501755 0.021126961335539818 0.0522121824324131 0.02454843558371067 0.10281144082546234 -0.003017857437953353 0.13537736237049103 -0.15940767526626587 -0.016289347782731056 -0.06844835728406906 0.061440978199243546 0.022717317566275597 0.11530323326587677 -0.04711584374308586 -0.013112205080688 -0.06702011078596115 0.005135391838848591 0.05051777884364128 -0.08963114023208618 -0.03955357149243355 -0.030063368380069733 0.0765439048409462 0.10900421440601349 -0.020030518993735313 0.040898825973272324 0.022552911192178726 0.026943428441882133 0.09004402160644531 -0.014401094056665897 0.03271549567580223 -0.06590552628040314 0.15855351090431213 0.06126222759485245 0.02599509246647358 -0.011331358924508095 -0.04216859117150307 -0.03922117501497269 0.004148461390286684 -0.003579609328880906 -0.01402132585644722 -0.03678537905216217 -0.055710069835186005 -0.07549887895584106 0.01487602200359106 0.035379063338041306 -0.09029150754213333 -0.09533915668725967 -0.07485664635896683 0.006835211534053087 -0.017481636255979538 0.004038553684949875 -0.0615171380341053 0.006209911312907934 0.138350248336792 0.008510587736964226 0.006555621512234211 0.012742370367050171 -0.001921550719998777 -0.06873446702957153 -0.048969369381666183 0.027945086359977722 -0.01000550389289856 -0.011277521960437298 -0.059221234172582626 -0.009765522554516792 -0.02269172854721546 0.01604371704161167 0.0052048374688579875 0.02261181046586078 0.06827092913260968 -0.04461773128197156 0.010513554717585147 -0.06812976826221612 0.0086767238556959 -0.06406721228011994 0.09427449008564559 0.055501811229821146 0.032996255181433926 -0.019367232156165627 0.018329609453278033 -0.002535887799809441 -0.026173627926552968 -0.020972168287119043 -0.06565732534019172 -0.06085749577331963 0.09699511865268692 -0.024815667304466656 -0.00743258311517571 0.03281965400737424 0.06589286687203029 -0.015902656407710238 -0.07667296676545933 0.06074775722013981 -0.01647856746929207 -0.01323739748616487 -0.018916992120286365 -0.05880197637272811 0.00989869646417522 0.061367708606344884 0.019315339262069728 0.10097239878315796 -0.048309243548868355 -0.03232316549133743 -0.03420601745783104 0.08759509620085527 -0.06825314135055628 0.020505518802371794 -0.003409771386447113 0.037299830195274095 0.04088969266258106 -0.058321923157326164 0.08010211354946024 -0.1683696071554821 0.023379737222342163 0.07540778807900665 0.04485503321323677 0.03390188343051676 5.0178780413120256e-05 -0.10716572120368922 -0.1066250636818595 -0.013778903488409204 0.09898189170927076 0.003656561417893147 -0.02282827698423057 0.019376698686333273 0.04744995113101774 -0.05117592810959659 -0.0362168995996249 0.13711738824033784 0.13385667000194137 -0.00701325955074684 -0.023292168718923072 0.05896473795467142 0.06607855857945306 0.08795495056309259 0.012356496473871539 0.0320281276694714 -0.0343346606703184 -0.015210097946466215 -0.05467731625343142 -0.03201104482288823 -0.093359063565114 -0.08503413112977272 -0.03215843142617206 0.0688975297122761 -0.06091549811170363 -0.006552009526944145 -0.0015456809645894181 0.04260820299669129 -0.09593094934190646 -0.10676925059730387 -0.04283015086557297 0.0225413158558265 -0.062102719636882873 0.10717781159580478 -0.018007051178466016 -0.0995777023633814 0.029914110937753167 -0.07381316735533783 0.07570961426644389 -0.006826246958324295 -0.09728981743845351 -0.0014593251079425414 0.09535915888098366 -0.04829102536664797 0.01124591077921493 -0.01900946227478387 0.10774582624435425 -0.027058495208621025 -0.020143700763583183 0.09914001822471619 0.06494417041540146 0.022838810458779335 -0.005942143499851227 -0.0063918596133589745 0.1545020490884781 -0.15278199315071106 -0.0014264186611399055 -0.10348409414291382 0.05958325043320656 -0.004326079040765762 0.10154242813587189 -0.12022523581981659 0.1918722689151764 -0.00034986421815119684 0.061400607228279114 0.03958582133054733 -0.05350685492157936 0.014020339585840702 -0.05561313405632973 -0.13581635057926178 -0.02326313965022564 0.07268799841403961 -0.009395720437169075 -0.03989902511239052 -0.014323675073683262 0.0018610075348988175 0.06300494819879532 0.02961304411292076 0.08155371993780136 0.19370396435260773 -0.05755006521940231 -0.056747596710920334 0.031974438577890396 -0.07632475346326828 0.02297065034508705 -0.07387296110391617 0.19800597429275513 -0.02171080932021141 0.04520601034164429 0.0008361555519513786 0.035988468676805496 -0.03533541038632393 0.04933647811412811 -0.12341480702161789 -0.004046440124511719 0.011016037315130234 -0.03858940303325653 0.07468993961811066 -0.15731216967105865 0.0019368488574400544 -0.0859554260969162 0.035681817680597305 -0.13867603242397308 0.019022058695554733 0.004948813002556562 0.005954863969236612 -0.056555576622486115 -0.05830805003643036 -0.018912846222519875 0.06221931055188179 0.0019415299175307155 -0.05468224734067917 0.03573254123330116 0.08569227159023285 -0.06910373270511627 0.05764450132846832 -0.12281467020511627 -0.0733262449502945 -0.0036690926644951105 -0.03247442841529846 -0.004076809156686068 0.007246950641274452 0.016723014414310455 0.09632615000009537 0.043959394097328186 0.012205705046653748 0.009923120960593224 -0.028962163254618645 0.14798711240291595 0.02542189508676529 -0.031388916075229645 0.05722074955701828 0.08388233929872513 0.0991043895483017 0.03467940911650658 -0.09109538793563843 -0.027332328259944916 0.021033555269241333 0.09535595774650574 -0.03487669304013252 -0.05230000987648964 0.011813496239483356 0.029596449807286263 0.06338445097208023 0.03000357188284397 0.08219408243894577 0.07408590936343457 -0.0817860332678641 0.01994367778368304 0.04578671734199749 -0.011127600704084938 -0.00884443856552365 -0.02897219539107535 0.10203259379311373 0.0010658054430179565 -0.04025869456506636 0.08546184456757154 0.029724454632579587 -0.08802721954091454 -0.054832669932189944 -0.13881742978512004 -0.05477065749621492 0.0638484391426708 -0.07556282481903967 0.019367471843265597 -0.05815174611677163 -0.010531959831141424 0.0756920815923302 -0.015760496960347155 0.0637658758854169 -0.04145040801391912 -0.007342505877002521 -0.13477361228076679 0.01599498156742973 0.012820428754348788 -0.049935758526627 -0.06723684816346465 -0.03615585896759144 -0.036904839867001556 -0.06063193048605616 0.04049871444602471 -0.06250136098419756 0.05889508581474421 0.07724540843282238 -0.014877520759757233 -0.10811054117554345 -0.06011162963541032 -0.1230141022418047 0.0066671557988648815 0.11407426534741577 -0.02619924472450855 -0.016410519442945522 -0.02284712553362305 0.08434213975522743 -0.034731710832945205 0.038100613426240215 -0.040477835817325385 -0.042390634340659115 0.0153407777530364 -0.09702175459831003 0.06638772858772317 0.007505061295522478 0.11304196407973545 -0.03203213933007219 -0.022326116416918302 0.0371019512017397 0.11986921085267194 -0.08312437717790269 -0.0005410671301551698 -0.08003635813260246 0.01592289815252975 0.06014297312013199 -0.02309111901390096 -0.0777778281822827 -0.09559732978051914 -0.03049766039081745 -0.03915182499137046 -0.09382298224900242 -0.10490378982875874 -0.06713518540302806 -0.06234440595930067 -0.15187804116608758 0.037614089150724096 -0.04903823381808389 -0.06253049403271939 -0.026061014967102374 -0.043667296222645764 -0.08909877589109691 -0.012527169681037618 -0.06269753351274839 -0.0366248146707285 0.013013960616634799 -0.0885457369065173 -0.004566440420195579 -0.06378152736539285 -0.023088473625339508 0.06158630032715676 -0.022883941598631503 -0.036386490044567614 -0.03435240186415713 0.054370620403383335 0.09399104206542883 -0.13490384710411246 0.08171020291298181 -0.02564420321871546 0.03852739777528447 0.04177369549870491 -0.09320114552974701 0.037187788635492325 0.0631614699959755 -0.012086551636457443 0.0214827973395586 0.01547163538634777 -0.052059970796108246 0.006503865122795105 0.05259416252374649 0.02147916704416275 -0.04538355767726898 0.10999595373868942 -0.08674220740795135 0.0705823004245758 -0.0922476276755333 -0.02115132287144661 0.1129724308848381 -0.027231886982917786 -0.005776711739599705 0.07294587790966034 0.040500298142433167 0.09923072904348373 0.0005433043115772307 -0.016333235427737236 0.12225755304098129 0.010476594790816307 -0.03333147615194321 0.05479417368769646 0.01097519788891077 0.09179341048002243 -0.01487044058740139 0.06957700103521347 0.02859121561050415 -0.08838456869125366 -0.011719542555510998 0.03149519860744476 0.06918040663003922 0.10989701747894287 -0.011804352514445782 0.028364034369587898 -0.021202947944402695 -0.09778528660535812 -0.024073485285043716 0.020376741886138916 -0.029850708320736885 0.031439319252967834 -0.06470900774002075 -0.026932602748274803 0.054493796080350876 0.04367874562740326 -0.14359618723392487 -0.11471133679151535 -0.014197672717273235 -0.00145941402297467 -0.0015092074172571301 -0.012367000803351402 -0.017170032486319542 0.011845843866467476 -0.08185363560914993 -0.014968776144087315 0.03992781415581703 -0.06138896569609642 0.07503391057252884 -0.05876731500029564 -0.07179322838783264 0.1448289453983307 -0.035416215658187866 -0.015409257262945175 -0.036381106823682785 -0.037053123116493225 -0.035239629447460175 -0.1485641747713089 -0.018770186230540276 0.035324886441230774 0.002368043875321746 -0.027166694402694702 -0.07855135947465897 -0.17207084596157074 0.008021813817322254 0.006612502504140139 -0.06270653009414673 0.04238148406147957 0.07429821789264679 0.035292137414216995 0.06345749646425247 -0.06930304318666458 0.07764966785907745 -0.020108738914132118 0.02426600083708763 -0.020052580162882805 -0.004730579908937216 0.0168610829859972 -0.002547783777117729 0.013413027860224247 0.034084502607584 0.0051823630928993225 0.08772657066583633 0.0748368352651596 0.09213700145483017 0.04736550152301788 0.0872180387377739 0.09122945368289948 0.09124228358268738 0.021405784413218498 -0.05712468922138214 0.0825888067483902 0.01991470903158188 0.009157001972198486 -0.10181287676095963 -0.06626434624195099 0.021687887609004974 -0.017719771713018417 0.022012557834386826 -0.014489870518445969 0.079747274518013 0.013274714350700378 0.16341160237789154 0.05661723390221596 -0.1179695650935173 -0.07444875687360764 -0.06140558049082756 0.07847010344266891 0.1219060942530632 -0.008859101682901382 -0.023195872083306313 0.08009587228298187 -0.02741115540266037 0.12333373725414276 -0.009420113638043404 -0.05328821763396263 0.014827998355031013 0.10150608420372009 0.07530288398265839 0.09129370748996735 -0.11507648974657059 -0.032581426203250885 -0.08180127292871475 0.037868715822696686 -0.018846364691853523 -0.09321470558643341 0.08216921240091324 0.018332868814468384 0.04779775068163872 0.01679358072578907 -0.07292903959751129 -0.01879747584462166 -0.07455791532993317 -0.007374718319624662 -0.03645401820540428 -0.049185510724782944 0.011448689736425877 0.10657288134098053 0.03136909008026123 -0.10489995032548904 -0.030472299084067345 -0.05216667428612709 0.09806052595376968 0.09084954112768173 -0.031942885369062424 0.11744590103626251 -0.0004901035572402179 -0.020557202398777008 0.1176740750670433 -0.07796670496463776 0.0686117485165596 -0.03297289088368416 -0.019954726099967957 -0.016337480396032333 0.06611046195030212 -0.020408321171998978 0.0036500932183116674 0.07753747701644897 -0.014922624453902245 0.0742194876074791 -0.14991526305675507 0.030124403536319733 0.027039263397455215 -0.0803220346570015 -0.02780601568520069 -0.08802995085716248 0.06802994757890701 -0.10749107599258423 0.04692884907126427 0.06002867594361305 -0.03560049086809158 0.08516258746385574 0.03216034546494484 -0.013618876226246357 -0.06992964446544647 0.0738975778222084 0.12893299758434296 0.05052768066525459 -0.023280970752239227 -0.04111376777291298 0.04865148663520813 -0.05649842694401741 0.006002622190862894 -0.03687058761715889 0.016470763832330704 -0.11483074937395084 -0.06144263763317085 0.06499909959106737 -0.002636493204509643 -0.05737823250390954 -0.08243891272504243 0.05189405427805193 -0.01067842340174125 0.05285771097056844 0.024920196114555267 -0.08210199477673814 0.0336452637410238 0.11665879905620528 0.035006562746080855 -0.08462172750188536 0.04114381340951024 -0.02588187251255595 -0.1228719624058675 -0.052707134949139284 -0.035626597040900924 -0.030035654943142188 -0.009825239548781162 -0.024207011923603416 -0.09459523532080825 0.040388419203988224 -0.01789972285029582 0.04549931868341235 -0.01127191212555653 -0.02642165248728585 0.05531037830096524 -0.04322612374694766 -0.020077507186258125 -0.06788249478975432 -0.007595486721529524 -0.001831018181665396 -0.0031368189045774372 0.13965385647438813 0.017357658910994396 -0.0494217775965321 -0.006096013169965393 -0.05454369154256917 0.13746862833654427 -0.15805188770663625 -0.019431745976999155 0.03218302553612899 0.07466952650182604 0.035821908845581875 0.007701387771933114 0.019843335882254624 -0.16093106478719676 -0.037443080017953774 -0.01563054112536159 -0.08302957935802913 0.08988849407788839 0.10828082511560207 0.008361288681481744 0.031687944106414984 0.042697753831206255 0.00818677635968478 -0.14824620293096924 0.03301861427772088 0.13067071873905534 0.06028896670665594 0.06290123907222246 -0.00690959385171746 -0.06845319501450059 0.10557376568063254 -0.11806327812114606 0.024586678661977012 -0.004774492508589067 -0.05755964320820756 0.07363699072237029 -0.08438105356602887 -0.06561414448189952 -0.08618902282145828 0.012979678611766986 0.040567492169058604 -0.02324865061997253 0.02176818181762491 0.017938683294248532 -0.04164506286982067 0.042553900400616004 0.012876421320556934 -0.05495016235071975 -0.04238996472814162 0.04741167445145119 0.026224195279866844 0.04408818249403399 -0.08154011487078197 0.02626157126854993 -0.0427224457931721 0.09656915204688596 -0.08909501490026128 0.0030481973059810668 -0.000716186695379919 -0.02938490176150219 0.04514518157843723 -0.11200986275561926 -0.11941015136106316 -0.0041514642107368625 -0.015973417088389397 0.07401970028877258 -0.030523385852575302 0.017630791291594505 -0.08309422433376312 -0.17452004551887512 -0.05423956736922264 -0.07155463844537735 0.03227891027927399 0.13536150753498077 0.0180780328810215 -0.06773575395345688 0.05994956195354462 0.03311929479241371 0.0354691818356514 -0.05162695050239563 0.05594553053379059 -0.09182118624448776 0.12120334059000015 -0.09492272138595581 -0.046242110431194305 0.08144950121641159 -0.09969720989465714 -0.07169842720031738 0.027140894904732704 -0.09985470771789551 0.07463297992944717 -0.09307721257209778 0.01422116719186306 0.047789566218853 0.08871819823980331 0.06205815449357033 -0.08848736435174942 -0.15819214284420013 -0.07351918518543243 0.01572253927588463 -0.04622722417116165 0.08138874173164368 -0.1671171337366104 0.03988352417945862 0.007282340433448553 0.07172522693872452 0.09540737420320511 -0.272197425365448 -0.010369095019996166 0.15890951454639435 0.03608924522995949 -0.06533283740282059 0.019778521731495857 -0.006130993366241455 -0.06663870066404343 0.031078465282917023 0.14026880264282227 0.12448091059923172 0.05662734434008598 -0.01688232831656933 0.0764029324054718 0.038648515939712524 0.05175789073109627 0.060487519949674606 -0.0650688037276268 0.09796178340911865 -0.07511629164218903 0.1096745952963829 0.06372725963592529 0.10236839205026627 -0.01623593457043171 0.045800548046827316 -0.06591979414224625 -0.019678693264722824 -0.15478885173797607 -0.04535096511244774 0.12207011878490448 0.02942146733403206 0.015363646671175957 0.1040821373462677 0.03212385252118111 0.09709087014198303 0.0554346926510334 0.01083285827189684 -0.019386157393455505 0.1243080422282219 0.06549611687660217 -0.07238452881574631 -0.10794854909181595 -0.04646490141749382 -0.05699373781681061 -0.028012674301862717 -0.005849597044289112 -0.025668783113360405 -0.0373239628970623 -0.031381670385599136 -0.014545975252985954 0.052286334335803986 -0.02140013873577118 0.07363764196634293 -0.040348637849092484 0.015087856911122799 -0.008687973953783512 0.013328623957931995 0.10343648451114322 -0.041540961874490336 -0.029468163859178036 -0.08678561077777154 0.05660433939425988 0.06184794036698011 -0.08233367764865332 0.04496122047977708 0.07456331952995555 -0.0807849683039186 0.018857130015825924 -0.08561516912619753 -0.011131230755636752 0.07286501194460972 -0.07023678916746591 0.01702242070087796 -0.1227394554027098 -0.10796917993102825 -0.023222702337544233 0.14366373776827707 -0.11260398957455667 -0.010885129913795645 0.05354676514596271 0.0016972159076535387 0.004344642356941957 0.08049635883822048 -0.0769058188140273 0.03825030440613399 0.057831389162976254 -0.07153934558510024 -0.010274815911751953 -0.0001767169002903035 -0.004411882619583501 0.07591189780112019 -0.02743425909211792 0.032968573533525086 -0.04020790222414359 -0.14421795558260173 0.02904847306239915 0.06986962961442143 -0.1689712978353497 0.053036808834523066 -0.08378719175042484 0.021607710215171955 -0.10076801537462923 0.04838757153728732 0.04262850301619001 -0.028767437270293707 -0.07561412532492509 -0.04494910100353543 0.017669219887079344 -0.051452409461587564 0.021484619655966587 0.0367042627552527 0.13415453010291112 0.025558558972656752 -0.01005388223788088 0.016434812708977828 -0.01779856288248718 -0.025048868428637613 0.026590842260394702 -0.12803824413468698 0.08813221284600996 -0.026687481658202873 -0.12780751917474265 -0.07102335596690432 -0.0014105365680696137 0.11096491216604921 -0.049273126880766405 -0.01562097839920494 -0.06594291649962353 0.01368764448728669 -0.019485843694799457 -0.05888352764387244 -0.03842426848846688 -0.10293708106337557 0.07436324231967448 0.05601241939674464 -0.08837341502166743 -0.0399953758981964 -0.008252588033919364 0.043809871096874085 0.008741043509892249 -0.05487397352977279 -0.017908640718770998 -0.027798248815607832 0.07917973036175771 -0.01718172704934605 -0.087676475340081 -0.0323609279483012 0.05906265246569339 0.020291695436592164 -0.006807391802054547 0.02275749358753475 0.0369413417515468 -0.0613223055092783 -0.11777319373780075 -0.0543356591703742 -0.08192584827669609 0.061524729045488696 -0.0003601980861276388 0.0503072515130043 -0.05718354135751724 -0.07237417250871658 -0.02653939090669155 -0.05395704507827759 0.02031598426401615 0.04707211256027222 -0.06488501280546188 0.025977041572332382 -0.02865121141076088 -0.0814884752035141 0.06135772913694382 -0.04431932792067528 -0.0023184746969491243 -0.05101917311549187 0.11055614054203033 0.05895183980464935 0.0332041010260582 0.011419584974646568 0.05986243486404419 -0.06419716775417328 0.0096764350309968 -0.15685829520225525 0.0782846137881279 -0.07199595123529434 -0.029309047386050224 -0.026472317054867744 -0.07069151848554611 -0.023290233686566353 -0.024931685999035835 0.0365082249045372 -0.04037892818450928 0.09021268039941788 -0.13252294063568115 -0.06431489437818527 -0.032021865248680115 -0.022188430652022362 -0.04280299320816994 0.002968219807371497 -0.011843003332614899 -0.0886712372303009 0.04697895422577858 0.021129632368683815 0.018587719649076462 -0.06508859992027283 -0.08184443414211273 -0.058160971850156784 -0.02315918356180191 -0.13273084163665771 0.064756378531456 0.002203023061156273 -0.004182818345725536 0.23223935067653656 -0.026794588193297386 0.07669126987457275 0.0206600334495306 0.04051230475306511 0.03347430005669594 0.02972974069416523 0.03531760722398758 0.006880891975015402 -0.10984703153371811 0.02147795259952545 0.0809774100780487 -0.08208533376455307 0.024012940004467964 -0.015713216736912727 -0.0016800796147435904 -0.0666874423623085 -0.07160481810569763 0.02195453830063343 -0.15541304647922516 -0.018817076459527016 0.06467138230800629 -0.03163762763142586 -0.013930746354162693 -0.06294115632772446 -0.14735201001167297 0.0725308433175087 -0.05326595902442932 -0.07694924622774124 0.0366099514067173 -0.003976208157837391 -0.08773567527532578 0.05337788909673691 -0.1001499593257904 -0.0177147313952446 -0.030382180586457253 0.0750914067029953 0.007600919343531132 -0.0169190876185894 -0.0018098342698067427 0.0010227237362414598 0.0583457313477993 0.08140283077955246 -0.005412892438471317 -0.08512786030769348 0.10737248510122299 -0.022133920341730118 -0.012219103053212166 0.02548229694366455 -0.025060879066586494 -1.9847722796839662e-05 0.01313631609082222 0.00418696878477931 0.04802287742495537 0.02830783650279045 0.050188206136226654 -0.024057872593402863 -0.15411455929279327 -0.012894492596387863 0.01599234901368618 -0.09384745359420776 -0.06403643637895584 -0.0058146752417087555 -0.0577627494931221 -0.03500869870185852 0.059399645775556564 0.01897573471069336 -0.0004272454243618995 0.031214639544487 -0.0010960102081298828 0.1837662160396576 -0.05893651396036148 -0.06530419737100601 0.056158192455768585 -0.06360986083745956 -0.02164938673377037 0.15296438336372375 -0.011427216231822968 -0.049963925033807755 0.05156026408076286 0.141628697514534 0.04867388308048248 -0.09113342314958572 -0.02892383188009262 0.06071481108665466 -0.10244254022836685 0.1025555357336998 -0.06154880300164223 -0.07431060075759888 0.05326605960726738 -0.03253161162137985 0.035153478384017944 0.020366748794913292 -0.04132594168186188 0.04462990164756775 -0.05210607498884201 -0.05062086880207062 -0.15031081438064575 -0.05286494269967079 -0.01019061915576458 -0.04331262782216072 -0.00962760392576456 -0.03650563582777977 -0.02552744373679161 -0.07007844001054764 -0.054257653653621674 0.0703592374920845 -0.07697431743144989 0.17455121874809265 -0.0214507095515728 -0.1044275239109993 -0.010185357183218002 -0.02183649316430092 0.0028354728128761053 -0.12255928665399551 0.15146039426326752 -0.04764041677117348 0.024257801473140717 -0.03362397104501724 0.05283082276582718 0.05660807341337204 -0.053281571716070175 -0.06670782715082169 -0.021690476685762405 -0.04194042831659317 -0.04405361786484718 -0.0064450097270309925 -0.0007846303633414209 -0.02142169512808323 0.006695470307022333 0.0759899765253067 0.0416487492620945 -0.007164028473198414 -0.06059328839182854 0.005424134898930788 0.15534313023090363 0.02861402928829193 0.007023811340332031 0.033498045057058334 0.029322627931833267 -0.02332504838705063 0.047312431037425995 -0.013878822326660156 -0.041667159646749496 0.0873769000172615 0.06315655261278152 0.05973154678940773 0.017975954311541677 -0.11233588448340374 0.06620754833379473 -0.02051670019280868 -0.08494062883550145 -0.040126895131074085 0.02351025210751952 0.07598290437356585 -0.037375479285871024 -0.04871026089965065 -0.06926488906629558 -0.07330791836496257 -0.07097700796315563 -0.011081532512553715 0.05729821865422097 0.03288362661296511 0.046162153089743335 -0.12240752826861744 0.012745278239293972 0.10942768971694221 0.012836213429777043 0.17761834657351452 -0.12673933016327607 0.11680133599950328 0.028109595341700967 -0.0063948820986297035 0.020051462886707675 0.024930007570529943 0.04201682928041063 -0.000650356556966068 -0.06560423385525718 0.05715843063681235 0.004463444000266149 0.019916749282703112 -0.002915111172554715 -0.024393841199499684 0.05129349852984589 -0.05638405147591262 0.1102782256760882 0.048717201530301305 0.010420643423997105 0.017594297271691154 -0.0691530355770772 0.11463587350749514 0.03514813438504148 0.023226429623210445 -0.04572452167449532 -0.042374939093967445 0.035355116574041 0.053088090050937335 -0.02439056406340974 -0.011059731340448653 0.011527819805873064 -0.010325756510251425 -0.01394952089833978 -0.11900209361851699 -0.027225716977388983 0.10065797370607396 -0.017083915790136614 0.025416033456080154 -0.034222129131456995 -0.012347198544701423 0.0749573350045419 0.11977647758594065 -0.10162844272870816 -0.08808569101273553 -0.006255534881773945 -0.029314873252236917 -0.1620916930492424 0.05779918070392515 0.05238401680789439 -0.015516843583138243 -0.10107268966034054 -0.039188263110325694 0.011793249901537038 -0.11305987824005642 0.0340349710645805 0.009776887051577726 0.004690170309294318 -0.02579926527316044 -0.08956235729510913 -0.07487672805294407 0.0038164723815883083 0.03726771094255477 0.005865679387794626 0.03308244635544194 0.031177512645876867 0.05554955746143222 0.006784805835448539 0.03045369471551836 -0.05064340928800141 0.020470238147081626 0.01746971647234145 0.11472483104594348 0.07676397666449203 0.02855297817542865 -0.01540268317710769 -0.05489056816122094 -0.030946223952700906 0.0484020669865679 -0.03851817175745964 -0.09818185865879059 0.04326817765831947 0.029877711087465286 -0.05733729153871536 -0.039048630744218826 0.04516176879405975 -0.007155210245400667 -0.020846035331487656 -0.06557492166757584 0.007678305264562368 0.04108892008662224 0.12625642120838165 -0.0015379637479782104 0.0407971628010273 -0.10498927533626556 0.14533862471580505 0.036169297993183136 -0.05982695147395134 -0.1284472495317459 -0.041827548295259476 -0.06711552292108536 0.009527387097477913 -0.0009894240647554398 0.062052205204963684 0.017992094159126282 -0.0791490226984024 0.014529905281960964 -0.06458011269569397 -0.030152274295687675 0.13108095526695251 0.09655089676380157 -0.17328502237796783 0.07581421732902527 0.10100771486759186 0.02606593631207943 0.07519570738077164 0.039173707365989685 -0.0007153720944188535 0.06036270782351494 -0.05331432819366455 -0.0791533812880516 -0.042803794145584106 0.021297821775078773 0.023430857807397842 -0.0890941172838211 -0.041185539215803146 0.04649036377668381 0.06504380702972412 -0.03959684073925018 0.022459620609879494 0.0041374750435352325 -0.06575734168291092 0.0534982904791832 0.04129268229007721 -0.04492836445569992 -0.005358706694096327 0.011804488487541676 -0.025906886905431747 0.040885068476200104 0.000283628236502409 0.05164393410086632 -0.002894176635891199 0.08898559212684631 -0.09032934159040451 -0.038510482758283615 0.001087022596038878 0.06128067523241043 -0.023188726976513863 -0.07937507331371307 0.04589853063225746 0.010464958846569061 -0.001385401701554656 -0.0668407678604126 -0.040716659277677536 -0.11396674811840057 -0.08459006249904633 0.08618012070655823 -0.012827198021113873 -0.10466184467077255 -0.019389083608984947 -0.013104199431836605 -0.06573603302240372 -0.004066129215061665 -0.08186296373605728 0.02035517245531082 -0.0396876186132431 -0.04132929816842079 -0.05217050015926361 -0.006594747304916382 0.007754895836114883 -0.07299017906188965 0.029905477538704872 -0.12359798699617386 0.04579528048634529 0.03757810220122337 -0.014028513804078102 -0.04255959764122963 0.019458334892988205 0.023400723934173584 0.03749738255685699 -0.18907564531256277 -0.025834058146690757 -0.011367418283507494 -0.005706726770293608 0.10789243550968443 0.11425470879196253 -0.1297627689064215 -0.008902832379071818 0.024972558886487594 0.07127882353519532 -0.06518606876532261 0.035412898086156365 -0.023206902345922657 0.004078806510372174 0.05013677053140471 0.023695376845269435 -0.015079005197355416 0.07704338546863347 -0.014648168979076084 -0.11694698318940397 0.12181718048140985 0.10821893396654779 -0.0003256171585762345 -0.06432722577882075 0.009807225175063673 -0.0371640889206385 0.10887128062441195 -0.04850516819904664 -0.13881298601370592 0.05324114928547333 -0.006137769858207729 0.012149143229413016 -0.03887524026635739 -0.016817533583786518 0.002306921997152705 0.015592262287600632 -0.014710978286045059 0.0922490019127241 -0.02860359026452582 0.03905603864483791 -0.11382958065235226 0.038669470067674995 0.023003514693987148 -0.04741660125247111 0.14079326432489378 -0.08869994256923494 0.1131020547353154 -0.087410235686699 0.01162399810419085 -0.06969286101634248 -0.010569096453828843 0.010215007095373025 0.00743137685447014 0.09599894246151729 -0.07505918655791499 -0.12313217048449926 -0.09444960029167075 0.05174802592598858 -0.07201302494452914 0.14163745533768315 -0.007740419173397116 0.014393336131020014 0.06561226206586815 -0.10039964429251233 -0.0012355629780392322 -0.058558755562373874 0.12381446602385061 0.00954480550001458 0.015744112266618492 0.05499555677543615 0.032735505469663626 -0.05073839888587162 0.019309682165534043 0.030844127938148235 -0.18554239732947372 -0.009922918278608249 0.0493070512699306 -0.025701978107534933 -0.017776393232545255 0.0865621444460549 -0.010380454437544536 0.11609378096606464 0.05474962353142479 -0.0008929276154645239 0.026405859442580584 -0.0881858910400241 0.004319657782655019 -0.15317620674108232 0.08801643494687458 0.03316652299919268 -0.04699461124550504 0.016674743149665303 -0.06356714992194629 0.06958946420434949 -0.031439544461210736 0.08919143481745413 -0.10853403365259026 0.036853550184502114 -0.02567282796514551 -0.07657280564308167 -0.03803302347660065 -0.012788168154656887 0.11917158216238022 -0.0941772311925888 0.04024370759725571 -0.08612793684005737 0.027810748666524887 -0.02209450863301754 0.021277474239468575 0.056619975715875626 0.03184402361512184 0.06005341187119484 0.05393573269248009 0.07923083752393723 -0.019777080044150352 -0.11467152833938599 0.0951734334230423 0.10329481959342957 -0.03421982005238533 0.07163092494010925 0.00632832245901227 0.06579102575778961 0.11268693208694458 -0.06474390625953674 0.005149312317371368 0.03390224277973175 -0.033666107803583145 0.008626819588243961 -0.02970094420015812 -0.03332973271608353 -0.03769226744771004 -0.03204261139035225 0.05003727972507477 -0.06865750998258591 0.021565552800893784 -0.09489312767982483 0.012393606826663017 0.041647493839263916 0.05815865844488144 0.05586498975753784 -0.07144210487604141 0.05740134045481682 0.13738460838794708 0.14282634854316711 -0.003781715175136924 0.05698855593800545 0.021845152601599693 0.037573929876089096 -0.028522657230496407 0.02998572401702404 0.10081895440816879 0.059675250202417374 -0.04897160083055496 0.05484523996710777 -0.06900407373905182 -0.0450141467154026 -0.01918536238372326 -0.029346199706196785 -0.006323848385363817 -0.019925270229578018 0.05053343623876572 0.018105627968907356 -0.00047027276013977826 0.001089330529794097 -0.11483147740364075 0.03929215297102928 -0.14360164105892181 -0.09147536754608154 -0.03713630884885788 0.09039545804262161 -0.004355785436928272 0.016977092251181602 -0.005663431715220213 -0.1084551215171814 0.0629841759800911 0.029363447800278664 -0.04326707869768143 -0.06535454094409943 0.06295254826545715 0.018682250753045082 -0.07612216472625732 0.10780658572912216 0.05504292994737625 -0.011582665145397186 -0.037862617522478104 0.06294510513544083 -0.03489895164966583 -0.16633450984954834 0.1226382851600647 -0.022413263097405434 0.03644593060016632 0.057681016623973846 0.02226509340107441 0.0520208477973938 0.03313780575990677 -0.04940038546919823 0.013590699061751366 -0.010679852217435837 -0.03316228836774826 0.0481988787651062 -0.05999892204999924 0.08967892825603485 0.07333512604236603 -0.031685397028923035 0.00681962538510561 -0.02344532310962677 -0.1399163007736206 0.0746694877743721 0.08254338055849075 -0.011838920414447784 -0.02615673840045929 -0.10584741085767746 0.03461677208542824 -0.09897183626890182 0.06226364150643349 -0.010237379930913448 -0.053168635815382004 -0.0600600503385067 0.07110343128442764 0.04153142496943474 0.03461097180843353 0.07306861877441406 -0.0158553309738636 -0.14117471873760223 0.02015109546482563 0.07705341279506683 -0.006554475519806147 -0.01879788376390934 0.006406921427696943 -0.0696927160024643 -0.03208698704838753 0.018665537238121033 0.04610574617981911 0.03890438377857208 -0.1245194599032402 -0.009451941587030888 -0.13546878099441528 0.0018787879962474108 0.04216983541846275 -0.014304932206869125 -0.030498631298542023 -0.15284277498722076 0.05077289417386055 -0.0913272500038147 0.03452666476368904 0.13708798587322235 -0.048659905791282654 0.012691612355411053 0.07281122356653214 0.08761832863092422 -0.010679967701435089 0.009146418422460556 -0.052406568080186844 0.0012914995895698667 0.0002529199991840869 0.02965785190463066 -0.0569458082318306 -0.024689828976988792 -0.04867050424218178 0.0026823156513273716 0.046338554471731186 -0.01496826484799385 0.023084353655576706 0.01708195172250271 -0.015979740768671036 0.14735795557498932 0.008637764491140842 -0.0034753226209431887 0.05223218724131584 -0.0635816901922226 -0.03028944879770279 0.028436362743377686 0.022077273577451706 0.03786890208721161 -0.025866946205496788 0.002031745621934533 0.04447762295603752 0.09773914515972137 0.06737400591373444 -0.07391121238470078 0.013463384471833706 -0.08546201884746552 0.01643960177898407 -0.012536671943962574 0.0279547069221735 0.0693109855055809 0.06415721774101257 0.04326353967189789 -0.050062455236911774 -0.0916067436337471 -0.07311269640922546 -0.15983474254608154 -0.039563991129398346 0.05590570718050003 -0.030512385070323944 -0.01262129656970501 0.047449514269828796 -0.01838112622499466 -0.04681346192955971 -0.0769369027554107 -0.14656333670936258 0.01735887174048326 -0.05507591832332793 -0.0011932098793056558 -0.09806226815876543 -0.11534395041576066 0.09302167964553852 -0.004388946835602839 0.023791786682246095 -3.399401387590718e-05 0.0908521636510174 0.00603655310540138 -0.06741929186293599 -0.02573785091860284 -0.07137256109155718 0.08629610983728862 -0.0291671319881537 0.04011115249249698 -0.06065874448052371 0.11027905506415958 -0.03034097298184003 0.009637613216715283 -0.11455440148013478 -0.03904409979384782 -0.012969999229575174 0.022536705115725565 0.007022628132836044 0.07815372437017472 -0.03695763512230548 0.08461508973980443 0.07488691902543651 -0.013832733848017625 -0.01630924296572901 0.0009386180528135175 -0.03850663849985306 -0.06352055511567094 0.006987240142623992 -0.06351309725864336 -0.1770961200770933 -0.07272422421237287 -0.07058171218424236 -0.05574373633612409 0.04553132512825087 -0.012112746601357267 -0.12447905104752664 -0.05882006820218369 0.006996953505346424 -0.002324628759545838 -0.022954578538900237 -0.10987237621409877 -0.009505472070794609 0.10455445313945431 0.06232528507301524 0.03798752296290816 0.09840154099384739 -0.049258605039926934 -0.07974849731666012 -0.025201178569824834 0.04129134386859553 -0.023377480403267054 -0.07965781404509292 -0.026457988227018055 -0.05418591429449494 0.01812394118515819 0.07533828908659876 -0.001070123655028464 -0.03515905165970108 0.07082394281483653 0.05152704700931463 -0.038985005222888384 0.10132609711463456 0.06509203811894564 0.031922166504547406 0.06357649799692801 -0.026204529740025007 0.05142428891420863 0.03548707595210844 0.04529785010606546 -0.06418435883761131 -0.011138418143730714 -0.004476963651358424 0.031200970044456385 -0.06006712021751364 -0.15923938717636235 0.03073247873788871 0.065752181855791 0.0476292223533999 0.06431212068553947 0.027487768389137964 0.024239976744055862 0.07547196782460841 -0.09563308122676716 -0.0781638988864393 -0.0015929048345306878 -0.06999639332072656 -0.046475406737769016 -0.06719496097665904 0.11424243662860602 -0.050327299322749396 0.018117008730769157 0.039536722004413605 0.008365633897483349 -0.010416552424430847 -0.03379569575190544 0.020892681553959846 0.03160431608557701 0.04547363147139549 0.03295324370265007 0.01866927556693554 -0.0540616475045681 -0.010968715883791447 -0.049821898341178894 -0.048598673194646835 -0.06831345707178116 0.013123981654644012 0.07289647310972214 0.008821439929306507 0.021498221904039383 -0.11476213485002518 -0.08920852094888687 -0.024830399081110954 0.11261271685361862 0.007023559417575598 0.06619829684495926 0.010588032193481922 0.12763451039791107 0.013389457948505878 0.01722872257232666 0.10047683864831924 0.07440993934869766 -0.03499694541096687 -0.01541184727102518 0.07290735095739365 -0.11575240641832352 0.0158216655254364 -0.10905084013938904 0.01700836792588234 -0.02651316113770008 -0.06975208222866058 0.010795902460813522 0.037280067801475525 -0.09395534545183182 0.09097454696893692 -0.04346797242760658 0.028573380783200264 0.027989082038402557 0.0059949131682515144 0.06992845982313156 -0.002879338338971138 0.04986928030848503 -0.008224434219300747 0.027574090287089348 -0.08637841045856476 -0.02616330236196518 -0.005637544207274914 -0.07817607372999191 0.00400603748857975 0.13069485127925873 -0.06779581308364868 0.005589109845459461 -0.13527043163776398 0.02936544641852379 0.08316052705049515 0.06845667958259583 -0.06479382514953613 -0.019232245162129402 0.00038773880805820227 -0.06350477039813995 0.0016377678839489818 0.023754406720399857 0.06134819611907005 0.013487385585904121 -0.07802006602287292 -0.003990326542407274 0.027779607102274895 0.03346101567149162 0.04534735158085823 -0.06658772379159927 0.041851114481687546 -0.07557202875614166 -0.016226978972554207 0.07827587425708771 0.022013384848833084 -0.04170883074402809 0.016123106703162193 -0.0030765882693231106 0.046039704233407974 -0.0038438912015408278 -0.09281229227781296 0.0601155124604702 -0.07125888764858246 0.021914547309279442 0.026642225682735443 -0.056816089898347855 0.014132477343082428 -0.05443160608410835 -0.1270245760679245 0.013828381896018982 -0.016880597919225693 0.06344210252924155 -0.013500472661264305 -0.06577453940158091 -0.06981084816937366 0.048585409428553085 0.11534157277425881 0.01715062011396375 -0.0484828107003113 -0.09545577943086254 -0.05098944368359413 -0.10504402317662098 0.02720875698676929 -0.08089063445750712 -0.007357994857075365 -0.07671364329223473 -0.009999647579546016 -0.04662146562751162 -0.11073180812062079 -0.019054588416230915 -0.028157743694766656 0.15865883345715193 -0.08874464667401084 -0.13546034170009344 -0.0021127593376004438 -0.08069533177025973 0.12024355737403125 -0.03087897580394405 0.059914546457114956 0.02489645848871541 -0.07381551204435477 -0.024504634887292404 -0.024696985160894882 -0.03137792272712009 0.060944671802130916 0.023306940721907726 -0.042915010742350976 -0.06990233275425933 -0.14060738801849593 -0.12640970179610972 -0.025855568770589477 0.13152301089781682 -0.03758435342975858 -0.21121709774474431 0.03651831377156177 0.07206081759898875 -0.06387739286411359 -0.06738250930264196 0.05256876722175248 -0.07110463406793087 0.11143661176050777 0.006363808747717713 0.058062045129854 -0.0457092556640122 -0.07183431198739429 -0.04592596362471349 -0.0894753863931751 0.022128165981570504 0.004539961025171632 -0.08960499343862736 0.10772261378735554 0.0653600619848165 -0.09445639749167725 -0.021261864236360076 0.0678287298269795 -0.0034595778637258327 0.06368801451059182 -0.04059411805960164 0.07712715665786042 0.025965010072726138 0.08968725382814949 0.03532200031362745 -0.08432771460524137 -0.05051346243590366 0.0036670915996124013 -0.04055628045129572 -0.08926465952005799 -0.04948021164791759 -0.07987465638673125 0.022291687334920658 0.0046656234586891325 0.0347703695408525 -0.09824153241285409 -0.06185975618095883 -0.04528762677803722 0.06827424788359529 0.03650097681911579 -0.062374279296376164 -0.06716772800060251 -0.11118129328902457 -0.07053184533983035 0.026906677039002114 0.0518232411022097 -0.059941047212995084 0.061412521681171985 0.012145070959736673 -0.011512632338395445 0.022594320540247362 -0.03197056991956489 -0.03573766862848337 -0.06617385208427033 0.10944754630327225 -0.04199737682938576 0.0025098694022744894 0.1594630777835846 -0.045513637363910675 0.024041417986154556 0.010080402716994286 -0.0703236535191536 0.07650109380483627 -0.08179528266191483 -0.059538766741752625 0.13332201540470123 0.027432842180132866 -0.08162117004394531 -0.01693279854953289 0.054575394839048386 -0.0701005607843399 0.11907724291086197 -0.06122249364852905 -0.027564741671085358 -0.03415653482079506 -0.047513917088508606 -0.01295079942792654 0.06495724618434906 0.02283335104584694 -0.03490722179412842 0.002393407979980111 0.006429641041904688 -0.03820151463150978 -0.04519582912325859 0.05161290615797043 -0.07151979953050613 -0.006638629827648401 0.025079764425754547 0.024119343608617783 -0.04180922731757164 0.05984053388237953 -0.009648574516177177 -0.03226139768958092 0.04656542092561722 0.11644938588142395 0.04252997413277626 -0.015867941081523895 -0.04292226955294609 -0.06954097002744675 -0.036557637155056 -0.02365194447338581 0.04036779701709747 0.019343309104442596 -0.014248346909880638 -0.04436000809073448 -0.011365829966962337 0.1636333167552948 -0.025508727878332138 0.08944433927536011 -0.0249397661536932 -0.012223540805280209 0.0948183536529541 -0.01543927751481533 0.10306921601295471 0.029170049354434013 0.055140916258096695 -0.027272850275039673 -0.038776788860559464 -0.04929651692509651 0.016798725351691246 -0.0587722472846508 -0.09926744550466537 -0.12983709573745728 -0.0437624417245388 0.0020406206604093313 0.006090989802032709 -0.0685029998421669 -0.08673123270273209 0.014324959367513657 0.028470607474446297 -0.03978363797068596 0.06646867096424103 -0.08265308290719986 -0.00886470265686512 0.10517798364162445 0.035052552819252014 -0.07828275114297867 0.10699425637722015 -0.06107066944241524 -0.09353160113096237 0.030765242874622345 0.006788847967982292 -0.04601062834262848 -0.007815471850335598 0.008662203326821327 -0.04445328563451767 -0.0018320137169212103 -0.06345470249652863 0.01959747076034546 0.07638061791658401 -0.06910007447004318 -0.05812444910407066 -0.028723856434226036 -0.047904640436172485 -0.03869985416531563 -0.05434521660208702 -0.0011037306394428015 -0.013208126649260521 -0.03516050800681114 0.03652752563357353 0.04934670031070709 -0.024787619709968567 -0.0619749054312706 -0.06946773082017899 0.1346447467803955 -0.055597126483917236 -0.039617642760276794 0.042635004967451096 -0.0008875529165379703 0.002876648213714361 -0.09168651700019836 0.03152630850672722 0.05448182299733162 0.003754576202481985 -0.0019101588986814022 -0.03243592381477356 -0.016335073858499527 -0.07565651088953018 -0.00370948133058846 -0.04778045043349266 0.07237490266561508 -0.0421547032892704 -0.0009194797603413463 -0.015792012214660645 0.026091186329722404 -0.00019638441153801978 -0.16269221901893616 -0.06084704026579857 -0.06947667896747589 -0.003631538012996316 0.027993861585855484 -0.010955937206745148 0.004871675744652748 -0.05928359180688858 -0.03152807801961899 0.07548188418149948 -0.0016722370637580752 -0.041966989636421204 -0.004655397497117519 -0.028367051854729652 -0.003052716376259923 -0.03897687420248985 0.1053609624505043 -0.08330008387565613 0.02683798037469387 0.043017175048589706 -0.07141254842281342 -0.04786772280931473 0.10293733328580856 -0.03260697424411774 -0.02878614328801632 -0.07804882526397705 0.001518972567282617 -0.07968157529830933 0.1050707995891571 -0.07401340454816818 -0.12046700716018677 0.02912447601556778 0.03542088344693184 -0.034032151103019714 0.03703954443335533 -0.07265476137399673 -0.008705886080861092 -0.036489468067884445 0.027042226865887642 0.055645786225795746 0.025340083986520767 -0.05695071443915367 0.08775018900632858 0.0340149961411953 0.026613503694534302 0.1600923091173172 0.010024229995906353 0.02145821414887905 -0.11889956146478653 -0.10657869279384613 0.031575366854667664 0.059037841856479645 0.05214201658964157 -0.11679662764072418 -0.026658758521080017 -0.07484770566225052 -0.1243698000907898 -0.02178710699081421 0.023814307525753975 0.023889753967523575 -0.039838530123233795 0.08715522289276123 -0.05906404182314873 -0.1492541879415512 -0.04773080348968506 0.06224634498357773 -0.02066054940223694 0.0952645018696785 0.031193307490531792 0.036848737473218485 -0.009607736335476267 -0.008767329664023552 -0.11312247171900959 0.03190928410848022 -0.04362254318183286 0.12255184545729263 -0.11447026265118751 0.02754995531606486 -0.02116786856230649 -0.06572801050386914 0.021450190998452898 -0.13414622315583855 -0.04341506479362753 0.09578738366866543 -0.1508157722569393 -0.010170565915471011 -0.10452634248131194 0.04008226681222506 0.05077889302993184 0.04762063847273404 0.04965818816042517 -0.051077261364575424 -0.0918078805307554 -0.011837134139749081 0.07768053684007756 0.07126949956302399 0.053887306269305914 -0.07366274759914163 -0.03658348108638992 0.03449616694183111 0.0458209203945952 -0.010521837749778532 0.0006470193077238431 -0.07107359861357077 -0.046710064284714685 -0.061830425132995255 0.06780701347134165 -0.10847171045733223 -0.023899478424206148 0.03891742958081238 0.05551323393789738 0.033021345020262015 0.014732335968763086 -0.16270490438701835 -0.022299914442167335 0.1310409341786502 0.0548462812488502 0.06860580584728308 -0.07361149814590273 0.07377538297419854 -0.04498424688504667 0.006288544170471308 0.03561297626097471 0.03983944258125827 -0.13456960127285805 -0.005853208364002069 -0.1762129917459921 0.011546069837893785 -0.012688651780427272 0.031024090128832792 -0.0490703659883061 -0.059315460138318205 0.10803244940256318 0.12359067037110187 -0.08377968036928785 0.015704820253926815 0.04665174803230234 0.02975865980625984 -0.09320647716758367 0.14742477709596954 -0.02326616205865665 0.0642914318797464 0.08628735260190395 0.040877253498253545 -0.042216234665856674 -0.027601913535010222 0.04013133210599334 -0.08985376619783086 -0.058152778540962693 -0.12215604622039711 -0.05936183437732156 -0.014946649743919628 -0.06338336100623418 0.023170578055751408 -0.04809629185277844 -0.08407076294207838 -0.033999371207143296 -0.04944974653219639 -0.017975554449985495 0.04223994395832279 -0.13663516507352946 0.02177325550331396 -0.013710416602080697 0.0007587585845461496 -0.04651392886821467 -0.014493586017979372 -0.02650317027047738 -0.11744239820305359 0.032596684992313385 0.023687804117798805 -0.028467373922467232 -0.01232101395726204 -0.039780717343091965 -0.09436158090829849 -0.04730575904250145 0.15345290303230286 -0.02125941589474678 0.09165337681770325 -0.04104485362768173 -0.10336923599243164 0.0030409006867557764 0.07166353613138199 0.011233678087592125 0.16136595606803894 -0.021683886647224426 0.14103657007217407 0.03504425659775734 -0.047958116978406906 -0.04019201546907425 0.03582919389009476 -0.007444928865879774 0.060629379004240036 -0.021789152175188065 -0.0014904187992215157 0.024360034614801407 0.021718857809901237 -0.043750468641519547 0.0407954603433609 0.06197703257203102 0.037000492215156555 0.11242857575416565 0.00011585907486733049 0.07684078812599182 -0.11185939610004425 -0.0422719269990921 0.14055757224559784 0.0659005418419838 -0.01302259135991335 -0.059666216373443604 0.011265832930803299 -0.04149629920721054 0.07714814692735672 -0.03939187154173851 -0.06132042780518532 0.07626068592071533 -0.08984999358654022 0.09320829808712006 -0.03160421550273895 0.014456164091825485 0.027592148631811142 0.06876266747713089 0.07832144945859909 -0.10206983983516693 0.11226093769073486 -0.04035990685224533 0.06833063811063766 0.09305454045534134 0.005568054039031267 -0.014041492715477943 0.028387075290083885 0.08094558864831924 0.0606750026345253 -0.002460325136780739 -0.005801830906420946 0.017560748383402824 -0.055287934839725494 0.06407362967729568 -0.0346960574388504 -0.037536583840847015 0.09381680935621262 -0.053468625992536545 0.03256649523973465 -0.027255771681666374 -0.07549227774143219 -0.1061733141541481 -0.011320758610963821 -0.013062754645943642 0.0543682686984539 -0.026620298624038696 -0.10862141847610474 -0.0038180893752723932 -0.01718873716890812 -0.04368969798088074 0.07519029080867767 0.05205428972840309 0.09667811542749405 -0.05601731315255165 -0.09422988444566727 -0.058041125535964966 0.06553538143634796 -0.0331382229924202 -0.17102430760860443 0.00831799115985632 -0.014437103644013405 -0.07088090479373932 -0.021485595032572746 -0.05539502203464508 0.056075092405080795 -0.00346178501989049 0.025341940581513508 0.15820721818796402 -0.03022746639961637 0.08061217399438576 0.0009083649914689903 -0.047569678858214885 0.014062030734094259 -0.06101630542407103 -0.16047015877641 -0.15103440102411012 0.014737186277664776 -0.06816476295158294 0.026249569211490662 -0.0857398459552749 -0.09611923295699416 -0.030939356995070326 -0.10982880052548526 0.0269982154651899 0.015916528352963446 0.10289259972751541 -0.14190746583502578 -0.07602546965626444 -0.026609782650654407 -0.053632441895722506 -0.0941635896569937 0.05600597929372239 -0.017376732405160276 -0.0225375791337311 -0.017479200642056988 -0.06507269643785571 -0.019051664674421053 -0.020426849654790927 -0.17093932830738678 -0.013034317493820217 0.015919372965225193 -0.062475405221243244 -0.05440948188182209 -0.04843796687555425 0.04207860452992528 -0.03452141743452096 -0.023839733189358513 0.09253714553748173 0.05823976310429979 0.03640282925613361 -0.08668806617705166 0.0008427372217678099 0.09812538305595413 0.03799037508522557 -0.08967986675811217 0.009537670428272886 -0.07332493309667372 0.1312568401071165 -0.07028317922950839 0.08410378612968739 -0.09890687083703745 -0.08904347738239586 0.09629615091892259 -0.023729406213558474 0.025943415464829978 0.10876069043586199 0.06663804458034563 -0.053701229917913755 0.03142057191403954 -0.07003388127556064 0.10998536510959847 -0.07577631234553829 -0.0392667363824394 0.0085303828523912 0.052686705859019835 -0.1500109326760535 -0.08504719966086595 -0.012108818134582457 0.04447519596321795 -0.0007957075771200489 0.007124134056808594 -0.03141367749639949 0.03390374464987928 -0.06009378091595266 -0.018046234694616425 0.022060462224708356 0.051171998071495896 -0.012972447224980465 -0.07635576625508168 0.12779477461755456 -0.18343711256878867 0.02271503380265176 0.023249380699597116 -0.01740466724254949 -0.027253116828477694 0.060831769627459543 -0.018962181685179564 0.07717366348817865 0.04366164650723589 0.06229881858599281 0.039995413230887594 -0.08256367426881762 -0.05923070016656215 0.08598777626395541 0.011281674281494002 -0.03421008586883545 0.03316740319132805 0.025092849507927895 -0.06553824990987778 -0.01512380875647068 -0.06365011632442474 0.0778173953294754 0.0045767356641590595 0.0007040172349661589 -0.13958899676799774 0.0709884911775589 0.0607057549059391 -0.014591432176530361 0.1347368210554123 0.09420888125896454 -0.04992890730500221 -0.0819670781493187 0.08089922368526459 -0.030415069311857224 0.011579956859350204 -0.01965528540313244 -0.16721510887145996 0.09890352934598923 0.028688065707683563 0.04357772693037987 -0.12519800662994385 -0.06117028370499611 0.11525258421897888 -0.10398061573505402 -0.060521505773067474 -0.14456789195537567 -0.04129296541213989 -0.02007661946117878 -0.04681161046028137 -0.04332448169589043 -0.052685853093862534 -0.03733842447400093 -0.04379371553659439 0.023268533870577812 -0.049646198749542236 -0.13513833284378052 0.017914284020662308 0.09451597929000854 -0.025769207626581192 0.004032400902360678 0.006694240495562553 0.02973269857466221 0.12813594937324524 -0.01695481315255165 -0.03445057198405266 0.0010750198271125555 -0.024738727137446404 -0.002690520603209734 -0.014926323667168617 -0.032734353095293045 -0.09247404336929321 0.0183342844247818 0.17326876521110535 0.03416269272565842 0.05945713818073273 -0.027866305783391 -0.03223036974668503 -0.026302648708224297 -0.022879671305418015 0.019999869167804718 -0.011715497821569443 0.03661620616912842 0.013803538866341114 -0.050369542092084885 0.07476981729269028 -0.024096284061670303 0.024538850411772728 -0.0118092130869627 0.036827340722084045 -0.024578887969255447 -0.06672434508800507 0.04075669124722481 -0.034785497933626175 0.025644225999712944 0.07969409227371216 -0.02419196255505085 0.10687539726495743 -0.0798686221241951 0.16500027477741241 0.14670774340629578 -0.08672568202018738 -0.024944311007857323 -0.051121972501277924 -0.019188182428479195 0.04515562579035759 -0.01776786707341671 0.04053298756480217 0.006298158783465624 -0.052359938621520996 0.001206382061354816 -0.06123422458767891 0.09399664402008057 0.06179051846265793 -0.11990313977003098 -0.0917430892586708 0.06190098077058792 0.03966403752565384 -0.015871532261371613 -0.011023868806660175 0.09632070362567902 -0.11439656466245651 -0.026760272681713104 0.04216372221708298 -0.12404002249240875 -0.0666699931025505 -0.060995787382125854 -0.020273827016353607 -0.01651216670870781 0.01980382204055786 0.060404423624277115 -0.031075064092874527 -0.0011734889121726155 0.07548436522483826 0.0763729065656662 0.014129703864455223 0.04136761650443077 -0.01441628485918045 0.0432816706597805 -0.0629868134856224 -0.004136251751333475 0.020942868664860725 -0.013703047297894955 0.005411952268332243 0.165771946310997 0.03719152882695198 0.021009650081396103 -0.034809574484825134 -0.031346503645181656 0.024271856993436813 0.06207811087369919 0.01770034432411194 -0.17428503930568695 0.005538808181881905 -0.023323025554418564 -0.11089984327554703 0.08857010304927826 0.05582089722156525 0.07085835933685303 0.020408278331160545 -0.05988543853163719 0.037105742841959 -0.07267622649669647 0.06307227909564972 0.0892224833369255 -0.05186442658305168 -0.010626735165715218 0.1017589122056961 0.04907657951116562 -0.019596507772803307 0.11582370102405548 0.05139799416065216 -0.01535454485565424 0.03246619552373886 0.06298316270112991 0.03644268959760666 -0.08130213618278503 0.003624578006565571 0.04273902624845505 0.10472801327705383 -0.04298875853419304 0.02086472697556019 -0.025525249540805817 -0.04672892391681671 0.0220743790268898 0.062322571873664856 0.01527602318674326 -0.029850324615836143 0.009771576151251793 -0.02982376515865326 0.024402832612395287 -0.0175014678388834 0.0461413711309433 0.05782781541347504 -0.027422890067100525 -0.03494110703468323 0.04523589834570885 0.036939721554517746 0.0413934551179409 -0.015930522233247757 -0.01003333367407322 0.1002000942826271 -0.11502622067928314 0.04600955918431282 -0.11768695712089539 0.07091781497001648 -0.02693866938352585 -0.007614367175847292 -0.0768028125166893 0.037326496094465256 0.0651460662484169 0.08441683650016785 0.025147130712866783 0.07342793047428131 -0.06338673084974289 0.029781615361571312 -0.006381200963786488 -0.07798306207122065 -0.1197865830680487 -0.040443374017554976 0.07699359492145193 -0.041857171265418755 -0.06213749229575572 -0.0332402886383382 -0.038752174606678035 -0.06349224513675729 0.011222472879030271 0.027855976620434087 0.03628724418377201 -0.05836390607458818 -0.030848148244793455 0.009186869773754013 -0.08856019499326252 -0.03403685695739336 0.029170589332241814 0.0028209778935739762 0.057140688474083476 -0.13883370247114993 0.008271585168853362 -0.03927113214110589 0.03773355780395098 -0.06724290577508091 -0.028432148225404887 0.03268743096060536 0.04417823921259015 -0.0036716878036999637 -0.001615376445797877 -0.028837897217238374 -0.03183078084056038 -0.14189667042459111 -0.066661628284009 -0.10944815801519432 -0.021527556832263327 -0.0652620218835747 -0.014302133868510978 -0.01563238088558146 -0.05912397686776399 0.03346421217678106 0.0652950163900653 -0.01918599729473328 -0.012182750351567946 -0.03222657246753749 0.07297257637003514 0.027529491943771696 0.0006596236293740128 -0.10081221385376303 0.004447177116549156 0.09637997274022365 0.07556769123111545 0.05973984469749439 0.0655558993541078 0.1223740253842006 0.03194902065752984 0.05123192080297826 -0.08881623244225276 0.09296147848811023 -0.0024920731445556726 -0.0450125630498184 0.06603611241436103 -0.016332109263126882 0.0315275675030871 -0.09082295448739337 -0.05919599467734999 -0.02995595360777209 -0.09262992052765778 -0.030418298566152857 0.012188452589564126 -0.06303520599999433 0.04573235412231824 0.012451308263613105 -0.03834436858204075 0.0797231781550679 -0.03685075014487606 -0.03354540148032352 -0.16951562287448343 0.09262223035432142 -0.010713158514913302 -0.028541702296176346 -0.02213507912734328 -0.11158431373008133 -0.018994431494066395 0.1119455701995385 0.11259605415185023 0.07626441568936013 0.031060503913944566 0.14746564820938224 0.05071658303746829 0.027202835498616657 -0.04101289673846837 -0.08848461572013357 0.12024075887719299 -0.04058186478588392 -0.05024378249114994 0.01711307994177223 0.0031647174425805096 0.012010998297882372 -0.08562806248664856 -0.04849199205636978 0.08376424759626389 0.05587679520249367 -0.07397935539484024 0.04260895401239395 0.01471120584756136 -0.02587096579372883 -0.05236336216330528 -0.03781789913773537 0.07500384002923965 -0.010606640949845314 0.014542873948812485 0.08680969476699829 -0.042275503277778625 -0.04618021845817566 0.033128559589385986 0.03012009523808956 0.004860301967710257 -0.07824689894914627 -0.04028703644871712 0.005019856616854668 0.020643703639507294 0.03833913058042526 0.0811237096786499 -0.061786871403455734 0.04057108983397484 0.01272339653223753 0.10230425000190735 0.011207804083824158 -0.0009825126035138965 0.03901509568095207 0.06895831972360611 -0.0761374831199646 0.06427372992038727 0.0002393794566160068 0.10492129623889923 -0.0770425871014595 0.09760069847106934 -0.029601652175188065 -0.03210993856191635 -0.04038453474640846 -0.05694098025560379 0.00958131905645132 0.06531387567520142 -0.005298767704516649 0.09225355833768845 0.0689251720905304 -0.10798559337854385 -0.02190202660858631 -0.06989935785531998 -0.09337203949689865 -0.027952246367931366 -0.11070898920297623 0.017990797758102417 0.056815627962350845 0.02297503687441349 0.054826200008392334 -0.013352098874747753 -0.037613239139318466 0.04728854447603226 -0.042180903255939484 -0.007022475823760033 -0.0074272253550589085 0.07086078822612762 -0.017017612233757973 -0.026085220277309418 0.0009428238845430315 -0.14555765688419342 -0.004987933207303286 0.10365421324968338 0.0012520778691396117 -0.04797714948654175 -0.07726434618234634 -0.06069805100560188 -0.03215483948588371 -0.10364460200071335 -0.03564515709877014 -0.052905693650245667 -0.03586183860898018 0.09624417126178741 -0.05051301419734955 0.07439477741718292 -0.0593528114259243 0.08112938702106476 -0.07235338538885117 0.016545649617910385 0.041269510984420776 0.05806242302060127 0.02208348736166954 0.026993365958333015 0.12404683232307434 0.07130924612283707 -0.05368255823850632 -0.127567857503891 0.02146916836500168 0.03936351463198662 0.016561169177293777 0.02834964357316494 -0.0007817240548320115 0.012360689692837325 -0.026016957440971718 -0.08896643206419924 -0.11050491243512889 -0.08727835283937202 0.05874069894632858 0.010792372846776421 0.01953511917854182 -0.012554124652513978 -0.10315195034614388 -0.025039055986131434 -0.02780534601274104 -0.0604711687454458 -0.03002882245109974 -0.08410985151574768 0.17678512942470537 0.07295621098952722 -0.02498628974229154 0.017446368934802267 -0.06219664758622351 -0.009751067743290343 -0.09448128945411709 -0.06819593702490757 -0.01933514416835435 -0.11983638822832922 0.013098368066458274 0.05242212241798107 -0.006986450033728605 0.04974219885300992 -0.02907779807709146 0.05099654032428537 0.11381542586148242 0.07473818769715755 -0.10321153450809617 0.06424066898972772 0.005924458746940427 -0.0671311372286824 0.03920036902426296 -0.02242811842862976 0.0414238717006931 -0.049091494560781344 -0.1407689973203012 -0.047663542421060245 -0.0357240050210274 0.030062752328588373 -0.039872615829874426 0.11597440916661438 0.07801492873613297 0.10983422087965933 -0.00755789465991066 0.1018786982734597 0.08057114901287081 -0.012318204022700325 -0.02973256222606006 -0.07438036795620705 -0.1631317481913472 0.01087030323824421 -0.05383965219059196 0.010624433045538138 -0.056338897495361306 0.0014530247826106488 -0.0039003806084370834 -0.13981780913198988 0.07241099257770048 -0.09919943558471869 0.09440017849479994 -0.11656016803038963 -0.0496776305693159 -0.020860244948304046 0.026378582532102325 -0.07343199494388779 0.0277632499348173 -0.02522922794743939 -0.06004261940369547 -0.0018912112462799813 -0.06633059395934529 0.041061636169993844 -0.08722857531289818 0.0632438150724433 -0.0277955729315795 -0.04150142327962814 -0.0011020289338448713 0.0007501914253146225 0.07490030910729287 -0.04046784346380712 0.006229882057649325 -0.06642691425766228 -0.02639358254185035 0.00889072927269993 -0.04532051066172489 0.03581401475762155 -0.00564209994264503 0.008471294572728168 0.029874359752784643 0.013180483117918003 -0.019026158205408834 -0.046366855957667395 -0.1167536769256387 0.08372365708971839 -0.019798349085685476 -0.02028694376349449 0.020671945065259933 0.1663598120212555 -0.010086032561957836 -0.07689659297466278 0.016843214631080627 0.030092483386397362 -0.01776197925209999 0.08913422375917435 -0.07525020092725754 0.07576747983694077 -0.0514800138771534 -0.1402057409286499 0.08720714598894119 -0.061225954443216324 -0.025291306897997856 0.0039504822343587875 0.11961762607097626 -0.04938562214374542 -0.02041400782763958 -0.010466600768268108 -0.0018881678115576506 -0.08020521700382233 0.03070766106247902 0.07600025087594986 0.09515660256147385 0.031709033995866776 -0.061885565519332886 -0.01938529871404171 0.06149669364094734 -0.061916518956422806 -0.07412488013505936 -0.0028216163627803326 0.05746997520327568 -0.05057499557733536 -0.03520851582288742 0.047023653984069824 0.08314546197652817 0.042048417031764984 -0.020918669179081917 -0.035628791898489 0.03431617096066475 -0.026135476306080818 -0.0401635468006134 -0.07743236422538757 -0.10292287915945053 -0.024221541360020638 0.07970741391181946 -0.028780344873666763 0.02314206399023533 0.035254109650850296 0.031830500811338425 -0.10685919225215912 0.06265884637832642 0.02715149149298668 -0.0841284990310669 -0.0019559101201593876 0.019454995170235634 0.07446832954883575 0.06897416710853577 -0.05993049591779709 0.02575150690972805 -0.13579314947128296 0.04603860527276993 -0.02971293218433857 0.02126896381378174 0.005603753495961428 0.06264675408601761 0.055382996797561646 -0.03742067888379097 0.08147750049829483 0.040813546627759933 -0.07358704507350922 0.10070870816707611 0.013567731715738773 0.0025288863107562065 -0.045603930950164795 -0.06237616017460823 -0.07559073716402054 -0.0718579888343811 -0.017496561631560326 -0.07680454850196838 -0.033338647335767746 0.006391031667590141 0.02121967077255249 0.0263315811753273 -0.11312729865312576 0.11661963164806366 -0.06387364119291306 -0.056575577706098557 0.031503938138484955 -0.027337633073329926 -0.10925538837909698 -0.05233325436711311 -0.007184561342000961 -0.055745143443346024 0.07368755340576172 0.12292540818452835 -0.04093097150325775 -0.05253579095005989 -0.008458862081170082 -0.04584614560008049 0.05878202244639397 -0.15771551430225372 0.001369634410366416 0.015558207407593727 -0.0011663573095574975 0.03700573369860649 -0.01894155517220497 0.053402259945869446 0.06263330578804016 -0.051421184092760086 0.01616382971405983 -0.056381575763225555 0.07706329971551895 0.03832228481769562 0.016629965975880623 -0.11032986640930176 0.13213804364204407 -0.05615859106183052 -0.010501024313271046 -0.0019256249070167542 0.008030328899621964 0.018770450726151466 0.0358068011701107 0.14393623173236847 0.09434643387794495 0.030515866354107857 0.014570342376828194 0.01985897682607174 -0.08786721527576447 -0.014332239516079426 0.0803246945142746 -0.12430715560913086 0.0180651918053627 0.023490363731980324 -0.015963871031999588 0.04935099184513092 -0.0075268857181072235 0.06185422092676163 0.07772006094455719 -0.05049643665552139 0.09447694569826126 -0.06819193065166473 -0.09902877360582352 -0.005147787742316723 -0.007543553132563829 0.09523779898881912 -0.0911552906036377 -0.0641200914978981 -0.12081463634967804 -0.07847439497709274 0.010531874373555183 -0.0024280997458845377 0.08134374767541885 -0.030481377616524696 0.05244794487953186 -0.04363272711634636 0.03627649322152138 0.02686995267868042 -0.024906756356358528 0.01957603730261326 -0.01875959523022175 -0.01886817067861557 -0.10444246232509613 -0.05122749134898186 -0.05745057016611099 0.030603302642703056 -0.08042670041322708 -0.15691439807415009 0.044687144458293915 -0.00016124267131090164 0.06200646981596947 0.08674699068069458 0.0400984063744545 0.059859082102775574 0.04956657439470291 0.009358559735119343 0.05412901192903519 -0.05201226472854614 0.04957728460431099 0.06855377554893494 -0.04236745461821556 -0.004568471107631922 -0.0711337998509407 -0.03712943568825722 -0.1381428986787796 -0.03107909858226776 -0.058625221252441406 -0.03097200207412243 0.12672652304172516 -0.08294127136468887 -0.035264477133750916 -0.042166922241449356 -0.05772002413868904 -0.0060409861616790295 0.08731719106435776 0.030688665807247162 0.06713228672742844 -0.0016329074278473854 -0.06938198175588231 -0.006070890672779276 0.040879518647366116 0.0113168368742741 -0.03227356056696175 -0.05095735538260955 -0.09166679481153517 0.03663745138966798 -0.02121199770687365 -0.06552630549219356 -0.037534751425519965 -0.0480663802706227 -0.04934876641671709 0.033257758850287644 0.04616045939880074 -0.018771251171882147 0.08701117506754961 -0.050320329469335824 0.0475984432149167 0.0410659425010648 0.04948804667495155 0.015770606144712842 0.005503498325593385 -0.011304839187319608 -0.039883465927254766 0.017548619814957478 0.05705989318383928 -0.11055100590536987 -0.08860651251068101 0.07295018312400439 0.029566819501660953 0.06862045847139062 0.05598578979163096 -0.0017110716695675878 -0.06945542006972613 -0.02250449770897152 -0.052013971686603905 0.037736701452297655 0.008520863842429276 0.03230066531090685 0.008778804090681176 0.08349395612596161 0.043481391582548816 -0.01959147226399835 0.0790355111747779 -0.01281209076472298 -0.19255442240274345 0.030489721564225688 -0.018191986830959222 0.0415952808544333 -0.010123647492419239 0.08240704230202019 -0.031149844016176334 0.035098337470012356 0.07175875187227637 -0.0882732108481392 -0.06475198206278869 -0.07695722704260519 0.0700262391221422 0.019662267678723346 -0.013444652785788746 0.13347910110136796 -0.020316183011599737 0.06639871607688787 -0.05299015795074126 0.031778421693573304 0.02649103841039806 -0.009068767973842356 -0.04856998274295305 -0.027428159906467214 0.04223631531777844 -0.051290387567944254 -0.03479527358639391 0.11353617603208858 -0.14272182251609714 0.04937673846284039 0.040823156757173566 0.01929944859116635 0.04614884766033085 0.083649744343263 -0.0759212857900237 -0.10351999113554325 0.056721780154238434 -0.018936443047173675 0.07685494423954882 -0.026158759553083118 0.042995483792043744 0.033179245344108724 -0.012522684958802478 -0.08198493397946945 0.0957784997304621 0.021619431069097188 -0.004239639800187199 0.04363584283448137 0.005923751001471934 0.01657575141253661 -0.08837385566747794 -0.020939546506764054 0.0662276107293899 -0.07044429821037185 -0.024412192404270172 -0.06832637637853622 -0.010436119511723518 0.027305008843541145 -0.05818962678313255 -0.07802211493253708 0.020243573933839798 -0.016890214756131172 0.11698197573423386 -0.05676606670022011 -0.05778683349490166 0.0034009660594165325 0.0064528207294642925 0.07581508159637451 -0.08163823187351227 0.020754734054207802 -0.09438523650169373 -0.02341562509536743 -0.020382585003972054 0.06090928986668587 0.12224405258893967 -0.06587841361761093 -0.13264696300029755 0.053121838718652725 0.02047564834356308 0.05260612443089485 0.09977547824382782 -0.021473059430718422 -0.016573350876569748 0.015460418537259102 -0.0053404816426336765 0.15505346655845642 -0.040794916450977325 0.06479278206825256 -0.04062633216381073 -0.050952352583408356 0.02375967614352703 0.015381639823317528 -0.061402857303619385 -0.0710705891251564 0.036922164261341095 0.058394864201545715 -0.05195493996143341 0.00618030084297061 -0.0641392320394516 0.0028640138916671276 0.018574923276901245 0.02758914604783058 -0.07185918837785721 -0.0057653626427054405 0.06363186985254288 -0.03452998772263527 0.009464653208851814 -0.10924620926380157 0.06669940054416656 -0.041901424527168274 -0.09250049293041229 0.0023657334968447685 0.056094568222761154 -0.01068785134702921 0.022938687354326248 -0.049784161150455475 0.02512187883257866 0.08325834572315216 -0.034193605184555054 -0.023422401398420334 0.07208380848169327 0.09272412955760956 0.04575643688440323 0.04263107106089592 -0.03902856633067131 -0.07592540979385376 0.03025377169251442 -0.10175303369760513 0.016868308186531067 -0.01553988829255104 0.05264589935541153 0.03543682023882866 0.025070257484912872 -0.016155719757080078 0.07497037202119827 -0.03817165270447731 -0.01964794285595417 -0.035441406071186066 -0.07357103377580643 -0.0246510598808527 -0.043682657182216644 -0.06074972823262215 -0.034132134169340134 0.0798744410276413 0.02165655791759491 0.024468058720231056 -0.057738665491342545 -0.014927736483514309 0.14321129024028778 -0.015378942713141441 0.05496307089924812 0.02227499708533287 0.05577712878584862 -0.15181726217269897 -0.021463994954130733 0.05549508892392516 -0.11263507974589182 -0.032982760462643784 -0.07262394023258935 -0.12045033947440252 0.00028859867962477057 0.16991360251772808 0.025322045712289683 0.2341750495046973 -0.06481635111764757 -0.02479662379086624 0.07647837006763612 0.08495536594690348 0.06299569000579887 -0.0111437085154333 -0.00894775696804282 0.2275841033871295 0.23241345661426466 -0.057047653492602206 -0.02553266067360754 -0.016039337811835454 -0.0745084758093116 -0.02712212488259508 -0.002933727952421847 -0.0777251256542732 -0.06569712232905849 -0.2592561632484501 0.053193598490366006 0.08182511790111088 -0.05122436404431637 -0.28560128490124914 -0.10736457950070123 0.023768629097327146 -0.055197321314846344 0.042585401217070426 -0.08441155762756172 -0.10366932157023984 0.17753813554196082 0.1784484526410128 -0.05006059476350131 0.3627588025606128 -0.036211392425183384 0.02180672489016422 -0.06067239454621617 0.05907190593350962 0.1000477355425435 -0.2697326656615349 0.07313664696779434 0.017111419400344913 0.012238020046475808 -0.07818720264225539 -0.15453656519938586 0.06233717484354251 -0.16036907779109533 0.36447608804987713 -0.03429300054584834 -0.004124580205774801 -0.005776611400119077 0.01734430839556227 -0.27108418307542004 -0.09271047543822508 -0.07021119821677817 0.22242607833023895 0.3175373739187451 -0.1467481669764302 -0.07036692888878028 0.05279804927703442 -0.04272071940394005 0.012725856604078893 0.08916936767572155 0.11900913847019697 0.030236908690495192 0.5522975577955385 0.012258606187887426 -0.039338221170776226 0.02940303553381419 0.11367748324543536 -0.028554663411842037 0.056423429857819694 -0.10954789792409171 0.21391547030176478 0.0012401444913839248 0.11000729899289642 0.05065648828978374 0.2404836158345468 0.0975408063597652 0.045361352198455364 0.30792429443579816 -0.07569543569200303 -0.20307052096798217 0.008104090414546298 0.1786129715089506 -0.1920140649612547 0.02924626567890546 0.030024772542013727 -0.08878456503447836 -0.024226194059341167 -0.01179368428349428 0.022498544532762628 -0.11163964867591858 0.05440722778439522 0.035798534750938416 -0.06580447405576706 -0.05963674932718277 0.05008314549922943 -0.11237280070781708 0.175920769572258 -0.050681665539741516 0.021949414163827896 -0.025191448628902435 0.006951919756829739 0.05482826381921768 0.00297136465087533 -0.08733023703098297 0.05950512737035751 0.04451905936002731 0.008938065730035305 0.07140273600816727 0.12277503311634064 -0.009354576468467712 0.009237267076969147 0.041791677474975586 -0.03302394971251488 0.09433387219905853 -0.051054004579782486 -0.10971278697252274 -0.0680079460144043 0.02891712449491024 0.13712409138679504 0.026766562834382057 0.0015411492204293609 0.027607981115579605 -0.067559614777565 0.015575638972222805 -0.027535103261470795 0.05505935475230217 0.026827165856957436 0.06724324077367783 -0.03334702551364899 0.0024777723010629416 0.017208803445100784 -0.13065966963768005 0.012696204707026482 -0.09600384533405304 -0.04453902319073677 -0.15893100202083588 0.030280353501439095 -0.01120946928858757 -0.014719105325639248 0.020064732059836388 -0.030427098274230957 0.055400677025318146 -0.08863773196935654 0.0038068967405706644 0.0612957738339901 -0.053014084696769714 0.068934366106987 0.06588510423898697 -0.05377848818898201 -0.05961572006344795 0.05260595306754112 0.06500184535980225 0.055572543293237686 -0.019488375633955002 0.019300462678074837 -0.12458319216966629 -0.04765116795897484 -0.01684519834816456 0.15755459666252136 0.010567189194262028 0.023698769509792328 -0.04996736720204353 -0.02535736747086048 -0.012591964565217495 0.08702478557825089 -0.014509891159832478 -0.11847307533025742 0.0029049867298454046 0.05282440409064293 -0.0517238974571228 0.1014535203576088 -0.027254212647676468 -0.059636153280735016 0.01909567415714264 -0.014642922207713127 0.014631975442171097 -0.06058848276734352 0.023629646748304367 0.06858669966459274 0.008890512399375439 0.04095068573951721 0.017724735662341118 -0.06215976923704147 -0.0005946269957348704 0.05107411742210388 -0.04826527461409569 0.02172643505036831 -0.033845625817775726 0.006773060653358698 -0.10156414657831192 -0.006793706677854061 -0.02965846098959446 -0.10070022195577621 -0.04753079637885094 -0.049889564514160156 0.010595344938337803 0.030305486172437668 -0.05018256604671478 0.04622701555490494 0.06837280094623566 0.0038977183867245913 0.13169758021831512 0.08685944229364395 0.11789041757583618 0.03737255930900574 -0.0793423131108284 -0.13483388721942902 0.01139061339199543 -0.05149446800351143 0.08389950543642044 -0.030927129089832306 -0.16172409057617188 -0.07964868098497391 -0.003114092629402876 0.061030514538288116 -0.005746477283537388 0.05153347924351692 0.05474558845162392 0.09558184444904327 -0.10650373250246048 0.1064782589673996 -0.07985105365514755 -0.00865008495748043 -0.12292324006557465 -0.057698290795087814 0.0021129194647073746 -0.036225538700819016 0.06426163762807846 -0.03092551790177822 -0.008100342936813831 -0.021952148526906967 -0.05211842805147171 0.028269754722714424 -0.060028694570064545 -0.03280126675963402 -0.06140107288956642 -0.03149659186601639 -0.02846892736852169 -0.013262842781841755 0.050005953758955 0.09279010444879532 0.012665247544646263 0.1690642386674881 -0.00977352261543274 -0.001775125041604042 0.10554562509059906 0.012330201454460621 -0.0015435823006555438 0.016595512628555298 -0.018237760290503502 0.042210984975099564 0.03373544663190842 0.04322660714387894 0.030728574842214584 -0.06140921637415886 0.036058459430933 -0.05664428696036339 -0.041770320385694504 0.09499745070934296 0.08199860155582428 -0.0046409121714532375 -0.04808840528130531 -0.1341215968132019 0.03509761765599251 -0.07048968970775604 0.10089880973100662 -0.0716027095913887 0.047845348715782166 0.005908595398068428 0.003133614081889391 -0.09255115687847137 -0.15998628735542297 0.05494245886802673 0.012960952706634998 0.05013798549771309 0.11977743357419968 -0.03966837748885155 -0.020199459046125412 0.06766709685325623 -0.03219616785645485 0.039966750890016556 0.03852023184299469 -0.1007796972990036 0.030421359464526176 -0.14571592211723328 -0.0032919347286224365 -0.05911155790090561 0.08700297027826309 0.16253434121608734 -0.009774295442085907 0.18312015756663186 0.02329985570982449 0.08534714861103121 -0.007146746811492598 -0.14652048487899905 0.030750018186000577 0.1138059233366426 -0.159701952613249 0.24867067115282745 -0.058933554729147644 0.08758693428138611 -0.016181959594723884 -0.07639563931134151 -0.041292583475202975 0.04608957165856755 -0.05380820237144276 0.0721383734764159 0.0026885366925940477 -0.010529855853977763 0.14639166502462658 0.060354072009764045 -0.02375762352673766 0.0800556071357292 0.04336774682754655 0.0073258218367177 0.0026654182304260963 0.08654600259800352 -0.024211531881296697 0.01804798568458919 0.030953736158703872 -0.17556176626589967 -0.0430092697814645 0.03271308177720993 -0.011977675367526064 -0.04446590342734798 -0.01591289407685719 0.17222247086436135 0.06763142146522909 -0.13424336868901618 0.0024249365662675623 0.18837463026846052 -0.030888298281084078 -0.14931061113853197 -0.013374602305815816 -0.07047287898699793 -0.05372968587069185 0.023048671720733018 0.08341467859567646 -0.048005301605937106 0.10925565639538098 -0.00472469681786213 0.2190510696237918 -0.09127421751954594 -0.08163109556528415 0.2326037967596284 0.013739193434030962 -0.03793442561408683 -0.03310885276132078 0.008554078007883983 -0.04946167700122462 -0.10161697202532068 -0.025710383013915743 0.08036781856485428 0.21928826457995182 0.1415017373893321 -0.093651897000106 0.036438424170029196 0.08159999792088095 0.05746468464681687 -0.00528051873614032 -0.07187566483280194 -0.07185724416716495 0.2149277243150336 -0.07705031992671903 -0.13603702331663065 0.06390731346898201 0.015586015094014222 0.1811206357164162 0.03411387422888078 0.013300771296790146 -0.026597143889822202 -0.02618509918239897 0.09319624767702583 0.08257234084508222 0.11101934717314839 -0.04106307714527275 -0.025153280629517154 0.030379958617707023 -0.07403975669705641 0.15536655550735995 -0.10141868161302527 0.20663870404290482 -0.17424166691908835 0.19858350412651343 0.12781613032837688 -0.0316159715451942 0.03265491151409761 -0.020191846026364927 0.048760689302659914 0.06940504163503647 0.07633843272924423 0.02088133804500103 -0.06776963919401169 0.06899896264076233 0.05844949930906296 -0.07048320770263672 -0.016354620456695557 0.06511761248111725 0.059801872819662094 0.10413798689842224 0.012845136225223541 0.09145133942365646 -0.019953522831201553 0.03883484750986099 0.0517243966460228 -0.04955554008483887 -0.012888070195913315 -0.07623163610696793 0.008865595795214176 0.06961120665073395 0.08695579320192337 -0.09378577023744583 -0.04091334715485573 0.09951137006282806 0.033066507428884506 0.03588870167732239 0.040358204394578934 -0.06651352345943451 -0.038891419768333435 0.10119868069887161 0.0425969660282135 0.016001088544726372 -0.09260943531990051 0.04894744232296944 -0.07825406640768051 0.011346699669957161 -0.08959105610847473 0.054469723254442215 0.02677176706492901 0.08039063960313797 -0.027257923036813736 0.09608302265405655 0.05931871756911278 -0.020047763362526894 -0.060246843844652176 -0.03565357252955437 0.013818200677633286 0.03961680829524994 0.04909927397966385 -0.12969961762428284 -0.030539223924279213 -0.0012994064018130302 -0.12485212087631226 -0.10161859542131424 0.0010676431702449918 -0.10025187581777573 0.053666405379772186 -0.022726474329829216 -0.03526822477579117 0.016105642542243004 -0.04794079437851906 -0.04846156761050224 0.02746293880045414 -0.07359467446804047 0.03572506085038185 0.0630200207233429 0.01616591028869152 0.03667265921831131 -0.08685305714607239 -0.009471229277551174 -0.03947770968079567 0.0918923020362854 -0.09969557821750641 -0.014700930565595627 0.01665217988193035 -0.06623093783855438 -0.18203043937683105 0.0433029979467392 0.057861510664224625 -0.07007676362991333 -0.11783215403556824 0.07564346492290497 -0.05680146813392639 -0.052707038819789886 0.017916060984134674 -0.01381702534854412 0.02481864206492901 0.023563237860798836 -0.010731883347034454 0.0811464786529541 0.08351541310548782 0.025667058303952217 0.039649445563554764 0.024852272123098373 0.06170432269573212 0.013917702250182629 0.0011419167276471853 0.05153198912739754 0.004229075741022825 -0.12009479987871703 -0.1505881778596619 -0.1553079942751722 0.02259387934245045 -0.039318391215905225 0.042654002792501505 -0.007365792642318383 -0.006254424435518851 0.04967779150096284 -0.06559934325882444 -0.10419052960951933 0.07655754053799912 0.034744503386142885 -0.08913595590217006 0.04413502879491774 -0.10193632494347306 -0.03558589774592741 0.07148075595988347 0.02955129483082504 -0.07622268636586729 0.09892130292636146 0.03390522894624111 0.043642007829145554 -0.029453219556895983 -0.022467264048878256 -0.11749459696382658 0.09271426399672424 -0.1695960493531677 0.12673055198982294 0.03867341802908914 -0.08688001675082926 0.01109530888479603 -0.021705858408432328 0.11809148693625653 0.0017682956954095043 -0.10225912788468756 -0.005017603976521342 0.08308897436390514 0.04992620080484133 -0.03866251688716359 -0.10954780029838938 -0.0033854206367646663 -0.03523914695072521 -0.05686839331052764 0.0024857304167360634 -0.02848007166963912 -0.11901957271522262 -0.04080770420609516 0.00015262919514972542 0.03171104991597309 -0.13541105061094924 -0.03761440705014201 -0.1413632207495734 0.0017171768824904286 -0.11832634810606785 -0.029745228042910098 -0.07112824303898432 -0.07218549162544806 0.027534651419869414 0.047546332762770344 -0.014846128743927078 -0.11433811102078488 -0.028669238768868767 -0.017088227356428825 0.051109035698931826 -0.13923019508104642 0.03817446400440979 -0.04970213950395393 0.013763873944043447 0.10982176480357288 0.028368693975716404 -0.07581792748286191 0.05119784935991852 0.02477587772557356 0.01208404923159675 -0.021172183343870384 -0.001435655130325994 -0.12571011486346545 0.04891870680766062 0.1314021098852972 -0.013450402121554218 -0.06547646892269543 -0.03445820032375481 -0.06552254945071274 0.0607935484734285 0.20634653741528755 -0.052354275958230855 0.024728176546733257 -0.12669087243276547 0.11671225847898305 -0.12528624349232734 -0.018037674204814908 0.11421089077907158 0.03220420359422402 -0.12693684222993426 0.049486279485919785 -0.00510061087341611 -0.009602468165964715 -0.12408682396038821 0.08864536785402478 -0.0178849920630455 0.0680341124534607 -0.013461515307426453 -0.011139880865812302 -0.046892400830984116 -0.056728873401880264 -0.04014908894896507 0.09483791887760162 0.029815057292580605 -0.04238150268793106 0.11155159771442413 0.012790383771061897 0.027709800750017166 -0.01646941713988781 0.015314055606722832 -0.014707441441714764 -0.06215222179889679 0.0472174771130085 -0.017791884019970894 -0.07249248027801514 -0.047632426023483276 0.0537271648645401 -0.059683386236429214 -0.025417879223823547 -0.007983269169926643 -0.048449091613292694 0.049456238746643066 -0.034049857407808304 -0.003597462549805641 -0.14753231406211853 -0.033927399665117264 0.01717735454440117 0.028303828090429306 0.005974512081593275 0.06157902255654335 0.07215473800897598 0.027508152648806572 0.040105391293764114 0.007800514809787273 -0.030114155262708664 0.00719998637214303 -0.0066969203762710094 -0.03678668290376663 0.08462660014629364 0.07282433658838272 -0.01604856178164482 -0.11977145820856094 0.10947674512863159 0.07759547233581543 -0.13008923828601837 0.03243518993258476 -0.0025946679525077343 -0.04097643494606018 0.06306183338165283 -0.011919252574443817 0.0022861072793602943 0.08905701339244843 -0.0531546026468277 -0.09077590703964233 0.016571136191487312 0.02880517952144146 -0.059560056775808334 -0.01573077403008938 0.09572896361351013 0.05368461459875107 -0.11392220854759216 -0.09582463651895523 0.04538770020008087 0.1069752648472786 -0.13953381776809692 0.03906147927045822 0.01013222523033619 -0.024865183979272842 -0.1554701179265976 0.01335152331739664 0.093315489590168 0.07269107550382614 -0.09411555528640747 -0.050364576280117035 -0.0020885460544377565 -0.042125068604946136 -0.01122618280351162 -0.14848585426807404 -0.05868600308895111 0.028396030887961388 -0.0005791380535811186 -0.008123759180307388 0.13056506216526031 -0.016672898083925247 -0.04073065519332886 -0.04780559986829758 0.01848694495856762 0.014588603749871254 -0.012117809616029263 0.076680026948452 0.09342674165964127 -0.0357738733291626 0.058435652405023575 -0.07182953506708145 -0.10294453799724579 -0.072248175740242 0.015714233741164207 0.06174761429429054 0.08508525788784027 -0.026439420878887177 0.0444304458796978 0.09195497632026672 -0.021729841828346252 0.0364065021276474 0.09697099030017853 -0.008094062097370625 0.04602953419089317 0.00424876157194376 0.024204788729548454 0.00937667302787304 -0.051770683377981186 0.08448082208633423 -0.05426692217588425 0.0336194708943367 -0.06376585364341736 0.0870451107621193 -0.059297870844602585 0.0015408324543386698 0.01495111733675003 0.06685471534729004 0.10732161998748779 0.1303686499595642 0.015560933388769627 0.041813790798187256 -0.03902391716837883 -0.024591609835624695 -0.06038178876042366 0.012604345567524433 -0.028753798454999924 -0.08695141971111298 -0.013977018184959888 0.12269574403762817 -0.00048169601359404624 -0.06361233443021774 -0.007763724308460951 -0.05342604219913483 0.11857262253761292 -0.027405405417084694 0.08625031262636185 -0.021968750283122063 -0.07776419073343277 0.031569670885801315 0.02058902196586132 -0.06648317724466324 0.05133325234055519 -0.06266885250806808 -0.02918076515197754 0.07525874674320221 0.10172022879123688 -0.005168418865650892 0.006744529120624065 -0.06956560909748077 -0.08509980887174606 -0.05055740103125572 0.0290091373026371 0.018475718796253204 -0.011089889332652092 -0.07212049514055252 0.10616341978311539 0.02170969545841217 0.031355731189250946 -0.02259199507534504 0.02758982963860035 0.06759409606456757 0.0650617778301239 0.03592377528548241 -0.03594756871461868 0.04639240726828575 -0.037454817444086075 0.04139746353030205 0.017840063199400902 -0.016805212944746017 -0.08691991120576859 0.02056383527815342 0.110188789665699 0.0016739744460210204 0.07413242012262344 -0.07212024927139282 0.0041878726333379745 0.1400919109582901 -0.042443081736564636 0.062204085290431976 -0.014423261396586895 -0.07510041445493698 0.013940345495939255 -0.028288530185818672 -0.12406082451343536 0.030323311686515808 -0.05700484663248062 -0.054983653128147125 -0.009875924326479435 0.05428779497742653 0.028452744707465172 -0.034292083233594894 -0.000543781730812043 -0.13522415070824212 